SVM-light Version V5.01-TK-1.5
0 # kernel type
3 # kernel parameter -d 
1 # kernel parameter -g 
1 # kernel parameter -s 
1 # kernel parameter -r 
empty# kernel parameter -u 
0.4 # kernel parameter -L 
1 # kernel parameter -T 
T # kernel parameter -C 
1 # kernel parameter -F 
0 # kernel parameter -S 
0.400000 # kernel parameter -M 
3 # kernel parameter -N 
S # kernel parameter -V 
S # kernel parameter -W 
0 # kernel parameter -U 
44408 # highest feature index 
14771 # number of training documents 
460 # number of support vectors plus 1 
3.6582949 # threshold b, each following line is a SV (starting with alpha*y)
0.10000000000000000555111512312578 4020:1 20017:1 23680:1 37664:1 39538:1 39946:1 43634:1 43643:1 43645:1 43811:1 43951:1 44091:1 44362:1 44370:1 44375:1 44380:1 44383:1 44395:1 44406:1  |EV| 
-0.089477201770555819804187080990232 3281:1 14695:1 27958:1 37650:1 37657:1 37665:1 37707:1 38352:1 38353:1 38354:1 39462:1 39468:1 39469:1 39470:1 39946:1 41197:1 41306:1 41356:1 43636:1 43643:1 43689:1 43791:1 43973:1 44095:1 44362:1 44372:1 44375:1 44380:1 44395:1 44406:1  |EV| 
0.10000000000000000555111512312578 7553:1 19446:1 33256:1 37664:1 37665:1 37688:1 37717:1 37786:1 37788:1 37905:1 37933:1 38221:1 38339:1 38817:1 38818:1 38819:1 38820:1 38821:1 39377:1 39946:1 43636:1 43643:1 43653:1 43815:1 43983:1 44130:1 44362:1 44370:1 44375:1 44380:1 44395:1 44403:1 44406:1  |EV| 
-0.13675956151649032443984310702945 7684:1 19584:1 33413:1 37656:1 37657:1 37688:1 37689:1 37690:1 37707:1 37709:1 37736:1 37886:1 37893:1 37950:1 38058:1 38170:1 38682:1 38862:1 39748:1 39946:1 43636:1 43643:1 43723:1 43789:1 43983:1 44130:1 44362:1 44370:1 44375:1 44380:1 44395:1 44406:1  |EV| 
0.10000000000000000555111512312578 2729:1 14307:1 27404:1 37651:1 37656:1 37657:1 37664:1 37665:1 37689:1 37697:1 37830:1 37831:1 37846:1 37869:1 37948:1 38147:1 38156:1 38256:1 38257:1 38258:1 38259:1 38260:1 38261:1 38262:1 38263:1 39418:1 39419:1 39420:1 39946:1 43634:1 43643:1 43703:1 43815:1 44015:1 44167:1 44362:1 44370:1 44375:1 44380:1 44395:1 44406:1  |EV| 
0.099427977687817900576128238299134 83:1 10983:1 23299:1 37650:1 37656:1 37664:1 37665:1 37666:1 37667:1 37745:1 37749:1 37753:1 37754:1 37755:1 39223:1 39946:1 43636:1 43643:1 43698:1 43815:1 43965:1 44107:1 44362:1 44370:1 44376:1 44380:1 44395:1 44406:1  |EV| 
0.054425342062124619502139211135727 39:1 11003:1 23372:1 37689:1 37707:1 37714:1 37715:1 39222:1 39946:1 43636:1 43643:1 43670:1 43815:1 43942:1 44095:1 44362:1 44370:1 44376:1 44380:1 44395:1 44406:1  |EV| 
0.10000000000000000555111512312578 201:1 11136:1 23545:1 37657:1 37659:1 37660:1 37661:1 37664:1 37707:1 37718:1 37786:1 37805:1 37806:1 37807:1 39238:1 39946:1 39993:1 41201:1 41671:1 42196:1 43636:1 43643:1 43657:1 43788:1 43965:1 44089:1 44362:1 44370:1 44375:1 44380:1 44395:1 44406:1  |EV| 
0.0653590357609606653621625582673 213:1 11149:1 23558:1 37656:1 37657:1 37771:1 39237:1 39946:1 41197:1 43636:1 43643:1 43689:1 43810:1 43985:1 44095:1 44362:1 44370:1 44375:1 44380:1 44395:1 44406:1  |EV| 
0.0064473056756087915308839342287683 240:1 11179:1 23592:1 37707:1 39243:1 39946:1 43636:1 43643:1 43663:1 43811:1 43933:1 44095:1 44362:1 44370:1 44375:1 44380:1 44395:1 44406:1  |EV| 
-0.58329575680691414518719284387771 10440:1 22737:1 24833:1 37707:1 39641:1 39946:1 41197:1 43636:1 43643:1 43689:1 43815:1 43933:1 44095:1 44362:1 44370:1 44375:1 44380:1 44395:1 44406:1  |EV| 
-0.040499485963085259110361135981293 58:1 10954:1 23263:1 37650:1 37656:1 37664:1 37665:1 37667:1 37745:1 37749:1 37753:1 37754:1 37755:1 37756:1 39223:1 39946:1 41197:1 43636:1 43643:1 43689:1 43834:1 43965:1 44089:1 44362:1 44370:1 44376:1 44380:1 44395:1 44406:1  |EV| 
-0.011479326741167535097520868703214 1056:1 12165:1 24638:1 37657:1 37707:1 37807:1 37996:1 38002:1 38003:1 38005:1 38006:1 38007:1 38010:1 39321:1 39946:1 41197:1 43636:1 43643:1 43689:1 43834:1 43965:1 44089:1 44362:1 44370:1 44375:1 44380:1 44395:1 44401:1 44406:1  |EV| 
-0.29826660124889264880110317790241 377:1 11342:1 23789:1 37707:1 37712:1 37863:1 39218:1 39946:1 41197:1 41248:1 43636:1 43643:1 43689:1 43810:1 43985:1 44095:1 44362:1 44370:1 44376:1 44380:1 44395:1 44406:1  |EV| 
-0.0036155253859351879630601445114735 240:1 13665:1 26436:1 37707:1 37948:1 38229:1 39243:1 39946:1 41197:1 43636:1 43643:1 43689:1 43810:1 43985:1 44095:1 44362:1 44370:1 44375:1 44380:1 44395:1 44403:1  |EV| 
0.10000000000000000555111512312578 713:1 11736:1 24190:1 37657:1 37664:1 37900:1 39275:1 39946:1 43634:1 43643:1 43697:1 43789:1 43951:1 44091:1 44362:1 44370:1 44378:1 44380:1 44395:1 44406:1  |EV| 
0.10000000000000000555111512312578 9343:1 21450:1 35615:1 37689:1 37921:1 37923:1 39209:1 39946:1 41195:1 43639:1 43643:1 43645:1 43807:1 43958:1 44093:1 44362:1 44370:1 44376:1 44380:1 44395:1 44406:1  |EV| 
0.10000000000000000555111512312578 5026:1 16589:1 30057:1 37657:1 37664:1 37665:1 37800:1 37808:1 38582:1 39354:1 39946:1 43634:1 43643:1 43647:1 43810:1 43939:1 44091:1 44362:1 44370:1 44378:1 44380:1 44395:1 44406:1  |EV| 
0.10000000000000000555111512312578 3389:1 14803:1 28064:1 39482:1 39946:1 41197:1 43640:1 43643:1 43689:1 43833:1 44069:1 44094:1 44362:1 44372:1 44378:1 44380:1 44383:1 44395:1 44396:1 44405:1 44406:1  |EV| 
0.08349420898691359282928203811025 7858:1 19760:1 33586:1 37656:1 37657:1 37672:1 37707:1 37719:1 37784:1 37846:1 37948:1 37996:1 38020:1 38163:1 38878:1 38879:1 38880:1 38881:1 38882:1 38883:1 39763:1 39764:1 39946:1 41381:1 41634:1 41691:1 43266:1 43267:1 43634:1 43643:1 43655:1 43868:1 43939:1 44083:1 44362:1 44372:1 44375:1 44380:1 44395:1 44406:1  |EV| 
-0.070068569560237922710932423342456 10444:1 22757:1 37338:1 37697:1 37707:1 39531:1 39946:1 41307:1 43634:1 43643:1 43666:1 43815:1 43951:1 44091:1 44362:1 44370:1 44375:1 44380:1 44406:1  |EV| 
-0.051317368978243564636709805881765 3538:1 14965:1 23554:1 37657:1 39499:1 39946:1 41197:1 43636:1 43643:1 43689:1 43815:1 43933:1 44095:1 44362:1 44370:1 44376:1 44380:1 44395:1 44405:1  |EV| 
-0.050747694547752714155919306904252 10691:1 22939:1 37320:1 37657:1 37666:1 37689:1 37707:1 37772:1 37794:1 37846:1 37998:1 38697:1 39179:1 39220:1 39946:1 43638:1 43643:1 43656:1 43814:1 43942:1 44104:1 44362:1 44370:1 44375:1 44380:1 44395:1 44406:1  |EV| 
-0.0018572448046037574008459980490215 2500:1 13874:1 26758:1 37665:1 37707:1 38277:1 39404:1 39946:1 43636:1 43643:1 43663:1 43789:1 43985:1 44095:1 44362:1 44372:1 44375:1 44380:1 44383:1 44394:1 44406:1  |EV| 
0.098578726213306183678852789853408 2300:1 13664:1 24833:1 37707:1 39399:1 39946:1 41197:1 43636:1 43643:1 43689:1 43815:1 43933:1 44095:1 44362:1 44370:1 44375:1 44380:1 44395:1 44401:1 44406:1  |EV| 
0.098578726213305975512035672636557 4294:1 15742:1 24833:1 37707:1 39422:1 39946:1 41197:1 43636:1 43643:1 43689:1 43815:1 43933:1 44095:1 44362:1 44370:1 44375:1 44380:1 44395:1 44401:1 44406:1  |EV| 
0.099940753350359401441238560437341 4360:1 15814:1 29145:1 37707:1 37794:1 38537:1 39552:1 39946:1 41197:1 43636:1 43643:1 43689:1 43810:1 43985:1 44095:1 44362:1 44370:1 44375:1 44380:1 44395:1 44406:1  |EV| 
0.063811567693792606292824132196984 6727:1 18531:1 32250:1 37707:1 37886:1 38062:1 39679:1 39946:1 41197:1 43636:1 43643:1 43689:1 43810:1 43985:1 44095:1 44362:1 44370:1 44375:1 44380:1 44395:1 44406:1  |EV| 
0.026113577858109429663535649979167 6328:1 18097:1 24022:1 37712:1 39442:1 39634:1 39946:1 41197:1 43636:1 43643:1 43689:1 43815:1 43933:1 44095:1 44362:1 44370:1 44375:1 44380:1 44395:1 44403:1 44406:1  |EV| 
-0.13479375347220376446522038804687 8127:1 20033:1 33903:1 37684:1 37808:1 39791:1 39792:1 39793:1 39946:1 40437:1 41399:1 41632:1 43331:1 43634:1 43643:1 43650:1 43815:1 43951:1 44091:1 44362:1 44370:1 44375:1 44380:1 44395:1 44401:1 44406:1  |EV| 
-0.026624398879476270096677836818344 2449:1 13820:1 26905:1 37707:1 37708:1 37800:1 37889:1 37890:1 38206:1 39403:1 39946:1 43638:1 43643:1 43694:1 43801:1 43942:1 44094:1 44362:1 44370:1 44375:1 44380:1 44395:1 44406:1  |EV| 
-0.054703161367355410127366610595345 4441:1 15909:1 29247:1 37664:1 37707:1 37794:1 38250:1 38537:1 39552:1 39946:1 43638:1 43643:1 43646:1 43807:1 43985:1 44094:1 44362:1 44370:1 44375:1 44380:1 44395:1 44406:1  |EV| 
-0.27498396065503855068001826111868 1625:1 12827:1 25401:1 37689:1 38088:1 38125:1 39361:1 39946:1 41197:1 43636:1 43643:1 43689:1 43810:1 43985:1 44095:1 44362:1 44370:1 44375:1 44380:1 44395:1 44401:1 44403:1 44406:1  |EV| 
-0.12650280973192401523519379225036 6176:1 17934:1 31641:1 37651:1 37664:1 37788:1 37808:1 38666:1 38675:1 39442:1 39946:1 41376:1 43636:1 43643:1 43669:1 43815:1 43935:1 44095:1 44362:1 44370:1 44375:1 44380:1 44395:1 44406:1  |EV| 
0.10000000000000000555111512312578 3290:1 14704:1 27966:1 37650:1 37657:1 37665:1 37707:1 38352:1 38353:1 38355:1 38356:1 38357:1 38358:1 38379:1 39371:1 39459:1 39460:1 39946:1 43636:1 43643:1 43669:1 43829:1 43971:1 44079:1 44362:1 44372:1 44378:1 44380:1 44395:1 44401:1 44406:1  |EV| 
0.10000000000000000555111512312578 5247:1 17621:1 31266:1 37657:1 37689:1 37745:1 37803:1 37822:1 37851:1 37980:1 38088:1 38145:1 38638:1 38639:1 39599:1 39946:1 43636:1 43643:1 43652:1 43841:1 43937:1 44079:1 44362:1 44370:1 44378:1 44380:1 44395:1 44403:1 44406:1  |EV| 
0.10000000000000000555111512312578 7999:1 19901:1 33739:1 37657:1 37673:1 37707:1 37743:1 38277:1 38871:1 38877:1 39757:1 39946:1 41197:1 43636:1 43643:1 43646:1 43810:1 43988:1 44079:1 44362:1 44372:1 44375:1 44380:1 44393:1 44395:1 44403:1 44406:1  |EV| 
0.031994740989427693234059546512071 9689:1 21828:1 36006:1 37657:1 37665:1 37707:1 37709:1 37745:1 37950:1 38152:1 38857:1 39252:1 39894:1 39946:1 43636:1 43643:1 43670:1 43841:1 43932:1 44079:1 44362:1 44370:1 44378:1 44380:1 44395:1 44406:1  |EV| 
-0.11031444462328975075759984747492 7801:1 19703:1 33527:1 37657:1 37673:1 37707:1 37743:1 38277:1 38354:1 38871:1 39757:1 39946:1 41528:1 43636:1 43643:1 43669:1 43841:1 43988:1 44079:1 44362:1 44372:1 44375:1 44381:1 44393:1 44395:1 44403:1 44406:1  |EV| 
0.10000000000000000555111512312578 1364:1 12497:1 25032:1 37650:1 37664:1 37688:1 37689:1 37695:1 37705:1 37727:1 37736:1 37751:1 37818:1 38044:1 38070:1 38074:1 38075:1 38076:1 38083:1 38084:1 38085:1 38106:1 39268:1 39946:1 43636:1 43643:1 43682:1 43815:1 44002:1 44139:1 44362:1 44370:1 44376:1 44380:1 44383:1 44395:1 44406:1  |EV| 
-0.084623942522871531402017808431992 3236:1 14650:1 27913:1 37650:1 37657:1 37665:1 37707:1 38352:1 38353:1 38354:1 38355:1 38356:1 38357:1 38358:1 39371:1 39459:1 39460:1 39946:1 41197:1 41306:1 41356:1 43636:1 43643:1 43689:1 43793:1 43971:1 44089:1 44362:1 44372:1 44378:1 44380:1 44395:1 44401:1 44406:1  |EV| 
-0.010563280126736226960382225570356 10618:1 22844:1 24452:1 37689:1 39943:1 39946:1 41197:1 43636:1 43643:1 43689:1 43815:1 43933:1 44095:1 44362:1 44370:1 44376:1 44380:1 44395:1  |EV| 
-0.096907503710284739750768778776546 5379:1 16970:1 30505:1 37657:1 37689:1 37745:1 37803:1 37822:1 37851:1 37980:1 38088:1 38145:1 38639:1 38644:1 39599:1 39946:1 41197:1 43636:1 43643:1 43689:1 43821:1 43937:1 44089:1 44362:1 44370:1 44378:1 44380:1 44395:1 44403:1 44406:1  |EV| 
0.076266108739577245789753590088367 2449:1 13820:1 26729:1 37707:1 37708:1 37800:1 37890:1 39403:1 39946:1 43636:1 43643:1 43651:1 43789:1 43942:1 44095:1 44362:1 44370:1 44375:1 44380:1 44395:1 44406:1  |EV| 
0.10000000000000000555111512312578 2740:1 14157:1 27144:1 37657:1 37664:1 37675:1 37807:1 37889:1 38005:1 39377:1 39946:1 43638:1 43643:1 43675:1 43833:1 43942:1 44094:1 44362:1 44370:1 44375:1 44380:1 44395:1 44406:1  |EV| 
0.10000000000000000555111512312578 1309:1 12440:1 24975:1 37689:1 37859:1 38088:1 39361:1 39946:1 43636:1 43643:1 43657:1 43815:1 43985:1 44095:1 44362:1 44370:1 44375:1 44380:1 44395:1 44401:1 44403:1 44406:1  |EV| 
0.10000000000000000555111512312578 7641:1 19540:1 33349:1 37664:1 37689:1 37872:1 38863:1 39749:1 39946:1 43634:1 43643:1 43650:1 43810:1 43951:1 44091:1 44362:1 44370:1 44375:1 44380:1 44395:1 44406:1  |EV| 
0.058252445041921958879260756702934 1364:1 12497:1 26324:1 39268:1 39946:1 39971:1 41197:1 41632:1 42727:1 43637:1 43642:1 43689:1 43807:1 43977:1 44088:1 44362:1 44370:1 44376:1 44380:1 44383:1 44395:1 44406:1  |EV| 
-0.13700607421139995856229631954193 101:1 11006:1 23337:1 37689:1 39222:1 39946:1 39965:1 41212:1 41632:1 42151:1 43634:1 43643:1 43645:1 43815:1 43977:1 44091:1 44362:1 44370:1 44376:1 44380:1 44395:1 44406:1  |EV| 
-0.060684936526724964078738366879406 46:1 10939:1 23245:1 37707:1 37712:1 37719:1 37750:1 39222:1 39946:1 39955:1 41632:1 42151:1 43637:1 43642:1 43670:1 43813:1 43977:1 44088:1 44362:1 44370:1 44376:1 44380:1 44395:1 44406:1  |EV| 
-0.051253538005737876714906775532654 1084:1 12199:1 24675:1 37665:1 37976:1 38029:1 39243:1 39946:1 40118:1 40119:1 41632:1 42329:1 43637:1 43642:1 43657:1 43814:1 43951:1 44088:1 44362:1 44370:1 44375:1 44380:1 44395:1 44406:1  |EV| 
-0.10852068186326235821326235964079 668:1 11943:1 24394:1 37707:1 39212:1 39946:1 43636:1 43643:1 43663:1 43815:1 43954:1 44095:1 44362:1 44370:1 44375:1 44380:1 44406:1  |EV| 
-0.014880989697239806537898409999343 7313:1 19166:1 32981:1 37684:1 37689:1 37707:1 37902:1 38177:1 38793:1 39321:1 39946:1 43637:1 43642:1 43657:1 43819:1 43958:1 44088:1 44362:1 44370:1 44375:1 44380:1 44395:1 44406:1 44407:1  |EV| 
0.086629137826251256804255262977676 645:1 11656:1 24110:1 37657:1 37745:1 39240:1 39946:1 41197:1 43636:1 43643:1 43689:1 43789:1 43954:1 44095:1 44362:1 44372:1 44375:1 44380:1 44395:1 44406:1  |EV| 
0.10000000000000000555111512312578 7184:1 19009:1 32828:1 37689:1 37745:1 38165:1 38249:1 38809:1 38810:1 39378:1 39946:1 41197:1 43636:1 43643:1 43689:1 43798:1 43935:1 44095:1 44362:1 44370:1 44378:1 44380:1 44381:1 44383:1 44395:1 44405:1 44406:1  |EV| 
0.012274644462309750730932833562292 7336:1 19201:1 23962:1 37689:1 37745:1 39398:1 39946:1 40078:1 41237:1 41718:1 43154:1 43636:1 43643:1 43689:1 43789:1 43954:1 44095:1 44362:1 44372:1 44375:1 44380:1 44395:1 44396:1 44406:1  |EV| 
-0.11831016566264843103972737026197 7366:1 19233:1 33043:1 37689:1 37745:1 38163:1 38165:1 38249:1 38255:1 38809:1 38810:1 39398:1 39946:1 43636:1 43643:1 43652:1 43789:1 43978:1 44079:1 44362:1 44370:1 44375:1 44380:1 44395:1 44406:1  |EV| 
-0.088673140198109248744096078098664 565:1 11566:1 24020:1 37657:1 37673:1 37745:1 37786:1 37794:1 37915:1 39240:1 39946:1 41197:1 43636:1 43643:1 43689:1 43791:1 43973:1 44095:1 44362:1 44370:1 44375:1 44380:1 44395:1 44406:1  |EV| 
-0.13429928496264634252277403447806 770:1 11813:1 24265:1 37657:1 37673:1 37745:1 37786:1 37794:1 37864:1 39240:1 39946:1 43636:1 43643:1 43669:1 43789:1 43973:1 44095:1 44362:1 44370:1 44375:1 44380:1 44395:1 44406:1  |EV| 
-0.28417911475211032890086926272488 2518:1 14273:1 27328:1 37657:1 38003:1 38058:1 38252:1 39377:1 39946:1 41197:1 43636:1 43643:1 43663:1 43810:1 43938:1 44095:1 44362:1 44370:1 44375:1 44380:1 44395:1 44406:1  |EV| 
-0.091812068402278887435663534688501 2472:1 13849:1 26733:1 37657:1 37664:1 37807:1 37889:1 38005:1 39377:1 39946:1 41197:1 43636:1 43643:1 43689:1 43794:1 43942:1 44095:1 44362:1 44370:1 44375:1 44380:1 44395:1 44406:1  |EV| 
0.10000000000000000555111512312578 8092:1 19994:1 33864:1 37650:1 37665:1 37689:1 37950:1 38904:1 39243:1 39946:1 43637:1 43642:1 43663:1 43790:1 43958:1 44088:1 44362:1 44370:1 44375:1 44380:1 44395:1 44401:1 44406:1  |EV| 
0.10000000000000000555111512312578 4886:1 16436:1 29856:1 37718:1 39225:1 39946:1 39971:1 41197:1 41632:1 42855:1 43637:1 43642:1 43689:1 43801:1 43951:1 44088:1 44362:1 44370:1 44376:1 44380:1 44383:1 44395:1 44406:1  |EV| 
0.10000000000000000555111512312578 3662:1 15094:1 28276:1 37685:1 39513:1 39946:1 39971:1 41197:1 41632:1 42658:1 43637:1 43642:1 43663:1 43801:1 43977:1 44088:1 44362:1 44370:1 44375:1 44380:1 44395:1 44403:1 44406:1  |EV| 
0.082582781710906133509908499945595 6752:1 18574:1 28276:1 37685:1 39245:1 39946:1 39971:1 41197:1 41632:1 43081:1 43637:1 43642:1 43663:1 43801:1 43977:1 44088:1 44362:1 44370:1 44375:1 44380:1 44395:1 44406:1  |EV| 
0.10000000000000000555111512312578 3585:1 15016:1 28276:1 37685:1 39502:1 39946:1 39971:1 41197:1 41632:1 42623:1 43637:1 43642:1 43663:1 43801:1 43977:1 44088:1 44362:1 44370:1 44378:1 44380:1 44395:1 44406:1  |EV| 
-0.046396046270383822784921790116641 8109:1 20012:1 34021:1 37684:1 39791:1 39792:1 39793:1 39946:1 39971:1 41197:1 41632:1 43331:1 43637:1 43642:1 43689:1 43801:1 43951:1 44088:1 44362:1 44370:1 44375:1 44380:1 44383:1 44395:1 44401:1 44406:1  |EV| 
-0.15070328260263976538624319800874 119:1 11028:1 23371:1 37719:1 39222:1 39946:1 39971:1 41197:1 41632:1 42151:1 43637:1 43642:1 43663:1 43801:1 43977:1 44088:1 44362:1 44370:1 44376:1 44380:1 44395:1 44406:1  |EV| 
-0.020305640605706849061151686441917 1945:1 13278:1 25930:1 37712:1 38140:1 38148:1 39374:1 39946:1 43636:1 43643:1 43657:1 43815:1 43985:1 44095:1 44362:1 44370:1 44375:1 44380:1 44395:1 44404:1  |EV| 
-0.089827928234331472223672676591377 623:1 11631:1 24085:1 37664:1 37685:1 39275:1 39946:1 41197:1 43637:1 43642:1 43663:1 43795:1 43951:1 44088:1 44362:1 44370:1 44378:1 44380:1 44395:1 44406:1  |EV| 
-0.047842453397052134289602065564395 3028:1 14440:1 27668:1 37656:1 37707:1 38000:1 38306:1 38314:1 39239:1 39946:1 43638:1 43643:1 43646:1 43801:1 43954:1 44094:1 44362:1 44370:1 44375:1 44380:1 44395:1 44406:1  |EV| 
0.10000000000000000555111512312578 2740:1 14137:1 27426:1 37657:1 38003:1 38027:1 38058:1 38252:1 39377:1 39946:1 43638:1 43643:1 43646:1 43833:1 43938:1 44094:1 44362:1 44370:1 44375:1 44380:1 44395:1 44406:1  |EV| 
0.10000000000000000555111512312578 210:1 12462:1 25138:1 37657:1 37659:1 37662:1 37665:1 37669:1 37692:1 37693:1 37712:1 37713:1 37719:1 37726:1 37736:1 37786:1 37788:1 37952:1 38049:1 38050:1 38090:1 38091:1 38092:1 38093:1 38094:1 38095:1 38120:1 39340:1 39946:1 43634:1 43643:1 43681:1 43815:1 43972:1 44156:1 44362:1 44370:1 44375:1 44380:1 44395:1 44403:1 44406:1  |EV| 
0.10000000000000000555111512312578 368:1 11333:1 23780:1 37656:1 37657:1 37664:1 37665:1 37707:1 37787:1 37794:1 37848:1 37849:1 37850:1 37851:1 37852:1 37853:1 37854:1 37855:1 37856:1 37857:1 37858:1 39210:1 39214:1 39258:1 39946:1 43635:1 43643:1 43700:1 43799:1 43988:1 44108:1 44362:1 44370:1 44375:1 44380:1 44395:1 44406:1  |EV| 
0.10000000000000000555111512312578 2890:1 14289:1 27368:1 37651:1 37657:1 37664:1 37665:1 37697:1 37707:1 37736:1 37771:1 37788:1 37800:1 37868:1 37892:1 37942:1 38059:1 38140:1 38145:1 38163:1 38195:1 38236:1 38239:1 38240:1 38243:1 38244:1 38279:1 38283:1 39416:1 39946:1 43636:1 43643:1 43727:1 43798:1 44028:1 44162:1 44362:1 44370:1 44375:1 44380:1 44395:1 44406:1  |EV| 
0.10000000000000000555111512312578 2664:1 14037:1 26975:1 37651:1 37657:1 37697:1 37707:1 37736:1 37771:1 37800:1 37868:1 37892:1 37942:1 38140:1 38145:1 38163:1 38195:1 38243:1 38279:1 38283:1 39416:1 39946:1 43638:1 43643:1 43711:1 43812:1 43942:1 44164:1 44362:1 44370:1 44375:1 44380:1 44395:1 44406:1  |EV| 
-0.082277425193045705675842782511609 2660:1 14037:1 26971:1 37651:1 37657:1 37664:1 37665:1 37697:1 37707:1 37736:1 37771:1 37788:1 37800:1 37868:1 37892:1 37942:1 38059:1 38140:1 38145:1 38163:1 38195:1 38236:1 38239:1 38240:1 38243:1 38274:1 38279:1 38283:1 39416:1 39946:1 43636:1 43643:1 43711:1 43821:1 44028:1 44119:1 44362:1 44370:1 44375:1 44380:1 44395:1 44406:1  |EV| 
-0.062667312018958420960501598528936 2885:1 14289:1 27360:1 37651:1 37657:1 37664:1 37697:1 37707:1 37736:1 37771:1 37788:1 37800:1 37868:1 37892:1 37942:1 38059:1 38140:1 38145:1 38163:1 38195:1 38239:1 38243:1 38244:1 38279:1 38283:1 39416:1 39946:1 43638:1 43643:1 43727:1 43802:1 43942:1 44190:1 44362:1 44370:1 44375:1 44380:1 44395:1 44406:1  |EV| 
0.10000000000000000555111512312578 6003:1 17739:1 31429:1 37656:1 37657:1 37664:1 37665:1 37675:1 37689:1 37745:1 37751:1 37787:1 37845:1 37859:1 38598:1 38599:1 39598:1 39946:1 43636:1 43643:1 43656:1 43841:1 44012:1 44107:1 44362:1 44370:1 44375:1 44380:1 44395:1 44406:1  |EV| 
-0.041344356308562063562206390088249 1986:1 13566:1 26425:1 37657:1 37665:1 37669:1 37685:1 37688:1 37689:1 37707:1 37708:1 37786:1 37819:1 37855:1 37872:1 37889:1 37921:1 37942:1 37948:1 37952:1 38007:1 38182:1 38183:1 38184:1 38185:1 38186:1 38187:1 38188:1 38189:1 38207:1 39324:1 39946:1 43636:1 43643:1 43678:1 43841:1 44028:1 44162:1 44362:1 44370:1 44375:1 44380:1 44395:1 44403:1 44406:1  |EV| 
0.036643423265908220409770024161844 5073:1 16640:1 30131:1 37657:1 37707:1 37834:1 38058:1 39573:1 39946:1 41279:1 43636:1 43643:1 43689:1 43841:1 43938:1 44095:1 44362:1 44370:1 44375:1 44380:1 44395:1 44401:1 44403:1 44406:1  |EV| 
0.10000000000000000555111512312578 6999:1 18820:1 26324:1 39334:1 39946:1 41197:1 43637:1 43642:1 43689:1 43807:1 43977:1 44088:1 44362:1 44370:1 44376:1 44380:1 44395:1 44406:1  |EV| 
0.10000000000000000555111512312578 9404:1 21517:1 26324:1 39864:1 39946:1 41197:1 43637:1 43642:1 43689:1 43807:1 43977:1 44088:1 44362:1 44370:1 44376:1 44380:1 44395:1 44406:1  |EV| 
0.10000000000000000555111512312578 4792:1 16338:1 29743:1 37689:1 37695:1 37745:1 38559:1 39222:1 39946:1 41197:1 43636:1 43643:1 43689:1 43841:1 43938:1 44095:1 44362:1 44370:1 44376:1 44380:1 44383:1 44395:1 44406:1  |EV| 
0.080103684766782146109420637003495 6861:1 18675:1 32418:1 37766:1 37776:1 38405:1 39676:1 39946:1 41197:1 43636:1 43643:1 43689:1 43810:1 43985:1 44095:1 44362:1 44370:1 44376:1 44380:1 44395:1 44406:1  |EV| 
-0.064069457461093548555908228081535 7010:1 20238:1 34126:1 37723:1 37730:1 37765:1 39688:1 39946:1 43638:1 43643:1 43670:1 43833:1 43954:1 44094:1 44362:1 44370:1 44376:1 44380:1 44395:1 44405:1 44406:1  |EV| 
-0.049654838892841127173660709104297 5372:1 16963:1 30498:1 37665:1 37905:1 38598:1 39602:1 39946:1 43638:1 43643:1 43670:1 43807:1 43933:1 44094:1 44362:1 44370:1 44376:1 44380:1 44395:1 44406:1  |EV| 
-0.032273858341697242435586190367758 70:1 10967:1 23279:1 37650:1 39227:1 39946:1 41197:1 43636:1 43643:1 43689:1 43815:1 43954:1 44095:1 44362:1 44370:1 44376:1 44380:1 44395:1  |EV| 
-0.046239058218671830191581761937414 7777:1 19679:1 33501:1 37656:1 37657:1 37688:1 38682:1 39748:1 39946:1 43636:1 43643:1 43651:1 43789:1 43942:1 44095:1 44362:1 44370:1 44375:1 44380:1 44396:1 44406:1  |EV| 
-0.054917455912077368929136156339155 7529:1 19451:1 23554:1 37657:1 39285:1 39946:1 41197:1 43636:1 43643:1 43689:1 43815:1 43933:1 44095:1 44362:1 44370:1 44376:1 44380:1 44383:1 44395:1 44405:1  |EV| 
0.10000000000000000555111512312578 8127:1 20033:1 34187:1 37657:1 37664:1 37665:1 37797:1 37798:1 37808:1 37996:1 37998:1 38088:1 38337:1 38759:1 38860:1 38917:1 38918:1 38919:1 38920:1 38921:1 39791:1 39792:1 39793:1 39946:1 43636:1 43643:1 43653:1 43815:1 43983:1 44130:1 44362:1 44370:1 44375:1 44380:1 44395:1 44401:1 44406:1  |EV| 
0.10000000000000000555111512312578 9629:1 21767:1 35931:1 37651:1 37664:1 37689:1 37697:1 37707:1 37730:1 37759:1 37784:1 37788:1 37789:1 37834:1 38058:1 38088:1 38106:1 38277:1 38396:1 38450:1 38559:1 39061:1 39062:1 39063:1 39064:1 39065:1 39884:1 39946:1 43636:1 43643:1 43725:1 43815:1 44016:1 44139:1 44362:1 44370:1 44375:1 44380:1 44395:1 44406:1  |EV| 
0.10000000000000000555111512312578 1960:1 13293:1 25946:1 37651:1 37657:1 37664:1 37665:1 37667:1 37679:1 37689:1 37697:1 37707:1 37712:1 37727:1 37840:1 37921:1 37932:1 37939:1 38152:1 38153:1 38154:1 38155:1 38156:1 38157:1 38158:1 38159:1 38164:1 38173:1 39304:1 39946:1 43636:1 43643:1 43725:1 43798:1 43950:1 44162:1 44362:1 44370:1 44375:1 44380:1 44395:1 44403:1 44406:1  |EV| 
-0.0073722975888570498048668611090761 8232:1 20251:1 34222:1 37657:1 37664:1 37665:1 37797:1 37798:1 37808:1 37996:1 37998:1 38088:1 38540:1 38759:1 38860:1 38917:1 38918:1 38919:1 38920:1 38921:1 39791:1 39792:1 39793:1 39946:1 43636:1 43643:1 43698:1 43829:1 43983:1 44130:1 44362:1 44370:1 44375:1 44380:1 44395:1 44401:1 44406:1  |EV| 
-0.023604052869551091220490235400575 2369:1 13736:1 26572:1 37651:1 37657:1 37664:1 37665:1 37667:1 37669:1 37679:1 37689:1 37697:1 37707:1 37712:1 37727:1 37840:1 37921:1 37932:1 37939:1 38152:1 38153:1 38154:1 38155:1 38156:1 38157:1 38158:1 38159:1 38164:1 38173:1 39304:1 39946:1 43636:1 43643:1 43684:1 43798:1 44007:1 44162:1 44362:1 44370:1 44375:1 44380:1 44395:1 44403:1 44406:1  |EV| 
-0.012743121571580971404524795786983 4970:1 16527:1 29978:1 37657:1 37664:1 37665:1 37745:1 37772:1 38192:1 38558:1 39564:1 39577:1 39946:1 41202:1 43634:1 43643:1 43644:1 43789:1 43957:1 44076:1 44362:1 44370:1 44375:1 44380:1 44395:1 44401:1 44406:1  |EV| 
-0.055685721156293319089591875581391 4020:1 15459:1 34237:1 37657:1 37664:1 37665:1 37688:1 37858:1 37872:1 38911:1 38912:1 38913:1 38914:1 39538:1 39946:1 43637:1 43642:1 43656:1 43823:1 43951:1 44165:1 44362:1 44370:1 44375:1 44380:1 44395:1 44406:1  |EV| 
0.10000000000000000555111512312578 2920:1 14331:1 27451:1 37665:1 37707:1 38276:1 38277:1 38278:1 39404:1 39946:1 43636:1 43643:1 43651:1 43789:1 43942:1 44095:1 44362:1 44370:1 44375:1 44380:1 44383:1 44395:1 44406:1  |EV| 
0.10000000000000000555111512312578 6206:1 17965:1 31673:1 37916:1 37923:1 37977:1 38003:1 38647:1 38648:1 39269:1 39946:1 41195:1 43639:1 43643:1 43697:1 43801:1 43963:1 44093:1 44362:1 44370:1 44376:1 44380:1 44395:1 44406:1  |EV| 
0.10000000000000000555111512312578 9319:1 21425:1 35590:1 37689:1 37795:1 37921:1 37923:1 39857:1 39946:1 41195:1 43639:1 43643:1 43666:1 43807:1 43957:1 44093:1 44362:1 44370:1 44376:1 44380:1 44395:1 44406:1  |EV| 
0.10000000000000000555111512312578 1010:1 12112:1 24626:1 37976:1 39243:1 39946:1 40115:1 41632:1 42329:1 43634:1 43643:1 43645:1 43811:1 43951:1 44091:1 44362:1 44370:1 44375:1 44380:1 44395:1 44406:1  |EV| 
0.10000000000000000555111512312578 2010:1 13347:1 26014:1 37689:1 38172:1 39392:1 39946:1 41211:1 43635:1 43643:1 43667:1 43810:1 43933:1 44103:1 44362:1 44370:1 44376:1 44380:1 44395:1 44406:1  |EV| 
0.060050620073658363129442960826054 5328:1 16918:1 31118:1 37905:1 39602:1 39946:1 41197:1 43636:1 43643:1 43689:1 43815:1 43933:1 44095:1 44362:1 44370:1 44376:1 44380:1 44395:1 44406:1  |EV| 
-0.06339073724439857338008863507639 2999:1 14411:1 27560:1 37656:1 37659:1 37692:1 37693:1 37722:1 38306:1 39239:1 39946:1 43639:1 43643:1 43697:1 43801:1 43963:1 44093:1 44362:1 44370:1 44375:1 44380:1 44395:1 44406:1  |EV| 
-0.21822411076855199874025004191935 3166:1 14580:1 27844:1 37689:1 37736:1 38340:1 39235:1 39946:1 41197:1 43636:1 43643:1 43689:1 43810:1 43985:1 44095:1 44362:1 44370:1 44378:1 44380:1 44395:1 44406:1 44408:1  |EV| 
-0.019526402937805081849731436705042 2688:1 14066:1 27003:1 37651:1 37657:1 37697:1 37707:1 37736:1 37771:1 37788:1 37800:1 37868:1 37892:1 37942:1 38140:1 38145:1 38163:1 38195:1 38240:1 38243:1 38279:1 38283:1 39378:1 39946:1 43636:1 43643:1 43711:1 43815:1 43943:1 44130:1 44362:1 44370:1 44378:1 44380:1 44395:1 44408:1  |EV| 
-0.03264378751572623998944422396562 357:1 11322:1 23770:1 37657:1 37664:1 37671:1 37745:1 37801:1 37842:1 37843:1 39252:1 39946:1 43638:1 43643:1 43652:1 43807:1 43942:1 44094:1 44362:1 44370:1 44378:1 44380:1 44395:1 44406:1  |EV| 
-0.1966162149680089898939883141793 9092:1 21189:1 35315:1 37657:1 37745:1 39240:1 39946:1 41211:1 43635:1 43643:1 43667:1 43810:1 43933:1 44103:1 44362:1 44370:1 44375:1 44380:1 44395:1 44403:1 44406:1  |EV| 
0.10000000000000000555111512312578 1939:1 13272:1 25924:1 37657:1 37664:1 37707:1 37712:1 37713:1 37805:1 37846:1 37952:1 38138:1 38139:1 38140:1 38141:1 38142:1 38146:1 38148:1 39324:1 39946:1 41304:1 43636:1 43643:1 43675:1 43788:1 43936:1 44089:1 44362:1 44370:1 44375:1 44380:1 44395:1 44406:1  |EV| 
0.10000000000000000555111512312578 1720:1 12957:1 25551:1 37657:1 37664:1 37665:1 37681:1 37689:1 37707:1 37712:1 37798:1 37799:1 37834:1 37845:1 37859:1 37868:1 37894:1 37915:1 38058:1 38086:1 39354:1 39946:1 43636:1 43643:1 43682:1 43789:1 44009:1 44139:1 44362:1 44370:1 44378:1 44380:1 44395:1 44406:1  |EV| 
0.10000000000000000555111512312578 10051:1 22203:1 36432:1 37656:1 37657:1 37664:1 37665:1 37707:1 37712:1 37733:1 37754:1 37799:1 37845:1 37872:1 37881:1 37985:1 38000:1 38058:1 38140:1 38462:1 38592:1 38614:1 38616:1 38617:1 38839:1 39135:1 39136:1 39137:1 39138:1 39139:1 39140:1 39141:1 39919:1 39946:1 43636:1 43643:1 43766:1 43815:1 44062:1 44303:1 44362:1 44370:1 44375:1 44380:1 44395:1 44406:1  |EV| 
-0.066969524947436770423436769306136 10192:1 22358:1 36596:1 37656:1 37657:1 37664:1 37665:1 37707:1 37712:1 37733:1 37754:1 37799:1 37845:1 37872:1 37881:1 37985:1 38000:1 38058:1 38140:1 38462:1 38592:1 38614:1 38616:1 38617:1 38839:1 39135:1 39136:1 39137:1 39139:1 39140:1 39141:1 39142:1 39919:1 39946:1 43636:1 43643:1 43682:1 43839:1 44062:1 44269:1 44362:1 44370:1 44375:1 44380:1 44395:1 44406:1  |EV| 
-0.021564554375351607101718443004756 10069:1 22222:1 36451:1 37656:1 37657:1 37664:1 37665:1 37707:1 37712:1 37733:1 37754:1 37799:1 37845:1 37872:1 37881:1 37985:1 38000:1 38058:1 38140:1 38462:1 38592:1 38614:1 38616:1 38617:1 38839:1 39135:1 39137:1 39138:1 39139:1 39140:1 39141:1 39142:1 39919:1 39946:1 43636:1 43643:1 43668:1 43825:1 44062:1 44315:1 44362:1 44370:1 44375:1 44380:1 44395:1 44406:1  |EV| 
-0.013522582329750815199886915252137 10116:1 22277:1 36506:1 37656:1 37657:1 37664:1 37665:1 37707:1 37712:1 37733:1 37754:1 37799:1 37845:1 37872:1 37985:1 38000:1 38058:1 38140:1 38462:1 38592:1 38614:1 38616:1 38617:1 38839:1 39135:1 39136:1 39137:1 39138:1 39139:1 39140:1 39141:1 39142:1 39919:1 39946:1 41197:1 43636:1 43643:1 43663:1 43921:1 44062:1 44138:1 44362:1 44370:1 44375:1 44380:1 44395:1 44406:1  |EV| 
-0.099030731639336011529195502589573 1944:1 13277:1 25929:1 37657:1 37664:1 37707:1 37712:1 37805:1 37846:1 37952:1 38138:1 38139:1 38140:1 38141:1 38142:1 38146:1 38147:1 38148:1 39324:1 39946:1 43636:1 43643:1 43657:1 43827:1 43936:1 44089:1 44362:1 44370:1 44375:1 44380:1 44395:1 44406:1  |EV| 
-0.10494776948876388678044691005198 1603:1 12801:1 25371:1 37657:1 37664:1 37665:1 37681:1 37689:1 37707:1 37712:1 37798:1 37799:1 37834:1 37845:1 37859:1 37868:1 37894:1 38058:1 38086:1 38089:1 39354:1 39946:1 41197:1 43636:1 43643:1 43689:1 43858:1 44009:1 44133:1 44362:1 44370:1 44378:1 44380:1 44395:1 44406:1  |EV| 
0.10000000000000000555111512312578 9577:1 21708:1 35868:1 37651:1 37656:1 37657:1 37662:1 37664:1 37697:1 37808:1 38451:1 38799:1 38885:1 39073:1 39081:1 39082:1 39358:1 39946:1 41197:1 43636:1 43643:1 43689:1 43840:1 43943:1 44133:1 44362:1 44370:1 44375:1 44380:1 44395:1 44406:1  |EV| 
0.10000000000000000555111512312578 6980:1 18801:1 32580:1 37656:1 37657:1 37684:1 37712:1 37719:1 38039:1 38058:1 38376:1 38757:1 39281:1 39681:1 39946:1 41197:1 43637:1 43642:1 43689:1 43800:1 43986:1 44112:1 44362:1 44370:1 44375:1 44380:1 44383:1 44395:1 44406:1  |EV| 
0.057576805178365192405820494059299 9452:1 21574:1 35735:1 37657:1 38128:1 39873:1 39946:1 41197:1 43636:1 43643:1 43689:1 43789:1 43954:1 44095:1 44362:1 44371:1 44375:1 44380:1 44393:1 44395:1 44406:1  |EV| 
0.10000000000000000555111512312578 7251:1 19173:1 32988:1 37657:1 37707:1 37800:1 39378:1 39946:1 41211:1 43635:1 43643:1 43667:1 43841:1 43954:1 44103:1 44362:1 44370:1 44378:1 44380:1 44395:1 44401:1 44406:1  |EV| 
0.10000000000000000555111512312578 6167:1 17925:1 31632:1 37657:1 37664:1 37667:1 37712:1 37854:1 38426:1 39442:1 39634:1 39946:1 43635:1 43643:1 43697:1 43791:1 43933:1 44103:1 44362:1 44370:1 44375:1 44380:1 44395:1 44403:1 44406:1  |EV| 
-0.20101039988144703274386415614572 1971:1 13307:1 25965:1 37657:1 37817:1 38200:1 39324:1 39946:1 43635:1 43643:1 43667:1 43841:1 43954:1 44103:1 44362:1 44370:1 44375:1 44380:1 44395:1 44406:1  |EV| 
-0.069966334013891309795418749217788 2334:1 13699:1 26500:1 37651:1 37657:1 37664:1 37665:1 37667:1 37679:1 37689:1 37697:1 37707:1 37712:1 37727:1 37840:1 37921:1 37932:1 37939:1 38152:1 38154:1 38155:1 38156:1 38157:1 38158:1 38159:1 38164:1 38173:1 38199:1 39304:1 39946:1 43636:1 43643:1 43651:1 43845:1 43950:1 44150:1 44362:1 44370:1 44375:1 44380:1 44395:1 44403:1 44406:1  |EV| 
-0.061142833587345513102206950861728 411:1 11378:1 23825:1 37657:1 37664:1 37707:1 37794:1 37848:1 37849:1 37850:1 37851:1 37852:1 37853:1 37854:1 37855:1 39265:1 39266:1 39946:1 43635:1 43643:1 43700:1 43827:1 43954:1 44087:1 44362:1 44370:1 44375:1 44380:1 44395:1 44406:1  |EV| 
-0.0015443603636853941302176096428411 4449:1 15918:1 29300:1 37657:1 37665:1 37736:1 38163:1 39417:1 39946:1 41197:1 43637:1 43642:1 43689:1 43813:1 43958:1 44088:1 44362:1 44370:1 44375:1 44380:1 44383:1 44395:1 44406:1  |EV| 
0.10000000000000000555111512312578 10191:1 22357:1 36595:1 37657:1 37664:1 37707:1 37712:1 37733:1 37754:1 37845:1 37872:1 37881:1 37985:1 38000:1 38058:1 38140:1 38462:1 38592:1 38614:1 38839:1 39135:1 39136:1 39137:1 39590:1 39946:1 43636:1 43643:1 43682:1 43789:1 44009:1 44139:1 44362:1 44370:1 44375:1 44380:1 44395:1 44403:1 44406:1  |EV| 
0.088170653218671624085089888467337 1986:1 13566:1 26380:1 37657:1 37685:1 37689:1 37707:1 37855:1 37872:1 38007:1 38189:1 38207:1 39324:1 39946:1 43636:1 43643:1 43669:1 43841:1 43988:1 44079:1 44362:1 44370:1 44375:1 44380:1 44395:1 44403:1 44406:1  |EV| 
-0.037205148568240489770353462972707 10072:1 22225:1 36454:1 37657:1 37664:1 37707:1 37712:1 37733:1 37754:1 37845:1 37872:1 37881:1 37985:1 38000:1 38058:1 38140:1 38462:1 38592:1 38614:1 38839:1 39135:1 39137:1 39138:1 39590:1 39946:1 43636:1 43643:1 43668:1 43834:1 44009:1 44106:1 44362:1 44370:1 44375:1 44380:1 44395:1 44403:1 44406:1  |EV| 
-0.070795340520271865525359089588164 10114:1 22275:1 36504:1 37657:1 37664:1 37707:1 37712:1 37733:1 37754:1 37845:1 37872:1 37985:1 38000:1 38058:1 38140:1 38462:1 38592:1 38614:1 38839:1 39135:1 39136:1 39137:1 39138:1 39590:1 39946:1 41197:1 43636:1 43643:1 43663:1 43866:1 44009:1 44133:1 44362:1 44370:1 44375:1 44380:1 44395:1 44403:1 44406:1  |EV| 
-0.038761858808012000787712736382673 6096:1 17852:1 23554:1 37657:1 39631:1 39946:1 41197:1 43636:1 43643:1 43689:1 43815:1 43933:1 44095:1 44362:1 44370:1 44375:1 44380:1 44395:1 44404:1  |EV| 
-0.023583166307340142076043321139878 3093:1 14507:1 27774:1 37650:1 38140:1 38330:1 39445:1 39946:1 41195:1 43634:1 43643:1 43697:1 43811:1 43939:1 44091:1 44362:1 44370:1 44375:1 44380:1 44393:1 44406:1  |EV| 
0.10000000000000000555111512312578 272:1 11219:1 23640:1 37657:1 37664:1 37665:1 37745:1 37794:1 37795:1 37798:1 37799:1 37800:1 37801:1 37802:1 37803:1 37804:1 37808:1 39239:1 39946:1 41197:1 43636:1 43643:1 43689:1 43840:1 43943:1 44133:1 44362:1 44370:1 44375:1 44380:1 44395:1 44406:1  |EV| 
0.10000000000000000555111512312578 3622:1 15054:1 28317:1 37657:1 37685:1 37736:1 37772:1 38418:1 39340:1 39946:1 40367:1 41197:1 41841:1 42635:1 43637:1 43642:1 43663:1 43790:1 43958:1 44088:1 44362:1 44370:1 44375:1 44380:1 44395:1 44403:1 44406:1  |EV| 
0.10000000000000000555111512312578 3157:1 14571:1 27835:1 37689:1 37707:1 37736:1 37794:1 38340:1 39455:1 39946:1 41197:1 43636:1 43643:1 43689:1 43794:1 43942:1 44095:1 44362:1 44370:1 44375:1 44380:1 44395:1 44406:1  |EV| 
-0.19163592641508953029472195339622 10588:1 22810:1 37141:1 37657:1 37689:1 37707:1 38054:1 39178:1 39821:1 39946:1 41197:1 43636:1 43643:1 43689:1 43794:1 43942:1 44095:1 44362:1 44370:1 44376:1 44380:1 44395:1 44403:1 44406:1  |EV| 
-0.055204406015015888842256686075416 8179:1 20090:1 33960:1 37657:1 37664:1 37665:1 37669:1 37684:1 37717:1 37797:1 37798:1 37808:1 37905:1 37996:1 37998:1 38088:1 38337:1 38540:1 38759:1 38860:1 38906:1 38907:1 38908:1 38917:1 38918:1 38919:1 38920:1 38921:1 39801:1 39802:1 39946:1 43636:1 43643:1 43725:1 43789:1 43989:1 44139:1 44362:1 44370:1 44376:1 44380:1 44383:1 44395:1 44406:1  |EV| 
-0.020992349428475401418303647460561 9612:1 21750:1 36077:1 37689:1 37808:1 37823:1 38450:1 39067:1 39358:1 39946:1 43636:1 43643:1 43651:1 43789:1 43942:1 44095:1 44362:1 44370:1 44375:1 44380:1 44406:1  |EV| 
-0.06099077968745292288588188966969 5459:1 17076:1 30624:1 37650:1 37657:1 37664:1 37669:1 37765:1 37794:1 37801:1 39602:1 39946:1 41304:1 43636:1 43643:1 43675:1 43815:1 43932:1 44079:1 44362:1 44370:1 44376:1 44380:1 44395:1 44406:1  |EV| 
-0.021354586859230452466906768904664 2918:1 14328:1 27448:1 37651:1 37656:1 37657:1 37664:1 37665:1 37689:1 37697:1 37830:1 37831:1 37846:1 37869:1 37948:1 38147:1 38156:1 38256:1 38257:1 38258:1 38259:1 38260:1 38261:1 38262:1 38263:1 38276:1 38278:1 39418:1 39419:1 39420:1 39946:1 43637:1 43642:1 43651:1 43856:1 44015:1 44098:1 44362:1 44370:1 44375:1 44380:1 44383:1 44395:1 44406:1  |EV| 
0.10000000000000000555111512312578 948:1 12043:1 24496:1 37657:1 37707:1 37992:1 39312:1 39946:1 41211:1 43635:1 43643:1 43667:1 43841:1 43954:1 44103:1 44362:1 44370:1 44375:1 44380:1 44395:1 44401:1 44406:1  |EV| 
0.059767859878036448673110925255969 3131:1 14545:1 27809:1 37657:1 37667:1 37689:1 37707:1 37892:1 37942:1 38345:1 38346:1 38347:1 38348:1 38349:1 39453:1 39946:1 43636:1 43643:1 43651:1 43829:1 43965:1 44079:1 44362:1 44370:1 44378:1 44380:1 44395:1 44403:1 44406:1  |EV| 
-0.17913222721311458651705095235229 2442:1 13813:1 26768:1 37707:1 37708:1 37736:1 37800:1 37889:1 37890:1 38206:1 38236:1 39404:1 39946:1 43636:1 43643:1 43651:1 43829:1 43965:1 44079:1 44362:1 44370:1 44375:1 44380:1 44395:1 44401:1 44406:1  |EV| 
-0.034070325524496486435666042780213 243:1 11289:1 23737:1 37657:1 37659:1 37660:1 37661:1 37664:1 37665:1 37689:1 37707:1 37712:1 37718:1 37763:1 37764:1 37765:1 37766:1 37767:1 37786:1 37793:1 37805:1 37806:1 37807:1 39238:1 39946:1 43636:1 43643:1 43679:1 43788:1 44002:1 44106:1 44362:1 44370:1 44375:1 44380:1 44395:1 44406:1  |EV| 
-0.018166945609661144800384136033244 3836:1 15269:1 28943:1 37712:1 38238:1 39259:1 39260:1 39946:1 43636:1 43643:1 43663:1 43815:1 43954:1 44095:1 44362:1 44370:1 44375:1 44380:1 44383:1 44395:1 44401:1  |EV| 
0.10000000000000000555111512312578 5381:1 16972:1 30507:1 37689:1 37745:1 37803:1 37851:1 37980:1 39608:1 39946:1 41197:1 43636:1 43643:1 43689:1 43794:1 43942:1 44095:1 44362:1 44370:1 44378:1 44380:1 44395:1 44406:1  |EV| 
0.074779104565083270861336472989933 8179:1 20090:1 34087:1 37717:1 37905:1 39801:1 39802:1 39946:1 41197:1 43636:1 43643:1 43689:1 43789:1 43954:1 44095:1 44362:1 44370:1 44376:1 44380:1 44383:1 44395:1 44406:1  |EV| 
0.10000000000000000555111512312578 9726:1 21868:1 36052:1 37730:1 37759:1 37784:1 38088:1 38106:1 39636:1 39946:1 43636:1 43643:1 43670:1 43815:1 43942:1 44095:1 44362:1 44370:1 44376:1 44380:1 44395:1 44406:1  |EV| 
-0.17833873977864278526084262921358 9532:1 21662:1 35821:1 37730:1 37759:1 37784:1 38088:1 39061:1 39636:1 39946:1 41197:1 43636:1 43643:1 43689:1 43794:1 43942:1 44095:1 44362:1 44370:1 44376:1 44380:1 44395:1 44406:1  |EV| 
-0.16972981026829825346169400290819 7370:1 19238:1 33047:1 37657:1 37707:1 37800:1 38251:1 39378:1 39946:1 41197:1 43636:1 43643:1 43689:1 43841:1 43938:1 44095:1 44362:1 44370:1 44378:1 44380:1 44401:1 44406:1  |EV| 
-0.068581709481917690895969030862034 5908:1 17622:1 31267:1 37689:1 37745:1 37803:1 37851:1 37980:1 38088:1 38638:1 39608:1 39946:1 43638:1 43643:1 43652:1 43807:1 43942:1 44094:1 44362:1 44370:1 44378:1 44380:1 44395:1 44406:1  |EV| 
-0.042358417922769744934363700394897 2327:1 13692:1 26486:1 38161:1 39389:1 39946:1 41197:1 43636:1 43643:1 43689:1 43815:1 43933:1 44095:1 44362:1 44370:1 44375:1 44380:1 44383:1 44395:1 44401:1 44403:1  |EV| 
0.10000000000000000555111512312578 2442:1 13813:1 26956:1 37707:1 37708:1 37736:1 37800:1 37889:1 37890:1 38206:1 38236:1 39404:1 39946:1 43636:1 43643:1 43694:1 43789:1 43965:1 44079:1 44362:1 44370:1 44375:1 44380:1 44395:1 44401:1 44406:1  |EV| 
0.10000000000000000555111512312578 2168:1 13520:1 26231:1 37657:1 37665:1 37667:1 37689:1 37801:1 37804:1 37869:1 38019:1 38174:1 38177:1 38178:1 38206:1 39386:1 39946:1 43636:1 43643:1 43694:1 43810:1 43937:1 44079:1 44362:1 44370:1 44375:1 44380:1 44395:1 44406:1  |EV| 
-0.039082921441526509431785285642036 2729:1 14109:1 27064:1 37651:1 37656:1 37657:1 37664:1 37665:1 37689:1 37697:1 37830:1 37831:1 37846:1 37869:1 37948:1 38147:1 38256:1 38257:1 38258:1 38259:1 38260:1 38261:1 38262:1 38263:1 39418:1 39419:1 39420:1 39946:1 43639:1 43643:1 43647:1 43797:1 44015:1 44115:1 44362:1 44370:1 44375:1 44380:1 44395:1 44406:1  |EV| 
-0.029091232667890556951029168430978 4463:1 15933:1 23643:1 39544:1 39946:1 41256:1 43636:1 43643:1 43689:1 43811:1 43959:1 44095:1 44362:1 44372:1 44375:1 44380:1 44395:1 44404:1  |EV| 
-0.1762414639816863304311311821948 442:1 11409:1 23858:1 37657:1 37664:1 37668:1 37745:1 37801:1 37842:1 37843:1 37878:1 39210:1 39946:1 43636:1 43643:1 43657:1 43791:1 43988:1 44079:1 44362:1 44370:1 44375:1 44380:1 44395:1 44406:1  |EV| 
0.082135495797674470952465242135077 3233:1 14647:1 23279:1 37650:1 39464:1 39465:1 39946:1 41197:1 41306:1 41356:1 43630:1 43636:1 43643:1 43689:1 43815:1 43933:1 44095:1 44362:1 44372:1 44378:1 44380:1 44395:1 44406:1  |EV| 
0.087830617537380584192163723855629 7617:1 19515:1 33322:1 37657:1 37707:1 37766:1 39742:1 39946:1 41197:1 43636:1 43643:1 43689:1 43810:1 43985:1 44095:1 44362:1 44370:1 44375:1 44380:1 44395:1 44406:1  |EV| 
0.10000000000000000555111512312578 10481:1 22683:1 36976:1 37657:1 37707:1 37846:1 38697:1 39179:1 39220:1 39946:1 41197:1 43636:1 43643:1 43689:1 43794:1 43942:1 44095:1 44362:1 44370:1 44375:1 44380:1 44395:1 44406:1  |EV| 
0.089542721463042845853053108839958 10023:1 22174:1 36401:1 37689:1 37707:1 39104:1 39361:1 39946:1 41197:1 43636:1 43643:1 43689:1 43810:1 43985:1 44095:1 44362:1 44370:1 44375:1 44380:1 44383:1 44395:1 44406:1  |EV| 
-0.16419014180210667053216866406729 2809:1 14198:1 27209:1 37665:1 37707:1 38255:1 38276:1 38277:1 39404:1 39946:1 41197:1 43636:1 43643:1 43689:1 43794:1 43942:1 44095:1 44362:1 44370:1 44375:1 44380:1 44383:1 44395:1 44406:1  |EV| 
-0.043610565547982052536646335738624 10293:1 22468:1 36725:1 37872:1 39160:1 39930:1 39946:1 41197:1 43636:1 43643:1 43689:1 43789:1 43954:1 44095:1 44362:1 44370:1 44375:1 44380:1 44383:1 44395:1 44401:1  |EV| 
-0.034963724081668201559836006708792 2786:1 14175:1 27180:1 37707:1 37708:1 37800:1 37835:1 37890:1 39403:1 39946:1 43636:1 43643:1 43670:1 43789:1 43935:1 44095:1 44362:1 44372:1 44375:1 44380:1 44396:1 44406:1  |EV| 
0.10000000000000000555111512312578 483:1 11456:1 23907:1 37657:1 37664:1 37671:1 37745:1 37801:1 37842:1 37843:1 37878:1 39210:1 39946:1 43636:1 43643:1 43652:1 43815:1 43988:1 44079:1 44362:1 44370:1 44375:1 44380:1 44395:1 44406:1  |EV| 
0.096075360403840265322017444304947 6226:1 17986:1 31694:1 37651:1 37657:1 37664:1 37697:1 37788:1 37808:1 38093:1 38254:1 38450:1 38666:1 38675:1 39442:1 39946:1 41343:1 41463:1 43636:1 43643:1 43698:1 43815:1 43965:1 44107:1 44362:1 44370:1 44375:1 44380:1 44395:1 44406:1  |EV| 
-0.070535306832097521834157305420376 6265:1 18026:1 31739:1 37651:1 37657:1 37664:1 37697:1 37788:1 37808:1 38093:1 38254:1 38450:1 38675:1 38676:1 39442:1 39946:1 43636:1 43643:1 43669:1 43798:1 43965:1 44079:1 44362:1 44370:1 44375:1 44380:1 44395:1 44406:1  |EV| 
-0.076284094705736771313553390427842 8467:1 20497:1 34705:1 37657:1 37664:1 37665:1 37669:1 37996:1 38941:1 38942:1 38943:1 39806:1 39946:1 43636:1 43643:1 43652:1 43815:1 43988:1 44079:1 44362:1 44370:1 44375:1 44380:1 44395:1 44403:1 44406:1  |EV| 
-0.032516313575039007544020819295838 295:1 11252:1 23682:1 37657:1 37664:1 37665:1 37745:1 37780:1 37794:1 37795:1 37797:1 37798:1 37799:1 37800:1 37801:1 37802:1 37803:1 37804:1 37808:1 39239:1 39946:1 43635:1 43643:1 43645:1 43865:1 43943:1 44160:1 44362:1 44370:1 44375:1 44380:1 44395:1 44406:1  |EV| 
-0.016462874938065953644983352432973 210:1 12462:1 24997:1 37657:1 37662:1 37712:1 37786:1 38049:1 38050:1 38090:1 38091:1 38092:1 38120:1 39340:1 39946:1 43634:1 43643:1 43690:1 43815:1 43982:1 44076:1 44362:1 44370:1 44375:1 44380:1 44403:1 44406:1  |EV| 
-0.12241464613346882128741555106899 1035:1 12141:1 24607:1 37657:1 37707:1 37807:1 37996:1 38002:1 38003:1 38004:1 38005:1 38006:1 38007:1 39321:1 39946:1 43636:1 43643:1 43652:1 43810:1 43965:1 44079:1 44362:1 44370:1 44375:1 44380:1 44395:1 44401:1 44406:1  |EV| 
0.10000000000000000555111512312578 4803:1 16349:1 29755:1 37657:1 37665:1 37669:1 37707:1 37834:1 38058:1 39573:1 39946:1 41197:1 43636:1 43643:1 43657:1 43841:1 43935:1 44095:1 44362:1 44370:1 44375:1 44380:1 44395:1 44401:1 44403:1 44406:1  |EV| 
0.10000000000000000555111512312578 9671:1 21810:1 35987:1 37665:1 37689:1 37707:1 37713:1 37727:1 37834:1 38535:1 39067:1 39886:1 39946:1 41197:1 43636:1 43643:1 43689:1 43788:1 43988:1 44089:1 44362:1 44370:1 44375:1 44380:1 44395:1 44406:1  |EV| 
0.10000000000000000555111512312578 2519:1 19169:1 32984:1 37657:1 37665:1 37707:1 38788:1 38789:1 38790:1 39321:1 39946:1 41197:1 43636:1 43643:1 43689:1 43798:1 43935:1 44095:1 44362:1 44370:1 44375:1 44380:1 44395:1 44406:1 44407:1  |EV| 
0.024995493926421384622837962297126 2835:1 14231:1 27266:1 37657:1 37707:1 37900:1 38142:1 39235:1 39946:1 41197:1 43636:1 43643:1 43651:1 43789:1 43942:1 44095:1 44362:1 44372:1 44378:1 44380:1 44383:1 44395:1 44406:1  |EV| 
0.10000000000000000555111512312578 4971:1 16528:1 29979:1 37665:1 37707:1 37751:1 38185:1 39568:1 39946:1 43636:1 43643:1 43670:1 43811:1 43938:1 44095:1 44362:1 44370:1 44376:1 44380:1 44395:1 44406:1  |EV| 
-0.25174635540282302992309837463836 4872:1 16430:1 29849:1 37665:1 37707:1 37716:1 38185:1 39568:1 39946:1 43636:1 43643:1 43657:1 43789:1 43938:1 44095:1 44362:1 44370:1 44376:1 44380:1 44395:1 44406:1  |EV| 
-0.05620211723184927871121985276659 514:1 11497:1 32620:1 37657:1 37667:1 37707:1 37727:1 37886:1 37919:1 39242:1 39946:1 41197:1 43636:1 43643:1 43689:1 43798:1 43935:1 44095:1 44362:1 44370:1 44375:1 44380:1 44395:1  |EV| 
-0.041861802286007485096597235951776 40:1 11008:1 23384:1 37689:1 37707:1 37714:1 37715:1 37717:1 39217:1 39946:1 43636:1 43643:1 43670:1 43789:1 43935:1 44095:1 44362:1 44370:1 44376:1 44380:1 44395:1 44405:1  |EV| 
0.10000000000000000555111512312578 5057:1 16624:1 30110:1 37657:1 37664:1 37800:1 37808:1 39354:1 39946:1 43634:1 43643:1 43650:1 43810:1 43951:1 44091:1 44362:1 44370:1 44378:1 44380:1 44395:1 44406:1  |EV| 
-0.17603215169734209855079143380863 5490:1 17122:1 30677:1 37650:1 37657:1 37664:1 39235:1 39946:1 43634:1 43643:1 43697:1 43789:1 43951:1 44091:1 44362:1 44370:1 44378:1 44380:1 44395:1 44406:1  |EV| 
-0.020707928060063107711386010123533 1564:1 12749:1 25856:1 37657:1 37659:1 37662:1 37665:1 37669:1 37692:1 37693:1 37712:1 37713:1 37719:1 37726:1 37736:1 37786:1 37788:1 37952:1 38049:1 38050:1 38090:1 38091:1 38092:1 38093:1 38094:1 38095:1 39340:1 39946:1 41197:1 43637:1 43642:1 43689:1 43822:1 43972:1 44098:1 44362:1 44370:1 44375:1 44380:1 44395:1 44403:1 44406:1  |EV| 
-0.032329329910654500124245203096507 5245:1 17402:1 31098:1 37650:1 37657:1 37659:1 37660:1 37661:1 37664:1 37689:1 37727:1 37745:1 37769:1 37795:1 37872:1 37909:1 38072:1 38232:1 38611:1 38612:1 38613:1 38614:1 38615:1 38616:1 38618:1 38623:1 38624:1 38625:1 38626:1 38627:1 39600:1 39601:1 39946:1 41455:1 43634:1 43643:1 43662:1 43789:1 43966:1 44167:1 44362:1 44370:1 44378:1 44380:1 44395:1 44401:1 44406:1  |EV| 
-0.045136419065644139969606385420775 668:1 11683:1 24137:1 37650:1 37664:1 37707:1 37786:1 37889:1 39212:1 39946:1 43634:1 43643:1 43654:1 43815:1 43958:1 44091:1 44362:1 44370:1 44375:1 44380:1 44395:1 44406:1  |EV| 
0.10000000000000000555111512312578 7763:1 19664:1 33479:1 37688:1 37689:1 37690:1 37707:1 37709:1 37736:1 37886:1 37893:1 37950:1 38170:1 39334:1 39946:1 43636:1 43643:1 43652:1 43810:1 43965:1 44079:1 44362:1 44370:1 44376:1 44380:1 44395:1 44406:1  |EV| 
0.073020833687069186535012477179407 519:1 11507:1 23960:1 37707:1 37712:1 37862:1 39218:1 39946:1 43636:1 43643:1 43651:1 43811:1 43985:1 44095:1 44362:1 44370:1 44376:1 44380:1 44395:1 44406:1  |EV| 
0.10000000000000000555111512312578 6152:1 18100:1 31832:1 37657:1 37707:1 37736:1 37979:1 39636:1 39946:1 43636:1 43643:1 43657:1 43789:1 43938:1 44095:1 44362:1 44370:1 44376:1 44380:1 44395:1 44406:1  |EV| 
0.10000000000000000555111512312578 7606:1 19504:1 33312:1 37679:1 37707:1 37789:1 37869:1 37942:1 38277:1 38828:1 39726:1 39946:1 43636:1 43643:1 43669:1 43789:1 43973:1 44095:1 44362:1 44370:1 44375:1 44380:1 44395:1 44406:1  |EV| 
0.086731868327273392571541421602888 7136:1 18957:1 32777:1 37689:1 37923:1 38003:1 39709:1 39946:1 41344:1 43636:1 43643:1 43663:1 43789:1 43985:1 44095:1 44362:1 44370:1 44376:1 44380:1 44395:1 44406:1  |EV| 
-0.027165246328290346827794010664547 2115:1 13463:1 26156:1 37689:1 37707:1 38170:1 38171:1 38172:1 39392:1 39946:1 40179:1 41311:1 41767:1 42419:1 43636:1 43643:1 43657:1 43810:1 43942:1 44095:1 44362:1 44370:1 44376:1 44380:1 44406:1  |EV| 
-0.078414691456209745235028663046251 9337:1 21444:1 35609:1 37665:1 37689:1 37799:1 37905:1 37923:1 39857:1 39946:1 41195:1 43635:1 43643:1 43645:1 43798:1 43954:1 44103:1 44362:1 44370:1 44376:1 44380:1 44395:1 44406:1  |EV| 
-0.05092345038817563257493858941416 9508:1 21637:1 35797:1 37784:1 38088:1 38106:1 39885:1 39946:1 43638:1 43643:1 43670:1 43807:1 43933:1 44094:1 44362:1 44370:1 44378:1 44380:1 44395:1 44406:1  |EV| 
-0.035703603986392128122329125972101 3029:1 14441:1 27597:1 37657:1 37805:1 39443:1 39946:1 41197:1 43636:1 43643:1 43689:1 43789:1 43954:1 44095:1 44362:1 44370:1 44375:1 44380:1 44395:1 44407:1  |EV| 
-0.049458883635521720678607238141922 9321:1 21427:1 35592:1 37665:1 37689:1 37795:1 37799:1 37905:1 37921:1 37923:1 39024:1 39026:1 39027:1 39209:1 39946:1 41195:1 43639:1 43643:1 43666:1 43842:1 43976:1 44100:1 44362:1 44370:1 44376:1 44380:1 44395:1 44406:1  |EV| 
0.10000000000000000555111512312578 9488:1 21615:1 27571:1 37664:1 37712:1 39260:1 39872:1 39946:1 43634:1 43643:1 43697:1 43815:1 43951:1 44091:1 44362:1 44370:1 44375:1 44380:1 44395:1 44406:1  |EV| 
0.10000000000000000555111512312578 3263:1 14677:1 27940:1 37657:1 37664:1 37920:1 38363:1 38376:1 39474:1 39475:1 39946:1 43634:1 43643:1 43647:1 43841:1 43951:1 44091:1 44362:1 44370:1 44375:1 44380:1 44395:1 44406:1  |EV| 
0.10000000000000000555111512312578 566:1 19529:1 33337:1 37664:1 37707:1 39242:1 39946:1 43634:1 43643:1 43666:1 43815:1 43951:1 44091:1 44362:1 44370:1 44375:1 44380:1 44395:1 44406:1  |EV| 
-0.035338754066711303147840794736112 10444:1 23043:1 37467:1 37664:1 37689:1 37697:1 37707:1 37712:1 37719:1 37743:1 37812:1 37999:1 38054:1 38695:1 39181:1 39184:1 39185:1 39531:1 39946:1 41618:1 43634:1 43643:1 43659:1 43815:1 43967:1 44131:1 44362:1 44370:1 44375:1 44380:1 44395:1 44406:1  |EV| 
-0.060080485414821582779154596209992 2478:1 16205:1 29594:1 37656:1 37657:1 37664:1 37665:1 37690:1 37694:1 37727:1 37754:1 37835:1 37840:1 37846:1 38008:1 38249:1 38510:1 38511:1 38512:1 38513:1 38514:1 39421:1 39946:1 41415:1 43636:1 43643:1 43720:1 43815:1 44009:1 44139:1 44362:1 44370:1 44375:1 44380:1 44395:1 44406:1  |EV| 
-0.12813676248056313222711821708799 7631:1 19530:1 33338:1 37657:1 37664:1 37707:1 37766:1 37787:1 38339:1 39742:1 39946:1 43635:1 43643:1 43666:1 43829:1 43985:1 44103:1 44362:1 44370:1 44375:1 44380:1 44395:1 44406:1  |EV| 
-0.15612690920130714578029085259914 7825:1 19727:1 33551:1 37657:1 37688:1 37707:1 37777:1 37801:1 37959:1 38874:1 38875:1 38876:1 39762:1 39946:1 41376:1 43636:1 43643:1 43663:1 43829:1 43988:1 44079:1 44362:1 44370:1 44375:1 44380:1 44395:1 44406:1  |EV| 
0.10000000000000000555111512312578 6506:1 18291:1 32009:1 37656:1 37657:1 37680:1 37707:1 38721:1 39660:1 39946:1 40171:1 41198:1 41252:1 41634:1 43039:1 43635:1 43643:1 43666:1 43791:1 43933:1 44103:1 44362:1 44370:1 44375:1 44380:1 44395:1 44406:1  |EV| 
-0.0053730192683234291595173459654688 9331:1 21438:1 35603:1 37665:1 37689:1 37795:1 37799:1 37905:1 37921:1 37923:1 38675:1 39024:1 39857:1 39946:1 43634:1 43643:1 43677:1 43798:1 43957:1 44076:1 44362:1 44370:1 44376:1 44380:1 44395:1 44406:1  |EV| 
-0.043187387719418456055731070364345 10298:1 22473:1 36734:1 37685:1 37772:1 37869:1 37880:1 38000:1 39154:1 39158:1 39159:1 39922:1 39946:1 43638:1 43643:1 43694:1 43813:1 43954:1 44094:1 44362:1 44370:1 44378:1 44380:1 44395:1 44401:1 44406:1  |EV| 
-0.047544543082100508557541473919628 2273:1 13633:1 26382:1 37656:1 37657:1 37665:1 37679:1 37707:1 37708:1 37736:1 37801:1 37804:1 37846:1 37900:1 37921:1 37987:1 37992:1 38174:1 38204:1 38205:1 38206:1 38220:1 38221:1 39388:1 39946:1 43635:1 43643:1 43724:1 43865:1 43935:1 44085:1 44362:1 44370:1 44378:1 44380:1 44395:1 44406:1  |EV| 
0.10000000000000000555111512312578 7911:1 19813:1 33644:1 37657:1 37688:1 37707:1 37777:1 37801:1 37959:1 38873:1 38875:1 38876:1 39762:1 39946:1 43636:1 43643:1 43670:1 43794:1 43988:1 44079:1 44362:1 44370:1 44375:1 44380:1 44395:1 44406:1  |EV| 
0.072813398957509517517294739263889 974:1 12071:1 24527:1 37657:1 37665:1 37707:1 37709:1 37712:1 37719:1 37784:1 37804:1 37889:1 37921:1 37952:1 37987:1 38014:1 38015:1 38016:1 38017:1 38018:1 39324:1 39946:1 43636:1 43643:1 43676:1 43789:1 44002:1 44139:1 44362:1 44370:1 44375:1 44380:1 44395:1 44406:1  |EV| 
0.10000000000000000555111512312578 4485:1 15964:1 29304:1 37656:1 37657:1 37664:1 37665:1 37675:1 37707:1 37794:1 38008:1 38250:1 38277:1 38507:1 38523:1 38537:1 39545:1 39546:1 39548:1 39946:1 43636:1 43643:1 43668:1 43789:1 43947:1 44107:1 44362:1 44370:1 44375:1 44380:1 44395:1 44406:1  |EV| 
-0.023096332043447530962820835043203 10090:1 22244:1 36474:1 37656:1 37657:1 37689:1 37707:1 37916:1 37921:1 37992:1 38124:1 38633:1 38853:1 39153:1 39921:1 39946:1 43636:1 43643:1 43656:1 43815:1 43937:1 44107:1 44362:1 44370:1 44375:1 44380:1 44395:1 44407:1  |EV| 
-0.13039284118326024963785414456652 8557:1 20599:1 34560:1 37650:1 37664:1 37689:1 37707:1 37712:1 37725:1 37726:1 37727:1 37728:1 37729:1 37730:1 37768:1 37795:1 37849:1 37954:1 38106:1 38944:1 38945:1 39633:1 39946:1 41197:1 43636:1 43643:1 43689:1 43840:1 43943:1 44133:1 44362:1 44370:1 44375:1 44380:1 44383:1 44395:1 44406:1  |EV| 
-0.028911745657551706639720734415278 4723:1 16267:1 29839:1 37656:1 37657:1 37659:1 37665:1 37692:1 37693:1 37712:1 37772:1 37774:1 37813:1 37846:1 38040:1 38548:1 38549:1 38562:1 38563:1 38564:1 38565:1 39571:1 39946:1 41426:1 43634:1 43643:1 43655:1 43789:1 43946:1 44084:1 44362:1 44370:1 44375:1 44380:1 44395:1 44403:1 44406:1  |EV| 
0.065566436377452644301833117879141 5245:1 17402:1 30990:1 37657:1 37745:1 37817:1 39600:1 39601:1 39946:1 41197:1 43636:1 43643:1 43663:1 43789:1 43985:1 44095:1 44362:1 44370:1 44378:1 44380:1 44395:1 44401:1 44406:1  |EV| 
-0.043219200366057260176422261110929 7183:1 19008:1 32827:1 37689:1 37745:1 38163:1 39398:1 39946:1 43636:1 43643:1 43651:1 43789:1 43942:1 44095:1 44362:1 44372:1 44375:1 44380:1 44406:1  |EV| 
-0.093255843226308310356387210049434 7747:1 19648:1 23637:1 37664:1 39749:1 39946:1 41197:1 43637:1 43642:1 43689:1 43801:1 43951:1 44088:1 44362:1 44370:1 44375:1 44380:1 44395:1 44406:1  |EV| 
-0.049924976957093074314553149406493 7615:1 19513:1 23637:1 37664:1 39242:1 39946:1 41197:1 43637:1 43642:1 43689:1 43801:1 43951:1 44088:1 44362:1 44370:1 44375:1 44380:1 44395:1 44406:1  |EV| 
-0.022618893837939992724761495423991 5048:1 16615:1 30090:1 37664:1 37665:1 38582:1 39354:1 39946:1 41279:1 43637:1 43642:1 43689:1 43814:1 43939:1 44088:1 44362:1 44370:1 44378:1 44380:1 44395:1 44406:1  |EV| 
-0.043025239192347970729191075633935 240:1 11181:1 23594:1 37707:1 37781:1 37782:1 37783:1 37784:1 37785:1 37786:1 39243:1 39946:1 43636:1 43643:1 43675:1 43811:1 43973:1 44095:1 44362:1 44370:1 44375:1 44380:1 44406:1  |EV| 
-0.11390048360193713583576879955217 2383:1 13750:1 26597:1 37657:1 37665:1 37669:1 37707:1 37712:1 37921:1 38152:1 39285:1 39946:1 43636:1 43643:1 43669:1 43789:1 43973:1 44095:1 44362:1 44370:1 44376:1 44380:1 44395:1 44406:1  |EV| 
-0.052595431340508480566597881988855 8774:1 20857:1 35090:1 37659:1 37660:1 37703:1 38094:1 38989:1 39273:1 39946:1 43636:1 43643:1 43670:1 43815:1 43942:1 44095:1 44362:1 44370:1 44376:1 44380:1 44395:1  |EV| 
-0.012846578487708253113463996442078 4637:1 21867:1 36050:1 37659:1 37692:1 37693:1 37707:1 37743:1 37952:1 38238:1 39445:1 39946:1 43636:1 43643:1 43675:1 43811:1 43973:1 44095:1 44362:1 44372:1 44375:1 44380:1 44406:1  |EV| 
-0.026497907316022611956540799837967 5311:1 17081:1 30629:1 37650:1 37657:1 37659:1 37660:1 37661:1 37664:1 37745:1 38072:1 38618:1 38623:1 38624:1 39600:1 39601:1 39946:1 41195:1 43634:1 43643:1 43683:1 43789:1 43986:1 44131:1 44362:1 44369:1 44378:1 44380:1 44393:1 44395:1 44401:1 44406:1  |EV| 
0.10000000000000000555111512312578 6445:1 18221:1 31942:1 37656:1 37657:1 37665:1 37745:1 37992:1 39398:1 39946:1 41256:1 43636:1 43643:1 43689:1 43794:1 43942:1 44095:1 44362:1 44370:1 44375:1 44380:1 44395:1 44404:1 44406:1  |EV| 
0.080174106151558385824351660176035 5029:1 16593:1 30061:1 37659:1 37660:1 37745:1 37921:1 38140:1 39563:1 39946:1 41376:1 43636:1 43643:1 43651:1 43789:1 43942:1 44095:1 44362:1 44370:1 44376:1 44380:1 44395:1 44404:1 44406:1  |EV| 
0.035242376503025474310248910114751 9414:1 21527:1 35689:1 37685:1 37689:1 37707:1 38605:1 39341:1 39946:1 43636:1 43643:1 43657:1 43810:1 43942:1 44095:1 44362:1 44370:1 44375:1 44380:1 44395:1 44406:1  |EV| 
0.06986612742803416375991787390376 2355:1 13722:1 26542:1 37657:1 37707:1 37712:1 37921:1 38152:1 39285:1 39946:1 43636:1 43643:1 43651:1 43789:1 43942:1 44095:1 44362:1 44370:1 44376:1 44380:1 44395:1 44406:1  |EV| 
0.094589961139530595590763084601349 334:1 11299:1 23748:1 37657:1 37745:1 37801:1 37842:1 37843:1 39252:1 39946:1 43636:1 43643:1 43657:1 43810:1 43942:1 44095:1 44362:1 44370:1 44378:1 44380:1 44395:1 44406:1  |EV| 
-0.1852155612366338799379406054868 2718:1 14098:1 29041:1 37657:1 37665:1 37822:1 38071:1 38277:1 39321:1 39946:1 41197:1 43636:1 43643:1 43689:1 43794:1 43942:1 44095:1 44362:1 44370:1 44375:1 44380:1 44383:1 44395:1 44406:1  |EV| 
-0.0042875881238688675831105534541621 6909:1 18727:1 32483:1 37651:1 37656:1 37657:1 37664:1 37689:1 37697:1 37712:1 37766:1 37776:1 37835:1 37999:1 38349:1 38405:1 38602:1 38740:1 38741:1 38742:1 38743:1 39676:1 39946:1 41488:1 43634:1 43643:1 43695:1 43810:1 43994:1 44084:1 44362:1 44370:1 44376:1 44380:1 44395:1 44406:1  |EV| 
-0.033495893140092491968573540361831 210:1 13136:1 25751:1 37712:1 38049:1 38050:1 38090:1 38120:1 39340:1 39946:1 43634:1 43643:1 43654:1 43815:1 43958:1 44091:1 44362:1 44370:1 44375:1 44380:1 44403:1 44406:1  |EV| 
0.057370755261473796449145368114841 10401:1 22587:1 36865:1 37664:1 37665:1 37689:1 37712:1 37846:1 37887:1 37905:1 38257:1 38878:1 39009:1 39193:1 39194:1 39195:1 39196:1 39224:1 39577:1 39946:1 41197:1 43636:1 43643:1 43656:1 43841:1 44012:1 44107:1 44362:1 44370:1 44375:1 44380:1 44395:1 44406:1  |EV| 
0.10000000000000000555111512312578 4686:1 16225:1 29618:1 37657:1 37665:1 37822:1 38255:1 38277:1 39321:1 39946:1 43636:1 43643:1 43670:1 43815:1 43942:1 44095:1 44362:1 44370:1 44375:1 44380:1 44395:1 44406:1  |EV| 
0.10000000000000000555111512312578 8111:1 20315:1 34223:1 37657:1 37664:1 37665:1 37688:1 37858:1 37872:1 38911:1 38912:1 38913:1 38914:1 39531:1 39946:1 43636:1 43643:1 43656:1 43811:1 43965:1 44107:1 44362:1 44370:1 44375:1 44380:1 44395:1 44406:1  |EV| 
0.039314564214970031119644744421748 7983:1 19885:1 33723:1 37657:1 37707:1 37720:1 38892:1 39773:1 39774:1 39775:1 39776:1 39777:1 39946:1 40383:1 41197:1 41851:1 43294:1 43636:1 43643:1 43663:1 43810:1 43938:1 44095:1 44362:1 44370:1 44375:1 44380:1 44395:1 44406:1  |EV| 
-0.053306801499761358176243675188744 8629:1 20681:1 34659:1 37657:1 37665:1 38949:1 39573:1 39946:1 43636:1 43643:1 43663:1 43789:1 43985:1 44095:1 44362:1 44370:1 44375:1 44380:1 44406:1  |EV| 
-0.046756061700067963471383336582221 5873:1 17573:1 31284:1 37652:1 37657:1 37669:1 37712:1 37892:1 38174:1 38628:1 38629:1 39240:1 39946:1 43634:1 43643:1 43700:1 43789:1 43963:1 44076:1 44362:1 44370:1 44375:1 44380:1 44395:1 44406:1  |EV| 
-0.029976152099740076273359790093309 9040:1 21133:1 35237:1 38972:1 39224:1 39577:1 39946:1 41197:1 43636:1 43643:1 43663:1 43811:1 43933:1 44095:1 44362:1 44370:1 44375:1 44380:1 44395:1 44404:1  |EV| 
0.10000000000000000555111512312578 5237:1 16818:1 30336:1 37650:1 37657:1 39235:1 39946:1 41197:1 43636:1 43643:1 43689:1 43789:1 43985:1 44095:1 44362:1 44370:1 44378:1 44380:1 44395:1 44406:1  |EV| 
-0.0053619597718466364272282831393568 1114:1 12234:1 24714:1 37727:1 37994:1 39330:1 39946:1 41197:1 43636:1 43643:1 43689:1 43789:1 43954:1 44095:1 44362:1 44370:1 44378:1 44380:1 44395:1 44401:1 44402:1  |EV| 
0.061480528557033460590464102324404 8533:1 20572:1 34534:1 37650:1 37689:1 39825:1 39946:1 41197:1 43636:1 43643:1 43689:1 43789:1 43954:1 44095:1 44362:1 44370:1 44376:1 44380:1 44383:1 44395:1 44406:1  |EV| 
0.0075085447554276291137753673865518 4370:1 16076:1 29433:1 37707:1 37801:1 39544:1 39946:1 41197:1 43636:1 43643:1 43689:1 43789:1 43954:1 44095:1 44362:1 44372:1 44375:1 44380:1 44395:1 44406:1  |EV| 
-0.093946174574865787265665062477638 6352:1 18122:1 31838:1 37651:1 37664:1 37788:1 37808:1 38675:1 38676:1 39442:1 39946:1 41381:1 43636:1 43643:1 43689:1 43798:1 43935:1 44095:1 44362:1 44370:1 44375:1 44380:1 44395:1 44406:1  |EV| 
-0.0013908466706926744110850435731663 8710:1 20783:1 24452:1 37689:1 39225:1 39946:1 41197:1 43636:1 43643:1 43689:1 43815:1 43933:1 44095:1 44362:1 44370:1 44376:1 44380:1 44395:1 44407:1  |EV| 
0.079968454547762107820219057430222 1204:1 12333:1 24833:1 37707:1 39346:1 39946:1 41256:1 43636:1 43643:1 43689:1 43815:1 43933:1 44095:1 44362:1 44370:1 44375:1 44380:1 44395:1 44406:1  |EV| 
0.091995683528176636079010108915099 8467:1 20497:1 23554:1 37657:1 39806:1 39946:1 41197:1 43636:1 43643:1 43689:1 43815:1 43933:1 44095:1 44362:1 44370:1 44375:1 44380:1 44395:1 44403:1 44406:1  |EV| 
0.025455736766933415721192446312671 6960:1 18781:1 32557:1 37650:1 37707:1 37708:1 37726:1 38031:1 38174:1 39694:1 39946:1 43636:1 43643:1 43670:1 43789:1 43935:1 44095:1 44362:1 44370:1 44376:1 44380:1 44395:1 44406:1  |EV| 
-0.034440702413067514342515096359421 37:1 10930:1 23352:1 37667:1 39206:1 39946:1 41197:1 43636:1 43643:1 43689:1 43815:1 43933:1 44095:1 44362:1 44370:1 44375:1 44380:1 44395:1 44401:1 44402:1 44403:1  |EV| 
-0.063458722965472419419441507670854 2444:1 13815:1 23643:1 39411:1 39946:1 41197:1 43636:1 43643:1 43689:1 43811:1 43959:1 44095:1 44362:1 44370:1 44378:1 44380:1 44383:1 44395:1 44404:1  |EV| 
0.086203350057466640588010875489999 6307:1 18070:1 31783:1 37657:1 37664:1 37707:1 37718:1 37801:1 38140:1 38318:1 38646:1 39622:1 39946:1 41197:1 41248:1 43636:1 43643:1 43646:1 43810:1 43988:1 44079:1 44362:1 44370:1 44376:1 44380:1 44395:1 44406:1  |EV| 
0.06356266986125259921269758933704 3357:1 14771:1 23643:1 39384:1 39946:1 41247:1 43636:1 43643:1 43689:1 43811:1 43959:1 44095:1 44362:1 44370:1 44375:1 44380:1 44395:1 44406:1  |EV| 
0.056306934108373618563803120196098 514:1 11497:1 23962:1 37689:1 37745:1 39242:1 39946:1 41197:1 43636:1 43643:1 43689:1 43789:1 43954:1 44095:1 44362:1 44370:1 44375:1 44380:1 44395:1 44406:1  |EV| 
0.041517622555500108272319437219267 495:1 11529:1 23962:1 37689:1 37745:1 39272:1 39946:1 43636:1 43643:1 43689:1 43789:1 43954:1 44095:1 44362:1 44370:1 44375:1 44380:1 44395:1 44406:1  |EV| 
0.022652848902083234233773012533675 9673:1 21812:1 35989:1 37808:1 39067:1 39358:1 39946:1 41197:1 43636:1 43643:1 43689:1 43789:1 43954:1 44095:1 44362:1 44370:1 44375:1 44380:1 44395:1 44406:1  |EV| 
-0.020131344259890368575405261708511 2938:1 14347:1 27490:1 37657:1 37900:1 39235:1 39946:1 41247:1 43636:1 43643:1 43689:1 43789:1 43954:1 44095:1 44362:1 44369:1 44378:1 44380:1 44383:1 44406:1  |EV| 
-0.0092498512789829581692835347439541 7629:1 19527:1 33335:1 37656:1 37657:1 37688:1 37689:1 37690:1 37707:1 37709:1 37736:1 37886:1 37893:1 37950:1 38058:1 38170:1 38682:1 38867:1 39748:1 39946:1 43636:1 43643:1 43652:1 43844:1 43983:1 44110:1 44362:1 44370:1 44375:1 44380:1 44395:1 44406:1  |EV| 
0.10000000000000000555111512312578 2273:1 13633:1 26406:1 37657:1 37707:1 37708:1 37736:1 37801:1 38174:1 39388:1 39946:1 41197:1 43636:1 43643:1 43657:1 43841:1 43935:1 44095:1 44362:1 44370:1 44378:1 44380:1 44395:1 44406:1  |EV| 
0.048719061478173897317134333206923 4902:1 16452:1 29878:1 37689:1 37707:1 38204:1 38545:1 39582:1 39946:1 41197:1 43636:1 43643:1 43689:1 43841:1 43938:1 44095:1 44362:1 44370:1 44375:1 44380:1 44395:1 44406:1  |EV| 
-0.091616959142767878665480907329766 4792:1 16338:1 30070:1 37651:1 37664:1 37689:1 37695:1 37745:1 38559:1 39222:1 39946:1 43634:1 43643:1 43647:1 43841:1 43945:1 44091:1 44362:1 44370:1 44376:1 44380:1 44383:1 44395:1 44406:1  |EV| 
-0.077233401591244157935456371433247 9756:1 21901:1 36098:1 37651:1 37664:1 37689:1 37697:1 37707:1 37713:1 37730:1 37759:1 37784:1 37788:1 37789:1 37834:1 38058:1 38088:1 38106:1 38277:1 38396:1 38450:1 38559:1 39062:1 39063:1 39064:1 39065:1 39884:1 39946:1 43636:1 43643:1 43670:1 43799:1 44016:1 44133:1 44362:1 44370:1 44375:1 44380:1 44395:1 44406:1  |EV| 
-0.11403294314156012245753402112314 1988:1 13324:1 26273:1 37657:1 37665:1 37667:1 37689:1 37801:1 37804:1 37869:1 38019:1 38160:1 38174:1 38177:1 38178:1 39386:1 39946:1 41197:1 43636:1 43643:1 43663:1 43834:1 43937:1 44089:1 44362:1 44370:1 44375:1 44380:1 44395:1 44406:1  |EV| 
-0.05520084094015983988690265960031 3504:1 14925:1 33150:1 37664:1 37665:1 37688:1 37717:1 37786:1 37788:1 37905:1 37933:1 38221:1 38817:1 38818:1 38819:1 38820:1 38821:1 38822:1 39377:1 39946:1 41247:1 43636:1 43643:1 43706:1 43810:1 43983:1 44130:1 44362:1 44370:1 44375:1 44380:1 44395:1 44403:1 44406:1  |EV| 
-0.044536589905387544141568412214838 7750:1 19651:1 33466:1 37656:1 37657:1 37689:1 37736:1 37893:1 39334:1 39946:1 43634:1 43643:1 43654:1 43810:1 43945:1 44091:1 44362:1 44370:1 44376:1 44380:1 44395:1 44406:1  |EV| 
0.10000000000000000555111512312578 3539:1 14966:1 28224:1 37651:1 37657:1 37697:1 37707:1 37846:1 38398:1 38399:1 39490:1 39946:1 41211:1 43635:1 43643:1 43671:1 43829:1 43942:1 44103:1 44362:1 44370:1 44375:1 44380:1 44395:1 44406:1  |EV| 
0.10000000000000000555111512312578 4020:1 21155:1 35270:1 37650:1 37664:1 37666:1 37689:1 37707:1 37712:1 37725:1 37726:1 37727:1 37728:1 37729:1 37730:1 37768:1 37795:1 37849:1 37954:1 38944:1 38945:1 39633:1 39946:1 43636:1 43643:1 43711:1 43815:1 43943:1 44130:1 44362:1 44370:1 44375:1 44380:1 44383:1 44395:1 44406:1  |EV| 
0.10000000000000000555111512312578 1303:1 12538:1 25074:1 37650:1 37656:1 37657:1 37664:1 37665:1 37679:1 37688:1 37689:1 37695:1 37705:1 37707:1 37709:1 37712:1 37723:1 37727:1 37736:1 37751:1 37765:1 37789:1 37818:1 37872:1 37886:1 37902:1 37920:1 37992:1 38006:1 38044:1 38070:1 38074:1 38075:1 38076:1 38077:1 38078:1 38079:1 38080:1 38081:1 38082:1 38083:1 38084:1 38085:1 38106:1 38107:1 38108:1 38109:1 38110:1 38111:1 38112:1 39359:1 39946:1 43636:1 43643:1 43768:1 43811:1 44057:1 44147:1 44362:1 44370:1 44375:1 44380:1 44383:1 44395:1 44406:1  |EV| 
0.10000000000000000555111512312578 7014:1 18835:1 32621:1 37656:1 37657:1 37667:1 37707:1 37727:1 37787:1 37886:1 37919:1 39682:1 39683:1 39946:1 41197:1 43636:1 43643:1 43689:1 43829:1 43932:1 44079:1 44362:1 44370:1 44375:1 44380:1 44395:1 44406:1  |EV| 
0.055362347059661164150323742205728 3433:1 14848:1 28108:1 37651:1 37657:1 37697:1 37707:1 37846:1 38397:1 38398:1 38399:1 39490:1 39946:1 41197:1 43636:1 43643:1 43689:1 43829:1 43932:1 44079:1 44362:1 44370:1 44375:1 44380:1 44395:1 44406:1  |EV| 
-0.012104898902330997467746698248448 1181:1 12310:1 24799:1 37656:1 37664:1 37707:1 37736:1 37751:1 37892:1 37992:1 38006:1 38057:1 38058:1 38062:1 39346:1 39946:1 41284:1 41743:1 42349:1 43636:1 43643:1 43698:1 43815:1 43965:1 44107:1 44362:1 44371:1 44375:1 44380:1 44393:1 44406:1  |EV| 
-0.096073800060483133256283849732426 4448:1 15917:1 29255:1 37657:1 37665:1 37688:1 37736:1 37835:1 38163:1 38243:1 38277:1 39423:1 39946:1 43636:1 43643:1 43652:1 43811:1 43932:1 44079:1 44362:1 44370:1 44375:1 44380:1 44383:1 44395:1 44406:1  |EV| 
0.031253879020079061712422685559432 9527:1 21657:1 35816:1 38238:1 39445:1 39946:1 41197:1 43636:1 43643:1 43663:1 43811:1 43933:1 44095:1 44362:1 44370:1 44375:1 44380:1 44395:1 44406:1  |EV| 
-0.021693938341908643174793525076893 2669:1 14046:1 26981:1 37664:1 37684:1 37707:1 37708:1 37736:1 37800:1 37835:1 37889:1 37890:1 38206:1 38236:1 38242:1 39414:1 39415:1 39946:1 43636:1 43643:1 43723:1 43811:1 43936:1 44107:1 44362:1 44370:1 44378:1 44380:1 44383:1 44395:1 44406:1  |EV| 
0.10000000000000000555111512312578 210:1 21066:1 35147:1 37657:1 37664:1 38092:1 38263:1 38962:1 39236:1 39946:1 43634:1 43643:1 43654:1 43815:1 43958:1 44091:1 44362:1 44370:1 44375:1 44380:1 44395:1 44406:1  |EV| 
0.0042753609093779624400477601398052 567:1 11568:1 24022:1 37712:1 39282:1 39283:1 39946:1 41197:1 43636:1 43643:1 43689:1 43815:1 43933:1 44095:1 44362:1 44370:1 44375:1 44380:1 44395:1 44406:1  |EV| 
-0.032228717296872780306848937925679 10405:1 22593:1 36875:1 37657:1 37689:1 37707:1 37846:1 37998:1 38697:1 39179:1 39220:1 39946:1 41195:1 43634:1 43643:1 43685:1 43794:1 43945:1 44091:1 44362:1 44372:1 44375:1 44380:1 44395:1 44398:1 44406:1  |EV| 
-0.091149372801637110197425784008374 8491:1 20523:1 34511:1 37656:1 37657:1 37664:1 38257:1 38949:1 38960:1 39821:1 39946:1 41223:1 43634:1 43643:1 43685:1 43815:1 43934:1 44091:1 44362:1 44370:1 44375:1 44380:1 44395:1 44406:1  |EV| 
-0.01539125357819923212154833436216 7536:1 19425:1 33236:1 37656:1 37869:1 38828:1 39726:1 39946:1 40346:1 41302:1 41634:1 43194:1 43634:1 43643:1 43697:1 43789:1 43951:1 44091:1 44362:1 44369:1 44375:1 44380:1 44406:1  |EV| 
0.10000000000000000555111512312578 3283:1 14697:1 27960:1 37650:1 37657:1 37665:1 37707:1 38352:1 38353:1 38379:1 39462:1 39468:1 39469:1 39470:1 39946:1 43636:1 43643:1 43669:1 43789:1 43973:1 44095:1 44362:1 44372:1 44375:1 44380:1 44395:1 44406:1  |EV| 
-0.014918726148303099177105934813881 1963:1 13296:1 25949:1 37651:1 37657:1 37665:1 37667:1 37679:1 37689:1 37697:1 37707:1 37712:1 37727:1 37840:1 37921:1 37932:1 37939:1 38152:1 38153:1 38154:1 38155:1 38156:1 38157:1 38158:1 38159:1 39380:1 39946:1 43636:1 43643:1 43725:1 43815:1 44016:1 44139:1 44362:1 44370:1 44375:1 44380:1 44395:1 44403:1  |EV| 
-0.048151690703658163450473495004189 2998:1 14410:1 27654:1 37657:1 37667:1 39439:1 39946:1 41197:1 43636:1 43643:1 43689:1 43789:1 43954:1 44095:1 44362:1 44370:1 44375:1 44380:1 44395:1 44401:1 44402:1  |EV| 
-0.10331610993597473147076470922912 9612:1 21750:1 35914:1 37657:1 37664:1 37666:1 37669:1 37684:1 37689:1 37707:1 37803:1 37808:1 37823:1 38450:1 39066:1 39067:1 39358:1 39946:1 43636:1 43643:1 43656:1 43789:1 43971:1 44107:1 44362:1 44370:1 44375:1 44380:1 44395:1 44406:1  |EV| 
-0.031486940542085235794633746309046 1365:1 12498:1 25033:1 37664:1 37688:1 37689:1 37695:1 37705:1 37727:1 37736:1 37751:1 37818:1 38044:1 38070:1 38075:1 38076:1 38083:1 38084:1 38085:1 38106:1 39353:1 39946:1 43638:1 43643:1 43682:1 43790:1 43971:1 44143:1 44362:1 44370:1 44376:1 44380:1 44383:1 44395:1 44406:1  |EV| 
-0.059071616556589788549214148360988 1123:1 12249:1 24732:1 37657:1 37665:1 37707:1 37719:1 37784:1 37804:1 37889:1 37921:1 37952:1 38016:1 38017:1 38018:1 39324:1 39946:1 43636:1 43643:1 43679:1 43789:1 44012:1 44107:1 44362:1 44370:1 44375:1 44380:1 44391:1 44406:1  |EV| 
-0.012839919732847288047494771490165 2036:1 13374:1 26048:1 37657:1 38165:1 39377:1 39946:1 41197:1 43636:1 43643:1 43689:1 43789:1 43954:1 44095:1 44362:1 44370:1 44375:1 44380:1 44395:1  |EV| 
0.028862697043248179001873054971838 3136:1 14550:1 27814:1 37707:1 37788:1 39324:1 39946:1 41197:1 43636:1 43643:1 43689:1 43789:1 43954:1 44095:1 44362:1 44370:1 44375:1 44380:1 44395:1 44406:1  |EV| 
0.038958268933412171231012166572327 9534:1 21664:1 35823:1 37689:1 37690:1 37712:1 37828:1 37989:1 38174:1 39245:1 39946:1 43636:1 43643:1 43670:1 43789:1 43935:1 44095:1 44362:1 44370:1 44375:1 44380:1 44395:1 44403:1 44406:1  |EV| 
0.037397293835455966415359796428675 8558:1 20601:1 34986:1 37689:1 38935:1 39823:1 39946:1 41197:1 43636:1 43643:1 43689:1 43789:1 43954:1 44095:1 44362:1 44370:1 44375:1 44380:1 44395:1 44401:1 44406:1  |EV| 
-0.0063628238053890229242171017176588 9750:1 21895:1 36092:1 37651:1 37664:1 37689:1 37697:1 37707:1 37713:1 37730:1 37759:1 37784:1 37788:1 37789:1 37834:1 38058:1 38088:1 38277:1 38396:1 38450:1 38559:1 39061:1 39062:1 39063:1 39064:1 39065:1 39884:1 39946:1 41197:1 43636:1 43643:1 43689:1 43870:1 44016:1 44133:1 44362:1 44370:1 44375:1 44380:1 44395:1 44406:1  |EV| 
-0.15969322377678962787683758506319 210:1 11145:1 23554:1 37657:1 39236:1 39946:1 41197:1 43636:1 43643:1 43689:1 43815:1 43933:1 44095:1 44362:1 44370:1 44375:1 44380:1 44395:1  |EV| 
-0.018864117549082497909962441440257 1291:1 12421:1 23554:1 37657:1 39236:1 39946:1 41197:1 43636:1 43643:1 43689:1 43815:1 43933:1 44095:1 44362:1 44370:1 44375:1 44380:1 44395:1 44404:1  |EV| 
-0.016906287966717604281940978694365 7989:1 19891:1 33729:1 37656:1 37657:1 37672:1 37707:1 37719:1 37784:1 37846:1 37948:1 37996:1 38020:1 38163:1 38878:1 38879:1 38880:1 38881:1 38882:1 38883:1 38884:1 38885:1 39763:1 39764:1 39946:1 43634:1 43643:1 43714:1 43868:1 43957:1 44083:1 44362:1 44372:1 44375:1 44380:1 44406:1  |EV| 
-0.061372308406873139763337832164325 3921:1 17473:1 31080:1 37657:1 37664:1 37751:1 38598:1 39235:1 39946:1 43637:1 43642:1 43670:1 43790:1 43951:1 44088:1 44362:1 44370:1 44378:1 44380:1 44395:1 44406:1  |EV| 
-0.017391261002843085015090451861397 2543:1 13917:1 26806:1 37656:1 37657:1 37798:1 37828:1 37921:1 39409:1 39410:1 39946:1 41197:1 43636:1 43643:1 43663:1 43841:1 43942:1 44095:1 44362:1 44372:1 44375:1 44380:1 44395:1 44401:1  |EV| 
-0.075675492916269751497715390087251 4884:1 16434:1 30095:1 37651:1 37664:1 37669:1 37689:1 37695:1 37717:1 37745:1 37756:1 38559:1 39564:1 39946:1 43636:1 43643:1 43694:1 43815:1 43978:1 44079:1 44362:1 44370:1 44375:1 44380:1 44395:1 44406:1  |EV| 
0.087606075081996040432308348044899 2868:1 14269:1 27314:1 37688:1 37689:1 37714:1 39423:1 39946:1 43636:1 43643:1 43657:1 43815:1 43985:1 44095:1 44362:1 44370:1 44375:1 44380:1 44395:1 44406:1  |EV| 
0.045188889077724447851380773499841 9521:1 21651:1 35811:1 37657:1 37707:1 37803:1 39882:1 39946:1 41197:1 43636:1 43643:1 43689:1 43810:1 43985:1 44095:1 44362:1 44370:1 44375:1 44380:1 44395:1 44406:1  |EV| 
-0.061789152235762319353984395320367 4783:1 16329:1 29735:1 37689:1 37707:1 37718:1 38109:1 38550:1 38551:1 39564:1 39946:1 43636:1 43643:1 43669:1 43815:1 43935:1 44095:1 44362:1 44370:1 44375:1 44380:1 44406:1  |EV| 
0.0025618986379467578728963417233899 4528:1 16018:1 23643:1 39445:1 39946:1 41197:1 43636:1 43643:1 43689:1 43811:1 43959:1 44095:1 44362:1 44370:1 44375:1 44380:1 44395:1 44406:1  |EV| 
-0.071290796686545185312233741115051 1606:1 12804:1 25375:1 37650:1 37656:1 37657:1 37664:1 37665:1 37679:1 37688:1 37689:1 37695:1 37705:1 37707:1 37709:1 37712:1 37723:1 37727:1 37736:1 37751:1 37789:1 37818:1 37872:1 37886:1 37902:1 37920:1 37992:1 38006:1 38044:1 38070:1 38074:1 38075:1 38076:1 38077:1 38078:1 38079:1 38080:1 38081:1 38082:1 38083:1 38084:1 38085:1 38106:1 38107:1 38108:1 38109:1 38110:1 38111:1 38112:1 38113:1 39359:1 39946:1 43636:1 43643:1 43682:1 43916:1 44057:1 44301:1 44362:1 44370:1 44375:1 44380:1 44383:1 44395:1 44406:1  |EV| 
-0.033872970048445125157421387029899 1303:1 12433:1 24966:1 37650:1 37656:1 37657:1 37664:1 37665:1 37679:1 37688:1 37689:1 37695:1 37705:1 37707:1 37709:1 37712:1 37723:1 37727:1 37736:1 37751:1 37765:1 37789:1 37818:1 37872:1 37886:1 37902:1 37920:1 37992:1 38006:1 38044:1 38070:1 38074:1 38075:1 38076:1 38077:1 38078:1 38079:1 38080:1 38081:1 38082:1 38083:1 38084:1 38085:1 38107:1 38108:1 38109:1 38110:1 38111:1 38112:1 38113:1 39359:1 39946:1 43636:1 43643:1 43668:1 43852:1 44057:1 44261:1 44362:1 44370:1 44375:1 44380:1 44383:1 44395:1 44406:1  |EV| 
-0.027128485955774543636476181518447 3608:1 15039:1 28332:1 37664:1 37665:1 37685:1 37689:1 37713:1 37736:1 37755:1 37788:1 37812:1 37856:1 37857:1 37872:1 37932:1 37948:1 38106:1 38396:1 38405:1 38421:1 38422:1 38423:1 38424:1 38425:1 39502:1 39946:1 41632:1 42623:1 43637:1 43642:1 43684:1 43822:1 43977:1 44259:1 44362:1 44370:1 44378:1 44380:1 44395:1 44406:1  |EV| 
0.07045942846839320372609449805168 9905:1 22056:1 36275:1 37656:1 37689:1 37707:1 37719:1 37772:1 37846:1 38355:1 38356:1 38357:1 38358:1 38359:1 38360:1 38361:1 39111:1 39468:1 39895:1 39946:1 43636:1 43643:1 43652:1 43798:1 43947:1 44079:1 44362:1 44372:1 44375:1 44380:1 44395:1 44406:1  |EV| 
0.0342218204492660688087468656704 9425:1 21540:1 35702:1 37664:1 37689:1 37707:1 37719:1 37980:1 38036:1 38040:1 38045:1 38088:1 39009:1 39040:1 39041:1 39050:1 39260:1 39867:1 39868:1 39946:1 43636:1 43643:1 43679:1 43815:1 43947:1 44107:1 44362:1 44370:1 44375:1 44380:1 44395:1 44406:1  |EV| 
0.093691864368980692923116748715984 1495:1 13032:1 25638:1 37664:1 37689:1 37695:1 37705:1 37727:1 37736:1 37818:1 38044:1 38083:1 38084:1 38085:1 39353:1 39946:1 43636:1 43643:1 43668:1 43815:1 43971:1 44107:1 44362:1 44370:1 44376:1 44380:1 44383:1 44395:1 44406:1  |EV| 
0.089510384769194789589263905327243 9585:1 21716:1 35875:1 37656:1 37657:1 37664:1 37665:1 37689:1 37695:1 37723:1 37730:1 37787:1 37846:1 37869:1 38559:1 38702:1 39079:1 39087:1 39088:1 39889:1 39946:1 43636:1 43643:1 43706:1 43789:1 43975:1 44107:1 44362:1 44370:1 44375:1 44380:1 44395:1 44406:1  |EV| 
0.064932239750261064314962311527779 6466:1 18245:1 31965:1 37656:1 37657:1 37664:1 37665:1 37689:1 37712:1 37727:1 38082:1 38697:1 38698:1 38699:1 38700:1 38701:1 38702:1 39462:1 39654:1 39655:1 39656:1 39657:1 39658:1 39946:1 43636:1 43643:1 43706:1 43811:1 44012:1 44107:1 44362:1 44370:1 44375:1 44380:1 44395:1 44406:1  |EV| 
-0.042326571973097623646786757944938 4998:1 16560:1 30012:1 37664:1 37669:1 38104:1 39218:1 39946:1 43634:1 43643:1 43697:1 43811:1 43939:1 44091:1 44362:1 44370:1 44376:1 44380:1 44395:1 44406:1  |EV| 
0.080491131333552096149830390459101 10058:1 22211:1 36441:1 38045:1 39240:1 39946:1 41197:1 43636:1 43643:1 43689:1 43815:1 43933:1 44095:1 44362:1 44370:1 44375:1 44380:1 44395:1 44401:1 44406:1  |EV| 
0.05490534142145814255897562361497 5030:1 16595:1 30065:1 37657:1 37745:1 37921:1 39564:1 39577:1 39946:1 41197:1 41248:1 43636:1 43643:1 43663:1 43789:1 43985:1 44095:1 44362:1 44370:1 44375:1 44380:1 44395:1 44401:1 44406:1  |EV| 
-0.022994693627193446561207679224026 9064:1 21161:1 35279:1 37712:1 37781:1 38946:1 39224:1 39577:1 39946:1 43636:1 43643:1 43657:1 43815:1 43985:1 44095:1 44362:1 44370:1 44375:1 44380:1 44383:1 44395:1 44401:1  |EV| 
-0.080775656810131019058829338064243 5475:1 17097:1 30646:1 37656:1 37657:1 37664:1 37665:1 37675:1 37689:1 37745:1 37751:1 37787:1 37845:1 37859:1 38599:1 38600:1 39598:1 39946:1 41197:1 43636:1 43643:1 43689:1 43803:1 44012:1 44089:1 44362:1 44370:1 44375:1 44380:1 44395:1 44406:1  |EV| 
-0.046937577032406967159072763706718 8967:1 21054:1 35132:1 37656:1 37657:1 38045:1 38976:1 38977:1 39384:1 39946:1 41197:1 43636:1 43643:1 43651:1 43789:1 43942:1 44095:1 44362:1 44370:1 44375:1 44380:1 44395:1 44403:1 44407:1  |EV| 
-0.075634047091024392273084231419489 4444:1 15913:1 29251:1 37656:1 37657:1 37664:1 37665:1 37707:1 37794:1 38008:1 38250:1 38255:1 38277:1 38507:1 38523:1 38537:1 39545:1 39546:1 39548:1 39946:1 43636:1 43643:1 43646:1 43829:1 43947:1 44079:1 44362:1 44370:1 44375:1 44380:1 44395:1 44406:1  |EV| 
-0.008192339491869838133397685453474 7947:1 19849:1 33681:1 37657:1 37707:1 38871:1 38877:1 39757:1 39946:1 41530:1 43636:1 43643:1 43663:1 43810:1 43938:1 44095:1 44362:1 44370:1 44375:1 44380:1 44403:1 44406:1  |EV| 
0.079005311273197154076086690110969 7656:1 19555:1 33365:1 37657:1 37688:1 39748:1 39946:1 41256:1 43636:1 43643:1 43689:1 43789:1 43954:1 44095:1 44362:1 44370:1 44375:1 44380:1 44395:1 44406:1  |EV| 
-0.098783732699163975810030535740225 2740:1 14137:1 27113:1 37652:1 37689:1 37828:1 37923:1 37953:1 38239:1 38245:1 39377:1 39946:1 41331:1 43639:1 43643:1 43647:1 43833:1 43940:1 44093:1 44362:1 44370:1 44375:1 44380:1 44395:1 44406:1  |EV| 
-0.07341413818130637647385583477444 3796:1 15229:1 28502:1 37657:1 37688:1 37707:1 39523:1 39946:1 41195:1 41385:1 41634:1 42697:1 43636:1 43643:1 43657:1 43789:1 43942:1 44095:1 44362:1 44371:1 44375:1 44380:1 44393:1 44406:1  |EV| 
-0.014071170655421294526377096190117 47:1 10940:1 23246:1 37650:1 37707:1 37712:1 37719:1 37750:1 39218:1 39946:1 43636:1 43643:1 43670:1 43815:1 43942:1 44095:1 44362:1 44370:1 44376:1 44380:1 44395:1  |EV| 
-0.022712885668804666527975655299088 4388:1 19013:1 32832:1 37657:1 38815:1 39378:1 39946:1 41197:1 43636:1 43643:1 43663:1 43815:1 43954:1 44095:1 44362:1 44370:1 44378:1 44380:1 44383:1 44395:1 44404:1  |EV| 
0.035870008408984029035782015171208 7671:1 19570:1 33380:1 37657:1 37667:1 37707:1 37727:1 37799:1 37800:1 37886:1 37897:1 38849:1 39214:1 39215:1 39946:1 41197:1 43636:1 43643:1 43663:1 43829:1 43988:1 44079:1 44362:1 44370:1 44375:1 44380:1 44395:1 44403:1 44406:1  |EV| 
0.10000000000000000555111512312578 5873:1 17573:1 31208:1 37657:1 37712:1 39240:1 39946:1 43634:1 43643:1 43666:1 43789:1 43977:1 44091:1 44362:1 44370:1 44375:1 44380:1 44395:1 44406:1  |EV| 
0.10000000000000000555111512312578 8491:1 20523:1 23554:1 37657:1 39821:1 39946:1 41197:1 43636:1 43643:1 43689:1 43815:1 43933:1 44095:1 44362:1 44370:1 44375:1 44380:1 44395:1 44406:1  |EV| 
-0.047061307279014322202392861527187 4020:1 21747:1 35910:1 37657:1 37664:1 37707:1 37723:1 37727:1 37730:1 37786:1 37789:1 37886:1 37923:1 38189:1 38438:1 38502:1 38699:1 38768:1 39538:1 39946:1 43636:1 43643:1 43688:1 43815:1 44012:1 44107:1 44362:1 44370:1 44375:1 44380:1 44406:1  |EV| 
-0.00051066606574730333267808646269259 122:1 11075:1 23440:1 37654:1 37655:1 37657:1 37658:1 37659:1 37660:1 37661:1 37662:1 37663:1 37664:1 37665:1 37666:1 37667:1 37675:1 37752:1 39206:1 39946:1 43636:1 43643:1 43653:1 43811:1 43975:1 44107:1 44362:1 44370:1 44375:1 44380:1 44395:1 44401:1 44402:1 44403:1  |EV| 
-0.006119324962721886355943023971804 6471:1 18250:1 31970:1 37656:1 37657:1 37664:1 37665:1 37689:1 37712:1 37727:1 38697:1 38698:1 38699:1 38700:1 38701:1 38702:1 39462:1 39654:1 39655:1 39656:1 39657:1 39658:1 39946:1 40688:1 40689:1 41473:1 41972:1 41973:1 43022:1 43023:1 43024:1 43025:1 43026:1 43027:1 43636:1 43643:1 43688:1 43811:1 43947:1 44107:1 44362:1 44371:1 44375:1 44380:1 44393:1 44406:1  |EV| 
-0.13866546875119820092514544285223 4458:1 15927:1 29362:1 37657:1 37665:1 37688:1 37736:1 38163:1 39417:1 39946:1 41202:1 43634:1 43643:1 43654:1 43815:1 43958:1 44091:1 44362:1 44370:1 44375:1 44380:1 44395:1 44406:1  |EV| 
-0.02840319750832612233359952824685 6973:1 18794:1 32573:1 37656:1 37657:1 37664:1 37666:1 37667:1 37707:1 37727:1 37736:1 37787:1 37886:1 37919:1 37990:1 38756:1 38765:1 38766:1 39682:1 39683:1 39946:1 41223:1 43635:1 43643:1 43647:1 43792:1 43932:1 44077:1 44362:1 44370:1 44375:1 44380:1 44395:1 44406:1  |EV| 
0.10000000000000000555111512312578 1903:1 13236:1 25873:1 37665:1 37688:1 37707:1 38054:1 38130:1 39244:1 39946:1 43636:1 43643:1 43670:1 43815:1 43942:1 44095:1 44362:1 44370:1 44376:1 44380:1 44395:1 44406:1  |EV| 
0.050988481472544248951361822719264 4827:1 16533:1 29985:1 37707:1 37921:1 38567:1 39218:1 39946:1 43636:1 43643:1 43651:1 43811:1 43985:1 44095:1 44362:1 44370:1 44376:1 44380:1 44395:1 44406:1  |EV| 
0.0098061311749583490726678292048746 5328:1 16918:1 23554:1 37657:1 39602:1 39946:1 41197:1 43636:1 43643:1 43689:1 43815:1 43933:1 44095:1 44362:1 44370:1 44376:1 44380:1 44395:1 44406:1  |EV| 
0.041330291410755976011515144818986 5007:1 16569:1 30106:1 37657:1 38000:1 38548:1 39571:1 39946:1 41197:1 43636:1 43643:1 43663:1 43789:1 43985:1 44095:1 44362:1 44370:1 44375:1 44380:1 44395:1 44403:1 44406:1  |EV| 
-0.029738682800651745213871279815976 7206:1 19174:1 32989:1 38788:1 39700:1 39946:1 41197:1 43636:1 43643:1 43689:1 43815:1 43933:1 44095:1 44362:1 44370:1 44375:1 44380:1 44395:1 44402:1  |EV| 
-0.026427450830266166481585798919696 3265:1 14679:1 27942:1 37657:1 37664:1 37707:1 37920:1 38238:1 38363:1 38376:1 38378:1 38380:1 38381:1 39476:1 39477:1 39946:1 43635:1 43643:1 43647:1 43834:1 43954:1 44078:1 44362:1 44370:1 44375:1 44380:1 44395:1 44406:1  |EV| 
0.048186074266440004354450366008678 4869:1 16417:1 29629:1 37707:1 37890:1 39564:1 39946:1 43636:1 43643:1 43657:1 43811:1 43954:1 44095:1 44362:1 44370:1 44375:1 44380:1 44395:1 44406:1  |EV| 
-0.0071029219341070364002188597396525 2985:1 14396:1 27718:1 37657:1 37707:1 37712:1 37900:1 38328:1 39442:1 39946:1 43636:1 43643:1 43663:1 43841:1 43942:1 44095:1 44362:1 44370:1 44375:1 44380:1 44395:1 44401:1  |EV| 
0.045555561625587458196573464874746 4083:1 15524:1 28823:1 37657:1 37688:1 37707:1 37721:1 38468:1 39523:1 39946:1 43636:1 43643:1 43670:1 43789:1 43973:1 44095:1 44362:1 44370:1 44375:1 44380:1 44395:1 44406:1  |EV| 
0.033124953171400614571062703817006 2969:1 14380:1 27520:1 37707:1 38000:1 39239:1 39946:1 41343:1 43636:1 43643:1 43663:1 43815:1 43954:1 44095:1 44362:1 44370:1 44375:1 44380:1 44395:1 44406:1  |EV| 
-0.028109683035035047671268415570012 578:1 11579:1 24033:1 37745:1 37916:1 39290:1 39946:1 41197:1 43636:1 43643:1 43663:1 43815:1 43954:1 44095:1 44362:1 44370:1 44376:1 44380:1 44395:1  |EV| 
0.061139692784763721711271955427947 10444:1 22757:1 37073:1 37673:1 37707:1 37723:1 38673:1 39174:1 39531:1 39946:1 41197:1 43636:1 43643:1 43670:1 43815:1 43942:1 44095:1 44362:1 44370:1 44375:1 44380:1 44395:1 44406:1  |EV| 
-0.015707470164685020247441471497041 851:1 11955:1 24406:1 37707:1 37755:1 37902:1 37903:1 39212:1 39946:1 43636:1 43643:1 43669:1 43815:1 43935:1 44095:1 44362:1 44370:1 44375:1 44380:1 44406:1  |EV| 
-0.051067236096636853259767008239578 2680:1 14058:1 26995:1 37657:1 37707:1 37772:1 37835:1 38056:1 39377:1 39946:1 43636:1 43643:1 43670:1 43815:1 43942:1 44095:1 44362:1 44372:1 44375:1 44380:1 44398:1 44406:1  |EV| 
-0.011116400554311673190555076473629 2168:1 13520:1 26589:1 37667:1 37869:1 37948:1 38178:1 39386:1 39946:1 43634:1 43643:1 43650:1 43810:1 43951:1 44091:1 44362:1 44370:1 44375:1 44380:1 44406:1  |EV| 
-0.0085417746148928608285189056914533 10063:1 22310:1 36542:1 37657:1 37664:1 37712:1 37733:1 37754:1 37845:1 37872:1 37881:1 37985:1 38000:1 38058:1 38140:1 38462:1 38592:1 38614:1 39135:1 39136:1 39137:1 39738:1 39946:1 43638:1 43643:1 43682:1 43832:1 43942:1 44190:1 44362:1 44370:1 44375:1 44380:1 44395:1 44406:1  |EV| 
-0.0074788049346571853354115333445407 1280:1 12409:1 24942:1 37664:1 37689:1 37736:1 38044:1 38085:1 39353:1 39946:1 43636:1 43643:1 43670:1 43815:1 43942:1 44095:1 44362:1 44371:1 44376:1 44380:1 44383:1 44393:1 44406:1  |EV| 
-0.0065513595904770870193001286452272 3773:1 15206:1 28596:1 37656:1 37657:1 37664:1 37672:1 37673:1 37794:1 37872:1 38463:1 39524:1 39946:1 41384:1 43634:1 43643:1 43690:1 43789:1 43940:1 44076:1 44362:1 44370:1 44375:1 44380:1 44395:1 44406:1  |EV| 
0.02471301868322878236838846532919 2739:1 14116:1 26929:1 37657:1 37707:1 39377:1 39946:1 41197:1 43636:1 43643:1 43689:1 43789:1 43954:1 44095:1 44362:1 44370:1 44375:1 44380:1 44395:1 44406:1  |EV| 
-0.038518582685718012748044003501491 2508:1 13882:1 27481:1 37846:1 39403:1 39946:1 41197:1 43636:1 43643:1 43689:1 43815:1 43933:1 44095:1 44362:1 44370:1 44375:1 44380:1 44395:1 44404:1  |EV| 
0.02452751120562092143617682893364 10189:1 22355:1 36593:1 37657:1 37845:1 38000:1 38462:1 39135:1 39738:1 39946:1 41197:1 43636:1 43643:1 43663:1 43841:1 43942:1 44095:1 44362:1 44370:1 44375:1 44380:1 44395:1 44406:1  |EV| 
-0.01258502119447603255497636354221 1241:1 12370:1 24022:1 37712:1 39239:1 39946:1 41197:1 43636:1 43643:1 43689:1 43815:1 43933:1 44095:1 44362:1 44370:1 44375:1 44380:1 44383:1 44395:1 44401:1 44407:1  |EV| 
-0.0039466263080472629987127675121883 7207:1 19035:1 32854:1 37689:1 37745:1 38163:1 38165:1 38249:1 38809:1 38810:1 38811:1 39398:1 39946:1 41197:1 43636:1 43643:1 43689:1 43844:1 43978:1 44089:1 44362:1 44370:1 44375:1 44380:1 44381:1 44383:1 44395:1 44406:1  |EV| 
-0.039086455160682244402980956010651 9767:1 21913:1 36112:1 37656:1 37657:1 37664:1 37665:1 37669:1 37689:1 37712:1 37716:1 37784:1 37834:1 37895:1 39885:1 39946:1 41597:1 43636:1 43643:1 43668:1 43815:1 43971:1 44107:1 44362:1 44372:1 44378:1 44380:1 44395:1 44406:1  |EV| 
-0.056017458173552220346280705598474 10444:1 22757:1 37565:1 37650:1 37664:1 37665:1 37673:1 37679:1 37707:1 37723:1 37793:1 37799:1 37890:1 37977:1 38673:1 38695:1 38780:1 39173:1 39174:1 39531:1 39946:1 43636:1 43643:1 43723:1 43815:1 43975:1 44107:1 44362:1 44370:1 44375:1 44380:1 44395:1 44406:1  |EV| 
-0.022626363157859818997508227766957 3289:1 14703:1 27965:1 37650:1 37665:1 38379:1 39464:1 39465:1 39946:1 43630:1 43638:1 43643:1 43669:1 43807:1 43933:1 44094:1 44362:1 44372:1 44378:1 44380:1 44395:1 44406:1  |EV| 
-0.044580215715769290485415154989823 2492:1 13866:1 26750:1 37651:1 37688:1 37689:1 37697:1 37714:1 37809:1 37835:1 37846:1 38054:1 38286:1 38287:1 39423:1 39946:1 43636:1 43643:1 43698:1 43815:1 43965:1 44107:1 44362:1 44372:1 44375:1 44380:1 44406:1  |EV| 
-0.039442612392779484442595361315398 3273:1 14687:1 27950:1 37657:1 37665:1 37707:1 39462:1 39468:1 39469:1 39470:1 39946:1 43628:1 43636:1 43643:1 43663:1 43789:1 43985:1 44095:1 44362:1 44372:1 44375:1 44380:1 44396:1 44406:1  |EV| 
0.10000000000000000555111512312578 4458:1 15927:1 29266:1 37688:1 39417:1 39946:1 41197:1 43636:1 43643:1 43689:1 43815:1 43933:1 44095:1 44362:1 44370:1 44375:1 44380:1 44395:1 44406:1  |EV| 
0.070675731829355964430661174446868 980:1 12080:1 24536:1 37657:1 37707:1 38007:1 39321:1 39946:1 40078:1 41237:1 41718:1 42317:1 43636:1 43643:1 43689:1 43810:1 43985:1 44095:1 44362:1 44370:1 44375:1 44380:1 44395:1 44401:1 44406:1  |EV| 
0.063465041866575686024809499485855 4886:1 20421:1 34351:1 37723:1 37730:1 39688:1 39946:1 41197:1 43636:1 43643:1 43663:1 43815:1 43954:1 44095:1 44362:1 44370:1 44376:1 44380:1 44395:1 44405:1 44406:1  |EV| 
0.045202184139333377588254592183148 3096:1 14869:1 28129:1 37788:1 39377:1 39946:1 41197:1 43636:1 43643:1 43689:1 43815:1 43933:1 44095:1 44362:1 44370:1 44375:1 44380:1 44383:1 44395:1 44406:1  |EV| 
0.048683115717159525237534012376273 6205:1 18078:1 31791:1 37657:1 37707:1 38132:1 39282:1 39644:1 39645:1 39946:1 41197:1 43636:1 43643:1 43689:1 43810:1 43985:1 44095:1 44362:1 44370:1 44375:1 44380:1 44395:1 44401:1 44406:1  |EV| 
-0.080308081578005369172146288292424 566:1 11567:1 32276:1 37657:1 37712:1 39242:1 39946:1 41197:1 43636:1 43643:1 43689:1 43789:1 43954:1 44095:1 44362:1 44370:1 44375:1 44380:1 44395:1  |EV| 
-0.011642118378963527136615851986789 8295:1 20233:1 34118:1 37672:1 37846:1 39803:1 39946:1 40966:1 41237:1 42076:1 43350:1 43636:1 43643:1 43689:1 43789:1 43954:1 44095:1 44362:1 44370:1 44375:1 44380:1 44395:1 44396:1 44404:1  |EV| 
-0.078667093882935495985364582338661 7781:1 19683:1 33505:1 37656:1 37657:1 39334:1 39946:1 41256:1 43637:1 43642:1 43689:1 43795:1 43945:1 44088:1 44362:1 44370:1 44376:1 44380:1 44395:1 44406:1  |EV| 
0.092366628618398533001609962411749 2645:1 14069:1 27008:1 37657:1 37707:1 37800:1 38288:1 39235:1 39946:1 43634:1 43643:1 43650:1 43841:1 43977:1 44091:1 44362:1 44370:1 44378:1 44380:1 44395:1 44406:1  |EV| 
-0.084010057095621357148296226569073 1494:1 13033:1 25639:1 37650:1 37664:1 37688:1 37689:1 37695:1 37705:1 37727:1 37736:1 37751:1 37765:1 37818:1 38044:1 38070:1 38074:1 38075:1 38076:1 38083:1 38084:1 38085:1 39268:1 39946:1 43636:1 43643:1 43668:1 43844:1 44002:1 44106:1 44362:1 44370:1 44376:1 44380:1 44383:1 44395:1 44406:1  |EV| 
-0.049416874548417616397344431788952 2534:1 13908:1 26799:1 37707:1 37708:1 37890:1 39235:1 39946:1 43637:1 43642:1 43651:1 43814:1 43977:1 44088:1 44362:1 44370:1 44378:1 44380:1 44395:1 44406:1  |EV| 
-0.05095397259354769725625544651848 9618:1 21756:1 35920:1 37656:1 37657:1 37664:1 37665:1 37689:1 37695:1 37723:1 37730:1 37787:1 37846:1 37869:1 38106:1 38559:1 38702:1 39079:1 39087:1 39889:1 39946:1 43636:1 43643:1 43651:1 43827:1 43975:1 44089:1 44362:1 44370:1 44375:1 44380:1 44395:1 44406:1  |EV| 
-0.061627928476426035997448593661829 10099:1 22257:1 36487:1 37657:1 37916:1 37921:1 39611:1 39946:1 41197:1 43636:1 43643:1 43657:1 43815:1 43985:1 44095:1 44362:1 44370:1 44376:1 44380:1 44395:1  |EV| 
-0.021380516409066921412751582920464 10294:1 22469:1 36726:1 37697:1 37872:1 39160:1 39161:1 39462:1 39654:1 39925:1 39926:1 39927:1 39946:1 41197:1 43636:1 43643:1 43689:1 43841:1 43938:1 44095:1 44362:1 44370:1 44375:1 44380:1 44383:1 44395:1  |EV| 
-0.024400435129850264054374164857109 6397:1 18170:1 31892:1 37656:1 37665:1 37727:1 38701:1 38702:1 39462:1 39654:1 39655:1 39656:1 39657:1 39658:1 39946:1 43636:1 43643:1 43669:1 43811:1 43942:1 44095:1 44362:1 44369:1 44375:1 44380:1 44391:1 44406:1  |EV| 
-0.032743745827701620232375034902361 5790:1 17474:1 31081:1 37650:1 37656:1 37657:1 37664:1 37665:1 37669:1 37675:1 37689:1 37745:1 37751:1 37765:1 37787:1 37794:1 37801:1 37845:1 37859:1 38598:1 38599:1 39598:1 39946:1 43636:1 43643:1 43658:1 43841:1 44002:1 44130:1 44362:1 44370:1 44375:1 44380:1 44395:1 44406:1  |EV| 
-0.021220500400315867040035300306045 9941:1 22092:1 36312:1 37707:1 37772:1 37846:1 38355:1 38356:1 38357:1 38358:1 39468:1 39895:1 39946:1 39987:1 41124:1 41201:1 41636:1 42006:1 43535:1 43536:1 43636:1 43643:1 43663:1 43798:1 43973:1 44095:1 44362:1 44372:1 44375:1 44380:1 44406:1  |EV| 
-0.028006565248498743042615544140972 9405:1 21518:1 35680:1 38697:1 39035:1 39865:1 39946:1 41197:1 43636:1 43643:1 43689:1 43789:1 43954:1 44095:1 44362:1 44370:1 44377:1 44380:1 44395:1 44403:1  |EV| 
-0.022894264119008245206288165718433 2184:1 13832:1 26888:1 37846:1 38236:1 39322:1 39946:1 41197:1 43636:1 43643:1 43689:1 43789:1 43954:1 44095:1 44362:1 44370:1 44376:1 44380:1 44395:1 44405:1  |EV| 
-0.03636383395399898216249212623552 1903:1 13236:1 25876:1 37664:1 37688:1 37772:1 37952:1 38059:1 38132:1 38133:1 38134:1 39244:1 39946:1 43634:1 43643:1 43644:1 43815:1 43963:1 44076:1 44362:1 44370:1 44376:1 44380:1 44395:1 44406:1  |EV| 
-0.04514615277073075194635976004065 3057:1 14470:1 27657:1 37656:1 37659:1 37692:1 37693:1 37707:1 37722:1 38199:1 38306:1 39239:1 39946:1 43634:1 43643:1 43644:1 43815:1 43963:1 44076:1 44362:1 44370:1 44375:1 44380:1 44395:1 44406:1  |EV| 
-0.031438751493788975877041735884632 2323:1 13688:1 26479:1 37657:1 37665:1 37707:1 37708:1 37709:1 37921:1 38132:1 38176:1 38182:1 38223:1 39324:1 39946:1 43639:1 43643:1 43650:1 43813:1 43944:1 44092:1 44362:1 44370:1 44375:1 44380:1 44395:1 44406:1  |EV| 
-0.0083916529008022551494594409859928 2018:1 13355:1 26022:1 37657:1 37707:1 37712:1 37898:1 37902:1 39394:1 39946:1 43636:1 43643:1 43651:1 43789:1 43942:1 44095:1 44362:1 44370:1 44378:1 44380:1 44395:1 44407:1  |EV| 
0.061189323768671463610324678938923 2253:1 13611:1 26353:1 37657:1 37817:1 39324:1 39946:1 41197:1 43636:1 43643:1 43663:1 43815:1 43954:1 44095:1 44362:1 44370:1 44375:1 44380:1 44395:1 44406:1  |EV| 
0.042639113624257651835591786948498 9020:1 21112:1 35201:1 38058:1 38174:1 39592:1 39946:1 41197:1 43636:1 43643:1 43663:1 43815:1 43954:1 44095:1 44362:1 44370:1 44376:1 44380:1 44395:1 44406:1  |EV| 
0.057027438545780753664793394364096 4448:1 15917:1 23643:1 39423:1 39946:1 41197:1 43636:1 43643:1 43689:1 43811:1 43959:1 44095:1 44362:1 44370:1 44375:1 44380:1 44383:1 44395:1 44406:1  |EV| 
0.05062773008863154233782921664897 9512:1 21642:1 36086:1 37657:1 37707:1 37790:1 39083:1 39749:1 39946:1 43636:1 43643:1 43657:1 43810:1 43942:1 44095:1 44362:1 44370:1 44375:1 44380:1 44395:1 44406:1  |EV| 
0.050363168229902041672652046599978 6766:1 18575:1 32300:1 37656:1 37657:1 37712:1 37787:1 39671:1 39946:1 41197:1 43636:1 43643:1 43689:1 43841:1 43938:1 44095:1 44362:1 44370:1 44375:1 44380:1 44395:1 44406:1  |EV| 
-0.020538723842422040161137530844826 8111:1 20014:1 33884:1 37657:1 37664:1 37665:1 37688:1 37858:1 37872:1 38106:1 38487:1 38911:1 38912:1 38913:1 38914:1 39531:1 39946:1 43635:1 43643:1 43645:1 43803:1 43965:1 44077:1 44362:1 44370:1 44375:1 44380:1 44383:1 44395:1 44406:1  |EV| 
-0.037492157636650598473426754253524 2808:1 14197:1 27208:1 37657:1 37707:1 37708:1 37794:1 37800:1 37890:1 38206:1 38288:1 39403:1 39946:1 43635:1 43643:1 43650:1 43821:1 43942:1 44078:1 44362:1 44370:1 44375:1 44380:1 44395:1 44406:1  |EV| 
-0.024168161935061143602565536525617 5043:1 16610:1 30091:1 37656:1 37657:1 37659:1 37665:1 37669:1 37692:1 37693:1 37707:1 37712:1 37772:1 37774:1 37813:1 37846:1 37890:1 38000:1 38040:1 38156:1 38548:1 38549:1 38562:1 38563:1 38564:1 38565:1 39564:1 39946:1 43636:1 43643:1 43684:1 43811:1 43989:1 44139:1 44362:1 44370:1 44375:1 44380:1 44395:1 44406:1  |EV| 
-0.0069185200739492469512725847380352 10868:1 23159:1 37614:1 37656:1 37657:1 37664:1 37665:1 37666:1 37671:1 37673:1 37685:1 37688:1 37689:1 37707:1 37712:1 37753:1 37789:1 37807:1 37813:1 37835:1 37846:1 37921:1 37952:1 38050:1 38060:1 38081:1 38132:1 38449:1 38485:1 38660:1 38697:1 39009:1 39060:1 39146:1 39175:1 39176:1 39177:1 39179:1 39220:1 39946:1 43636:1 43643:1 43657:1 43918:1 44058:1 44138:1 44362:1 44370:1 44375:1 44380:1 44395:1 44406:1  |EV| 
-0.0057805211088306938591041550523641 10554:1 22771:1 37089:1 37650:1 37656:1 37664:1 37665:1 37673:1 37679:1 37684:1 37689:1 37707:1 37708:1 37712:1 37714:1 37727:1 37809:1 37887:1 37972:1 38039:1 38202:1 39009:1 39196:1 39197:1 39198:1 39199:1 39200:1 39224:1 39577:1 39946:1 43634:1 43643:1 43681:1 43841:1 44008:1 44156:1 44362:1 44370:1 44375:1 44380:1 44395:1 44406:1  |EV| 
0.050801704930580365848769019976316 9754:1 21899:1 36096:1 37784:1 39885:1 39946:1 41197:1 43636:1 43643:1 43689:1 43815:1 43933:1 44095:1 44362:1 44370:1 44378:1 44380:1 44395:1 44406:1  |EV| 
0.029587984364079739779684885547795 2478:1 13851:1 23554:1 37657:1 39421:1 39946:1 41197:1 43636:1 43643:1 43689:1 43815:1 43933:1 44095:1 44362:1 44370:1 44375:1 44380:1 44395:1 44406:1  |EV| 
0.029587984364080253257833774682695 2478:1 15945:1 23554:1 37657:1 39421:1 39946:1 41197:1 43636:1 43643:1 43689:1 43815:1 43933:1 44095:1 44362:1 44370:1 44375:1 44380:1 44395:1 44406:1  |EV| 
0.057129776661862342879150133967414 3096:1 14510:1 23554:1 37657:1 39377:1 39946:1 41197:1 43636:1 43643:1 43689:1 43815:1 43933:1 44095:1 44362:1 44370:1 44375:1 44380:1 44395:1 44406:1  |EV| 
0.02964479007304459193261614302628 4896:1 16446:1 29871:1 37799:1 38582:1 38593:1 39593:1 39946:1 41197:1 43636:1 43643:1 43663:1 43789:1 43985:1 44095:1 44362:1 44370:1 44376:1 44380:1 44395:1 44406:1  |EV| 
-0.029385877993331758345485482664117 7396:1 19269:1 33078:1 37656:1 37657:1 37707:1 37942:1 38763:1 39378:1 39946:1 43636:1 43643:1 43657:1 43841:1 43935:1 44095:1 44362:1 44370:1 44378:1 44380:1 44395:1 44401:1  |EV| 
-0.031776435490107800274639515691888 2810:1 14199:1 27210:1 37651:1 37656:1 37657:1 37664:1 37665:1 37689:1 37697:1 37830:1 37831:1 37846:1 37869:1 37948:1 38147:1 38156:1 38256:1 38257:1 38258:1 38259:1 38260:1 38261:1 38262:1 38263:1 39418:1 39419:1 39420:1 39946:1 41197:1 43637:1 43642:1 43689:1 43828:1 44015:1 44098:1 44362:1 44370:1 44375:1 44380:1 44383:1 44395:1 44406:1  |EV| 
-0.013251901487440612137369555512123 9776:1 21923:1 36128:1 37656:1 37657:1 37664:1 37685:1 37689:1 37712:1 37722:1 37727:1 37771:1 37828:1 37854:1 37905:1 38450:1 38996:1 39084:1 39085:1 39086:1 39886:1 39946:1 43638:1 43643:1 43676:1 43850:1 43985:1 44190:1 44362:1 44370:1 44375:1 44380:1 44395:1 44406:1  |EV| 
-0.022113939963370552593824314158155 6924:1 18745:1 32514:1 37664:1 37672:1 37707:1 37793:1 37886:1 38062:1 39679:1 39946:1 43635:1 43643:1 43645:1 43791:1 43985:1 44103:1 44362:1 44370:1 44375:1 44380:1 44395:1 44406:1  |EV| 
-0.0059458253569133340254992958762159 3695:1 15128:1 28396:1 37657:1 37659:1 37664:1 37665:1 37685:1 37692:1 37693:1 37707:1 37708:1 37723:1 37779:1 37959:1 37989:1 37998:1 38106:1 38202:1 38426:1 38427:1 38428:1 38429:1 38439:1 39513:1 39946:1 41632:1 42658:1 43637:1 43642:1 43720:1 43805:1 43977:1 44259:1 44362:1 44370:1 44375:1 44380:1 44395:1 44403:1 44406:1  |EV| 
