SVM-light Version V5.01-TK-1.5
0 # kernel type
3 # kernel parameter -d 
1 # kernel parameter -g 
1 # kernel parameter -s 
1 # kernel parameter -r 
empty# kernel parameter -u 
0.4 # kernel parameter -L 
1 # kernel parameter -T 
T # kernel parameter -C 
1 # kernel parameter -F 
0 # kernel parameter -S 
0.400000 # kernel parameter -M 
3 # kernel parameter -N 
S # kernel parameter -V 
S # kernel parameter -W 
0 # kernel parameter -U 
8597 # highest feature index 
2284 # number of training documents 
179 # number of support vectors plus 1 
3.0235717 # threshold b, each following line is a SV (starting with alpha*y)
-0.0044890218899134946145546010143335 1030:1 2950:1 5140:1 6145:1 6149:1 6160:1 6185:1 6474:1 6760:1 7022:1 7148:1 8020:1 8028:1 8070:1 8145:1 8287:1 8369:1 8551:1 8559:1 8565:1 8569:1 8587:1 8591:1 8596:1  |EV| 
-0.024085881806442596686501644853706 4:1 1852:1 3891:1 6141:1 6145:1 6147:1 6148:1 7022:1 7149:1 8021:1 8028:1 8033:1 8148:1 8259:1 8371:1 8551:1 8558:1 8565:1 8569:1 8580:1 8591:1  |EV| 
-0.037026446489029231357026361592943 334:1 2208:1 4302:1 6155:1 6158:1 6159:1 6185:1 6387:1 6455:1 6476:1 6486:1 7049:1 7149:1 8020:1 8028:1 8042:1 8145:1 8257:1 8368:1 8551:1 8560:1 8565:1 8569:1 8591:1  |EV| 
0.016548932228069829220018505111511 1650:1 3672:1 5921:1 6931:1 7116:1 7149:1 7445:1 8020:1 8028:1 8029:1 8145:1 8259:1 8369:1 8551:1 8558:1 8565:1 8569:1 8580:1 8591:1  |EV| 
0.17023933173924088446682389985654 29:1 1877:1 3920:1 6142:1 6145:1 6158:1 6159:1 6160:1 6161:1 6162:1 6163:1 6164:1 6165:1 6166:1 6167:1 6170:1 6171:1 6172:1 6173:1 6176:1 6177:1 7027:1 7149:1 8022:1 8028:1 8060:1 8157:1 8279:1 8374:1 8551:1 8558:1 8565:1 8569:1 8580:1 8591:1 8596:1  |EV| 
0.14974233904115558102532190787315 36:1 1885:1 3928:1 6141:1 6145:1 6179:1 6180:1 6181:1 6182:1 6205:1 6206:1 7022:1 7149:1 8022:1 8028:1 8064:1 8145:1 8291:1 8376:1 8551:1 8558:1 8565:1 8569:1 8580:1 8591:1 8596:1  |EV| 
0.12012093790576058860430919139617 41:1 1890:1 3933:1 6203:1 7031:1 7149:1 8020:1 8028:1 8029:1 8145:1 8259:1 8369:1 8551:1 8558:1 8565:1 8569:1 8580:1 8591:1 8596:1  |EV| 
0.12090867074497541056032900996797 101:1 1954:1 3997:1 6141:1 6159:1 6160:1 6185:1 6216:1 6217:1 6218:1 6219:1 6220:1 6222:1 6242:1 7032:1 7149:1 8020:1 8028:1 8065:1 8156:1 8301:1 8368:1 8551:1 8558:1 8565:1 8569:1 8580:1 8591:1 8597:1  |EV| 
-0.11175953455187294383055274238359 132:1 1985:1 4028:1 6141:1 6159:1 6160:1 6185:1 6217:1 6218:1 6219:1 6220:1 6221:1 6222:1 6242:1 7032:1 7149:1 7369:1 8020:1 8028:1 8029:1 8147:1 8301:1 8401:1 8551:1 8558:1 8565:1 8569:1 8580:1 8591:1 8597:1  |EV| 
-0.27160935084318388321733550583303 54:1 1903:1 3946:1 6199:1 6200:1 6201:1 6203:1 7031:1 7149:1 8020:1 8028:1 8066:1 8145:1 8261:1 8369:1 8551:1 8558:1 8565:1 8569:1 8580:1 8591:1 8596:1  |EV| 
-0.10328235861837922748840412623395 45:1 1894:1 3937:1 6142:1 6145:1 6158:1 6159:1 6160:1 6161:1 6162:1 6163:1 6164:1 6165:1 6166:1 6167:1 6170:1 6171:1 6172:1 6173:1 7027:1 7149:1 7369:1 8024:1 8027:1 8029:1 8152:1 8279:1 8386:1 8551:1 8558:1 8565:1 8569:1 8580:1 8591:1 8596:1  |EV| 
-0.070459470650494612775638358925789 185:1 2043:1 3889:1 6141:1 7041:1 7149:1 7369:1 8020:1 8028:1 8029:1 8145:1 8259:1 8369:1 8551:1 8558:1 8565:1 8569:1 8580:1 8593:1 8597:1  |EV| 
-0.052407144974135649873048237168405 1044:1 2969:1 5167:1 6153:1 6160:1 6177:1 6728:1 6741:1 7027:1 7149:1 8020:1 8028:1 8051:1 8156:1 8262:1 8369:1 8551:1 8558:1 8565:1 8569:1 8582:1 8591:1 8596:1  |EV| 
0.066737800873298461223903643713129 1431:1 3436:1 5672:1 6141:1 6185:1 6189:1 6190:1 6204:1 6278:1 6285:1 6292:1 6321:1 6444:1 6855:1 6856:1 6857:1 6858:1 6859:1 6860:1 6863:1 6864:1 7049:1 7148:1 7474:1 7714:1 7946:1 8022:1 8028:1 8060:1 8184:1 8263:1 8378:1 8551:1 8559:1 8565:1 8569:1 8580:1 8591:1  |EV| 
0.11575096172195943611260560146548 1653:1 3676:1 5925:1 6141:1 6145:1 6156:1 7099:1 7149:1 8022:1 8028:1 8043:1 8146:1 8277:1 8373:1 8551:1 8558:1 8565:1 8569:1 8580:1 8591:1  |EV| 
0.16466420881762888761556951067178 1408:1 3412:1 5648:1 6141:1 6142:1 6145:1 6158:1 6170:1 6189:1 6239:1 6266:1 6276:1 6311:1 6371:1 6442:1 6564:1 6841:1 6842:1 6843:1 6844:1 6845:1 6846:1 7084:1 7149:1 8020:1 8028:1 8047:1 8148:1 8274:1 8385:1 8551:1 8558:1 8565:1 8569:1 8580:1 8591:1  |EV| 
0.12399486396941050703190967396949 126:1 2938:1 5347:1 6145:1 6153:1 6159:1 6346:1 6508:1 6721:1 6722:1 7039:1 7149:1 8022:1 8028:1 8030:1 8149:1 8277:1 8373:1 8551:1 8558:1 8565:1 8569:1 8580:1 8591:1  |EV| 
0.14185788191222575838068564735295 864:1 2770:1 4959:1 6141:1 6145:1 6180:1 6181:1 6610:1 7022:1 7149:1 8022:1 8028:1 8036:1 8156:1 8277:1 8373:1 8551:1 8558:1 8565:1 8569:1 8580:1 8591:1  |EV| 
-0.11660926038111946168029930959165 1409:1 3413:1 5649:1 6141:1 6142:1 6145:1 6158:1 6170:1 6189:1 6239:1 6266:1 6276:1 6311:1 6371:1 6442:1 6564:1 6839:1 6841:1 6842:1 6843:1 6844:1 6845:1 7084:1 7149:1 8020:1 8028:1 8056:1 8143:1 8274:1 8385:1 8551:1 8558:1 8565:1 8569:1 8580:1 8591:1  |EV| 
-0.0063652339840394554781877189952866 1464:1 3469:1 5705:1 6141:1 6185:1 6189:1 6190:1 6204:1 6278:1 6285:1 6292:1 6321:1 6444:1 6855:1 6856:1 6857:1 6858:1 6859:1 6860:1 6861:1 6862:1 6863:1 6864:1 7049:1 7148:1 8022:1 8028:1 8062:1 8184:1 8291:1 8378:1 8551:1 8559:1 8565:1 8569:1 8591:1  |EV| 
-0.00035497537142158385988291446899723 1423:1 3428:1 5664:1 6141:1 6185:1 6189:1 6190:1 6204:1 6278:1 6285:1 6321:1 6444:1 6855:1 6856:1 6857:1 6858:1 6859:1 7049:1 7149:1 8022:1 8028:1 8074:1 8184:1 8277:1 8400:1 8551:1 8560:1 8565:1 8569:1 8582:1 8591:1  |EV| 
-0.12035810295450156959251586386017 94:1 3118:1 5330:1 6145:1 6153:1 6159:1 6285:1 6346:1 6350:1 6508:1 6683:1 6720:1 6721:1 6722:1 7039:1 7149:1 8022:1 8028:1 8071:1 8147:1 8277:1 8400:1 8551:1 8558:1 8565:1 8569:1 8580:1 8591:1  |EV| 
-0.13577463349301691075687870124966 1406:1 3410:1 5646:1 6141:1 6145:1 6158:1 6170:1 6189:1 6239:1 6266:1 6276:1 6371:1 6442:1 6839:1 6841:1 6842:1 6843:1 6844:1 6845:1 7022:1 7149:1 8020:1 8028:1 8056:1 8156:1 8267:1 8396:1 8551:1 8558:1 8565:1 8569:1 8580:1 8591:1  |EV| 
0.069372006355832585566822956479882 234:1 2094:1 4141:1 6160:1 6177:1 6400:1 7027:1 7149:1 7369:1 8020:1 8028:1 8029:1 8157:1 8269:1 8369:1 8551:1 8558:1 8565:1 8569:1 8580:1 8591:1  |EV| 
0.049056572688702823614725900824851 129:1 1982:1 4025:1 6160:1 7034:1 7149:1 7369:1 8020:1 8028:1 8029:1 8145:1 8259:1 8369:1 8551:1 8558:1 8565:1 8569:1 8580:1 8591:1  |EV| 
0.10173380440963107618213001615004 679:1 2824:1 5231:1 6153:1 6160:1 6177:1 6336:1 6439:1 6717:1 6728:1 6741:1 7027:1 7149:1 8020:1 8028:1 8068:1 8156:1 8257:1 8368:1 8551:1 8558:1 8565:1 8569:1 8580:1 8591:1 8596:1  |EV| 
0.086072688760624654902287034019537 319:1 2192:1 4267:1 6160:1 6449:1 7053:1 7148:1 7369:1 8020:1 8028:1 8029:1 8146:1 8270:1 8369:1 8551:1 8559:1 8565:1 8569:1 8580:1 8591:1  |EV| 
0.12103062620214130595819312929962 383:1 2258:1 4375:1 6160:1 6210:1 6311:1 7020:1 7149:1 7369:1 8020:1 8028:1 8029:1 8157:1 8269:1 8369:1 8551:1 8558:1 8565:1 8569:1 8580:1 8591:1  |EV| 
-0.17865703239079247510723291725299 383:1 2285:1 4408:1 6160:1 6161:1 6210:1 6311:1 6502:1 7020:1 7149:1 7207:1 7439:1 7646:1 7794:1 8022:1 8028:1 8036:1 8157:1 8271:1 8373:1 8551:1 8558:1 8565:1 8569:1 8580:1 8591:1  |EV| 
-0.11318201426372032081246743473457 934:1 2844:1 5477:1 6153:1 6160:1 6177:1 6325:1 6336:1 6439:1 6728:1 6741:1 7027:1 7149:1 7369:1 8020:1 8028:1 8029:1 8143:1 8257:1 8368:1 8551:1 8558:1 8565:1 8569:1 8580:1 8591:1 8596:1  |EV| 
-0.0030602166899389923737651031387941 1649:1 3671:1 5920:1 6160:1 6181:1 6728:1 6931:1 6932:1 6933:1 7052:1 7149:1 7445:1 8020:1 8028:1 8029:1 8149:1 8287:1 8369:1 8551:1 8558:1 8565:1 8569:1 8580:1 8595:1  |EV| 
0.044762661762336390658401086284357 1538:1 3550:1 5793:1 6141:1 6156:1 7105:1 7149:1 7505:1 8020:1 8028:1 8029:1 8146:1 8270:1 8369:1 8551:1 8560:1 8565:1 8569:1 8580:1 8591:1 8596:1  |EV| 
-0.093619380778190416925177430584881 934:1 2844:1 5035:1 6141:1 6145:1 6160:1 6177:1 6325:1 6336:1 6718:1 7027:1 7149:1 7369:1 8020:1 8028:1 8029:1 8174:1 8256:1 8369:1 8551:1 8558:1 8565:1 8569:1 8580:1 8591:1  |EV| 
0.15458028483327199142927099728695 2:1 3414:1 5650:1 6141:1 6145:1 6158:1 6170:1 6189:1 6239:1 6266:1 6276:1 6371:1 6442:1 6841:1 6842:1 6843:1 6844:1 6845:1 6846:1 7022:1 7149:1 8020:1 8028:1 8047:1 8145:1 8267:1 8396:1 8551:1 8558:1 8565:1 8569:1 8580:1 8591:1  |EV| 
0.23895486575238672477539125793555 428:1 2304:1 4441:1 6141:1 6145:1 6153:1 6155:1 6158:1 6159:1 6170:1 6185:1 6232:1 6348:1 6350:1 6387:1 6409:1 6451:1 6452:1 6453:1 6454:1 6455:1 6456:1 6474:1 6476:1 6486:1 6489:1 6490:1 6510:1 6511:1 7049:1 7149:1 8020:1 8028:1 8106:1 8144:1 8347:1 8421:1 8551:1 8558:1 8565:1 8569:1 8580:1 8591:1  |EV| 
0.18999743164744914425412503078405 1551:1 3565:1 5808:1 6141:1 6142:1 6145:1 6149:1 6159:1 6200:1 6225:1 6339:1 6340:1 6891:1 6892:1 6897:1 6906:1 6907:1 7130:1 7149:1 8020:1 8028:1 8058:1 8148:1 8299:1 8396:1 8551:1 8558:1 8565:1 8569:1 8580:1 8591:1 8596:1  |EV| 
-0.20735864720909427671990954422654 408:1 2283:1 4417:1 6141:1 6145:1 6153:1 6155:1 6158:1 6159:1 6170:1 6185:1 6232:1 6348:1 6350:1 6387:1 6409:1 6451:1 6452:1 6453:1 6454:1 6455:1 6474:1 6476:1 6486:1 6487:1 6489:1 6490:1 6510:1 6511:1 7049:1 7149:1 8020:1 8028:1 8054:1 8185:1 8347:1 8440:1 8551:1 8558:1 8565:1 8569:1 8580:1 8591:1  |EV| 
-0.13615776598744921965788989837165 428:1 2304:1 4452:1 6141:1 6145:1 6155:1 6158:1 6159:1 6170:1 6185:1 6232:1 6348:1 6350:1 6387:1 6409:1 6451:1 6453:1 6455:1 6456:1 6474:1 6476:1 6486:1 6489:1 6490:1 6510:1 6511:1 7049:1 7149:1 8025:1 8028:1 8106:1 8179:1 8286:1 8451:1 8551:1 8558:1 8565:1 8569:1 8580:1 8591:1  |EV| 
-0.018832764476887121907200395298787 1571:1 3585:1 5829:1 6141:1 6142:1 6145:1 6149:1 6159:1 6200:1 6225:1 6339:1 6340:1 6385:1 6472:1 6891:1 6892:1 6897:1 6905:1 6906:1 6907:1 7130:1 7149:1 8020:1 8028:1 8047:1 8148:1 8274:1 8385:1 8551:1 8560:1 8565:1 8569:1 8582:1 8591:1 8596:1  |EV| 
-0.038065477832216865206049760672613 1635:1 3656:1 5906:1 6141:1 6142:1 6145:1 6149:1 6159:1 6200:1 6225:1 6339:1 6340:1 6385:1 6472:1 6490:1 6839:1 6891:1 6892:1 6897:1 6905:1 6906:1 6907:1 7130:1 7149:1 8021:1 8028:1 8036:1 8162:1 8299:1 8398:1 8551:1 8558:1 8565:1 8569:1 8580:1 8591:1 8596:1  |EV| 
0.1844587580605621945917249604463 326:1 2199:1 4276:1 6161:1 7020:1 7149:1 7184:1 7375:1 7646:1 7794:1 8023:1 8028:1 8050:1 8164:1 8271:1 8383:1 8551:1 8558:1 8565:1 8569:1 8580:1 8591:1  |EV| 
0.29923473801561917273517110515968 364:1 2238:1 4334:1 7049:1 7149:1 7196:1 7369:1 7636:1 7809:1 8024:1 8027:1 8029:1 8164:1 8255:1 8392:1 8551:1 8558:1 8565:1 8569:1 8580:1 8591:1  |EV| 
0.12667664044696105851706136036228 322:1 2195:1 4366:1 6161:1 6185:1 6335:1 7022:1 7149:1 8024:1 8027:1 8045:1 8181:1 8277:1 8392:1 8551:1 8558:1 8565:1 8569:1 8580:1 8591:1  |EV| 
0.062086818373961225048240919477394 1256:1 3239:1 5464:1 6159:1 6160:1 6218:1 6346:1 6508:1 6722:1 7022:1 7149:1 7369:1 8020:1 8028:1 8029:1 8149:1 8287:1 8369:1 8551:1 8558:1 8565:1 8569:1 8580:1 8591:1  |EV| 
-0.14590912361562968779793436624459 73:1 1923:1 3966:1 6141:1 6145:1 6179:1 6180:1 6181:1 6182:1 6205:1 6206:1 7022:1 7149:1 7369:1 8024:1 8027:1 8029:1 8153:1 8291:1 8392:1 8551:1 8558:1 8565:1 8569:1 8580:1 8591:1 8596:1  |EV| 
-0.078112361066833835288036880228901 577:1 2623:1 4334:1 7049:1 7149:1 7369:1 8024:1 8027:1 8029:1 8164:1 8255:1 8392:1 8551:1 8558:1 8565:1 8569:1 8576:1 8580:1 8591:1 8597:1  |EV| 
-0.065403354098250057746533059344074 1014:1 2931:1 5121:1 6141:1 6239:1 7022:1 7149:1 7369:1 8020:1 8028:1 8029:1 8146:1 8269:1 8369:1 8551:1 8558:1 8565:1 8569:1 8580:1 8592:1  |EV| 
-0.026599482977987601306502085662942 1351:1 3353:1 5590:1 6460:1 6498:1 7111:1 7112:1 7149:1 7369:1 8020:1 8028:1 8029:1 8146:1 8270:1 8369:1 8551:1 8558:1 8565:1 8569:1 8576:1 8577:1 8580:1  |EV| 
-0.077327933942827720148471826178138 428:1 2727:1 4334:1 7049:1 7149:1 7196:1 7369:1 7636:1 7809:1 8024:1 8027:1 8029:1 8164:1 8255:1 8392:1 8551:1 8558:1 8565:1 8569:1 8580:1 8596:1  |EV| 
0.16756665908056644909152055333834 408:1 2283:1 4405:1 6141:1 6155:1 6158:1 6159:1 6170:1 6185:1 6232:1 6350:1 6387:1 6409:1 6453:1 6455:1 6474:1 6476:1 6486:1 6489:1 6490:1 6510:1 6511:1 7049:1 7149:1 8020:1 8028:1 8054:1 8145:1 8286:1 8385:1 8551:1 8558:1 8565:1 8569:1 8580:1 8591:1  |EV| 
0.182481174840225218725109357365 1698:1 3726:1 5975:1 6141:1 6145:1 6151:1 6159:1 6160:1 6183:1 6204:1 6210:1 6228:1 6243:1 6276:1 6340:1 6384:1 6439:1 6490:1 6622:1 6625:1 6715:1 6726:1 6910:1 6948:1 6949:1 6950:1 6951:1 6952:1 7138:1 7149:1 8020:1 8028:1 8093:1 8143:1 8303:1 8473:1 8551:1 8558:1 8565:1 8569:1 8580:1 8591:1  |EV| 
-0.15099244947256990068140680705255 1681:1 3708:1 5957:1 6141:1 6145:1 6151:1 6159:1 6160:1 6204:1 6210:1 6228:1 6243:1 6276:1 6340:1 6384:1 6439:1 6490:1 6622:1 6625:1 6715:1 6726:1 6910:1 6913:1 6948:1 6949:1 6950:1 6951:1 6952:1 7138:1 7149:1 7369:1 8020:1 8028:1 8045:1 8224:1 8303:1 8465:1 8551:1 8558:1 8565:1 8569:1 8580:1 8591:1  |EV| 
-0.0084755702319592937654668673985725 81:1 1933:1 3976:1 6142:1 6145:1 6158:1 6159:1 6160:1 6161:1 6162:1 6163:1 6164:1 6165:1 6166:1 6167:1 6170:1 6176:1 6177:1 6207:1 7024:1 7025:1 7026:1 7149:1 8022:1 8028:1 8060:1 8148:1 8282:1 8374:1 8551:1 8558:1 8565:1 8569:1 8580:1  |EV| 
-0.027092152817995707181353282066993 420:1 2296:1 4431:1 6158:1 6387:1 7049:1 7149:1 8020:1 8028:1 8051:1 8145:1 8270:1 8369:1 8551:1 8560:1 8565:1 8569:1 8591:1  |EV| 
0.17311612763662873049064216957049 362:1 2728:1 4907:1 6141:1 6145:1 6222:1 6311:1 6328:1 7022:1 7149:1 7369:1 8020:1 8028:1 8029:1 8148:1 8262:1 8369:1 8551:1 8558:1 8565:1 8569:1 8580:1 8591:1 8597:1  |EV| 
0.061293106001705038865523533786472 1617:1 3635:1 5883:1 6141:1 6153:1 6156:1 6925:1 6926:1 7105:1 7149:1 7369:1 8020:1 8028:1 8066:1 8146:1 8262:1 8369:1 8551:1 8560:1 8565:1 8569:1 8580:1 8591:1 8596:1  |EV| 
0.18010366498455940287293230994692 1822:1 3859:1 6108:1 6141:1 6160:1 6185:1 6190:1 6311:1 7005:1 7006:1 7007:1 7022:1 7149:1 7369:1 8020:1 8028:1 8029:1 8143:1 8257:1 8368:1 8551:1 8558:1 8565:1 8569:1 8580:1 8590:1 8591:1  |EV| 
-0.076395992498151321647981148998952 1819:1 3855:1 6104:1 6141:1 6160:1 6161:1 6185:1 6190:1 6311:1 6392:1 7005:1 7006:1 7007:1 7022:1 7149:1 8025:1 8028:1 8058:1 8164:1 8257:1 8402:1 8551:1 8558:1 8565:1 8569:1 8580:1 8590:1 8591:1  |EV| 
-0.0018834510656218401720291000245311 1847:1 3886:1 6138:1 6141:1 6145:1 6153:1 6160:1 6168:1 6185:1 6190:1 6204:1 6225:1 6231:1 6243:1 6266:1 6276:1 6291:1 6311:1 6334:1 6358:1 6361:1 6381:1 6392:1 6564:1 6601:1 6633:1 6954:1 6996:1 6997:1 6998:1 6999:1 7000:1 7001:1 7002:1 7003:1 7004:1 7005:1 7006:1 7007:1 7013:1 7022:1 7149:1 8020:1 8028:1 8079:1 8151:1 8366:1 8549:1 8551:1 8558:1 8565:1 8569:1 8580:1 8590:1 8591:1  |EV| 
-0.0037005811711934418969938143106901 1807:1 3843:1 6093:1 6141:1 6145:1 6153:1 6160:1 6168:1 6185:1 6190:1 6202:1 6204:1 6225:1 6231:1 6243:1 6266:1 6276:1 6291:1 6311:1 6334:1 6358:1 6361:1 6381:1 6392:1 6564:1 6601:1 6633:1 6954:1 6996:1 6997:1 6998:1 6999:1 7000:1 7001:1 7002:1 7003:1 7004:1 7005:1 7006:1 7007:1 7022:1 7149:1 8020:1 8028:1 8045:1 8252:1 8366:1 8509:1 8551:1 8558:1 8565:1 8569:1 8580:1 8590:1 8591:1  |EV| 
-0.010609942760374017900470988706729 447:1 3883:1 6135:1 6141:1 6145:1 6153:1 6160:1 6168:1 6185:1 6190:1 6202:1 6204:1 6225:1 6231:1 6243:1 6266:1 6276:1 6291:1 6311:1 6334:1 6358:1 6361:1 6381:1 6564:1 6601:1 6633:1 6954:1 6996:1 6997:1 6998:1 6999:1 7000:1 7001:1 7002:1 7003:1 7004:1 7005:1 7006:1 7007:1 7013:1 7022:1 7149:1 8020:1 8028:1 8084:1 8143:1 8366:1 8480:1 8551:1 8558:1 8565:1 8569:1 8580:1 8590:1 8591:1  |EV| 
-0.18165656747451874863941156945657 1419:1 3424:1 5660:1 6141:1 6156:1 6266:1 6272:1 6848:1 6850:1 7120:1 7121:1 7149:1 7539:1 8020:1 8028:1 8051:1 8148:1 8287:1 8369:1 8551:1 8558:1 8565:1 8569:1 8580:1 8591:1  |EV| 
0.092044354972788275381923028817255 459:1 3372:1 5608:1 6141:1 6153:1 6157:1 6159:1 6160:1 6164:1 6185:1 6285:1 6474:1 6659:1 6728:1 6821:1 6822:1 7022:1 7149:1 8020:1 8028:1 8045:1 8159:1 8297:1 8401:1 8551:1 8558:1 8565:1 8569:1 8580:1 8591:1  |EV| 
0.030627635232246326613125830817808 459:1 2337:1 4495:1 6159:1 6160:1 6537:1 7022:1 7149:1 7369:1 8020:1 8028:1 8029:1 8157:1 8269:1 8369:1 8551:1 8558:1 8565:1 8569:1 8580:1 8591:1 8592:1  |EV| 
-0.11761877069118781280465668714896 173:1 2030:1 4074:1 6153:1 6159:1 6190:1 6196:1 6225:1 6288:1 6291:1 6302:1 6303:1 6323:1 7039:1 7149:1 7369:1 8020:1 8028:1 8029:1 8177:1 8272:1 8401:1 8551:1 8558:1 8565:1 8569:1 8580:1 8591:1  |EV| 
-0.17572442203627383627839719792973 29:1 3124:1 5336:1 6141:1 6142:1 6145:1 6149:1 6156:1 6160:1 6177:1 6239:1 6336:1 6353:1 6717:1 6718:1 7027:1 7149:1 8020:1 8028:1 8058:1 8157:1 8298:1 8396:1 8551:1 8558:1 8565:1 8569:1 8580:1 8591:1  |EV| 
-0.080907515222639919683089715363167 346:1 2220:1 4384:1 6155:1 6158:1 6185:1 6387:1 6455:1 7049:1 7148:1 8020:1 8028:1 8068:1 8145:1 8262:1 8369:1 8551:1 8559:1 8565:1 8569:1 8591:1  |EV| 
0.13733968646490804510484906586498 1445:1 3450:1 5686:1 6141:1 6156:1 6266:1 6272:1 6847:1 6848:1 7120:1 7121:1 7149:1 8020:1 8028:1 8068:1 8146:1 8287:1 8369:1 8551:1 8558:1 8565:1 8569:1 8580:1 8591:1  |EV| 
0.1785489280418756652402123563661 277:1 2150:1 4213:1 6141:1 6156:1 6160:1 6320:1 6413:1 6418:1 7021:1 7149:1 7369:1 8020:1 8028:1 8051:1 8148:1 8287:1 8369:1 8551:1 8558:1 8565:1 8569:1 8580:1 8591:1  |EV| 
0.29298451801786490333867618574004 194:1 2052:1 4094:1 6141:1 6185:1 6335:1 6336:1 7044:1 7149:1 8025:1 8028:1 8070:1 8164:1 8270:1 8390:1 8551:1 8558:1 8565:1 8569:1 8580:1 8591:1  |EV| 
0.052689554656070412830271010307115 1643:1 3664:1 5914:1 6141:1 6156:1 6185:1 6243:1 6284:1 6320:1 7133:1 7149:1 8020:1 8028:1 8066:1 8157:1 8287:1 8369:1 8551:1 8560:1 8565:1 8569:1 8580:1 8591:1  |EV| 
-0.052906254580219740091262536907379 311:1 2184:1 4247:1 6141:1 6153:1 6156:1 6160:1 6320:1 6413:1 6418:1 6441:1 7021:1 7149:1 8025:1 8028:1 8040:1 8164:1 8287:1 8390:1 8551:1 8558:1 8565:1 8569:1 8580:1 8591:1  |EV| 
-0.14660993014581064075585459249851 362:1 2236:1 4368:1 6141:1 6185:1 6268:1 6383:1 6474:1 6475:1 6496:1 7022:1 7149:1 8025:1 8028:1 8065:1 8164:1 8262:1 8390:1 8551:1 8558:1 8565:1 8569:1 8580:1 8591:1  |EV| 
-0.19728592813814996298482640213479 1276:1 3270:1 5504:1 6141:1 6170:1 6387:1 6389:1 6475:1 6625:1 7108:1 7149:1 8020:1 8028:1 8070:1 8145:1 8287:1 8369:1 8551:1 8558:1 8565:1 8569:1 8580:1 8591:1  |EV| 
-0.039362701348671251533328785399135 195:1 2053:1 4095:1 6141:1 6170:1 6185:1 6237:1 6333:1 6335:1 6336:1 6337:1 7044:1 7149:1 8025:1 8028:1 8040:1 8183:1 8270:1 8390:1 8551:1 8558:1 8565:1 8569:1 8576:1 8580:1 8591:1  |EV| 
-0.046921605850512651536554642461851 98:1 1951:1 3994:1 6141:1 6160:1 6185:1 6216:1 6218:1 6219:1 6220:1 7034:1 7149:1 8025:1 8028:1 8065:1 8183:1 8259:1 8390:1 8551:1 8558:1 8565:1 8569:1 8580:1 8591:1  |EV| 
0.11655045928268925603532579771127 166:1 2023:1 4066:1 6153:1 6159:1 6190:1 6196:1 6225:1 6288:1 6291:1 6301:1 6302:1 6303:1 7039:1 7149:1 8020:1 8028:1 8065:1 8146:1 8272:1 8368:1 8551:1 8558:1 8565:1 8569:1 8580:1 8591:1  |EV| 
0.12378988286697965859328718352117 679:1 2824:1 5217:1 6141:1 6145:1 6160:1 6177:1 6336:1 6717:1 6718:1 7027:1 7149:1 8020:1 8028:1 8068:1 8157:1 8256:1 8369:1 8551:1 8558:1 8565:1 8569:1 8580:1 8591:1  |EV| 
0.14466671966204108779052717181912 925:1 2835:1 5178:1 6145:1 6159:1 6346:1 6508:1 6722:1 7039:1 7149:1 8022:1 8028:1 8036:1 8156:1 8277:1 8373:1 8551:1 8558:1 8565:1 8569:1 8580:1 8591:1  |EV| 
-0.17093658656809779250451697407698 643:1 2522:1 4686:1 6141:1 6145:1 6156:1 6160:1 6243:1 6325:1 6508:1 6625:1 6626:1 7039:1 7149:1 7369:1 8020:1 8028:1 8051:1 8143:1 8290:1 8368:1 8551:1 8558:1 8565:1 8569:1 8580:1 8591:1 8596:1  |EV| 
-0.18678933249162238405816083286481 4:1 3593:1 5839:1 6145:1 6159:1 6160:1 6633:1 6787:1 6898:1 6899:1 7022:1 7149:1 7369:1 8020:1 8028:1 8051:1 8149:1 8256:1 8369:1 8551:1 8558:1 8565:1 8569:1 8580:1 8590:1 8591:1 8597:1  |EV| 
-0.0052928473285102604906082746083484 1647:1 3669:1 5918:1 6141:1 6145:1 6185:1 6204:1 6225:1 6231:1 6593:1 6777:1 6929:1 6930:1 6931:1 6934:1 6935:1 6936:1 6937:1 7116:1 7149:1 8020:1 8028:1 8047:1 8145:1 8267:1 8396:1 8551:1 8558:1 8565:1 8569:1 8591:1  |EV| 
-0.0003212291877105546977766437066748 679:1 2824:1 5015:1 6141:1 6143:1 6145:1 6146:1 6149:1 6153:1 6160:1 6177:1 6194:1 6228:1 6239:1 6250:1 6263:1 6336:1 6340:1 6439:1 6446:1 6715:1 6717:1 6723:1 6724:1 6725:1 6726:1 6727:1 6728:1 6729:1 6730:1 6731:1 6732:1 6733:1 6734:1 6735:1 6736:1 6737:1 6738:1 6739:1 6740:1 6741:1 7027:1 7149:1 8020:1 8028:1 8084:1 8156:1 8322:1 8480:1 8551:1 8558:1 8565:1 8569:1 8580:1 8591:1 8596:1  |EV| 
0.11309618291969500414317906233919 811:1 2698:1 4879:1 6141:1 6153:1 6181:1 6677:1 6680:1 7091:1 7148:1 8020:1 8028:1 8066:1 8146:1 8262:1 8369:1 8551:1 8559:1 8565:1 8569:1 8580:1 8591:1  |EV| 
0.24517374118218826506421237354516 332:1 2205:1 4285:1 6141:1 6268:1 6383:1 6474:1 6475:1 7022:1 7149:1 7369:1 8020:1 8028:1 8051:1 8156:1 8262:1 8369:1 8551:1 8558:1 8565:1 8569:1 8580:1 8591:1  |EV| 
0.052500368446265273381090565862905 1275:1 3269:1 5503:1 6387:1 7108:1 7149:1 7276:1 7474:1 7716:1 7916:1 8020:1 8028:1 8029:1 8145:1 8259:1 8369:1 8551:1 8558:1 8565:1 8569:1 8580:1 8591:1  |EV| 
-0.10156882913467385476380400177732 270:1 2143:1 4194:1 6141:1 6185:1 6221:1 6247:1 6276:1 7048:1 7149:1 8020:1 8028:1 8066:1 8146:1 8262:1 8369:1 8551:1 8558:1 8565:1 8569:1 8580:1 8595:1  |EV| 
-0.034155739025692161137115476776671 686:1 2603:1 4768:1 6141:1 6311:1 7022:1 7149:1 7369:1 8020:1 8028:1 8029:1 8146:1 8270:1 8369:1 8551:1 8558:1 8565:1 8569:1 8576:1 8580:1 8597:1  |EV| 
-0.099796521860357145783382293302566 759:1 2708:1 4889:1 6158:1 6190:1 6505:1 7022:1 7090:1 7149:1 8022:1 8028:1 8035:1 8146:1 8277:1 8373:1 8551:1 8558:1 8565:1 8569:1 8577:1 8580:1 8594:1  |EV| 
-0.087103821656104862825031887041405 686:1 2603:1 4988:1 6141:1 6159:1 7022:1 7149:1 7369:1 8020:1 8028:1 8029:1 8146:1 8270:1 8369:1 8551:1 8558:1 8565:1 8569:1 8576:1 8580:1 8597:1  |EV| 
-0.04673767522529254092589212632447 1353:1 3355:1 5592:1 6141:1 6185:1 6204:1 6474:1 6803:1 7049:1 7149:1 8020:1 8028:1 8045:1 8156:1 8287:1 8369:1 8551:1 8558:1 8565:1 8569:1 8580:1 8597:1  |EV| 
-0.039694101768230280469218484995508 277:1 2150:1 4230:1 6141:1 6153:1 6156:1 6160:1 6219:1 6278:1 6320:1 6418:1 6419:1 6420:1 6421:1 6422:1 7021:1 7149:1 7422:1 8022:1 8028:1 8075:1 8148:1 8268:1 8376:1 8551:1 8558:1 8565:1 8569:1 8591:1  |EV| 
-0.048536931193678564677718156872288 459:1 2714:1 4895:1 6141:1 6145:1 6153:1 6190:1 6204:1 6222:1 6224:1 6228:1 6233:1 6311:1 6460:1 6491:1 6503:1 6504:1 6649:1 6659:1 6660:1 6661:1 6670:1 6671:1 6672:1 6673:1 6674:1 7022:1 7149:1 8022:1 8028:1 8100:1 8148:1 8332:1 8439:1 8551:1 8558:1 8565:1 8569:1 8580:1 8591:1  |EV| 
-0.025992710618458546995013236369232 483:1 2361:1 4519:1 6159:1 6160:1 6210:1 6293:1 7022:1 7148:1 7445:1 8020:1 8028:1 8029:1 8156:1 8261:1 8369:1 8551:1 8559:1 8565:1 8569:1 8587:1 8591:1  |EV| 
-0.32485087281009084048122304011486 773:1 2659:1 4829:1 6141:1 6153:1 6159:1 6266:1 6455:1 7049:1 7149:1 7490:1 8022:1 8028:1 8036:1 8148:1 8255:1 8373:1 8551:1 8558:1 8565:1 8569:1 8580:1 8591:1 8597:1  |EV| 
-0.23321435540932386465406978004467 776:1 2662:1 4833:1 6141:1 6153:1 6181:1 6680:1 6683:1 7091:1 7148:1 7473:1 8020:1 8028:1 8029:1 8148:1 8262:1 8369:1 8551:1 8559:1 8565:1 8569:1 8580:1 8591:1  |EV| 
-0.084151134160272644813005626929225 126:1 2957:1 5147:1 6145:1 6194:1 7039:1 7149:1 7369:1 8024:1 8027:1 8051:1 8179:1 8277:1 8392:1 8551:1 8558:1 8565:1 8569:1 8580:1 8591:1  |EV| 
-0.12815932410241581695942159058177 211:1 3633:1 5881:1 6145:1 6160:1 6227:1 6703:1 6792:1 6904:1 7132:1 7149:1 7369:1 8024:1 8027:1 8029:1 8155:1 8263:1 8392:1 8551:1 8558:1 8565:1 8569:1 8580:1 8591:1  |EV| 
-0.086732424473737704251341540384601 1693:1 3721:1 5970:1 6444:1 7136:1 7149:1 7369:1 8020:1 8028:1 8029:1 8145:1 8259:1 8369:1 8551:1 8558:1 8565:1 8569:1 8580:1 8592:1  |EV| 
-0.011431269082630812761181005043909 751:1 2636:1 4802:1 6141:1 6142:1 6145:1 6181:1 6222:1 6231:1 6289:1 6663:1 6666:1 6667:1 6668:1 6669:1 7091:1 7149:1 8020:1 8028:1 8058:1 8146:1 8297:1 8396:1 8551:1 8558:1 8565:1 8569:1 8587:1 8591:1  |EV| 
-0.12725345792468384376050494211086 193:1 2051:1 4093:1 6170:1 6185:1 6333:1 7044:1 7149:1 7406:1 8023:1 8028:1 8033:1 8164:1 8294:1 8383:1 8551:1 8558:1 8565:1 8569:1 8580:1 8591:1  |EV| 
-0.08304934210935499550032545812428 326:1 2207:1 4289:1 6160:1 6161:1 6210:1 6311:1 6485:1 7020:1 7149:1 8025:1 8028:1 8037:1 8164:1 8269:1 8390:1 8551:1 8558:1 8565:1 8569:1 8580:1 8591:1  |EV| 
-0.13458900992281641606496123131365 332:1 2205:1 4329:1 6141:1 6161:1 6168:1 6268:1 6383:1 6474:1 6475:1 6495:1 7022:1 7149:1 8020:1 8028:1 8068:1 8156:1 8257:1 8368:1 8551:1 8558:1 8565:1 8569:1 8591:1  |EV| 
-0.04867444178398347420788638828526 274:1 2147:1 4198:1 6141:1 6156:1 6159:1 6185:1 6268:1 6413:1 7050:1 7149:1 7369:1 8020:1 8028:1 8045:1 8156:1 8287:1 8369:1 8551:1 8558:1 8565:1 8569:1 8580:1 8592:1  |EV| 
-0.097654663314221692993477574873395 1598:1 3615:1 5861:1 6141:1 6142:1 6145:1 6159:1 6339:1 6340:1 6891:1 6892:1 6897:1 7130:1 7149:1 8020:1 8028:1 8070:1 8148:1 8272:1 8368:1 8551:1 8558:1 8565:1 8569:1 8586:1 8591:1 8596:1  |EV| 
-0.12659764958579272642325008746411 1412:1 3417:1 5653:1 6141:1 6145:1 6189:1 6371:1 6846:1 7022:1 7149:1 8020:1 8028:1 8068:1 8145:1 8262:1 8369:1 8551:1 8560:1 8565:1 8569:1 8591:1  |EV| 
-0.01948106518799942038500105923049 1439:1 3444:1 5680:1 6141:1 6145:1 6151:1 6156:1 6185:1 6231:1 6234:1 6266:1 6267:1 6272:1 6274:1 6505:1 6551:1 6640:1 6847:1 6848:1 6849:1 6851:1 6852:1 7120:1 7121:1 7148:1 8020:1 8028:1 8059:1 8146:1 8275:1 8437:1 8551:1 8559:1 8565:1 8569:1 8580:1 8586:1 8591:1  |EV| 
-0.060626393239044819305494371519671 151:1 2005:1 4048:1 6141:1 6231:1 6240:1 7022:1 7149:1 7369:1 8020:1 8028:1 8029:1 8157:1 8269:1 8369:1 8551:1 8558:1 8565:1 8569:1 8580:1 8590:1  |EV| 
-0.0206098257370792778409018808361 1448:1 3453:1 5689:1 6141:1 6145:1 6151:1 6156:1 6185:1 6234:1 6266:1 6267:1 6272:1 6551:1 6640:1 6847:1 6848:1 6849:1 6851:1 6852:1 7120:1 7121:1 7149:1 8020:1 8028:1 8047:1 8146:1 8289:1 8385:1 8551:1 8558:1 8565:1 8569:1 8591:1  |EV| 
0.1385805968629651996337770469836 1623:1 3641:1 5889:1 6145:1 6159:1 6160:1 6505:1 6633:1 6787:1 6898:1 7022:1 7149:1 8020:1 8028:1 8070:1 8146:1 8256:1 8369:1 8551:1 8558:1 8565:1 8569:1 8580:1 8590:1 8591:1 8597:1  |EV| 
0.39882187553030989946023510128725 773:1 2659:1 4937:1 6141:1 6153:1 6159:1 6266:1 6455:1 7049:1 7149:1 7369:1 8020:1 8028:1 8029:1 8148:1 8262:1 8369:1 8551:1 8558:1 8565:1 8569:1 8580:1 8591:1 8597:1  |EV| 
0.16895235728671997854632991220569 680:1 2561:1 4725:1 6141:1 6145:1 6156:1 6160:1 6243:1 6496:1 6508:1 6625:1 6626:1 7039:1 7149:1 8020:1 8028:1 8065:1 8145:1 8290:1 8368:1 8551:1 8558:1 8565:1 8569:1 8580:1 8591:1 8596:1  |EV| 
0.10301364173644678157160115006263 312:1 2185:1 4250:1 6141:1 6153:1 6181:1 6263:1 6303:1 6443:1 6444:1 6445:1 6446:1 6447:1 7048:1 7149:1 8020:1 8028:1 8042:1 8157:1 8272:1 8368:1 8551:1 8558:1 8565:1 8569:1 8576:1 8580:1 8586:1 8591:1  |EV| 
0.15643798824413587822412807781802 1622:1 3640:1 5888:1 6145:1 6160:1 6227:1 6703:1 6792:1 6904:1 7132:1 7149:1 8022:1 8028:1 8030:1 8145:1 8263:1 8373:1 8551:1 8558:1 8565:1 8569:1 8580:1 8591:1  |EV| 
-0.056172935676275702332471695399363 1507:1 3512:1 5759:1 6141:1 6144:1 6145:1 6153:1 6157:1 6234:1 6285:1 6311:1 6371:1 6538:1 6691:1 6872:1 6873:1 6874:1 6875:1 6876:1 6877:1 6878:1 7127:1 7128:1 7129:1 7149:1 7586:1 8022:1 8028:1 8048:1 8145:1 8265:1 8374:1 8551:1 8558:1 8565:1 8569:1 8580:1 8591:1 8594:1 8596:1  |EV| 
-0.079011341151521294334791889468761 167:1 2024:1 4067:1 6153:1 6159:1 6225:1 6288:1 6302:1 6303:1 7039:1 7148:1 8020:1 8028:1 8068:1 8146:1 8287:1 8369:1 8551:1 8558:1 8565:1 8569:1 8584:1 8591:1  |EV| 
0.11666770861947149684478830522494 2:1 3719:1 5968:1 6161:1 6185:1 6284:1 6289:1 6774:1 7039:1 7149:1 8024:1 8027:1 8068:1 8150:1 8277:1 8392:1 8551:1 8558:1 8565:1 8569:1 8580:1 8591:1  |EV| 
0.10033200883970139205558780304273 1796:1 3830:1 6078:1 6161:1 6239:1 6243:1 6313:1 6420:1 6933:1 6971:1 6972:1 6973:1 6974:1 6991:1 7144:1 7149:1 8020:1 8028:1 8040:1 8146:1 8260:1 8368:1 8551:1 8558:1 8565:1 8569:1 8580:1 8591:1 8596:1  |EV| 
-0.088943287060260389775834255488007 1759:1 3789:1 6037:1 6161:1 6239:1 6243:1 6313:1 6420:1 6765:1 6933:1 6971:1 6972:1 6973:1 6974:1 7144:1 7149:1 7369:1 8020:1 8028:1 8029:1 8159:1 8260:1 8401:1 8551:1 8558:1 8565:1 8569:1 8576:1 8580:1 8591:1 8596:1  |EV| 
-0.035485228777614882811342056356807 28:1 1876:1 3919:1 6141:1 6146:1 6156:1 6174:1 6175:1 7028:1 7149:1 8020:1 8028:1 8045:1 8157:1 8262:1 8369:1 8551:1 8558:1 8565:1 8569:1 8580:1 8592:1  |EV| 
-0.0011551121496774299779453087921866 243:1 2106:1 4153:1 6145:1 6160:1 6177:1 6250:1 6399:1 6400:1 7027:1 7149:1 8021:1 8028:1 8033:1 8174:1 8269:1 8371:1 8551:1 8558:1 8565:1 8569:1 8580:1 8591:1  |EV| 
-0.061955520653223565552547569268427 694:1 2575:1 4740:1 6141:1 6204:1 6263:1 6649:1 7022:1 7149:1 7369:1 8020:1 8028:1 8029:1 8148:1 8262:1 8369:1 8551:1 8558:1 8565:1 8569:1 8580:1  |EV| 
-0.044000871231620948542673232850575 174:1 2031:1 4075:1 6228:1 6315:1 7040:1 7149:1 7369:1 8020:1 8028:1 8029:1 8146:1 8270:1 8369:1 8551:1 8558:1 8565:1 8569:1 8580:1 8593:1 8597:1  |EV| 
-0.098904682533007520772727616531483 447:1 2325:1 4477:1 6141:1 6161:1 6185:1 6222:1 6240:1 6266:1 6289:1 6291:1 6313:1 6529:1 7039:1 7149:1 8020:1 8028:1 8065:1 8146:1 8272:1 8368:1 8551:1 8558:1 8565:1 8569:1 8591:1 8596:1  |EV| 
-0.039016368970454282094628695176652 94:1 2924:1 5114:1 6145:1 6159:1 6160:1 6218:1 6346:1 6508:1 6722:1 6759:1 7022:1 7149:1 8025:1 8028:1 8040:1 8164:1 8287:1 8390:1 8551:1 8558:1 8565:1 8569:1 8580:1 8591:1  |EV| 
-0.034308808498552979815432451005108 125:1 1978:1 4021:1 6141:1 6160:1 6180:1 6181:1 6185:1 6232:1 6233:1 6238:1 7022:1 7149:1 8020:1 8028:1 8045:1 8149:1 8257:1 8368:1 8551:1 8558:1 8565:1 8569:1 8577:1 8580:1  |EV| 
-0.041511955221365581802928090837668 1702:1 3731:1 5980:1 6141:1 6204:1 6384:1 6626:1 7139:1 7149:1 7369:1 8020:1 8028:1 8029:1 8148:1 8262:1 8369:1 8551:1 8558:1 8565:1 8569:1 8580:1  |EV| 
0.080499110766482528944720797881018 447:1 2325:1 4479:1 6141:1 6185:1 6222:1 7039:1 7149:1 8020:1 8028:1 8051:1 8146:1 8269:1 8369:1 8551:1 8558:1 8565:1 8569:1 8580:1 8591:1 8596:1  |EV| 
-0.035996872605159865865509516424936 449:1 2327:1 4481:1 6141:1 6222:1 6276:1 7039:1 7149:1 7630:1 7828:1 8022:1 8028:1 8043:1 8146:1 8277:1 8373:1 8551:1 8560:1 8565:1 8569:1 8587:1 8591:1 8596:1  |EV| 
-0.032140323949169227746303079129575 925:1 2835:1 5026:1 6141:1 6143:1 6145:1 6146:1 6149:1 6159:1 6160:1 6194:1 6228:1 6239:1 6250:1 6263:1 6340:1 6346:1 6446:1 6508:1 6715:1 6722:1 6723:1 6724:1 6725:1 6726:1 6727:1 6728:1 6729:1 6730:1 6731:1 6732:1 6733:1 6734:1 6735:1 6736:1 6737:1 6738:1 6739:1 6740:1 7039:1 7149:1 8022:1 8028:1 8124:1 8156:1 8349:1 8470:1 8551:1 8558:1 8565:1 8569:1 8580:1 8591:1  |EV| 
-0.048612669564991287107780237874977 773:1 3349:1 5586:1 6141:1 6808:1 7049:1 7149:1 7369:1 8020:1 8028:1 8051:1 8145:1 8270:1 8369:1 8551:1 8558:1 8565:1 8569:1 8576:1 8580:1 8594:1  |EV| 
-0.032335568661428545911284970770794 1379:1 3383:1 5619:1 6141:1 6153:1 6159:1 6185:1 6485:1 6831:1 7022:1 7117:1 7118:1 7149:1 8025:1 8028:1 8055:1 8164:1 8262:1 8403:1 8551:1 8558:1 8565:1 8569:1 8576:1 8580:1 8591:1  |EV| 
0.0041870601107701910237324227637146 899:1 2808:1 4999:1 6160:1 6696:1 7100:1 7149:1 7369:1 8020:1 8028:1 8029:1 8146:1 8270:1 8369:1 8551:1 8558:1 8565:1 8569:1 8580:1 8591:1  |EV| 
-0.039001865811169884878939484451621 901:1 2810:1 5001:1 6141:1 6204:1 6311:1 6699:1 7098:1 7099:1 7149:1 7505:1 8020:1 8028:1 8029:1 8148:1 8262:1 8369:1 8551:1 8558:1 8565:1 8569:1 8580:1 8597:1  |EV| 
-0.051884811319612207658469316129413 681:1 2562:1 4726:1 6141:1 6145:1 6156:1 6160:1 6243:1 6496:1 6625:1 7086:1 7149:1 8025:1 8028:1 8065:1 8164:1 8262:1 8390:1 8551:1 8558:1 8565:1 8569:1 8580:1 8591:1  |EV| 
-0.078642782343262329636246477093664 1619:1 3637:1 5885:1 6141:1 6146:1 7021:1 7149:1 7369:1 8020:1 8028:1 8029:1 8146:1 8270:1 8369:1 8551:1 8558:1 8565:1 8569:1 8580:1 8592:1  |EV| 
-0.036164972685368119986737411863942 135:1 1988:1 4031:1 6145:1 6160:1 6212:1 6213:1 6214:1 6215:1 6216:1 7034:1 7149:1 8021:1 8028:1 8035:1 8143:1 8259:1 8371:1 8551:1 8558:1 8565:1 8569:1 8580:1 8591:1  |EV| 
-0.024365168391851033807826709676192 864:1 3862:1 6111:1 6141:1 6145:1 6153:1 6160:1 6185:1 6190:1 6231:1 6311:1 6358:1 6381:1 6392:1 6633:1 6954:1 7004:1 7005:1 7006:1 7007:1 7022:1 7149:1 8021:1 8028:1 8064:1 8151:1 8257:1 8395:1 8551:1 8558:1 8565:1 8569:1 8580:1 8590:1 8591:1  |EV| 
-0.017673779300016997928501893966313 131:1 1984:1 4027:1 6141:1 6160:1 6217:1 6218:1 6219:1 7033:1 7149:1 7369:1 8020:1 8028:1 8029:1 8148:1 8262:1 8369:1 8551:1 8558:1 8565:1 8569:1 8580:1 8593:1  |EV| 
0.073993629389552270647634202305198 1601:1 3618:1 5864:1 6141:1 6204:1 6343:1 6927:1 7077:1 7149:1 7369:1 8020:1 8028:1 8066:1 8145:1 8261:1 8369:1 8551:1 8558:1 8565:1 8569:1 8580:1 8591:1  |EV| 
0.09100719449076752343152918456326 491:1 2369:1 4527:1 6181:1 6548:1 7069:1 7070:1 7071:1 7149:1 8022:1 8028:1 8035:1 8146:1 8255:1 8373:1 8551:1 8558:1 8565:1 8569:1 8580:1 8591:1  |EV| 
0.070861279637201415870784160233598 459:1 2620:1 4786:1 6141:1 6222:1 6224:1 6311:1 6659:1 6660:1 6661:1 7022:1 7149:1 8022:1 8028:1 8031:1 8148:1 8292:1 8376:1 8551:1 8558:1 8565:1 8569:1 8580:1 8591:1  |EV| 
0.093312374681914833640661299796193 895:1 2803:1 4994:1 6141:1 6149:1 6153:1 6311:1 7096:1 7149:1 7369:1 8020:1 8028:1 8045:1 8146:1 8261:1 8369:1 8551:1 8558:1 8565:1 8569:1 8580:1 8591:1 8596:1  |EV| 
0.11182031807551440216741411859402 799:1 2685:1 3939:1 7022:1 7090:1 7149:1 7369:1 8020:1 8028:1 8029:1 8163:1 8258:1 8369:1 8551:1 8558:1 8565:1 8569:1 8580:1 8591:1 8594:1  |EV| 
-0.066324037533126378729519956323202 47:1 1896:1 3939:1 7023:1 7149:1 7369:1 8020:1 8028:1 8029:1 8163:1 8258:1 8369:1 8551:1 8558:1 8565:1 8569:1 8580:1 8595:1  |EV| 
-0.034401634254887750175022631538013 1493:1 3498:1 5736:1 6141:1 6156:1 6161:1 6204:1 6267:1 6339:1 6340:1 6457:1 6682:1 6715:1 6870:1 6871:1 7124:1 7149:1 8020:1 8028:1 8057:1 8146:1 8267:1 8396:1 8551:1 8558:1 8565:1 8569:1 8591:1  |EV| 
0.08120542765487906433641285275371 647:1 2526:1 4690:1 6141:1 6156:1 6160:1 6243:1 6625:1 7086:1 7149:1 7369:1 8020:1 8028:1 8051:1 8156:1 8262:1 8369:1 8551:1 8558:1 8565:1 8569:1 8580:1 8591:1  |EV| 
-0.012403805162098435754813863240997 303:1 2176:1 4233:1 6141:1 6149:1 6153:1 6181:1 6263:1 6303:1 6443:1 6444:1 6445:1 6446:1 6447:1 7048:1 7148:1 8020:1 8028:1 8065:1 8157:1 8260:1 8368:1 8551:1 8559:1 8565:1 8569:1 8576:1 8587:1 8591:1  |EV| 
0.10097070810679596719605655152918 1507:1 3512:1 3889:1 6141:1 7127:1 7128:1 7129:1 7149:1 7369:1 8020:1 8028:1 8029:1 8145:1 8259:1 8369:1 8551:1 8558:1 8565:1 8569:1 8580:1 8591:1 8594:1 8596:1  |EV| 
0.1169765204226688032340675249543 749:1 2634:1 4818:1 6141:1 6181:1 7091:1 7148:1 7473:1 8020:1 8028:1 8029:1 8146:1 8270:1 8369:1 8551:1 8559:1 8565:1 8569:1 8580:1 8591:1  |EV| 
0.06338060046800944591360860158602 1486:1 3491:1 5729:1 6141:1 6156:1 6161:1 6340:1 6715:1 7124:1 7149:1 8020:1 8028:1 8066:1 8146:1 8262:1 8369:1 8551:1 8560:1 8565:1 8569:1 8580:1 8586:1 8591:1  |EV| 
-0.0076115003944828424353730156326492 83:1 1935:1 3978:1 6145:1 6158:1 6159:1 6160:1 6161:1 6162:1 6163:1 6164:1 6165:1 6166:1 6167:1 6170:1 6171:1 6172:1 6173:1 6176:1 6177:1 6207:1 7022:1 7149:1 8022:1 8028:1 8060:1 8159:1 8266:1 8378:1 8551:1 8558:1 8565:1 8569:1 8580:1 8597:1  |EV| 
-0.029116429303963971275681643646749 176:1 2033:1 4077:1 6228:1 6278:1 6315:1 6326:1 7042:1 7149:1 7369:1 8020:1 8028:1 8029:1 8156:1 8261:1 8369:1 8551:1 8558:1 8565:1 8569:1 8580:1  |EV| 
-0.03260947912581731167325216347308 522:1 2400:1 4558:1 6141:1 6181:1 6274:1 6430:1 6548:1 6563:1 7069:1 7070:1 7071:1 7149:1 8022:1 8028:1 8031:1 8146:1 8294:1 8376:1 8551:1 8560:1 8565:1 8569:1 8591:1  |EV| 
-0.017449555739806998921892500220565 400:1 2275:1 4397:1 6141:1 6142:1 6145:1 6160:1 6161:1 6274:1 6291:1 6311:1 6342:1 6449:1 6450:1 6508:1 7053:1 7149:1 8020:1 8028:1 8058:1 8146:1 8297:1 8396:1 8551:1 8558:1 8565:1 8569:1 8586:1 8591:1  |EV| 
-0.021983290800364395367605396813815 917:1 2827:1 5018:1 6141:1 6145:1 6146:1 6149:1 6159:1 6194:1 6239:1 6250:1 6340:1 6346:1 6508:1 6715:1 6722:1 6723:1 6724:1 6725:1 6726:1 6727:1 6728:1 6729:1 7039:1 7149:1 8022:1 8028:1 8062:1 8156:1 8265:1 8374:1 8551:1 8560:1 8565:1 8569:1 8580:1 8586:1 8591:1  |EV| 
0.034963567295093811448936094166129 643:1 2915:1 5105:1 6160:1 6185:1 6474:1 6760:1 7022:1 7149:1 8020:1 8028:1 8066:1 8145:1 8261:1 8369:1 8551:1 8558:1 8565:1 8569:1 8580:1 8591:1 8596:1  |EV| 
-0.021676967314642546502678754904991 128:1 1981:1 4024:1 6141:1 6159:1 6185:1 6222:1 6242:1 7032:1 7148:1 7170:1 7395:1 7638:1 7778:1 8020:1 8028:1 8051:1 8156:1 8262:1 8369:1 8551:1 8559:1 8565:1 8569:1 8583:1 8591:1 8597:1  |EV| 
-0.025084231982541164984734649578968 753:1 2638:1 4804:1 6141:1 6153:1 6181:1 7091:1 7149:1 7236:1 7479:1 7683:1 7864:1 8020:1 8028:1 8051:1 8146:1 8269:1 8369:1 8551:1 8560:1 8565:1 8569:1 8584:1 8591:1  |EV| 
-0.0060808215223309459995792991549024 1040:1 2965:1 5156:1 6143:1 6145:1 6149:1 6153:1 6160:1 6177:1 6228:1 6263:1 6336:1 6439:1 6446:1 6717:1 6728:1 6731:1 6732:1 6733:1 6734:1 6735:1 6736:1 6737:1 6738:1 6739:1 6740:1 6741:1 7027:1 7149:1 7257:1 7517:1 7707:1 7904:1 8020:1 8028:1 8059:1 8156:1 8337:1 8437:1 8551:1 8560:1 8565:1 8569:1 8580:1 8586:1 8591:1 8596:1  |EV| 
-0.039926868545245020047929074280546 902:1 2811:1 5002:1 6160:1 6185:1 6696:1 7100:1 7149:1 7371:1 8022:1 8028:1 8043:1 8146:1 8277:1 8373:1 8551:1 8560:1 8565:1 8569:1 8582:1 8591:1  |EV| 
-0.022011244722205978302520534839459 882:1 2788:1 4977:1 6141:1 6145:1 6154:1 6168:1 6180:1 6181:1 6610:1 7022:1 7149:1 7251:1 7507:1 7704:1 7900:1 8022:1 8028:1 8030:1 8156:1 8292:1 8373:1 8551:1 8561:1 8565:1 8569:1 8586:1 8591:1  |EV| 
-0.029349630920429119890213698340631 890:1 2796:1 4985:1 6141:1 6145:1 6153:1 6155:1 6157:1 6311:1 6392:1 6602:1 6695:1 7096:1 7149:1 8021:1 8028:1 8061:1 8159:1 8270:1 8372:1 8551:1 8558:1 8565:1 8569:1 8580:1 8591:1 8596:1  |EV| 
-0.027704443211809152286528856734549 1505:1 3510:1 5750:1 6141:1 6145:1 6148:1 6160:1 6699:1 6879:1 7127:1 7128:1 7129:1 7149:1 8021:1 8028:1 8043:1 8174:1 8259:1 8371:1 8551:1 8558:1 8565:1 8569:1 8580:1 8591:1 8594:1 8596:1  |EV| 
-0.026079313242383848903127585572292 1609:1 3626:1 5873:1 6141:1 6143:1 6145:1 6387:1 6843:1 6914:1 7027:1 7149:1 7369:1 7605:1 8020:1 8028:1 8070:1 8146:1 8256:1 8369:1 8551:1 8558:1 8565:1 8569:1 8591:1  |EV| 
0.033437979107459284144887590173312 1706:1 3735:1 3889:1 6141:1 7137:1 7149:1 7369:1 8020:1 8028:1 8029:1 8145:1 8259:1 8369:1 8551:1 8558:1 8565:1 8569:1 8580:1 8591:1  |EV| 
0.022868966574596874541391855473194 1370:1 3374:1 5610:1 6141:1 6159:1 6185:1 6831:1 7022:1 7117:1 7118:1 7149:1 7369:1 8020:1 8028:1 8029:1 8148:1 8262:1 8369:1 8551:1 8558:1 8565:1 8569:1 8580:1 8591:1  |EV| 
-0.0099412697599358858940865601994119 1648:1 3673:1 5922:1 6145:1 6204:1 6225:1 6231:1 6777:1 6930:1 6931:1 7116:1 7149:1 8020:1 8028:1 8037:1 8145:1 8256:1 8369:1 8551:1 8558:1 8565:1 8569:1 8591:1  |EV| 
-0.0057689580498239594399945140423824 111:1 1964:1 4007:1 6141:1 6159:1 6185:1 6218:1 6219:1 6220:1 6222:1 6242:1 7032:1 7148:1 8020:1 8028:1 8070:1 8156:1 8290:1 8368:1 8551:1 8559:1 8565:1 8569:1 8581:1 8591:1 8597:1  |EV| 
-0.0069497748747029105056971509668529 12:1 1860:1 3901:1 6141:1 6145:1 6149:1 7022:1 7149:1 7374:1 8020:1 8028:1 8045:1 8145:1 8269:1 8369:1 8551:1 8560:1 8565:1 8569:1 8584:1 8591:1  |EV| 
-0.0039186725834107066779310457604879 1485:1 3490:1 5728:1 6141:1 6159:1 6245:1 6457:1 7124:1 7149:1 7574:1 8020:1 8028:1 8029:1 8156:1 8261:1 8369:1 8551:1 8561:1 8565:1 8569:1 8580:1 8597:1  |EV| 
-0.0065536943793783539180530794965307 801:1 2687:1 4862:1 6141:1 6145:1 6181:1 6317:1 7091:1 7149:1 8022:1 8028:1 8035:1 8146:1 8271:1 8373:1 8551:1 8558:1 8565:1 8569:1 8591:1  |EV| 
-0.00118521751288405002844328350875 343:1 2217:1 3939:1 7056:1 7149:1 7369:1 8020:1 8028:1 8029:1 8163:1 8258:1 8369:1 8551:1 8558:1 8565:1 8569:1 8576:1 8580:1 8594:1  |EV| 
-0.0031325567501677802073611900368633 1424:1 3429:1 5665:1 6141:1 6156:1 6185:1 7120:1 7121:1 7149:1 8022:1 8028:1 8035:1 8146:1 8277:1 8373:1 8551:1 8560:1 8565:1 8569:1 8582:1 8591:1  |EV| 
-0.0005841686190785067012143372267019 1697:1 3725:1 5974:1 6141:1 6146:1 6153:1 6185:1 6284:1 6289:1 6774:1 6840:1 7028:1 7140:1 7149:1 8020:1 8028:1 8068:1 8156:1 8257:1 8368:1 8551:1 8558:1 8565:1 8569:1 8580:1 8592:1  |EV| 
-0.00100358138842640554067031644081 887:1 2793:1 4982:1 6141:1 6145:1 6160:1 6161:1 6185:1 6188:1 6208:1 6696:1 6702:1 7100:1 7149:1 7510:1 8022:1 8028:1 8064:1 8146:1 8268:1 8376:1 8551:1 8558:1 8565:1 8569:1 8591:1  |EV| 
-0.00078254200103426013734875255067891 1782:1 3816:1 6064:1 6161:1 6239:1 6243:1 6313:1 6933:1 6973:1 6974:1 7144:1 7148:1 7358:1 7622:1 7757:1 7993:1 8020:1 8028:1 8070:1 8146:1 8256:1 8369:1 8551:1 8559:1 8565:1 8569:1 8582:1 8587:1 8591:1 8596:1  |EV| 
0.0004834735417201356522109989555247 364:1 2238:1 4334:1 7049:1 7149:1 7196:1 7369:1 7636:1 7809:1 8024:1 8027:1 8029:1 8164:1 8255:1 8392:1 8551:1 8558:1 8565:1 8569:1 8580:1 8591:1  |EV| 
