SVM-light Version V5.01-TK-1.5
0 # kernel type
3 # kernel parameter -d 
1 # kernel parameter -g 
1 # kernel parameter -s 
1 # kernel parameter -r 
empty# kernel parameter -u 
0.4 # kernel parameter -L 
1 # kernel parameter -T 
T # kernel parameter -C 
1 # kernel parameter -F 
0 # kernel parameter -S 
0.400000 # kernel parameter -M 
3 # kernel parameter -N 
S # kernel parameter -V 
S # kernel parameter -W 
0 # kernel parameter -U 
12546 # highest feature index 
3904 # number of training documents 
512 # number of support vectors plus 1 
3.0419977 # threshold b, each following line is a SV (starting with alpha*y)
0.035340427287016223933946434954123 696:1 3734:1 6224:1 11060:1 11107:1 11319:1 11952:1 11957:1 11968:1 12076:1 12197:1 12319:1 12502:1 12510:1 12518:1 12523:1 12525:1 12527:1 12541:1 12546:1  |EV| 
0.10000000000000000555111512312578 676:1 4315:1 7821:1 9870:1 9871:1 9879:1 9884:1 9908:1 9962:1 9970:1 10085:1 10114:1 10328:1 10481:1 10497:1 10498:1 11026:1 11107:1 11952:1 11957:1 11962:1 12080:1 12240:1 12334:1 12502:1 12510:1 12518:1 12523:1 12541:1 12546:1  |EV| 
0.0053239133075329717406654062017424 142:1 3128:1 6224:1 11035:1 11107:1 11350:1 11952:1 11957:1 11968:1 12076:1 12197:1 12319:1 12502:1 12510:1 12518:1 12523:1 12527:1 12541:1 12546:1  |EV| 
0.10000000000000000555111512312578 2149:1 5312:1 8894:1 9908:1 9915:1 9979:1 10767:1 10768:1 10769:1 10771:1 10772:1 11026:1 11107:1 11952:1 11957:1 11960:1 12094:1 12220:1 12324:1 12502:1 12510:1 12518:1 12523:1 12541:1 12546:1  |EV| 
0.039991006282561414320042558756541 511:1 3533:1 6224:1 11057:1 11107:1 11319:1 11952:1 11957:1 11968:1 12076:1 12197:1 12319:1 12502:1 12510:1 12518:1 12523:1 12527:1 12541:1 12546:1  |EV| 
0.063563681550723130642133185119746 696:1 3734:1 6224:1 11060:1 11107:1 11319:1 11952:1 11957:1 11968:1 12076:1 12197:1 12319:1 12502:1 12510:1 12518:1 12523:1 12527:1 12541:1 12546:1  |EV| 
0.10000000000000000555111512312578 8:1 2978:1 6243:1 9870:1 9880:1 9881:1 9882:1 11024:1 11107:1 11319:1 11951:1 11956:1 11966:1 12082:1 12198:1 12315:1 12502:1 12510:1 12518:1 12523:1 12541:1 12546:1  |EV| 
-0.0025610840308646007357218365996232 2449:1 5641:1 6423:1 9870:1 11045:1 11107:1 11430:1 11527:1 11952:1 11957:1 11966:1 12076:1 12214:1 12319:1 12502:1 12514:1 12518:1 12523:1 12546:1  |EV| 
-0.10000000000000000555111512312578 213:1 3214:1 6502:1 9879:1 11026:1 11107:1 11952:1 11957:1 11966:1 12076:1 12214:1 12319:1 12502:1 12510:1 12518:1 12523:1 12546:1  |EV| 
0.10000000000000000555111512312578 39:1 3014:1 6268:1 9870:1 9871:1 9883:1 9884:1 9885:1 9886:1 9887:1 9888:1 9928:1 9932:1 11025:1 11107:1 11952:1 11957:1 12001:1 12076:1 12209:1 12334:1 12502:1 12510:1 12518:1 12523:1 12541:1 12546:1  |EV| 
-0.038414113489327370021264584920573 12:1 2982:1 6223:1 9870:1 9871:1 9883:1 9884:1 9885:1 9886:1 9887:1 9888:1 9889:1 9932:1 11025:1 11107:1 11319:1 11952:1 11957:1 11968:1 12087:1 12209:1 12318:1 12502:1 12510:1 12518:1 12523:1 12541:1 12546:1  |EV| 
-0.10000000000000000555111512312578 2305:1 5490:1 9077:1 9870:1 9885:1 10525:1 10819:1 10829:1 11040:1 11107:1 11319:1 11952:1 11957:1 11966:1 12094:1 12228:1 12319:1 12502:1 12510:1 12518:1 12523:1 12541:1 12546:1  |EV| 
-0.10000000000000000555111512312578 2743:1 5958:1 6224:1 11026:1 11107:1 11319:1 11952:1 11957:1 11968:1 12076:1 12197:1 12319:1 12502:1 12510:1 12518:1 12523:1 12541:1 12546:1  |EV| 
-0.10000000000000000555111512312578 2846:1 6063:1 6224:1 11030:1 11104:1 11107:1 11319:1 11952:1 11957:1 11968:1 12076:1 12197:1 12319:1 12502:1 12510:1 12518:1 12523:1 12541:1 12546:1  |EV| 
-0.10000000000000000555111512312578 2194:1 5358:1 8936:1 9890:1 9897:1 10803:1 10804:1 11021:1 11107:1 11319:1 11952:1 11957:1 11966:1 12084:1 12192:1 12319:1 12502:1 12510:1 12518:1 12523:1 12541:1 12546:1  |EV| 
0.09999517981007347011690455929056 719:1 3758:1 7277:1 9879:1 9908:1 9970:1 10329:1 11027:1 11107:1 11947:1 11957:1 11958:1 12076:1 12194:1 12309:1 12502:1 12510:1 12518:1 12523:1 12541:1 12546:1  |EV| 
-0.0044881541613549010699690811065921 1908:1 5062:1 8628:1 9900:1 9919:1 10349:1 10703:1 10704:1 11060:1 11107:1 11315:1 11947:1 11957:1 11994:1 12076:1 12199:1 12309:1 12502:1 12513:1 12518:1 12523:1 12525:1 12527:1 12537:1 12541:1 12546:1  |EV| 
0.082700941829004365191124747980211 1182:1 4313:1 7817:1 9922:1 9970:1 10328:1 10497:1 11036:1 11107:1 11947:1 11957:1 11958:1 12080:1 12198:1 12309:1 12502:1 12510:1 12518:1 12523:1 12525:1 12541:1 12546:1  |EV| 
0.0010721934485425042848927290606298 925:1 3988:1 7468:1 10400:1 10401:1 10402:1 10404:1 11037:1 11107:1 11947:1 11957:1 11958:1 12076:1 12194:1 12309:1 12502:1 12510:1 12518:1 12523:1 12541:1 12546:1  |EV| 
0.059871200597701450252241528460218 675:1 4314:1 7819:1 9922:1 9970:1 10006:1 10497:1 11059:1 11107:1 11947:1 11957:1 11958:1 12076:1 12194:1 12309:1 12502:1 12510:1 12518:1 12523:1 12525:1 12541:1 12546:1  |EV| 
-0.0042151771303671828339254545880976 675:1 4314:1 7818:1 9922:1 9970:1 10001:1 10006:1 10325:1 10328:1 10497:1 11059:1 11107:1 11950:1 11957:1 11958:1 12088:1 12214:1 12316:1 12502:1 12510:1 12518:1 12523:1 12525:1 12541:1 12546:1  |EV| 
0.066465601880665942102766052812512 2458:1 5651:1 9224:1 9871:1 9894:1 9900:1 9957:1 10187:1 10504:1 11095:1 11107:1 11319:1 11952:1 11957:1 11968:1 12119:1 12205:1 12319:1 12502:1 12510:1 12518:1 12523:1 12541:1 12546:1  |EV| 
-0.046016459739362289282915696730925 719:1 3758:1 7256:1 9879:1 9908:1 9953:1 9970:1 9978:1 10068:1 10136:1 10329:1 11027:1 11107:1 11950:1 11957:1 11958:1 12087:1 12211:1 12313:1 12502:1 12510:1 12518:1 12523:1 12541:1 12546:1  |EV| 
-0.040065679956809506501169693137854 2183:1 5347:1 8929:1 9865:1 9897:1 10803:1 11036:1 11107:1 11279:1 11317:1 11746:1 11913:1 11950:1 11957:1 11963:1 12094:1 12214:1 12316:1 12502:1 12510:1 12518:1 12523:1 12537:1 12541:1 12546:1  |EV| 
-0.028532208784680976321190826183738 346:1 3357:1 6641:1 9870:1 10006:1 10112:1 11043:1 11107:1 11319:1 11951:1 11956:1 11968:1 12077:1 12198:1 12315:1 12502:1 12510:1 12518:1 12523:1 12541:1 12546:1  |EV| 
-0.0051569514697233642674945031103562 718:1 3757:1 7098:1 9870:1 9884:1 9888:1 9908:1 9971:1 9974:1 10101:1 10221:1 10340:1 10341:1 11061:1 11107:1 11415:1 11952:1 11957:1 11962:1 12080:1 12240:1 12334:1 12502:1 12513:1 12518:1 12523:1 12538:1 12546:1  |EV| 
0.035951521979174172471971360209864 217:1 3218:1 6224:1 11025:1 11107:1 11319:1 11952:1 11957:1 11968:1 12076:1 12197:1 12319:1 12502:1 12513:1 12518:1 12523:1 12541:1 12546:1  |EV| 
0.020426264974331045931599248888233 945:1 4008:1 6224:1 11070:1 11107:1 11319:1 11401:1 11450:1 11952:1 11957:1 11968:1 12076:1 12197:1 12319:1 12502:1 12513:1 12518:1 12523:1 12541:1 12546:1  |EV| 
0.031937954580903107903999682548601 968:1 4031:1 7509:1 9908:1 11071:1 11107:1 11319:1 11952:1 11957:1 11968:1 12080:1 12214:1 12319:1 12502:1 12510:1 12518:1 12523:1 12541:1 12546:1  |EV| 
-0.10000000000000000555111512312578 2165:1 5328:1 6224:1 11043:1 11107:1 11319:1 11952:1 11957:1 11968:1 12076:1 12197:1 12319:1 12502:1 12510:1 12518:1 12523:1 12546:1  |EV| 
-0.02273407830408614993533689130345 1247:1 4334:1 7839:1 9870:1 9871:1 9908:1 9980:1 10528:1 10538:1 11027:1 11107:1 11386:1 11951:1 11956:1 11968:1 12117:1 12249:1 12315:1 12502:1 12510:1 12518:1 12523:1 12541:1 12546:1  |EV| 
-0.10000000000000000555111512312578 2155:1 5318:1 8899:1 9871:1 10345:1 10512:1 10785:1 11043:1 11107:1 11586:1 11947:1 11957:1 11958:1 12076:1 12194:1 12309:1 12502:1 12514:1 12518:1 12523:1 12541:1 12546:1  |EV| 
0.10000000000000000555111512312578 666:1 3704:1 7222:1 9879:1 9904:1 9953:1 9978:1 10066:1 10068:1 10136:1 10326:1 11026:1 11107:1 11952:1 11957:1 11998:1 12080:1 12209:1 12324:1 12502:1 12510:1 12518:1 12523:1 12541:1 12546:1  |EV| 
0.10000000000000000555111512312578 767:1 3816:1 7223:1 9879:1 9953:1 9978:1 10066:1 10068:1 10136:1 10326:1 11040:1 11107:1 11952:1 11957:1 11998:1 12076:1 12204:1 12324:1 12502:1 12510:1 12518:1 12523:1 12541:1 12546:1  |EV| 
0.10000000000000000555111512312578 967:1 4030:1 7508:1 9907:1 9908:1 9922:1 10006:1 10426:1 10427:1 11026:1 11106:1 11317:1 11950:1 11957:1 11963:1 12119:1 12192:1 12316:1 12502:1 12510:1 12518:1 12523:1 12541:1 12546:1  |EV| 
0.10000000000000000555111512312578 727:1 3810:1 7191:1 9870:1 9871:1 9879:1 9904:1 9907:1 9908:1 9922:1 9978:1 9985:1 10014:1 10073:1 10095:1 10184:1 10219:1 10225:1 10257:1 10275:1 10326:1 10330:1 10343:1 10347:1 10350:1 10351:1 10354:1 10355:1 11040:1 11107:1 11952:1 11957:1 12028:1 12094:1 12274:1 12371:1 12502:1 12510:1 12518:1 12523:1 12541:1 12546:1  |EV| 
0.10000000000000000555111512312578 2667:1 5869:1 9452:1 9870:1 9871:1 9874:1 9879:1 9884:1 9888:1 9901:1 9908:1 9976:1 10019:1 10179:1 10193:1 10209:1 10225:1 10469:1 10548:1 10563:1 10583:1 10594:1 10596:1 10662:1 10972:1 10973:1 10974:1 10975:1 10978:1 10979:1 10980:1 11103:1 11107:1 11948:1 11957:1 12035:1 12083:1 12285:1 12482:1 12502:1 12510:1 12518:1 12523:1 12541:1 12546:1  |EV| 
-0.087701635928126103758373233176826 483:1 3849:1 7284:1 9870:1 9879:1 9904:1 9907:1 9908:1 9922:1 9978:1 9985:1 10014:1 10073:1 10095:1 10184:1 10219:1 10225:1 10257:1 10275:1 10330:1 10343:1 10344:1 10347:1 10350:1 10351:1 10355:1 11026:1 11107:1 11952:1 11957:1 11969:1 12119:1 12258:1 12327:1 12502:1 12510:1 12518:1 12523:1 12541:1 12546:1  |EV| 
-0.034214762567260734171803449044091 2664:1 5866:1 9449:1 9870:1 9871:1 9874:1 9879:1 9884:1 9888:1 9901:1 9908:1 9976:1 10019:1 10179:1 10193:1 10209:1 10225:1 10469:1 10548:1 10563:1 10583:1 10594:1 10596:1 10972:1 10973:1 10974:1 10975:1 10978:1 10979:1 10980:1 11103:1 11107:1 11319:1 11952:1 11957:1 11966:1 12158:1 12285:1 12389:1 12502:1 12510:1 12518:1 12523:1 12541:1 12546:1  |EV| 
-0.010447996466972843399023673782722 2674:1 5877:1 9460:1 9870:1 9871:1 9874:1 9879:1 9884:1 9888:1 9901:1 9908:1 9976:1 10019:1 10179:1 10193:1 10209:1 10225:1 10469:1 10548:1 10563:1 10583:1 10594:1 10596:1 10662:1 10972:1 10973:1 10974:1 10975:1 10978:1 10979:1 11103:1 11107:1 11952:1 11957:1 11962:1 12106:1 12285:1 12386:1 12502:1 12510:1 12518:1 12523:1 12541:1 12546:1  |EV| 
-0.07056303382343763475059716938631 2712:1 5917:1 9501:1 9870:1 9871:1 9874:1 9879:1 9884:1 9888:1 9901:1 9908:1 9976:1 10019:1 10179:1 10193:1 10209:1 10225:1 10469:1 10548:1 10563:1 10583:1 10594:1 10596:1 10662:1 10972:1 10974:1 10975:1 10978:1 10979:1 10980:1 11103:1 11107:1 11952:1 11957:1 12014:1 12124:1 12285:1 12404:1 12502:1 12510:1 12518:1 12523:1 12541:1 12546:1  |EV| 
-0.044644892464353325145509643334663 1936:1 5095:1 8655:1 9871:1 9879:1 9908:1 9970:1 10101:1 10133:1 10723:1 10728:1 11040:1 11107:1 11948:1 11957:1 12001:1 12082:1 12211:1 12333:1 12502:1 12510:1 12518:1 12523:1 12527:1 12541:1 12546:1  |EV| 
-0.019930598269924146292986222306354 30:1 3004:1 6256:1 9870:1 9871:1 9888:1 11025:1 11107:1 11952:1 11957:1 11964:1 12076:1 12211:1 12319:1 12502:1 12510:1 12518:1 12523:1 12546:1  |EV| 
0.10000000000000000555111512312578 1708:1 4851:1 8400:1 9884:1 9915:1 10021:1 10221:1 10650:1 11082:1 11107:1 11114:1 11332:1 11658:1 11871:1 11952:1 11957:1 11966:1 12094:1 12228:1 12319:1 12502:1 12512:1 12518:1 12523:1 12536:1 12541:1 12546:1  |EV| 
0.014123914517947588898039157356834 2199:1 5364:1 6224:1 11021:1 11107:1 11283:1 11379:1 11733:1 11912:1 11952:1 11957:1 11968:1 12076:1 12197:1 12319:1 12502:1 12510:1 12518:1 12523:1 12537:1 12541:1 12546:1  |EV| 
-0.0016161353092437576520201680807531 1652:1 4789:1 8341:1 10633:1 11061:1 11107:1 11196:1 11317:1 11665:1 11863:1 11950:1 11957:1 11963:1 12097:1 12193:1 12316:1 12502:1 12510:1 12518:1 12523:1 12546:1  |EV| 
-0.0015020996811119350939495165064841 1698:1 4839:1 8389:1 9868:1 9870:1 9879:1 9883:1 9884:1 9900:1 9908:1 9915:1 9995:1 10021:1 10045:1 10054:1 10221:1 10278:1 10507:1 10642:1 10648:1 10649:1 10650:1 10662:1 11082:1 11107:1 11952:1 11957:1 12014:1 12094:1 12266:1 12337:1 12502:1 12510:1 12518:1 12523:1 12541:1 12546:1  |EV| 
-0.10000000000000000555111512312578 767:1 3816:1 7331:1 9879:1 9953:1 9978:1 10066:1 10068:1 10136:1 10326:1 11040:1 11107:1 11952:1 11957:1 11964:1 12111:1 12204:1 12324:1 12502:1 12510:1 12518:1 12523:1 12541:1 12546:1  |EV| 
-0.10000000000000000555111512312578 671:1 3709:1 7345:1 9917:1 10006:1 10326:1 10357:1 11060:1 11107:1 11426:1 11952:1 11957:1 11960:1 12076:1 12192:1 12319:1 12502:1 12510:1 12518:1 12523:1 12541:1 12546:1  |EV| 
-0.014449657867500853569708851864561 1236:1 4323:1 7890:1 9868:1 9870:1 9889:1 9900:1 9919:1 9922:1 9936:1 9941:1 10524:1 11025:1 11107:1 11952:1 11957:1 11998:1 12076:1 12204:1 12324:1 12502:1 12510:1 12518:1 12523:1 12541:1 12546:1  |EV| 
-0.10000000000000000555111512312578 666:1 3704:1 7333:1 9879:1 9904:1 9953:1 9978:1 10066:1 10068:1 10136:1 10326:1 11026:1 11107:1 11952:1 11957:1 11964:1 12119:1 12209:1 12324:1 12502:1 12510:1 12518:1 12523:1 12541:1 12546:1  |EV| 
-0.10000000000000000555111512312578 267:1 3272:1 6558:1 9866:1 9908:1 9963:1 9970:1 10103:1 11025:1 11106:1 11952:1 11957:1 11965:1 12076:1 12228:1 12319:1 12502:1 12510:1 12518:1 12523:1 12541:1 12546:1  |EV| 
0.10000000000000000555111512312578 2681:1 5884:1 9467:1 9870:1 9871:1 9874:1 9879:1 9884:1 9888:1 9901:1 9908:1 9976:1 10019:1 10179:1 10193:1 10209:1 10225:1 10469:1 10548:1 10563:1 10583:1 10594:1 10596:1 10662:1 10972:1 10973:1 10974:1 10976:1 10978:1 10979:1 10980:1 11102:1 11107:1 11948:1 11957:1 12035:1 12081:1 12275:1 12482:1 12502:1 12510:1 12518:1 12523:1 12541:1 12546:1  |EV| 
0.10000000000000000555111512312578 717:1 3811:1 7199:1 9870:1 9871:1 9879:1 9904:1 9907:1 9908:1 9922:1 9978:1 9985:1 10014:1 10073:1 10095:1 10184:1 10219:1 10225:1 10257:1 10275:1 10326:1 10330:1 10343:1 10347:1 10350:1 10351:1 10354:1 10355:1 11026:1 11107:1 11952:1 11957:1 12028:1 12075:1 12267:1 12371:1 12502:1 12510:1 12518:1 12523:1 12541:1 12546:1  |EV| 
0.02177703446123953334723211128221 82:1 3066:1 6332:1 9908:1 9970:1 11029:1 11107:1 11319:1 11952:1 11957:1 11968:1 12097:1 12201:1 12319:1 12502:1 12510:1 12518:1 12523:1 12541:1 12546:1  |EV| 
-0.0042957202751891208902801366775748 2680:1 5883:1 9466:1 9870:1 9871:1 9874:1 9879:1 9884:1 9888:1 9901:1 9908:1 9976:1 10019:1 10179:1 10193:1 10209:1 10225:1 10469:1 10548:1 10563:1 10583:1 10594:1 10596:1 10662:1 10972:1 10973:1 10974:1 10975:1 10976:1 10978:1 10979:1 10980:1 11026:1 11107:1 11948:1 11957:1 12035:1 12133:1 12247:1 12370:1 12502:1 12510:1 12518:1 12523:1 12541:1 12546:1  |EV| 
-0.039264943758893521008612736977739 2665:1 5867:1 9450:1 9870:1 9871:1 9874:1 9879:1 9884:1 9888:1 9901:1 9908:1 9976:1 10019:1 10179:1 10193:1 10209:1 10225:1 10469:1 10548:1 10563:1 10583:1 10594:1 10596:1 10972:1 10973:1 10974:1 10978:1 10979:1 10980:1 11102:1 11107:1 11319:1 11952:1 11957:1 11966:1 12147:1 12275:1 12389:1 12502:1 12510:1 12518:1 12523:1 12541:1 12546:1  |EV| 
-0.035787378430380392679843737369083 2672:1 5875:1 9458:1 9870:1 9871:1 9874:1 9879:1 9884:1 9888:1 9901:1 9908:1 9976:1 10019:1 10179:1 10193:1 10209:1 10225:1 10469:1 10548:1 10563:1 10583:1 10594:1 10596:1 10662:1 10972:1 10973:1 10974:1 10978:1 10979:1 11102:1 11107:1 11952:1 11957:1 11962:1 12130:1 12275:1 12386:1 12502:1 12510:1 12518:1 12523:1 12541:1 12546:1  |EV| 
-0.03987162170904875319044080583808 2711:1 5916:1 9500:1 9870:1 9871:1 9874:1 9879:1 9884:1 9888:1 9901:1 9908:1 9976:1 10019:1 10179:1 10193:1 10209:1 10225:1 10469:1 10548:1 10563:1 10583:1 10594:1 10596:1 10662:1 10972:1 10974:1 10978:1 10979:1 10980:1 11102:1 11107:1 11952:1 11957:1 12014:1 12078:1 12275:1 12404:1 12502:1 12510:1 12518:1 12523:1 12541:1 12546:1  |EV| 
-0.01662653697240304775939456760625 795:1 3852:1 7283:1 9870:1 9871:1 9879:1 9904:1 9907:1 9908:1 9922:1 9978:1 9985:1 10014:1 10073:1 10095:1 10184:1 10219:1 10225:1 10257:1 10275:1 10326:1 10330:1 10343:1 10344:1 10347:1 10350:1 10351:1 10355:1 11040:1 11107:1 11952:1 11957:1 11969:1 12087:1 12274:1 12403:1 12502:1 12510:1 12518:1 12523:1 12541:1 12546:1  |EV| 
0.085647496689576413375633023861155 2743:1 5948:1 9532:1 9866:1 9890:1 10991:1 10992:1 11026:1 11107:1 11319:1 11952:1 11957:1 11960:1 12076:1 12192:1 12319:1 12502:1 12510:1 12518:1 12523:1 12541:1 12546:1  |EV| 
0.10000000000000000555111512312578 2321:1 5506:1 9092:1 9870:1 9885:1 10328:1 10525:1 10819:1 11040:1 11107:1 11952:1 11957:1 11965:1 12076:1 12228:1 12319:1 12502:1 12510:1 12518:1 12523:1 12541:1 12546:1  |EV| 
0.00028289319372328219741319355051701 665:1 3703:1 7334:1 9879:1 9953:1 10068:1 11027:1 11107:1 11952:1 11957:1 11964:1 12076:1 12211:1 12319:1 12502:1 12510:1 12518:1 12523:1 12541:1 12546:1  |EV| 
0.10000000000000000555111512312578 1642:1 4802:1 8352:1 9900:1 10064:1 10412:1 10605:1 10636:1 11030:1 11040:1 11079:1 11107:1 11319:1 11952:1 11957:1 11990:1 12084:1 12228:1 12319:1 12502:1 12510:1 12518:1 12523:1 12541:1 12546:1  |EV| 
0.10000000000000000555111512312578 297:1 3306:1 6589:1 9865:1 9870:1 9871:1 9900:1 9904:1 9908:1 10001:1 10010:1 10028:1 10077:1 10078:1 10079:1 10080:1 10081:1 10082:1 10083:1 10084:1 10092:1 11040:1 11041:1 11042:1 11107:1 11952:1 11957:1 11969:1 12097:1 12245:1 12327:1 12502:1 12510:1 12518:1 12523:1 12541:1 12546:1  |EV| 
-0.10000000000000000555111512312578 1776:1 5149:1 9546:1 9890:1 9967:1 10489:1 10825:1 11021:1 11107:1 11952:1 11957:1 11960:1 12076:1 12192:1 12319:1 12502:1 12510:1 12518:1 12523:1 12541:1 12546:1  |EV| 
-0.10000000000000000555111512312578 1712:1 4855:1 8404:1 9870:1 9877:1 9908:1 9995:1 10087:1 10160:1 11037:1 11107:1 11541:1 11952:1 11957:1 12015:1 12076:1 12236:1 12319:1 12502:1 12513:1 12518:1 12523:1 12527:1 12541:1 12546:1  |EV| 
-0.10000000000000000555111512312578 1630:1 4767:1 8321:1 9985:1 11080:1 11106:1 11242:1 11479:1 11724:1 11862:1 11952:1 11957:1 11968:1 12080:1 12214:1 12319:1 12502:1 12510:1 12518:1 12523:1 12541:1  |EV| 
-0.042406807410201557972939667706669 205:1 3206:1 6494:1 9865:1 9870:1 9871:1 9900:1 9904:1 9908:1 10001:1 10010:1 10028:1 10077:1 10078:1 10079:1 10080:1 10081:1 10082:1 10083:1 10084:1 10085:1 10086:1 11040:1 11041:1 11042:1 11107:1 11952:1 11957:1 12004:1 12075:1 12245:1 12327:1 12502:1 12510:1 12518:1 12523:1 12541:1 12546:1  |EV| 
-0.10000000000000000555111512312578 252:1 3256:1 6542:1 9870:1 10092:1 11021:1 11107:1 11952:1 11957:1 11990:1 12076:1 12211:1 12319:1 12502:1 12510:1 12518:1 12523:1 12541:1 12546:1  |EV| 
0.10000000000000000555111512312578 2716:1 5921:1 9506:1 9870:1 9874:1 9888:1 9901:1 9908:1 10019:1 10179:1 10193:1 10209:1 10225:1 10469:1 10548:1 10563:1 10583:1 10662:1 10972:1 10978:1 10979:1 10980:1 11026:1 11107:1 11952:1 11957:1 12014:1 12076:1 12247:1 12337:1 12502:1 12510:1 12518:1 12523:1 12541:1 12546:1  |EV| 
0.10000000000000000555111512312578 2009:1 5171:1 8732:1 9865:1 9870:1 9871:1 9874:1 9886:1 9907:1 9908:1 9915:1 9922:1 9970:1 9976:1 9981:1 10140:1 10191:1 10217:1 10345:1 10752:1 10755:1 10756:1 10757:1 10758:1 10759:1 11090:1 11107:1 11952:1 11957:1 12016:1 12088:1 12254:1 12327:1 12502:1 12510:1 12518:1 12523:1 12541:1 12546:1  |EV| 
0.10000000000000000555111512312578 1008:1 4073:1 7548:1 9870:1 9871:1 9879:1 9904:1 9908:1 9964:1 10282:1 10440:1 10441:1 10442:1 10443:1 10444:1 10445:1 11022:1 11075:1 11107:1 11205:1 11326:1 11707:1 11839:1 11950:1 11957:1 11985:1 12123:1 12197:1 12339:1 12502:1 12510:1 12518:1 12523:1 12541:1 12546:1  |EV| 
-0.055060352318106936531094675046916 1989:1 5151:1 8708:1 9865:1 9870:1 9871:1 9874:1 9886:1 9907:1 9908:1 9915:1 9922:1 9970:1 9976:1 9981:1 10191:1 10217:1 10345:1 10745:1 10752:1 10755:1 10756:1 10757:1 10758:1 10759:1 11090:1 11107:1 11952:1 11957:1 12009:1 12092:1 12254:1 12401:1 12502:1 12510:1 12518:1 12523:1 12541:1 12546:1  |EV| 
-0.066087109574917993204401511775359 1997:1 5159:1 8716:1 9865:1 9870:1 9871:1 9874:1 9886:1 9907:1 9908:1 9915:1 9922:1 9970:1 9976:1 9981:1 10191:1 10217:1 10345:1 10745:1 10752:1 10753:1 10755:1 10756:1 10757:1 10758:1 10759:1 11023:1 11107:1 11952:1 11957:1 12009:1 12102:1 12266:1 12401:1 12502:1 12510:1 12518:1 12523:1 12541:1 12546:1  |EV| 
-0.10000000000000000555111512312578 2020:1 5182:1 8744:1 9870:1 9874:1 9886:1 9907:1 9908:1 9915:1 9922:1 9981:1 10140:1 10191:1 10755:1 10756:1 10757:1 10758:1 10759:1 11021:1 11107:1 11948:1 11957:1 12016:1 12083:1 12240:1 12321:1 12502:1 12510:1 12518:1 12523:1 12541:1 12546:1  |EV| 
-0.0069445322990601340840122190911643 1049:1 4114:1 7588:1 9870:1 9871:1 9879:1 9900:1 9904:1 9908:1 9954:1 9964:1 10282:1 10439:1 10440:1 10441:1 10442:1 10443:1 10444:1 10445:1 11022:1 11075:1 11107:1 11707:1 11839:1 11950:1 11957:1 12008:1 12129:1 12197:1 12339:1 12502:1 12510:1 12518:1 12541:1 12546:1  |EV| 
0.085195469441828416967688042404916 675:1 3713:1 7733:1 10001:1 11059:1 11107:1 11319:1 11952:1 11957:1 11968:1 12080:1 12214:1 12319:1 12502:1 12510:1 12518:1 12523:1 12527:1 12541:1 12546:1  |EV| 
0.10000000000000000555111512312578 1701:1 4842:1 6280:1 9877:1 11037:1 11107:1 11538:1 11952:1 11957:1 11966:1 12076:1 12214:1 12319:1 12502:1 12512:1 12518:1 12523:1 12527:1 12541:1 12546:1  |EV| 
0.10000000000000000555111512312578 2953:1 6189:1 9826:1 9890:1 11021:1 11107:1 11952:1 11957:1 11966:1 12076:1 12214:1 12319:1 12502:1 12510:1 12518:1 12523:1 12541:1 12546:1  |EV| 
0.073955259388722938140858786937315 2452:1 5644:1 9218:1 9870:1 10908:1 10909:1 11045:1 11107:1 11495:1 11952:1 11957:1 11960:1 12076:1 12192:1 12319:1 12502:1 12514:1 12518:1 12523:1 12541:1 12546:1  |EV| 
0.037685442729150891993938898849592 207:1 3208:1 6496:1 9894:1 9951:1 10089:1 10090:1 11021:1 11107:1 11319:1 11952:1 11957:1 11966:1 12084:1 12192:1 12319:1 12502:1 12510:1 12518:1 12523:1 12541:1 12546:1  |EV| 
-0.10000000000000000555111512312578 2096:1 5259:1 8823:1 9915:1 10767:1 10769:1 10770:1 11033:1 11107:1 11495:1 11952:1 11957:1 11966:1 12084:1 12192:1 12319:1 12502:1 12510:1 12518:1 12523:1 12541:1 12546:1  |EV| 
-0.061516223489820692771345989058318 2631:1 5831:1 9078:1 10221:1 11036:1 11107:1 11114:1 11332:1 11658:1 11924:1 11952:1 11957:1 11966:1 12076:1 12214:1 12319:1 12502:1 12513:1 12518:1 12523:1 12546:1  |EV| 
-0.10000000000000000555111512312578 2566:1 5765:1 9672:1 9900:1 11012:1 11026:1 11107:1 11319:1 11952:1 11957:1 11968:1 12097:1 12201:1 12319:1 12502:1 12510:1 12518:1 12523:1 12541:1 12546:1  |EV| 
-0.032693614599073446413957100276093 2195:1 5359:1 8937:1 9865:1 9890:1 9897:1 10803:1 10804:1 11036:1 11107:1 11319:1 11952:1 11957:1 11966:1 12094:1 12228:1 12319:1 12502:1 12510:1 12518:1 12523:1 12541:1 12546:1  |EV| 
-0.0020456758125559290628636688325059 685:1 3723:1 7056:1 10025:1 11026:1 11107:1 11114:1 11332:1 11658:1 11777:1 11952:1 11957:1 11966:1 12076:1 12214:1 12319:1 12502:1 12513:1 12518:1 12523:1 12543:1 12546:1  |EV| 
0.10000000000000000555111512312578 2010:1 5172:1 8733:1 9865:1 9870:1 9871:1 9874:1 9886:1 9907:1 9908:1 9915:1 9922:1 9970:1 9976:1 9981:1 10140:1 10191:1 10217:1 10345:1 10752:1 10753:1 10755:1 10756:1 10757:1 10758:1 10759:1 11023:1 11107:1 11952:1 11957:1 12016:1 12103:1 12266:1 12401:1 12502:1 12510:1 12518:1 12523:1 12541:1 12546:1  |EV| 
0.10000000000000000555111512312578 1334:1 4422:1 7943:1 9870:1 9874:1 9876:1 9877:1 9879:1 9900:1 9928:1 10014:1 10021:1 10056:1 10173:1 10187:1 10322:1 10332:1 10542:1 11042:1 11107:1 11948:1 11957:1 12004:1 12085:1 12242:1 12321:1 12502:1 12510:1 12518:1 12523:1 12541:1 12546:1  |EV| 
0.10000000000000000555111512312578 1990:1 5152:1 8709:1 9865:1 9870:1 9874:1 9886:1 9907:1 9908:1 9915:1 9922:1 9970:1 9981:1 10140:1 10191:1 10217:1 10755:1 10756:1 10757:1 10758:1 10759:1 11066:1 11107:1 11952:1 11957:1 12016:1 12084:1 12208:1 12327:1 12502:1 12510:1 12518:1 12523:1 12541:1 12546:1  |EV| 
-0.10000000000000000555111512312578 2055:1 5218:1 8779:1 9865:1 9870:1 9874:1 9886:1 9907:1 9908:1 9915:1 9922:1 9970:1 9981:1 10191:1 10217:1 10745:1 10755:1 10756:1 10757:1 10758:1 10759:1 11066:1 11107:1 11952:1 11957:1 12009:1 12111:1 12208:1 12327:1 12502:1 12510:1 12518:1 12523:1 12541:1 12546:1  |EV| 
-0.096069003582547787822853990746808 1259:1 4346:1 7852:1 9870:1 9874:1 9876:1 9877:1 9879:1 9900:1 10014:1 10021:1 10056:1 10173:1 10187:1 10322:1 10332:1 10542:1 11042:1 11107:1 11332:1 11952:1 11957:1 11960:1 12092:1 12242:1 12318:1 12502:1 12510:1 12518:1 12523:1 12541:1 12546:1  |EV| 
0.045712059553702666381269636985962 1713:1 4856:1 8405:1 9871:1 9919:1 11044:1 11107:1 11391:1 11952:1 11957:1 11968:1 12097:1 12201:1 12319:1 12502:1 12510:1 12518:1 12523:1 12541:1 12546:1  |EV| 
0.091506873258251963942910833793576 1237:1 4324:1 7919:1 9900:1 10271:1 10559:1 11026:1 11107:1 11319:1 11952:1 11957:1 11968:1 12084:1 12211:1 12319:1 12502:1 12510:1 12518:1 12523:1 12541:1 12546:1  |EV| 
0.10000000000000000555111512312578 2566:1 5765:1 9345:1 9871:1 9894:1 9900:1 9957:1 10187:1 10504:1 10921:1 11026:1 11107:1 11319:1 11952:1 11957:1 11968:1 12088:1 12220:1 12324:1 12502:1 12510:1 12518:1 12523:1 12541:1 12546:1  |EV| 
0.031739880445465960823181461591957 123:1 3109:1 6390:1 9870:1 9876:1 9963:1 9964:1 11026:1 11107:1 11114:1 11332:1 11658:1 11777:1 11952:1 11957:1 11990:1 12097:1 12192:1 12319:1 12502:1 12510:1 12518:1 12523:1 12541:1 12546:1  |EV| 
0.048670747700809202651583973420202 285:1 3293:1 6577:1 9900:1 10070:1 11038:1 11107:1 11319:1 11952:1 11957:1 11968:1 12097:1 12201:1 12319:1 12502:1 12510:1 12518:1 12523:1 12541:1 12546:1  |EV| 
-0.10000000000000000555111512312578 757:1 3801:1 7175:1 9871:1 10324:1 10325:1 10328:1 11026:1 11107:1 11319:1 11952:1 11957:1 11968:1 12094:1 12192:1 12319:1 12502:1 12510:1 12518:1 12523:1 12527:1 12541:1 12546:1  |EV| 
-0.10000000000000000555111512312578 2673:1 5876:1 9459:1 9908:1 10045:1 10111:1 10587:1 11044:1 11107:1 11319:1 11952:1 11957:1 11990:1 12097:1 12192:1 12319:1 12502:1 12510:1 12518:1 12523:1 12541:1 12546:1  |EV| 
-0.029880826375261800020854963122474 373:1 3389:1 6668:1 9908:1 9990:1 10118:1 10119:1 10120:1 10121:1 10122:1 10123:1 11026:1 11107:1 11319:1 11952:1 11957:1 11968:1 12088:1 12220:1 12324:1 12502:1 12510:1 12518:1 12523:1 12541:1 12546:1  |EV| 
-0.10000000000000000555111512312578 352:1 3363:1 6645:1 9871:1 9965:1 9998:1 10006:1 10045:1 10111:1 10132:1 10138:1 11040:1 11107:1 11319:1 11952:1 11957:1 11968:1 12088:1 12220:1 12324:1 12502:1 12510:1 12518:1 12523:1 12541:1 12546:1  |EV| 
-0.061368242621933535851930230364815 1842:1 4990:1 8551:1 9900:1 9919:1 10275:1 10331:1 10349:1 10703:1 10704:1 10711:1 11025:1 11107:1 11319:1 11952:1 11957:1 11968:1 12088:1 12220:1 12324:1 12502:1 12510:1 12518:1 12523:1 12525:1 12527:1 12541:1 12546:1  |EV| 
0.047756644019360555697417680676153 1776:1 5149:1 8706:1 9874:1 9886:1 9907:1 9908:1 9915:1 9922:1 9981:1 10191:1 10755:1 10756:1 10757:1 10758:1 10759:1 11021:1 11107:1 11952:1 11957:1 12009:1 12076:1 12240:1 12334:1 12502:1 12510:1 12518:1 12523:1 12541:1 12546:1  |EV| 
0.10000000000000000555111512312578 2127:1 5290:1 8860:1 9865:1 9877:1 9879:1 9884:1 9908:1 10118:1 10128:1 10143:1 10163:1 10275:1 10760:1 10761:1 10762:1 10763:1 10764:1 10780:1 10781:1 10782:1 11036:1 11107:1 11274:1 11479:1 11669:1 11908:1 11947:1 11957:1 12021:1 12111:1 12253:1 12340:1 12502:1 12513:1 12518:1 12523:1 12541:1 12546:1  |EV| 
0.018510053478363007462004219405571 1620:1 4755:1 8309:1 9870:1 9876:1 9908:1 9979:1 10623:1 10624:1 11026:1 11107:1 11319:1 11358:1 11952:1 11957:1 12015:1 12080:1 12205:1 12319:1 12502:1 12510:1 12518:1 12523:1 12541:1 12546:1  |EV| 
0.10000000000000000555111512312578 84:1 3070:1 6336:1 9870:1 9871:1 9908:1 9919:1 9970:1 9971:1 9972:1 9973:1 9974:1 9975:1 9976:1 9978:1 11033:1 11107:1 11319:1 11952:1 11957:1 11968:1 12124:1 12242:1 12318:1 12502:1 12510:1 12518:1 12523:1 12541:1 12546:1  |EV| 
0.10000000000000000555111512312578 1842:1 4990:1 8553:1 10331:1 10349:1 10703:1 10704:1 11025:1 11107:1 11319:1 11952:1 11957:1 11968:1 12094:1 12192:1 12319:1 12502:1 12510:1 12518:1 12523:1 12525:1 12527:1 12541:1 12546:1  |EV| 
0.10000000000000000555111512312578 80:1 3063:1 6329:1 9870:1 9871:1 9908:1 9919:1 9970:1 9971:1 9972:1 9973:1 9974:1 9975:1 9976:1 9978:1 9979:1 11025:1 11107:1 11319:1 11952:1 11957:1 11968:1 12125:1 12215:1 12318:1 12502:1 12510:1 12518:1 12523:1 12541:1 12546:1  |EV| 
0.10000000000000000555111512312578 2494:1 5687:1 9261:1 9879:1 9884:1 9900:1 9954:1 10008:1 10120:1 10160:1 10221:1 10278:1 10282:1 10284:1 10435:1 10436:1 10941:1 11024:1 11107:1 11951:1 11956:1 11960:1 12104:1 12235:1 12338:1 12502:1 12510:1 12518:1 12523:1 12541:1 12546:1  |EV| 
-0.10000000000000000555111512312578 783:1 3830:1 7253:1 9900:1 9974:1 10008:1 10085:1 10221:1 11066:1 11107:1 11421:1 11947:1 11957:1 11994:1 12076:1 12199:1 12309:1 12502:1 12510:1 12518:1 12523:1 12541:1 12546:1  |EV| 
-0.10000000000000000555111512312578 2025:1 5187:1 8763:1 9879:1 9884:1 9900:1 9904:1 9908:1 9915:1 9937:1 9954:1 10064:1 10090:1 10179:1 10282:1 10295:1 10635:1 10754:1 11049:1 11107:1 11952:1 11957:1 12016:1 12076:1 12215:1 12334:1 12502:1 12510:1 12518:1 12523:1 12541:1 12546:1  |EV| 
-0.10000000000000000555111512312578 684:1 3722:1 7055:1 10326:1 11036:1 11107:1 11341:1 11947:1 11957:1 11980:1 12076:1 12200:1 12309:1 12502:1 12510:1 12518:1 12523:1 12541:1 12546:1  |EV| 
-0.0062008309099977274025938811519154 2568:1 6065:1 9667:1 9910:1 9911:1 9939:1 10447:1 11036:1 11107:1 11319:1 11951:1 11956:1 11968:1 12082:1 12194:1 12315:1 12502:1 12510:1 12518:1 12523:1 12541:1 12546:1  |EV| 
-0.08732980943348608859899684375705 1182:1 4251:1 7732:1 9922:1 9970:1 10497:1 11036:1 11107:1 11319:1 11951:1 11956:1 11968:1 12077:1 12198:1 12315:1 12502:1 12510:1 12518:1 12523:1 12527:1 12541:1 12546:1  |EV| 
0.10000000000000000555111512312578 483:1 3504:1 6796:1 9870:1 9874:1 9957:1 9964:1 10006:1 10132:1 10224:1 10225:1 10226:1 10227:1 10228:1 10230:1 11026:1 11107:1 11398:1 11952:1 11957:1 12000:1 12111:1 12240:1 12324:1 12502:1 12510:1 12518:1 12523:1 12541:1 12546:1  |EV| 
0.10000000000000000555111512312578 373:1 3661:1 6972:1 9870:1 9871:1 9874:1 9879:1 9883:1 9894:1 9900:1 9907:1 9908:1 9922:1 10039:1 10045:1 10059:1 10166:1 10232:1 10233:1 10234:1 10235:1 10236:1 10237:1 10238:1 10240:1 10241:1 10278:1 10279:1 11026:1 11107:1 11952:1 11957:1 12018:1 12075:1 12274:1 12371:1 12502:1 12510:1 12518:1 12523:1 12541:1 12546:1  |EV| 
-0.10000000000000000555111512312578 589:1 3616:1 6916:1 9868:1 9871:1 9874:1 9879:1 9894:1 9900:1 9907:1 9908:1 9922:1 10039:1 10045:1 10059:1 10166:1 10232:1 10233:1 10234:1 10235:1 10236:1 10237:1 10238:1 10278:1 10279:1 11023:1 11107:1 11952:1 11957:1 11996:1 12076:1 12258:1 12337:1 12502:1 12510:1 12518:1 12523:1 12541:1 12546:1  |EV| 
-0.0086518468600486515829306455316328 1145:1 4210:1 7720:1 9871:1 9884:1 10481:1 11059:1 11107:1 11952:1 11957:1 11964:1 12076:1 12211:1 12319:1 12502:1 12512:1 12518:1 12523:1 12536:1 12539:1 12546:1  |EV| 
-0.10000000000000000555111512312578 496:1 3517:1 6808:1 9870:1 9874:1 9964:1 10132:1 10224:1 10225:1 10226:1 10227:1 10228:1 10229:1 11036:1 11107:1 11952:1 11957:1 11990:1 12088:1 12209:1 12324:1 12502:1 12510:1 12518:1 12523:1 12541:1 12546:1  |EV| 
-0.021095602990961616340914730471923 1881:1 5871:1 9454:1 9870:1 9874:1 9888:1 9901:1 9908:1 10019:1 10179:1 10193:1 10209:1 10225:1 10469:1 10548:1 10563:1 10583:1 10662:1 10972:1 10973:1 10978:1 10979:1 11026:1 11107:1 11952:1 11957:1 11962:1 12103:1 12247:1 12401:1 12502:1 12510:1 12518:1 12523:1 12541:1 12546:1  |EV| 
-0.089990075748569625657680148833606 944:1 4007:1 7486:1 9871:1 9886:1 10393:1 10394:1 10395:1 11026:1 11107:1 11319:1 11401:1 11450:1 11952:1 11957:1 11968:1 12075:1 12228:1 12319:1 12502:1 12513:1 12518:1 12523:1 12541:1 12546:1  |EV| 
0.10000000000000000555111512312578 1030:1 4095:1 7652:1 9866:1 10412:1 11021:1 11074:1 11107:1 11675:1 11843:1 11951:1 11956:1 11966:1 12081:1 12200:1 12315:1 12502:1 12510:1 12518:1 12523:1 12527:1 12541:1 12546:1  |EV| 
0.10000000000000000555111512312578 1937:1 5096:1 8656:1 9879:1 9985:1 10095:1 10150:1 11024:1 11107:1 11951:1 11956:1 11990:1 12082:1 12224:1 12315:1 12502:1 12510:1 12518:1 12523:1 12541:1 12546:1  |EV| 
0.10000000000000000555111512312578 1748:1 4893:1 9825:1 9910:1 9911:1 9939:1 10447:1 11036:1 11107:1 11947:1 11957:1 11958:1 12076:1 12194:1 12309:1 12502:1 12510:1 12518:1 12523:1 12541:1 12546:1  |EV| 
0.10000000000000000555111512312578 2143:1 5306:1 8883:1 9869:1 9870:1 10284:1 11024:1 11107:1 11319:1 11951:1 11956:1 11966:1 12077:1 12224:1 12315:1 12502:1 12510:1 12518:1 12523:1 12541:1 12546:1  |EV| 
0.067287137270173227876490784638008 2454:1 5646:1 9219:1 9904:1 9908:1 10491:1 10834:1 11043:1 11107:1 11350:1 11952:1 11957:1 11960:1 12076:1 12192:1 12319:1 12502:1 12512:1 12518:1 12523:1 12538:1 12541:1 12546:1  |EV| 
0.08726078009685370173720286857133 1748:1 4893:1 8441:1 9870:1 9871:1 9885:1 9894:1 9900:1 9931:1 9971:1 10007:1 10129:1 10193:1 10525:1 10664:1 10665:1 11036:1 11107:1 11947:1 11957:1 12007:1 12076:1 12253:1 12310:1 12502:1 12510:1 12518:1 12523:1 12541:1 12546:1  |EV| 
-0.10000000000000000555111512312578 675:1 3713:1 7731:1 9922:1 9970:1 10006:1 10497:1 11059:1 11107:1 11319:1 11951:1 11956:1 11968:1 12082:1 12194:1 12315:1 12502:1 12510:1 12518:1 12523:1 12527:1 12541:1 12546:1  |EV| 
-0.034527469340462829672233624478395 2299:1 5483:1 9068:1 9870:1 9984:1 10263:1 11028:1 11107:1 11319:1 11951:1 11956:1 11966:1 12077:1 12224:1 12315:1 12502:1 12510:1 12518:1 12523:1 12541:1 12546:1  |EV| 
-0.10000000000000000555111512312578 596:1 3671:1 8725:1 9870:1 9984:1 11026:1 11107:1 11319:1 11951:1 11956:1 11968:1 12081:1 12224:1 12315:1 12502:1 12510:1 12518:1 12523:1 12541:1 12546:1  |EV| 
0.10000000000000000555111512312578 2047:1 5209:1 9198:1 9871:1 9879:1 10021:1 10884:1 10889:1 11027:1 11107:1 11319:1 11952:1 11957:1 11968:1 12075:1 12228:1 12319:1 12502:1 12510:1 12518:1 12523:1 12541:1 12546:1  |EV| 
0.10000000000000000555111512312578 1743:1 4888:1 8435:1 9879:1 9907:1 9922:1 10090:1 10180:1 10669:1 10670:1 10671:1 11045:1 11107:1 11319:1 11952:1 11957:1 11968:1 12088:1 12220:1 12324:1 12502:1 12510:1 12518:1 12523:1 12541:1 12546:1  |EV| 
-0.090909414009801861600301720045536 1505:1 5370:1 8948:1 9871:1 9980:1 10054:1 10191:1 10513:1 10686:1 10794:1 10795:1 10800:1 10801:1 10802:1 11045:1 11107:1 11594:1 11947:1 11957:1 11985:1 12076:1 12218:1 12310:1 12502:1 12510:1 12518:1 12523:1 12541:1 12546:1  |EV| 
-0.10000000000000000555111512312578 2773:1 5981:1 9568:1 9879:1 9900:1 9908:1 9928:1 9970:1 10006:1 10221:1 10345:1 10988:1 10993:1 10994:1 11028:1 11107:1 11952:1 11957:1 11984:1 12076:1 12219:1 12334:1 12502:1 12510:1 12518:1 12523:1 12541:1 12546:1  |EV| 
-0.10000000000000000555111512312578 2433:1 5623:1 9201:1 9871:1 9976:1 10045:1 10078:1 10881:1 11029:1 11107:1 11952:1 11957:1 11965:1 12076:1 12228:1 12319:1 12502:1 12510:1 12518:1 12523:1 12541:1 12546:1  |EV| 
-0.10000000000000000555111512312578 831:1 3890:1 7363:1 9873:1 9879:1 9884:1 9910:1 9911:1 9939:1 10067:1 10209:1 10239:1 10358:1 10359:1 10367:1 11023:1 11107:1 11952:1 11957:1 11962:1 12076:1 12195:1 12334:1 12502:1 12510:1 12518:1 12523:1 12541:1 12546:1  |EV| 
0.10000000000000000555111512312578 2481:1 5674:1 9383:1 9870:1 9884:1 9908:1 10184:1 10919:1 11024:1 11107:1 11319:1 11951:1 11956:1 11968:1 12132:1 12199:1 12315:1 12502:1 12510:1 12518:1 12523:1 12541:1 12546:1  |EV| 
0.10000000000000000555111512312578 2568:1 5767:1 9347:1 9870:1 10946:1 11024:1 11107:1 11319:1 11951:1 11956:1 11968:1 12081:1 12224:1 12315:1 12502:1 12510:1 12518:1 12523:1 12541:1 12546:1  |EV| 
0.10000000000000000555111512312578 1510:1 4609:1 8146:1 9870:1 10602:1 11024:1 11107:1 11319:1 11951:1 11956:1 11968:1 12081:1 12224:1 12315:1 12502:1 12510:1 12518:1 12523:1 12541:1 12546:1  |EV| 
0.10000000000000000555111512312578 959:1 4359:1 7909:1 10209:1 10284:1 11024:1 11107:1 11319:1 11951:1 11956:1 11966:1 12081:1 12200:1 12315:1 12502:1 12510:1 12518:1 12523:1 12541:1 12546:1  |EV| 
-0.016108623702838754943034160760362 2388:1 5576:1 9157:1 9870:1 9871:1 11093:1 11107:1 11319:1 11951:1 11956:1 11968:1 12081:1 12224:1 12315:1 12502:1 12510:1 12518:1 12523:1 12541:1 12546:1  |EV| 
-0.024772932478991909616139466265849 676:1 4315:1 7825:1 9870:1 9871:1 9884:1 9908:1 9962:1 9970:1 10085:1 10114:1 10481:1 10497:1 10498:1 11026:1 11107:1 11948:1 11957:1 11962:1 12093:1 12201:1 12333:1 12502:1 12510:1 12518:1 12523:1 12541:1 12546:1  |EV| 
-0.0036030314262206161214641131351755 409:1 3427:1 6712:1 9884:1 9908:1 10151:1 11023:1 11107:1 11330:1 11390:1 11947:1 11957:1 11977:1 12076:1 12198:1 12309:1 12502:1 12512:1 12518:1 12523:1 12536:1 12546:1  |EV| 
-0.09147710076897999642575598500116 349:1 3360:1 6643:1 9870:1 10112:1 11036:1 11107:1 11319:1 11951:1 11956:1 11968:1 12081:1 12224:1 12315:1 12502:1 12510:1 12518:1 12523:1 12541:1 12546:1  |EV| 
-0.0019053156466923848455508050392382 442:1 3462:1 6750:1 9870:1 10111:1 11021:1 11107:1 11319:1 11951:1 11956:1 11966:1 12081:1 12200:1 12315:1 12502:1 12510:1 12518:1 12523:1 12541:1 12546:1  |EV| 
0.10000000000000000555111512312578 941:1 4004:1 7483:1 9871:1 9886:1 10393:1 10394:1 10424:1 11026:1 11107:1 11952:1 11957:1 11965:1 12076:1 12228:1 12319:1 12502:1 12513:1 12518:1 12523:1 12541:1 12546:1  |EV| 
0.064737388724749184154561021387053 2476:1 5669:1 9241:1 9900:1 9937:1 10263:1 10935:1 11022:1 11106:1 11952:1 11957:1 11960:1 12076:1 12192:1 12319:1 12502:1 12510:1 12518:1 12523:1 12541:1 12546:1  |EV| 
0.10000000000000000555111512312578 563:1 3588:1 6883:1 9900:1 9933:1 9953:1 10162:1 10268:1 11033:1 11107:1 11952:1 11957:1 11965:1 12076:1 12228:1 12319:1 12502:1 12510:1 12518:1 12523:1 12541:1 12546:1  |EV| 
0.043118187828609627620934929836949 2457:1 5650:1 9223:1 9890:1 9900:1 10918:1 11058:1 11107:1 11952:1 11957:1 11964:1 12076:1 12211:1 12319:1 12502:1 12510:1 12518:1 12523:1 12541:1 12546:1  |EV| 
0.087599349894138964223166965439304 2410:1 5600:1 9182:1 9879:1 10016:1 10160:1 10275:1 10878:1 11028:1 11106:1 11952:1 11957:1 11965:1 12076:1 12228:1 12319:1 12502:1 12510:1 12518:1 12523:1 12541:1 12546:1  |EV| 
-0.10000000000000000555111512312578 1669:1 4808:1 8358:1 9907:1 9908:1 9985:1 10199:1 10433:1 10613:1 11080:1 11107:1 11952:1 11957:1 11965:1 12080:1 12236:1 12319:1 12502:1 12510:1 12518:1 12523:1 12541:1  |EV| 
-0.10000000000000000555111512312578 1625:1 4760:1 8314:1 9870:1 9922:1 9985:1 10614:1 10615:1 11034:1 11106:1 11495:1 11952:1 11957:1 11965:1 12076:1 12228:1 12319:1 12502:1 12510:1 12518:1 12523:1 12541:1 12546:1  |EV| 
-0.10000000000000000555111512312578 541:1 3565:1 6855:1 9868:1 9871:1 9879:1 10045:1 10278:1 11022:1 11107:1 11952:1 11957:1 11965:1 12076:1 12228:1 12319:1 12502:1 12510:1 12518:1 12523:1 12541:1 12546:1  |EV| 
-0.10000000000000000555111512312578 250:1 3253:1 6539:1 9865:1 9870:1 10001:1 10092:1 11040:1 11041:1 11042:1 11107:1 11952:1 11957:1 11990:1 12097:1 12228:1 12319:1 12502:1 12510:1 12518:1 12523:1 12541:1 12546:1  |EV| 
0.10000000000000000555111512312578 157:1 3144:1 6431:1 9865:1 9870:1 9871:1 9879:1 9993:1 9994:1 9995:1 9996:1 9997:1 9998:1 9999:1 10000:1 11036:1 11107:1 11947:1 11957:1 12006:1 12080:1 12196:1 12310:1 12502:1 12510:1 12518:1 12523:1 12541:1 12546:1  |EV| 
-0.01061680605445473532522093762509 197:1 3198:1 6487:1 9879:1 9883:1 9900:1 9908:1 10069:1 10070:1 10071:1 11038:1 11107:1 11948:1 11957:1 11976:1 12077:1 12201:1 12311:1 12502:1 12510:1 12518:1 12523:1 12541:1 12546:1  |EV| 
-0.02045974343534366982066963203124 326:1 3368:1 6650:1 9869:1 9951:1 9953:1 10066:1 10135:1 10146:1 11048:1 11107:1 11948:1 11957:1 12000:1 12081:1 12201:1 12311:1 12502:1 12510:1 12518:1 12523:1 12541:1 12546:1  |EV| 
-0.0409852107123038558733618685892 2785:1 5993:1 9581:1 9900:1 9908:1 10006:1 10345:1 10988:1 10993:1 10994:1 11026:1 11107:1 11315:1 11947:1 11957:1 11971:1 12094:1 12198:1 12309:1 12502:1 12513:1 12518:1 12523:1 12541:1 12543:1 12546:1  |EV| 
-0.035678343435800168037541624244113 210:1 3211:1 6499:1 9879:1 9900:1 9908:1 10069:1 10070:1 10071:1 10091:1 11023:1 11107:1 11948:1 11957:1 11976:1 12081:1 12211:1 12311:1 12502:1 12510:1 12518:1 12523:1 12541:1 12546:1  |EV| 
-0.086602749429331937758291815043776 862:1 3921:1 7409:1 10370:1 11045:1 11107:1 11319:1 11951:1 11956:1 11968:1 12107:1 12200:1 12315:1 12502:1 12510:1 12518:1 12523:1 12541:1 12546:1  |EV| 
0.10000000000000000555111512312578 127:1 3113:1 6396:1 9907:1 9908:1 9963:1 9984:1 9985:1 9986:1 11022:1 11030:1 11031:1 11032:1 11107:1 11319:1 11952:1 11957:1 11968:1 12111:1 12236:1 12319:1 12502:1 12510:1 12518:1 12523:1 12541:1 12546:1  |EV| 
0.094066433797817095019411226530792 1641:1 4778:1 8330:1 9870:1 9907:1 9908:1 9922:1 9985:1 10199:1 10433:1 10613:1 10614:1 10615:1 11034:1 11107:1 11430:1 11527:1 11952:1 11957:1 12001:1 12076:1 12209:1 12334:1 12502:1 12510:1 12518:1 12523:1 12541:1 12546:1  |EV| 
0.10000000000000000555111512312578 675:1 4316:1 7822:1 9870:1 9871:1 9879:1 9884:1 9908:1 9962:1 9970:1 10085:1 10114:1 10481:1 10497:1 10498:1 11059:1 11107:1 11952:1 11957:1 11962:1 12076:1 12195:1 12334:1 12502:1 12510:1 12518:1 12523:1 12541:1 12546:1  |EV| 
0.10000000000000000555111512312578 1281:1 4369:1 7876:1 9868:1 9871:1 10179:1 10187:1 11026:1 11107:1 11319:1 11952:1 11957:1 11990:1 12097:1 12192:1 12319:1 12502:1 12510:1 12518:1 12523:1 12541:1 12546:1  |EV| 
0.10000000000000000555111512312578 1312:1 4400:1 7920:1 9868:1 9871:1 11066:1 11107:1 11319:1 11952:1 11957:1 11990:1 12076:1 12201:1 12319:1 12502:1 12510:1 12518:1 12523:1 12541:1 12546:1  |EV| 
-0.10000000000000000555111512312578 371:1 5462:1 9104:1 9868:1 9870:1 9884:1 9908:1 10316:1 10371:1 10813:1 10814:1 10828:1 11045:1 11107:1 11952:1 11957:1 12001:1 12076:1 12209:1 12334:1 12502:1 12510:1 12518:1 12523:1 12541:1 12546:1  |EV| 
-0.10000000000000000555111512312578 2400:1 5590:1 9173:1 9870:1 9871:1 11093:1 11107:1 11326:1 11947:1 11957:1 11967:1 12076:1 12224:1 12309:1 12502:1 12510:1 12518:1 12523:1 12541:1 12546:1  |EV| 
0.10000000000000000555111512312578 969:1 4032:1 6376:1 9908:1 11036:1 11106:1 11317:1 11950:1 11957:1 11963:1 12097:1 12193:1 12316:1 12502:1 12510:1 12518:1 12523:1 12541:1 12546:1  |EV| 
0.10000000000000000555111512312578 2864:1 6085:1 9846:1 9870:1 10191:1 11042:1 11107:1 11949:1 11957:1 11980:1 12085:1 12198:1 12320:1 12502:1 12510:1 12518:1 12523:1 12541:1 12546:1  |EV| 
0.10000000000000000555111512312578 2520:1 5717:1 9291:1 9870:1 9873:1 9874:1 9884:1 9894:1 9900:1 9908:1 9951:1 10008:1 10026:1 10078:1 10184:1 10860:1 10911:1 10912:1 10913:1 10914:1 11072:1 11107:1 11948:1 11957:1 12017:1 12085:1 12244:1 12331:1 12502:1 12510:1 12518:1 12523:1 12541:1 12546:1  |EV| 
-0.10000000000000000555111512312578 974:1 4039:1 7516:1 9908:1 11071:1 11106:1 11317:1 11953:1 11957:1 11963:1 12080:1 12287:1 12316:1 12502:1 12510:1 12518:1 12523:1 12541:1 12546:1  |EV| 
-0.10000000000000000555111512312578 2374:1 5561:1 6319:1 11025:1 11107:1 11317:1 11950:1 11957:1 11959:1 12080:1 12193:1 12316:1 12502:1 12510:1 12518:1 12523:1 12541:1 12546:1  |EV| 
-0.10000000000000000555111512312578 28:1 3011:1 6264:1 9876:1 9877:1 9879:1 9900:1 9933:1 9934:1 9935:1 9936:1 11022:1 11107:1 11952:1 11957:1 11998:1 12076:1 12204:1 12324:1 12502:1 12510:1 12518:1 12523:1 12541:1 12546:1  |EV| 
-0.10000000000000000555111512312578 1186:1 4255:1 7737:1 9871:1 10500:1 10501:1 11037:1 11107:1 11391:1 11952:1 11957:1 11968:1 12084:1 12211:1 12319:1 12502:1 12513:1 12518:1 12523:1 12541:1 12546:1  |EV| 
0.099306273235028719170713884523138 1876:1 5027:1 8592:1 9870:1 9871:1 9908:1 10008:1 10016:1 10045:1 10047:1 10066:1 10263:1 10705:1 10706:1 10707:1 10713:1 10714:1 10715:1 10716:1 10717:1 10718:1 10719:1 10720:1 10721:1 11045:1 11107:1 11947:1 11957:1 11989:1 12076:1 12239:1 12352:1 12502:1 12510:1 12518:1 12523:1 12541:1 12546:1  |EV| 
0.038376153641937672811312864951105 2296:1 5480:1 8724:1 9870:1 9984:1 11028:1 11107:1 11947:1 11957:1 11967:1 12076:1 12224:1 12309:1 12502:1 12510:1 12518:1 12523:1 12541:1 12546:1  |EV| 
0.10000000000000000555111512312578 1505:1 5370:1 8976:1 9870:1 9908:1 9972:1 9988:1 10345:1 10739:1 10797:1 10798:1 10799:1 11045:1 11107:1 11952:1 11957:1 12001:1 12076:1 12209:1 12334:1 12502:1 12510:1 12518:1 12523:1 12541:1 12546:1  |EV| 
-0.013099641631329888083468127035758 2118:1 5281:1 8890:1 9870:1 9908:1 9939:1 9974:1 10054:1 10765:1 10766:1 11026:1 11107:1 11585:1 11947:1 11957:1 11986:1 12076:1 12210:1 12335:1 12502:1 12510:1 12518:1 12523:1 12541:1 12546:1  |EV| 
-0.068684628019036658708174059029261 1493:1 4590:1 8128:1 9870:1 9886:1 9908:1 9911:1 9914:1 9924:1 10206:1 10572:1 10573:1 10574:1 10575:1 10576:1 11025:1 11107:1 11315:1 11947:1 11957:1 12006:1 12076:1 12243:1 12310:1 12502:1 12512:1 12518:1 12523:1 12538:1 12541:1 12546:1  |EV| 
-0.0014277722904733544662114752554771 196:1 4485:1 8105:1 9870:1 9886:1 9894:1 9900:1 9908:1 9911:1 9914:1 9924:1 9971:1 9982:1 10019:1 10082:1 10206:1 10309:1 10572:1 10573:1 10574:1 10575:1 10576:1 10577:1 10578:1 10579:1 10580:1 10581:1 10582:1 10583:1 10584:1 10594:1 11025:1 11107:1 11512:1 11947:1 11957:1 12033:1 12076:1 12259:1 12392:1 12502:1 12510:1 12518:1 12523:1 12541:1 12546:1  |EV| 
-0.074500940921176872500097942975117 213:1 3242:1 6528:1 9870:1 9886:1 9963:1 10065:1 10066:1 11026:1 11107:1 11947:1 11957:1 11994:1 12076:1 12199:1 12309:1 12502:1 12510:1 12518:1 12523:1 12541:1 12546:1  |EV| 
-0.0088576305890763172568025396458324 429:1 3447:1 8511:1 9870:1 9883:1 9894:1 9904:1 9908:1 9928:1 10043:1 10090:1 10678:1 10679:1 10680:1 10681:1 11026:1 11107:1 11329:1 11950:1 11957:1 12002:1 12078:1 12192:1 12313:1 12502:1 12510:1 12518:1 12523:1 12541:1 12546:1  |EV| 
0.069412935268494652119031229631219 2023:1 5185:1 6319:1 11036:1 11107:1 11317:1 11950:1 11957:1 11959:1 12080:1 12193:1 12316:1 12502:1 12510:1 12518:1 12523:1 12541:1 12546:1  |EV| 
0.053027218016632127195464363467181 306:1 3315:1 6319:1 11044:1 11107:1 11317:1 11950:1 11957:1 11959:1 12080:1 12193:1 12316:1 12502:1 12510:1 12518:1 12523:1 12541:1 12546:1  |EV| 
0.051732150927708192567067158051941 502:1 3523:1 6319:1 11055:1 11107:1 11317:1 11950:1 11957:1 11959:1 12080:1 12193:1 12316:1 12502:1 12510:1 12518:1 12523:1 12541:1 12546:1  |EV| 
0.093153762456817126857977484633011 279:1 3287:1 6573:1 9876:1 9879:1 9900:1 10006:1 10072:1 10104:1 11039:1 11107:1 11952:1 11957:1 11965:1 12080:1 12236:1 12319:1 12502:1 12510:1 12518:1 12523:1 12541:1 12546:1  |EV| 
0.084858858178270837879786370194779 1967:1 5128:1 8721:1 9879:1 9900:1 9915:1 9937:1 9954:1 10090:1 10282:1 10295:1 11039:1 11107:1 11952:1 11957:1 11976:1 12080:1 12204:1 12324:1 12502:1 12510:1 12518:1 12523:1 12541:1 12546:1  |EV| 
-0.03109223755655870710667976197783 598:1 3626:1 6925:1 9879:1 10295:1 10296:1 11055:1 11107:1 11173:1 11406:1 11696:1 11817:1 11952:1 11957:1 11990:1 12080:1 12211:1 12319:1 12502:1 12510:1 12518:1 12523:1 12546:1  |EV| 
-0.0063737702492644172230784604948894 198:1 3199:1 6488:1 9876:1 9879:1 9900:1 10072:1 11039:1 11107:1 11135:1 11364:1 11676:1 11785:1 11952:1 11957:1 11964:1 12080:1 12192:1 12319:1 12502:1 12512:1 12518:1 12523:1 12546:1  |EV| 
-0.073630618381470613886818910032162 2223:1 5398:1 8987:1 9870:1 9908:1 9972:1 10345:1 10391:1 10739:1 10797:1 10798:1 10799:1 11045:1 11107:1 11319:1 11952:1 11957:1 11968:1 12087:1 12209:1 12318:1 12502:1 12510:1 12518:1 12523:1 12541:1 12546:1  |EV| 
-0.088751457196110383751630479309824 2370:1 5556:1 9138:1 9870:1 9900:1 9968:1 10006:1 10358:1 10847:1 10848:1 10849:1 11044:1 11058:1 11107:1 11317:1 11949:1 11957:1 11959:1 12115:1 12235:1 12329:1 12502:1 12510:1 12518:1 12523:1 12541:1 12546:1  |EV| 
0.10000000000000000555111512312578 2477:1 5670:1 9242:1 9870:1 9871:1 9911:1 9914:1 9924:1 10618:1 10930:1 10931:1 11097:1 11107:1 11624:1 11947:1 11957:1 11975:1 12076:1 12235:1 12310:1 12502:1 12513:1 12518:1 12523:1 12541:1 12546:1  |EV| 
0.10000000000000000555111512312578 155:1 3142:1 6429:1 9870:1 9908:1 9970:1 10020:1 10021:1 10022:1 10023:1 10024:1 11037:1 11107:1 11947:1 11957:1 11970:1 12094:1 12199:1 12335:1 12502:1 12510:1 12518:1 12523:1 12541:1 12546:1  |EV| 
0.090473609502402560500478045923956 396:1 3414:1 6698:1 9870:1 9884:1 9908:1 10151:1 10152:1 10153:1 11023:1 11107:1 11947:1 11957:1 12002:1 12076:1 12249:1 12309:1 12502:1 12510:1 12518:1 12523:1 12541:1 12546:1  |EV| 
0.10000000000000000555111512312578 1528:1 4632:1 8288:1 9870:1 10179:1 10435:1 10436:1 10571:1 11040:1 11107:1 11947:1 11957:1 11994:1 12076:1 12199:1 12309:1 12502:1 12510:1 12518:1 12523:1 12541:1 12546:1  |EV| 
0.10000000000000000555111512312578 783:1 4233:1 7712:1 9908:1 9970:1 9977:1 10044:1 10101:1 10114:1 10482:1 11066:1 11107:1 11947:1 11957:1 11986:1 12076:1 12210:1 12335:1 12502:1 12510:1 12518:1 12523:1 12541:1 12546:1  |EV| 
-0.092504956821204575856398832911509 1454:1 4548:1 8150:1 9868:1 9908:1 9972:1 10051:1 10073:1 10263:1 10585:1 10586:1 11022:1 11107:1 11947:1 11957:1 11970:1 12076:1 12232:1 12335:1 12502:1 12510:1 12518:1 12523:1 12541:1 12546:1  |EV| 
-0.093001057814624199515662894555135 538:1 3562:1 6974:1 9904:1 9908:1 10031:1 10163:1 10219:1 10262:1 10275:1 11057:1 11107:1 11947:1 11957:1 11971:1 12076:1 12234:1 12309:1 12502:1 12510:1 12518:1 12523:1 12527:1 12541:1 12546:1  |EV| 
-0.10000000000000000555111512312578 690:1 3741:1 7079:1 10051:1 10330:1 11030:1 11062:1 11063:1 11064:1 11065:1 11107:1 11180:1 11414:1 11697:1 11823:1 11947:1 11957:1 12002:1 12076:1 12224:1 12309:1 12502:1 12510:1 12518:1 12523:1 12541:1 12546:1  |EV| 
-0.10000000000000000555111512312578 767:1 3816:1 7335:1 9870:1 9879:1 10054:1 10327:1 11040:1 11107:1 11311:1 11947:1 11957:1 11958:1 12076:1 12194:1 12309:1 12502:1 12510:1 12518:1 12523:1 12541:1 12546:1  |EV| 
-0.10000000000000000555111512312578 1201:1 4270:1 7752:1 9871:1 9904:1 9908:1 10275:1 10343:1 11049:1 11107:1 11326:1 11947:1 11957:1 11994:1 12076:1 12199:1 12309:1 12502:1 12510:1 12518:1 12523:1 12541:1 12546:1  |EV| 
0.10000000000000000555111512312578 882:1 3944:1 7429:1 9900:1 9904:1 9970:1 10372:1 11026:1 11107:1 11319:1 11952:1 11957:1 11968:1 12094:1 12192:1 12319:1 12502:1 12510:1 12518:1 12523:1 12541:1 12546:1  |EV| 
0.10000000000000000555111512312578 288:1 3296:1 6580:1 9900:1 10070:1 10091:1 11023:1 11107:1 11319:1 11952:1 11957:1 11968:1 12084:1 12211:1 12319:1 12502:1 12510:1 12518:1 12523:1 12541:1 12546:1  |EV| 
0.058872159559383352434025482580182 1237:1 4324:1 9674:1 9908:1 10006:1 10988:1 10993:1 11026:1 11107:1 11319:1 11952:1 11957:1 11968:1 12094:1 12192:1 12319:1 12502:1 12510:1 12518:1 12523:1 12541:1 12546:1  |EV| 
0.044251918618629475232761905090229 596:1 3623:1 6949:1 9904:1 9953:1 9979:1 10263:1 11026:1 11107:1 11319:1 11952:1 11957:1 11990:1 12097:1 12192:1 12319:1 12502:1 12510:1 12518:1 12523:1 12541:1 12546:1  |EV| 
-0.10000000000000000555111512312578 683:1 3721:1 7078:1 9917:1 10006:1 10326:1 10342:1 11060:1 11107:1 11319:1 11952:1 11957:1 11968:1 12094:1 12192:1 12319:1 12502:1 12510:1 12518:1 12523:1 12541:1 12546:1  |EV| 
-0.10000000000000000555111512312578 755:1 3799:1 7172:1 9871:1 10324:1 10325:1 11059:1 11107:1 11319:1 11952:1 11957:1 11968:1 12084:1 12211:1 12319:1 12502:1 12510:1 12518:1 12523:1 12527:1 12541:1 12546:1  |EV| 
-0.10000000000000000555111512312578 275:1 3281:1 6567:1 9870:1 10085:1 10086:1 11021:1 11107:1 11319:1 11952:1 11957:1 11968:1 12084:1 12211:1 12319:1 12502:1 12510:1 12518:1 12523:1 12541:1 12546:1  |EV| 
-0.10000000000000000555111512312578 506:1 3528:1 6818:1 9871:1 9900:1 9908:1 9975:1 9979:1 10127:1 10263:1 10264:1 10265:1 11023:1 11107:1 11319:1 11952:1 11957:1 11966:1 12088:1 12204:1 12324:1 12502:1 12510:1 12518:1 12523:1 12541:1 12546:1  |EV| 
0.10000000000000000555111512312578 2349:1 5534:1 9119:1 9870:1 9900:1 9968:1 10006:1 10085:1 10358:1 10847:1 10848:1 10849:1 11044:1 11058:1 11107:1 11947:1 11957:1 11985:1 12076:1 12235:1 12310:1 12502:1 12510:1 12518:1 12523:1 12541:1 12546:1  |EV| 
0.087942584634743400928691414719651 1253:1 4340:1 7847:1 9870:1 9908:1 9980:1 10528:1 11027:1 11107:1 11947:1 11957:1 11958:1 12076:1 12194:1 12309:1 12502:1 12510:1 12518:1 12523:1 12541:1 12546:1  |EV| 
0.10000000000000000555111512312578 1776:1 4922:1 6725:1 9870:1 11021:1 11107:1 11947:1 11957:1 11980:1 12076:1 12200:1 12309:1 12502:1 12510:1 12518:1 12523:1 12541:1 12546:1  |EV| 
0.10000000000000000555111512312578 2059:1 5222:1 8783:1 9870:1 9900:1 10746:1 10747:1 11056:1 11107:1 11947:1 11957:1 11958:1 12076:1 12194:1 12309:1 12502:1 12510:1 12518:1 12523:1 12541:1 12546:1  |EV| 
0.10000000000000000555111512312578 423:1 3441:1 6725:1 9870:1 11021:1 11107:1 11947:1 11957:1 11980:1 12076:1 12200:1 12309:1 12502:1 12510:1 12518:1 12523:1 12541:1 12546:1  |EV| 
-0.10000000000000000555111512312578 39:1 3014:1 7935:1 9870:1 9900:1 9922:1 9936:1 9941:1 10524:1 11025:1 11107:1 11947:1 11957:1 12002:1 12076:1 12249:1 12309:1 12502:1 12510:1 12518:1 12523:1 12527:1 12541:1 12546:1  |EV| 
-0.019466467647778148281068055780452 2769:1 5977:1 9843:1 9870:1 9992:1 10191:1 11026:1 11107:1 11950:1 11957:1 11980:1 12094:1 12197:1 12316:1 12502:1 12510:1 12518:1 12523:1 12541:1 12546:1  |EV| 
-0.10000000000000000555111512312578 2333:1 5518:1 6463:1 9900:1 11040:1 11107:1 11110:1 11315:1 11659:1 11798:1 11947:1 11957:1 11980:1 12076:1 12200:1 12309:1 12502:1 12513:1 12518:1 12523:1 12536:1 12541:1 12543:1 12546:1  |EV| 
-0.10000000000000000555111512312578 1329:1 5343:1 8923:1 10054:1 10800:1 10801:1 10802:1 11034:1 11107:1 11453:1 11947:1 11957:1 11958:1 12076:1 12194:1 12309:1 12502:1 12510:1 12518:1 12523:1 12541:1 12546:1  |EV| 
0.060508869892041711180397101088602 886:1 3948:1 8663:1 9879:1 9908:1 10728:1 11040:1 11107:1 11319:1 11952:1 11957:1 11968:1 12084:1 12211:1 12319:1 12502:1 12510:1 12518:1 12523:1 12541:1 12546:1  |EV| 
0.037191664523038500678175921621005 13:1 2983:1 6740:1 9894:1 9915:1 10202:1 11023:1 11107:1 11319:1 11952:1 11957:1 11968:1 12084:1 12211:1 12319:1 12502:1 12510:1 12518:1 12523:1 12541:1 12546:1  |EV| 
0.10000000000000000555111512312578 2851:1 6070:1 9675:1 9879:1 9908:1 10006:1 10988:1 10993:1 10994:1 11066:1 11107:1 11319:1 11952:1 11957:1 11968:1 12111:1 12236:1 12319:1 12502:1 12510:1 12518:1 12523:1 12541:1 12546:1  |EV| 
0.053798558644880915824426637072975 1893:1 5046:1 8610:1 9908:1 10275:1 10722:1 11059:1 11084:1 11107:1 11319:1 11952:1 11957:1 11966:1 12097:1 12211:1 12319:1 12502:1 12510:1 12518:1 12523:1 12527:1 12541:1 12546:1  |EV| 
-0.10000000000000000555111512312578 1710:1 4853:1 8402:1 9870:1 9877:1 9908:1 9995:1 10160:1 10656:1 11037:1 11107:1 11538:1 11952:1 11957:1 11966:1 12075:1 12236:1 12319:1 12502:1 12513:1 12518:1 12523:1 12525:1 12541:1 12546:1  |EV| 
-0.10000000000000000555111512312578 1000:1 4065:1 7540:1 9870:1 9900:1 9908:1 9951:1 9962:1 9979:1 10433:1 10434:1 10435:1 10436:1 11029:1 11107:1 11319:1 11952:1 11957:1 11966:1 12103:1 12209:1 12318:1 12502:1 12510:1 12518:1 12523:1 12541:1 12546:1  |EV| 
-0.099755735469952436234031267758837 225:1 3227:1 6514:1 9866:1 9908:1 9963:1 9970:1 10102:1 11025:1 11106:1 11319:1 11952:1 11957:1 11968:1 12075:1 12228:1 12319:1 12502:1 12510:1 12518:1 12523:1 12541:1 12546:1  |EV| 
0.10000000000000000555111512312578 307:1 3316:1 6599:1 10117:1 11026:1 11107:1 11317:1 11950:1 11957:1 11959:1 12097:1 12197:1 12316:1 12502:1 12510:1 12518:1 12523:1 12541:1 12546:1  |EV| 
0.10000000000000000555111512312578 702:1 3781:1 7143:1 9888:1 11062:1 11107:1 11317:1 11950:1 11957:1 11959:1 12097:1 12197:1 12316:1 12502:1 12510:1 12518:1 12523:1 12541:1 12546:1  |EV| 
0.10000000000000000555111512312578 1686:1 4826:1 8376:1 9884:1 10637:1 10638:1 11026:1 11107:1 11163:1 11328:1 11374:1 11665:1 11809:1 11950:1 11957:1 11967:1 12075:1 12193:1 12316:1 12502:1 12510:1 12518:1 12523:1 12541:1 12546:1  |EV| 
0.10000000000000000555111512312578 1872:1 5032:1 8597:1 9978:1 11026:1 11107:1 11317:1 11950:1 11957:1 11959:1 12097:1 12197:1 12316:1 12502:1 12510:1 12518:1 12523:1 12541:1 12546:1  |EV| 
0.094443469658458636950548736876954 2427:1 5617:1 9195:1 9900:1 10047:1 11029:1 11107:1 11315:1 11947:1 11957:1 11967:1 12076:1 12224:1 12309:1 12502:1 12510:1 12518:1 12523:1 12541:1 12546:1  |EV| 
-0.056593855773513605800228987163791 2743:1 5948:1 9599:1 9907:1 10466:1 11026:1 11107:1 11408:1 11947:1 11957:1 11967:1 12076:1 12224:1 12309:1 12502:1 12510:1 12518:1 12523:1 12546:1  |EV| 
-0.022901339457222710804806808937428 703:1 3777:1 7135:1 9900:1 9974:1 10008:1 10221:1 11066:1 11107:1 11317:1 11949:1 11957:1 11959:1 12077:1 12199:1 12320:1 12502:1 12510:1 12518:1 12523:1 12541:1 12546:1  |EV| 
-0.034591337836700916663623672775429 1882:1 5035:1 8599:1 10133:1 10700:1 10701:1 11083:1 11107:1 11327:1 11950:1 11957:1 11980:1 12094:1 12197:1 12316:1 12502:1 12510:1 12518:1 12523:1 12541:1 12546:1  |EV| 
-0.065285917541661034335653823745815 857:1 3916:1 7402:1 9873:1 9884:1 9910:1 9911:1 9939:1 10239:1 10358:1 10359:1 11026:1 11107:1 11947:1 11957:1 11986:1 12076:1 12210:1 12335:1 12502:1 12510:1 12518:1 12523:1 12541:1 12546:1  |EV| 
-0.10000000000000000555111512312578 329:1 3340:1 6623:1 10127:1 10128:1 10129:1 11045:1 11107:1 11327:1 11950:1 11957:1 11980:1 12094:1 12197:1 12316:1 12502:1 12510:1 12518:1 12523:1 12541:1 12546:1  |EV| 
0.10000000000000000555111512312578 1582:1 4704:1 8256:1 9870:1 9871:1 9900:1 9908:1 9961:1 9962:1 10129:1 10193:1 10595:1 10597:1 11025:1 11107:1 11952:1 11957:1 11984:1 12076:1 12219:1 12334:1 12502:1 12510:1 12518:1 12523:1 12541:1 12546:1  |EV| 
0.067624624712051412123159366274194 2645:1 5845:1 9427:1 9870:1 9877:1 9915:1 10021:1 10044:1 10181:1 10783:1 10966:1 10967:1 10968:1 11045:1 11107:1 11952:1 11957:1 12000:1 12084:1 12209:1 12324:1 12502:1 12513:1 12518:1 12523:1 12541:1 12546:1  |EV| 
0.10000000000000000555111512312578 2306:1 5491:1 9078:1 10221:1 11061:1 11107:1 11952:1 11957:1 11966:1 12076:1 12214:1 12319:1 12502:1 12513:1 12518:1 12523:1 12536:1 12541:1 12543:1 12546:1  |EV| 
0.10000000000000000555111512312578 680:1 3718:1 7051:1 9870:1 9884:1 9888:1 9908:1 10221:1 10340:1 10341:1 11061:1 11107:1 11412:1 11952:1 11957:1 12000:1 12080:1 12220:1 12324:1 12502:1 12513:1 12518:1 12523:1 12536:1 12538:1 12541:1 12546:1  |EV| 
0.0099678905020278325832538968143126 2969:1 6208:1 9078:1 10221:1 11028:1 11107:1 11114:1 11332:1 11658:1 11772:1 11952:1 11957:1 11966:1 12076:1 12214:1 12319:1 12502:1 12513:1 12518:1 12523:1 12541:1 12543:1 12546:1  |EV| 
-0.032419271131688263964942819939097 2130:1 5855:1 9438:1 9870:1 9915:1 10021:1 10181:1 11045:1 11107:1 11274:1 11479:1 11669:1 11909:1 11952:1 11957:1 11966:1 12084:1 12192:1 12319:1 12502:1 12513:1 12518:1 12523:1 12536:1 12538:1 12546:1  |EV| 
-0.10000000000000000555111512312578 1337:1 4425:1 7948:1 9868:1 9870:1 10021:1 10025:1 10026:1 10121:1 10518:1 10540:1 10541:1 11076:1 11107:1 11952:1 11957:1 12000:1 12097:1 12204:1 12324:1 12502:1 12510:1 12518:1 12523:1 12541:1 12546:1  |EV| 
-0.0054695212665594435466620559793682 2608:1 5808:1 9391:1 9870:1 9884:1 9894:1 10078:1 10433:1 10860:1 10913:1 10914:1 11040:1 11107:1 11952:1 11957:1 11976:1 12076:1 12220:1 12324:1 12502:1 12512:1 12518:1 12523:1 12536:1 12546:1  |EV| 
0.054372529454448495500606952646194 986:1 4051:1 7527:1 9872:1 9908:1 9915:1 10458:1 11026:1 11107:1 11952:1 11957:1 11960:1 12076:1 12228:1 12319:1 12502:1 12510:1 12518:1 12523:1 12541:1 12546:1  |EV| 
-0.10000000000000000555111512312578 2097:1 5260:1 8867:1 9908:1 9915:1 9979:1 10767:1 10769:1 10770:1 10771:1 10772:1 11026:1 11107:1 11495:1 11952:1 11957:1 11966:1 12119:1 12220:1 12324:1 12502:1 12510:1 12518:1 12523:1 12541:1 12546:1  |EV| 
-0.10000000000000000555111512312578 324:1 3334:1 6616:1 9908:1 9990:1 10118:1 10119:1 10120:1 10121:1 10123:1 10133:1 11026:1 11107:1 11952:1 11957:1 11976:1 12076:1 12220:1 12324:1 12502:1 12510:1 12518:1 12523:1 12541:1 12546:1  |EV| 
-0.10000000000000000555111512312578 1856:1 5005:1 8577:1 9900:1 9919:1 10275:1 10325:1 10331:1 10349:1 10703:1 10704:1 11025:1 11107:1 11952:1 11957:1 11976:1 12076:1 12220:1 12324:1 12502:1 12510:1 12518:1 12523:1 12541:1 12546:1  |EV| 
-0.10000000000000000555111512312578 2268:1 5451:1 9033:1 9871:1 9884:1 9894:1 9992:1 10100:1 10178:1 10804:1 10838:1 10839:1 11045:1 11107:1 11319:1 11952:1 11957:1 11960:1 12111:1 12219:1 12324:1 12502:1 12510:1 12518:1 12523:1 12541:1 12546:1  |EV| 
-0.065149491505897882959175149153452 471:1 3492:1 6784:1 9870:1 9871:1 9879:1 9915:1 9917:1 10132:1 10214:1 10215:1 10216:1 10217:1 10218:1 10219:1 10220:1 10221:1 11054:1 11107:1 11952:1 11957:1 11987:1 12076:1 12242:1 12334:1 12502:1 12510:1 12518:1 12523:1 12541:1 12546:1  |EV| 
0.10000000000000000555111512312578 595:1 3622:1 6936:1 9900:1 10127:1 10263:1 10264:1 11033:1 11107:1 11319:1 11952:1 11957:1 11966:1 12084:1 12192:1 12319:1 12502:1 12510:1 12518:1 12523:1 12541:1 12546:1  |EV| 
0.068781107765277779697576931994263 983:1 4048:1 7524:1 9870:1 9900:1 9908:1 9951:1 9979:1 10314:1 10433:1 10434:1 10435:1 10436:1 11029:1 11107:1 11952:1 11957:1 11976:1 12097:1 12209:1 12324:1 12502:1 12510:1 12518:1 12523:1 12541:1 12546:1  |EV| 
0.10000000000000000555111512312578 196:1 4696:1 8248:1 9900:1 9919:1 9974:1 10001:1 10022:1 10139:1 10191:1 10599:1 10604:1 11025:1 11107:1 11952:1 11957:1 11976:1 12080:1 12204:1 12324:1 12502:1 12510:1 12518:1 12523:1 12541:1 12546:1  |EV| 
0.082858558954742089763811918601277 2483:1 5676:1 9250:1 9870:1 9884:1 9907:1 9908:1 9922:1 9925:1 10434:1 10714:1 10784:1 10936:1 10937:1 11097:1 11106:1 11319:1 11952:1 11957:1 11968:1 12129:1 12244:1 12355:1 12502:1 12510:1 12518:1 12523:1 12541:1 12546:1  |EV| 
-0.04234833110857733062815100311127 1843:1 4991:1 8552:1 10346:1 11027:1 11107:1 11319:1 11952:1 11957:1 11968:1 12080:1 12214:1 12319:1 12502:1 12510:1 12518:1 12523:1 12546:1  |EV| 
0.068202833814508950771582362904155 2316:1 5501:1 9087:1 9871:1 9884:1 9894:1 9971:1 10085:1 10100:1 10178:1 10804:1 10838:1 10839:1 11045:1 11107:1 11952:1 11957:1 11984:1 12076:1 12219:1 12334:1 12502:1 12510:1 12518:1 12523:1 12541:1 12546:1  |EV| 
0.078622327588894078131964704425627 327:1 3337:1 6619:1 9871:1 9965:1 9998:1 10006:1 10045:1 10111:1 10131:1 10132:1 11040:1 11107:1 11952:1 11957:1 11976:1 12076:1 12220:1 12324:1 12502:1 12510:1 12518:1 12523:1 12541:1 12546:1  |EV| 
0.043259992135524553968917160773344 324:1 3394:1 6672:1 9871:1 9874:1 9877:1 9879:1 9908:1 9954:1 9975:1 10045:1 10066:1 10089:1 10132:1 10141:1 10142:1 10143:1 10144:1 10149:1 10150:1 11026:1 11107:1 11952:1 11957:1 12017:1 12076:1 12255:1 12337:1 12502:1 12510:1 12518:1 12523:1 12541:1 12546:1  |EV| 
0.056772851325720137538599630033787 152:1 3172:1 7564:1 9871:1 9874:1 9928:1 10078:1 10117:1 10224:1 10447:1 10476:1 10477:1 11021:1 11107:1 11952:1 11957:1 11998:1 12076:1 12204:1 12324:1 12502:1 12510:1 12518:1 12523:1 12541:1 12546:1  |EV| 
0.05642314348818624342163374763004 637:1 3669:1 6987:1 9866:1 9871:1 9874:1 9879:1 9904:1 9908:1 9975:1 9981:1 9995:1 10022:1 10163:1 10275:1 10287:1 10288:1 10289:1 10290:1 11037:1 11107:1 11952:1 11957:1 11988:1 12076:1 12244:1 12327:1 12502:1 12510:1 12518:1 12523:1 12541:1 12546:1  |EV| 
-0.056022670629140673692614171841342 504:1 3578:1 7000:1 9868:1 9871:1 9879:1 9900:1 9908:1 9915:1 9951:1 9953:1 9963:1 9998:1 10027:1 10045:1 10066:1 10095:1 10132:1 10163:1 10247:1 10248:1 10249:1 10250:1 10251:1 10252:1 10253:1 10269:1 11056:1 11107:1 11952:1 11957:1 12027:1 12076:1 12227:1 12337:1 12502:1 12510:1 12518:1 12523:1 12541:1 12546:1  |EV| 
-0.10000000000000000555111512312578 1302:1 4349:1 7905:1 9870:1 9871:1 9911:1 9914:1 9919:1 10045:1 10225:1 10558:1 10561:1 11057:1 11107:1 11952:1 11957:1 11998:1 12076:1 12204:1 12324:1 12502:1 12510:1 12518:1 12523:1 12541:1 12546:1  |EV| 
-0.10000000000000000555111512312578 2325:1 5510:1 9097:1 9870:1 9885:1 9900:1 9904:1 9970:1 10221:1 10328:1 10525:1 10819:1 10829:1 11061:1 11107:1 11952:1 11957:1 12001:1 12076:1 12209:1 12334:1 12502:1 12510:1 12518:1 12523:1 12541:1 12546:1  |EV| 
0.10000000000000000555111512312578 690:1 3728:1 7338:1 9870:1 9908:1 9962:1 9990:1 10066:1 10119:1 10231:1 11030:1 11062:1 11063:1 11064:1 11065:1 11107:1 11952:1 11957:1 12000:1 12076:1 12205:1 12319:1 12502:1 12510:1 12518:1 12523:1 12541:1 12546:1  |EV| 
0.10000000000000000555111512312578 2147:1 5310:1 8887:1 9866:1 9879:1 9908:1 9917:1 10328:1 10773:1 11026:1 11107:1 11319:1 11952:1 11957:1 12015:1 12076:1 12236:1 12319:1 12502:1 12513:1 12518:1 12523:1 12538:1 12541:1 12546:1  |EV| 
0.043761368858226359912499958682019 2000:1 5162:1 6224:1 11049:1 11106:1 11391:1 11952:1 11957:1 11968:1 12076:1 12197:1 12319:1 12502:1 12510:1 12518:1 12523:1 12541:1 12546:1  |EV| 
0.10000000000000000555111512312578 1310:1 4398:1 7916:1 9911:1 9914:1 10045:1 11025:1 11107:1 11495:1 11952:1 11957:1 11964:1 12076:1 12211:1 12319:1 12502:1 12510:1 12518:1 12523:1 12541:1 12546:1  |EV| 
-0.10000000000000000555111512312578 1746:1 5384:1 8960:1 9890:1 9897:1 9967:1 10804:1 11021:1 11107:1 11952:1 11957:1 11960:1 12076:1 12192:1 12319:1 12502:1 12510:1 12518:1 12523:1 12541:1 12546:1  |EV| 
0.10000000000000000555111512312578 295:1 3304:1 6587:1 9870:1 9871:1 9900:1 9904:1 9908:1 10010:1 10028:1 10077:1 10078:1 10079:1 10080:1 10081:1 10082:1 10083:1 10084:1 10092:1 11021:1 11107:1 11952:1 11957:1 11969:1 12076:1 12255:1 12327:1 12502:1 12510:1 12518:1 12523:1 12541:1 12546:1  |EV| 
0.10000000000000000555111512312578 2498:1 5691:1 9265:1 9870:1 9879:1 9897:1 9900:1 9907:1 9922:1 9985:1 9986:1 10143:1 10179:1 10187:1 10191:1 10328:1 10371:1 10433:1 10489:1 10524:1 10922:1 10923:1 10924:1 10925:1 10926:1 10927:1 11026:1 11107:1 11952:1 11957:1 12018:1 12076:1 12254:1 12337:1 12502:1 12510:1 12518:1 12523:1 12541:1 12546:1  |EV| 
-0.097814741136511562658029106387403 581:1 3607:1 6907:1 9871:1 9879:1 9908:1 9975:1 10163:1 10289:1 10290:1 11037:1 11107:1 11952:1 11957:1 12000:1 12076:1 12205:1 12319:1 12502:1 12513:1 12518:1 12523:1 12536:1 12546:1  |EV| 
0.10000000000000000555111512312578 474:1 3495:1 6787:1 9870:1 9874:1 9957:1 9964:1 10132:1 10224:1 10225:1 10226:1 10227:1 10228:1 11036:1 11107:1 11398:1 11952:1 11957:1 12000:1 12084:1 12209:1 12324:1 12502:1 12510:1 12518:1 12523:1 12541:1 12546:1  |EV| 
0.10000000000000000555111512312578 504:1 3578:1 6871:1 9879:1 9900:1 9951:1 10027:1 10253:1 11056:1 11107:1 11952:1 11957:1 11965:1 12076:1 12228:1 12319:1 12502:1 12510:1 12518:1 12523:1 12541:1 12546:1  |EV| 
-0.073242392500146510925240761480381 2407:1 5597:1 9180:1 9870:1 9889:1 11025:1 11107:1 11950:1 11957:1 11963:1 12084:1 12197:1 12316:1 12502:1 12510:1 12518:1 12523:1 12541:1 12546:1  |EV| 
0.028659065738840791559560727819189 1149:1 4214:1 7693:1 9871:1 10499:1 10500:1 11037:1 11107:1 11952:1 11957:1 11964:1 12076:1 12211:1 12319:1 12502:1 12513:1 12518:1 12523:1 12541:1 12546:1  |EV| 
0.10000000000000000555111512312578 886:1 5090:1 8651:1 9871:1 9879:1 9908:1 9980:1 10095:1 10114:1 10118:1 10322:1 10730:1 11040:1 11107:1 11952:1 11957:1 11990:1 12119:1 12204:1 12324:1 12502:1 12510:1 12518:1 12523:1 12541:1 12546:1  |EV| 
0.098266738943002085449052174226381 1935:1 5094:1 8654:1 9871:1 9879:1 9904:1 9908:1 9970:1 10101:1 10133:1 10723:1 10728:1 11085:1 11107:1 11952:1 11957:1 12001:1 12076:1 12209:1 12334:1 12502:1 12510:1 12518:1 12523:1 12527:1 12541:1 12546:1  |EV| 
0.10000000000000000555111512312578 1329:1 4417:1 7939:1 9870:1 9871:1 9908:1 9978:1 10528:1 10538:1 11034:1 11107:1 11947:1 11957:1 12002:1 12080:1 12199:1 12309:1 12502:1 12510:1 12518:1 12523:1 12541:1 12546:1  |EV| 
-0.0060170968752977262161696359044072 2766:1 5973:1 9559:1 9907:1 10466:1 10646:1 11026:1 11107:1 11365:1 11947:1 11957:1 11977:1 12076:1 12198:1 12309:1 12502:1 12514:1 12518:1 12523:1 12538:1 12546:1  |EV| 
-0.013100031766801212632089779219768 1083:1 4148:1 7624:1 9870:1 9908:1 9962:1 9971:1 9979:1 10193:1 10434:1 10435:1 10436:1 10437:1 10438:1 10459:1 10460:1 11030:1 11072:1 11107:1 11312:1 11947:1 11957:1 12008:1 12076:1 12253:1 12310:1 12502:1 12514:1 12518:1 12523:1 12538:1 12546:1  |EV| 
-0.10000000000000000555111512312578 2376:1 5563:1 9144:1 9868:1 9870:1 9871:1 10484:1 10876:1 11045:1 11107:1 11952:1 11957:1 11965:1 12076:1 12228:1 12319:1 12502:1 12510:1 12518:1 12523:1 12538:1 12541:1 12546:1  |EV| 
0.08080418743115211355210192323284 411:1 3429:1 6714:1 9870:1 9908:1 10020:1 10021:1 10181:1 10182:1 10183:1 10184:1 11040:1 11041:1 11053:1 11107:1 11319:1 11952:1 11957:1 11968:1 12088:1 12220:1 12324:1 12502:1 12510:1 12518:1 12523:1 12541:1 12546:1  |EV| 
0.0829916478761492243387820622047 2874:1 6096:1 9705:1 9870:1 9871:1 9900:1 10006:1 10078:1 10094:1 10316:1 10760:1 10853:1 11010:1 11011:1 11013:1 11014:1 11022:1 11107:1 11319:1 11952:1 11957:1 11984:1 12084:1 12241:1 12334:1 12502:1 12510:1 12518:1 12523:1 12541:1 12546:1  |EV| 
0.10000000000000000555111512312578 565:1 3590:1 6892:1 9871:1 9900:1 9908:1 9975:1 9979:1 10127:1 10136:1 10263:1 10264:1 11023:1 11107:1 11952:1 11957:1 11998:1 12076:1 12204:1 12324:1 12502:1 12510:1 12518:1 12523:1 12541:1 12546:1  |EV| 
0.041568484048056540680615711380597 1849:1 4998:1 6224:1 11025:1 11107:1 11149:1 11379:1 11683:1 11877:1 11952:1 11957:1 11968:1 12076:1 12197:1 12319:1 12502:1 12513:1 12518:1 12523:1 12537:1 12541:1 12546:1  |EV| 
0.03336429944865796498598697894522 325:1 3373:1 6655:1 9869:1 9951:1 9953:1 10066:1 10134:1 10135:1 10146:1 11047:1 11107:1 11952:1 11957:1 12000:1 12076:1 12205:1 12319:1 12502:1 12510:1 12518:1 12523:1 12541:1 12546:1  |EV| 
0.069570467684074099867785889728111 304:1 3313:1 6597:1 9870:1 10006:1 10112:1 11043:1 11107:1 11947:1 11957:1 11977:1 12076:1 12198:1 12309:1 12502:1 12510:1 12518:1 12523:1 12541:1 12546:1  |EV| 
-0.10000000000000000555111512312578 702:1 3740:1 7077:1 9888:1 9900:1 9974:1 10008:1 10133:1 10221:1 10345:1 10346:1 11062:1 11107:1 11952:1 11957:1 12015:1 12097:1 12220:1 12324:1 12502:1 12510:1 12518:1 12523:1 12541:1 12546:1  |EV| 
-0.10000000000000000555111512312578 2543:1 5741:1 9317:1 9870:1 9873:1 9874:1 9884:1 9894:1 9900:1 9908:1 9951:1 10008:1 10078:1 10184:1 10860:1 10911:1 10912:1 10913:1 10914:1 11072:1 11107:1 11319:1 11952:1 11957:1 11990:1 12125:1 12244:1 12355:1 12502:1 12510:1 12518:1 12523:1 12541:1 12546:1  |EV| 
-0.09708130846447821094002961217484 2617:1 5817:1 9401:1 9870:1 9871:1 9874:1 9884:1 9900:1 9908:1 9911:1 9914:1 9924:1 9935:1 10070:1 10143:1 10187:1 10618:1 10930:1 10931:1 10932:1 11097:1 11107:1 11947:1 11957:1 12011:1 12076:1 12260:1 12352:1 12502:1 12510:1 12518:1 12523:1 12541:1 12546:1  |EV| 
-0.068681667161950843425444190870621 783:1 4319:1 7827:1 9870:1 9871:1 9884:1 9888:1 9894:1 9908:1 9937:1 9940:1 9970:1 9977:1 10006:1 10044:1 10101:1 10114:1 10232:1 10331:1 10346:1 10482:1 10483:1 10484:1 10485:1 10486:1 10487:1 11066:1 11107:1 11947:1 11957:1 12033:1 12076:1 12259:1 12392:1 12502:1 12510:1 12518:1 12523:1 12541:1 12546:1  |EV| 
-0.028057380541727679895691593969786 1236:1 4323:1 8144:1 9870:1 9871:1 9900:1 9908:1 9961:1 10129:1 10193:1 10595:1 10597:1 10598:1 11025:1 11107:1 11952:1 11957:1 11960:1 12119:1 12219:1 12324:1 12502:1 12510:1 12518:1 12523:1 12541:1 12546:1  |EV| 
-0.085797415913057381575690385488997 2523:1 5721:1 9295:1 9870:1 9873:1 9874:1 9884:1 9894:1 9900:1 9908:1 9951:1 10008:1 10078:1 10184:1 10433:1 10860:1 10911:1 10912:1 10913:1 10914:1 10928:1 11040:1 11107:1 11319:1 11952:1 11957:1 11990:1 12129:1 12255:1 12355:1 12502:1 12510:1 12518:1 12523:1 12541:1 12546:1  |EV| 
0.098002930947750171997157053738192 860:1 3919:1 7407:1 10370:1 11045:1 11107:1 11947:1 11957:1 11980:1 12076:1 12200:1 12309:1 12502:1 12510:1 12518:1 12523:1 12541:1 12546:1  |EV| 
0.10000000000000000555111512312578 330:1 3341:1 6625:1 10127:1 11046:1 11107:1 11153:1 11327:1 11685:1 11797:1 11947:1 11957:1 11980:1 12080:1 12202:1 12309:1 12502:1 12510:1 12518:1 12523:1 12541:1 12546:1  |EV| 
0.032893406045300929707586590211577 1324:1 4412:1 7009:1 10045:1 11025:1 11107:1 11319:1 11358:1 11952:1 11957:1 11966:1 12076:1 12214:1 12319:1 12502:1 12510:1 12518:1 12523:1 12541:1 12546:1  |EV| 
-0.09301798351397300157472614046128 144:1 3130:1 6416:1 9868:1 9870:1 9871:1 9879:1 9993:1 9994:1 9995:1 9996:1 9997:1 9998:1 9999:1 10000:1 10001:1 10002:1 10006:1 11021:1 11107:1 11947:1 11957:1 11981:1 12076:1 12250:1 12310:1 12502:1 12510:1 12518:1 12523:1 12541:1 12546:1  |EV| 
-0.062603639266987656797347483461635 147:1 3134:1 6420:1 9865:1 9868:1 9870:1 9871:1 9879:1 9993:1 9994:1 9995:1 9996:1 9997:1 9998:1 9999:1 10000:1 10001:1 10002:1 11036:1 11107:1 11947:1 11957:1 11981:1 12080:1 12221:1 12310:1 12502:1 12510:1 12518:1 12523:1 12541:1 12546:1  |EV| 
-0.10000000000000000555111512312578 2076:1 5239:1 8800:1 9866:1 9879:1 9908:1 9917:1 10328:1 10395:1 11026:1 11107:1 11582:1 11952:1 11957:1 11965:1 12080:1 12236:1 12319:1 12502:1 12513:1 12518:1 12525:1 12538:1 12541:1 12546:1  |EV| 
-0.063746410369424466590970723700593 196:1 4696:1 8246:1 9900:1 9974:1 10022:1 10139:1 10191:1 10599:1 10604:1 11025:1 11107:1 11948:1 11957:1 11976:1 12132:1 12197:1 12311:1 12502:1 12510:1 12518:1 12523:1 12541:1 12546:1  |EV| 
-0.0063896720313180496025884380628668 226:1 3228:1 6515:1 9868:1 9870:1 9871:1 9876:1 9879:1 9886:1 9900:1 9963:1 10006:1 10072:1 10075:1 10076:1 10103:1 10104:1 11039:1 11106:1 11952:1 11957:1 12019:1 12080:1 12242:1 12334:1 12502:1 12510:1 12518:1 12523:1 12541:1 12546:1  |EV| 
-0.020561854928178122103865632652742 1011:1 4076:1 7551:1 9870:1 9871:1 9874:1 9884:1 9885:1 9908:1 9943:1 9951:1 9962:1 9971:1 9979:1 10193:1 10314:1 10434:1 10435:1 10436:1 10437:1 10438:1 10459:1 10460:1 10461:1 10462:1 10463:1 10464:1 10465:1 10466:1 11030:1 11072:1 11107:1 11948:1 11957:1 12052:1 12163:1 12214:1 12408:1 12502:1 12510:1 12518:1 12523:1 12527:1 12541:1 12546:1  |EV| 
-0.042249898883576310348875182398842 1218:1 4299:1 7795:1 9870:1 9871:1 9884:1 9908:1 9962:1 10114:1 10481:1 11059:1 11107:1 11952:1 11957:1 12000:1 12076:1 12205:1 12319:1 12502:1 12512:1 12518:1 12523:1 12537:1 12546:1  |EV| 
-0.10000000000000000555111512312578 116:1 3102:1 6379:1 9870:1 9871:1 9908:1 9919:1 9970:1 9971:1 9972:1 9973:1 9974:1 9975:1 9976:1 9978:1 9987:1 9988:1 11033:1 11107:1 11950:1 11957:1 11980:1 12127:1 12242:1 12345:1 12502:1 12510:1 12518:1 12523:1 12541:1 12546:1  |EV| 
-0.10000000000000000555111512312578 118:1 3104:1 6381:1 9870:1 9871:1 9908:1 9919:1 9970:1 9971:1 9972:1 9973:1 9974:1 9975:1 9976:1 9978:1 9979:1 9987:1 9988:1 11034:1 11107:1 11950:1 11957:1 11980:1 12128:1 12208:1 12343:1 12502:1 12510:1 12518:1 12523:1 12541:1 12546:1  |EV| 
-0.0061288684229694693345047440402595 115:1 3101:1 6382:1 9870:1 9871:1 9908:1 9919:1 9970:1 9971:1 9972:1 9973:1 9974:1 9975:1 9976:1 9978:1 9979:1 9987:1 9988:1 11025:1 11107:1 11950:1 11957:1 11980:1 12091:1 12215:1 12345:1 12502:1 12510:1 12518:1 12523:1 12541:1 12546:1  |EV| 
0.10000000000000000555111512312578 1329:1 5343:1 8927:1 9870:1 9871:1 9908:1 9972:1 9988:1 10118:1 10191:1 10345:1 10391:1 10686:1 10739:1 10794:1 10795:1 10797:1 10798:1 10799:1 11034:1 11107:1 11952:1 11957:1 12004:1 12076:1 12246:1 12334:1 12502:1 12510:1 12518:1 12523:1 12541:1 12546:1  |EV| 
-0.081342575029121177987434521128307 2460:1 5653:1 9226:1 9870:1 9879:1 9897:1 9900:1 9907:1 9922:1 9957:1 9985:1 9986:1 10143:1 10179:1 10187:1 10191:1 10328:1 10433:1 10489:1 10524:1 10922:1 10923:1 10924:1 10925:1 10926:1 10927:1 11026:1 11107:1 11319:1 11952:1 11957:1 11968:1 12106:1 12254:1 12349:1 12502:1 12510:1 12518:1 12523:1 12541:1 12546:1  |EV| 
-0.072996578627248565052099138483754 2203:1 5371:1 8975:1 9870:1 9871:1 9908:1 9972:1 9988:1 10118:1 10191:1 10345:1 10513:1 10686:1 10739:1 10794:1 10795:1 10797:1 10798:1 10799:1 11034:1 11107:1 11952:1 11957:1 12001:1 12119:1 12246:1 12334:1 12502:1 12510:1 12518:1 12523:1 12541:1 12546:1  |EV| 
-0.08970483388166822225073815388896 2128:1 5291:1 8861:1 9865:1 9877:1 9884:1 9908:1 10006:1 10118:1 10128:1 10143:1 10163:1 10275:1 10760:1 10761:1 10762:1 10763:1 10764:1 10780:1 10781:1 10782:1 11026:1 11107:1 11479:1 11665:1 11809:1 11947:1 11957:1 12021:1 12124:1 12199:1 12317:1 12502:1 12513:1 12518:1 12523:1 12541:1  |EV| 
-0.031767887613906947708031225374725 2488:1 5681:1 9255:1 9870:1 9879:1 9897:1 9900:1 9907:1 9922:1 9957:1 9985:1 9986:1 10143:1 10179:1 10187:1 10191:1 10328:1 10371:1 10433:1 10489:1 10524:1 10923:1 10924:1 10925:1 10926:1 10927:1 11026:1 11107:1 11952:1 11957:1 11960:1 12091:1 12254:1 12349:1 12502:1 12510:1 12518:1 12523:1 12541:1 12546:1  |EV| 
-0.076063419436211851532014804888604 1115:1 4180:1 7659:1 9871:1 9874:1 9875:1 10078:1 10117:1 10224:1 10447:1 10476:1 10477:1 11021:1 11107:1 11319:1 11952:1 11957:1 11968:1 12103:1 12204:1 12318:1 12502:1 12510:1 12518:1 12523:1 12541:1 12546:1  |EV| 
-0.053940935072958572094048435019431 1533:1 4639:1 8181:1 9868:1 9870:1 9871:1 9886:1 9900:1 9908:1 9961:1 9962:1 9967:1 9970:1 9979:1 10129:1 10193:1 10595:1 10597:1 11025:1 11107:1 11952:1 11957:1 11988:1 12076:1 12244:1 12327:1 12502:1 12510:1 12518:1 12523:1 12541:1 12546:1  |EV| 
-0.082441802792654658715854054662486 1423:1 4515:1 8045:1 9870:1 9900:1 9904:1 9970:1 10091:1 10179:1 10435:1 10571:1 10600:1 10602:1 11024:1 11107:1 11951:1 11956:1 11998:1 12079:1 12224:1 12351:1 12502:1 12510:1 12518:1 12523:1 12541:1 12546:1  |EV| 
-0.067025220540944202562982923154777 158:1 3145:1 6432:1 9870:1 9908:1 9970:1 10020:1 10021:1 10022:1 10023:1 10024:1 10026:1 10027:1 10031:1 11026:1 11107:1 11950:1 11957:1 11970:1 12078:1 12214:1 12339:1 12502:1 12510:1 12518:1 12523:1 12541:1 12546:1  |EV| 
-0.080156975952256973028120512481109 696:1 3734:1 7324:1 9870:1 9871:1 9874:1 9879:1 9884:1 9908:1 10006:1 10025:1 10039:1 10068:1 10114:1 10138:1 10232:1 10257:1 10326:1 10332:1 10333:1 10356:1 11060:1 11107:1 11952:1 11957:1 12017:1 12076:1 12255:1 12337:1 12502:1 12510:1 12518:1 12523:1 12527:1 12541:1 12546:1  |EV| 
-0.086436239198240158443375946717424 1887:1 5040:1 8604:1 9871:1 9879:1 9900:1 9908:1 10054:1 10114:1 10264:1 10696:1 10697:1 10698:1 11083:1 11107:1 11311:1 11947:1 11957:1 11975:1 12076:1 12235:1 12310:1 12502:1 12510:1 12518:1 12523:1 12541:1 12546:1  |EV| 
-0.070010713025428522593429647713492 877:1 3937:1 6224:1 11040:1 11107:1 11350:1 11952:1 11957:1 11968:1 12076:1 12197:1 12319:1 12502:1 12513:1 12518:1 12523:1 12536:1 12546:1  |EV| 
-0.031960732329948081387183123069917 2129:1 5292:1 8862:1 9877:1 9879:1 9884:1 9908:1 10006:1 10118:1 10143:1 10275:1 10760:1 10761:1 10762:1 10763:1 10764:1 10780:1 10781:1 10782:1 10783:1 10784:1 11091:1 11107:1 11947:1 11957:1 12011:1 12080:1 12203:1 12340:1 12502:1 12513:1 12518:1 12523:1 12546:1  |EV| 
-0.048809444543723060072615282933839 1892:1 5045:1 8609:1 9870:1 9871:1 9879:1 9908:1 10008:1 10016:1 10045:1 10047:1 10066:1 10263:1 10705:1 10706:1 10707:1 10713:1 10714:1 10715:1 10716:1 10717:1 10718:1 10719:1 10720:1 10721:1 11045:1 11107:1 11951:1 11956:1 11966:1 12145:1 12239:1 12400:1 12502:1 12510:1 12518:1 12523:1 12541:1 12546:1  |EV| 
-0.087129957424561102485860430988396 573:1 3599:1 6957:1 9871:1 9908:1 9953:1 9975:1 10006:1 10039:1 10045:1 10101:1 10150:1 10263:1 10271:1 10272:1 10273:1 10274:1 11044:1 11058:1 11107:1 11319:1 11951:1 11956:1 11990:1 12121:1 12253:1 12338:1 12502:1 12510:1 12518:1 12523:1 12541:1 12546:1  |EV| 
0.061120702236934464079975981576354 2585:1 5784:1 9365:1 9870:1 9884:1 9907:1 9908:1 9922:1 9925:1 10434:1 10714:1 10784:1 10929:1 10936:1 10937:1 11034:1 11106:1 11319:1 11952:1 11957:1 11968:1 12127:1 12208:1 12349:1 12502:1 12510:1 12518:1 12523:1 12541:1 12546:1  |EV| 
0.065941275968377927041430552890233 720:1 3759:1 7100:1 9900:1 9933:1 11049:1 11107:1 11952:1 11957:1 11990:1 12076:1 12201:1 12319:1 12502:1 12510:1 12518:1 12523:1 12541:1 12546:1  |EV| 
-0.091621092925760649894328935261001 2387:1 5574:1 9155:1 9870:1 9874:1 9877:1 9884:1 9900:1 10120:1 10218:1 10221:1 10502:1 10744:1 10851:1 10852:1 10853:1 10854:1 11044:1 11058:1 11107:1 11952:1 11957:1 11962:1 12097:1 12241:1 12334:1 12502:1 12510:1 12518:1 12523:1 12541:1 12546:1  |EV| 
0.048851796809456823900141841932054 659:1 3696:1 7026:1 9866:1 9871:1 9874:1 9879:1 9904:1 9908:1 9975:1 9981:1 9995:1 10022:1 10163:1 10275:1 10287:1 10288:1 10289:1 10298:1 11037:1 11107:1 11952:1 11957:1 12016:1 12097:1 12244:1 12327:1 12502:1 12510:1 12518:1 12523:1 12541:1 12546:1  |EV| 
-0.10000000000000000555111512312578 204:1 3205:1 6493:1 9870:1 9871:1 9900:1 9904:1 9908:1 10010:1 10028:1 10077:1 10078:1 10079:1 10080:1 10081:1 10082:1 10083:1 10084:1 10085:1 10086:1 11021:1 11107:1 11952:1 11957:1 12004:1 12084:1 12255:1 12327:1 12502:1 12510:1 12518:1 12523:1 12541:1 12546:1  |EV| 
-0.013777726874049293567803253779402 428:1 3446:1 6762:1 9870:1 9894:1 9900:1 9908:1 9915:1 9928:1 9937:1 9961:1 10047:1 10188:1 10189:1 10190:1 10191:1 10202:1 10203:1 11023:1 11107:1 11948:1 11957:1 12004:1 12079:1 12211:1 12350:1 12502:1 12510:1 12518:1 12523:1 12541:1 12546:1  |EV| 
-0.054561259817403715000061481532612 2743:1 6137:1 9755:1 9870:1 9874:1 9877:1 9900:1 9907:1 9917:1 10215:1 10450:1 10466:1 10646:1 11000:1 11001:1 11002:1 11003:1 11026:1 11107:1 11652:1 11947:1 11957:1 12007:1 12076:1 12253:1 12310:1 12502:1 12510:1 12518:1 12523:1 12541:1 12546:1  |EV| 
0.10000000000000000555111512312578 2347:1 5558:1 9140:1 9884:1 11044:1 11058:1 11107:1 11315:1 11950:1 11957:1 11963:1 12097:1 12193:1 12316:1 12502:1 12510:1 12518:1 12523:1 12541:1 12546:1  |EV| 
0.10000000000000000555111512312578 2651:1 5851:1 9434:1 9877:1 9884:1 9900:1 10006:1 10221:1 10396:1 10397:1 10398:1 10399:1 10400:1 10401:1 10402:1 10969:1 11026:1 11107:1 11952:1 11957:1 11976:1 12075:1 12240:1 12324:1 12502:1 12513:1 12518:1 12523:1 12541:1 12546:1  |EV| 
0.10000000000000000555111512312578 83:1 3069:1 6335:1 9870:1 9871:1 9908:1 9919:1 9970:1 9971:1 9972:1 9973:1 9974:1 9975:1 9976:1 11027:1 11107:1 11319:1 11952:1 11957:1 11968:1 12123:1 12241:1 12318:1 12502:1 12510:1 12518:1 12523:1 12541:1 12546:1  |EV| 
0.10000000000000000555111512312578 573:1 3599:1 6898:1 9871:1 9908:1 9975:1 10006:1 10039:1 10045:1 10101:1 10150:1 10271:1 10272:1 10273:1 10274:1 11044:1 11058:1 11107:1 11947:1 11957:1 12008:1 12076:1 12253:1 12310:1 12502:1 12510:1 12518:1 12523:1 12541:1 12546:1  |EV| 
0.10000000000000000555111512312578 2130:1 5293:1 8863:1 9865:1 9877:1 9879:1 9884:1 9908:1 10006:1 10128:1 10143:1 10163:1 10275:1 10760:1 10761:1 10762:1 10763:1 10764:1 10780:1 10781:1 10782:1 11045:1 11107:1 11274:1 11479:1 11669:1 11909:1 11947:1 11957:1 12021:1 12094:1 12250:1 12340:1 12502:1 12513:1 12518:1 12523:1 12541:1 12546:1  |EV| 
-0.01111938628146092594706217937528 595:1 3622:1 6921:1 9871:1 9884:1 9904:1 9908:1 9953:1 9975:1 10006:1 10039:1 10045:1 10101:1 10117:1 10136:1 10150:1 10263:1 10271:1 10272:1 10273:1 10274:1 11033:1 11107:1 11950:1 11957:1 12008:1 12138:1 12211:1 12353:1 12502:1 12510:1 12518:1 12523:1 12541:1 12546:1  |EV| 
0.018714678880922666626140937751188 2424:1 5614:1 6926:1 9879:1 10068:1 11045:1 11107:1 11952:1 11957:1 11990:1 12076:1 12201:1 12319:1 12502:1 12510:1 12518:1 12523:1 12541:1 12546:1  |EV| 
0.10000000000000000555111512312578 2504:1 5698:1 9272:1 9870:1 9873:1 9874:1 9884:1 9894:1 9900:1 9908:1 9951:1 10008:1 10026:1 10078:1 10184:1 10433:1 10860:1 10911:1 10912:1 10913:1 10914:1 11040:1 11107:1 11952:1 11957:1 12017:1 12076:1 12255:1 12337:1 12502:1 12510:1 12518:1 12523:1 12541:1 12546:1  |EV| 
0.10000000000000000555111512312578 1505:1 4603:1 8139:1 9870:1 9871:1 9904:1 10011:1 10014:1 10179:1 10435:1 10436:1 10501:1 10570:1 10571:1 11045:1 11107:1 11947:1 11957:1 12006:1 12076:1 12243:1 12310:1 12502:1 12510:1 12518:1 12523:1 12541:1 12546:1  |EV| 
0.093528789790838576245768365424738 440:1 3460:1 6748:1 9870:1 9871:1 9874:1 9900:1 9908:1 9972:1 9976:1 10014:1 10075:1 10102:1 10116:1 10129:1 10179:1 10187:1 10192:1 10193:1 11026:1 11107:1 11952:1 11957:1 12014:1 12076:1 12247:1 12337:1 12502:1 12510:1 12518:1 12523:1 12541:1 12546:1  |EV| 
-0.099660034526915103336719425897172 439:1 3459:1 6747:1 9870:1 9871:1 9874:1 9900:1 9908:1 9972:1 9976:1 10014:1 10075:1 10116:1 10129:1 10179:1 10187:1 10192:1 10193:1 10194:1 11026:1 11107:1 11319:1 11952:1 11957:1 11968:1 12138:1 12247:1 12349:1 12502:1 12510:1 12518:1 12523:1 12541:1 12546:1  |EV| 
0.0068772725490035355871976108232957 1234:1 4321:1 7829:1 10021:1 10121:1 10518:1 11076:1 11107:1 11319:1 11952:1 11957:1 11966:1 12097:1 12211:1 12319:1 12502:1 12510:1 12518:1 12523:1 12541:1 12546:1  |EV| 
-0.015557594279675599630019533492487 2805:1 6014:1 9602:1 9866:1 9870:1 9871:1 9885:1 9908:1 9928:1 10153:1 10618:1 10906:1 10930:1 10988:1 11036:1 11107:1 11950:1 11957:1 11970:1 12123:1 12201:1 12339:1 12502:1 12510:1 12518:1 12523:1 12541:1 12546:1  |EV| 
-0.021846442482588348393823807214176 1946:1 5105:1 8665:1 9871:1 9879:1 9904:1 9908:1 9970:1 10101:1 10325:1 10723:1 10728:1 11085:1 11107:1 11319:1 11952:1 11957:1 11968:1 12087:1 12209:1 12318:1 12502:1 12510:1 12518:1 12523:1 12541:1 12546:1  |EV| 
-0.029604455092420170481126717731968 1199:1 4268:1 7749:1 9870:1 9871:1 9879:1 9884:1 9908:1 9970:1 10085:1 10114:1 10325:1 10481:1 10497:1 10498:1 11059:1 11107:1 11952:1 11957:1 12015:1 12111:1 12195:1 12324:1 12502:1 12510:1 12518:1 12523:1 12541:1 12546:1  |EV| 
0.0079807392155306997733044127585345 2122:1 5285:1 8855:1 9877:1 9879:1 9884:1 9908:1 10006:1 10118:1 10143:1 10275:1 10760:1 10761:1 10762:1 10763:1 10764:1 10780:1 10781:1 10782:1 11091:1 11107:1 11275:1 11276:1 11277:1 11479:1 11743:1 11744:1 11745:1 11905:1 11906:1 11907:1 11947:1 11957:1 12021:1 12080:1 12238:1 12340:1 12502:1 12513:1 12518:1 12523:1 12541:1 12546:1  |EV| 
0.073785993896216539589261174114654 51:1 3034:1 8717:1 9883:1 9894:1 9908:1 9976:1 9978:1 10071:1 10090:1 10738:1 11026:1 11107:1 11319:1 11952:1 11957:1 11966:1 12119:1 12220:1 12324:1 12502:1 12510:1 12518:1 12523:1 12541:1 12546:1  |EV| 
-0.012039079876229621252070600689876 2058:1 5221:1 8782:1 9870:1 9879:1 9880:1 9881:1 9883:1 9894:1 9908:1 9925:1 10071:1 10090:1 10738:1 11027:1 11107:1 11576:1 11947:1 11957:1 11961:1 12097:1 12235:1 12310:1 12502:1 12512:1 12518:1 12523:1 12538:1 12546:1  |EV| 
0.10000000000000000555111512312578 81:1 3064:1 6330:1 9870:1 9871:1 9908:1 9919:1 9970:1 9971:1 9972:1 9973:1 9974:1 9975:1 9976:1 9978:1 9979:1 11034:1 11107:1 11319:1 11952:1 11957:1 11968:1 12127:1 12208:1 12349:1 12502:1 12510:1 12518:1 12523:1 12541:1 12546:1  |EV| 
0.10000000000000000555111512312578 1352:1 4440:1 7967:1 9870:1 9871:1 10179:1 10435:1 10436:1 10570:1 10571:1 11040:1 11107:1 11947:1 11957:1 11971:1 12097:1 12199:1 12309:1 12502:1 12510:1 12518:1 12523:1 12541:1 12546:1  |EV| 
-0.078799487132313106307890393509297 1445:1 4562:1 8092:1 9870:1 9871:1 10011:1 10014:1 10118:1 10179:1 10435:1 10436:1 10501:1 10570:1 10571:1 11040:1 11107:1 11947:1 11957:1 12006:1 12088:1 12199:1 12335:1 12502:1 12510:1 12518:1 12523:1 12541:1 12546:1  |EV| 
-0.076422349998756439193314804469992 657:1 3694:1 7024:1 9908:1 10022:1 10310:1 11037:1 11107:1 11317:1 11947:1 11957:1 11977:1 12076:1 12198:1 12309:1 12502:1 12510:1 12518:1 12523:1 12542:1 12546:1  |EV| 
-0.055616971272645435164783123127563 114:1 3100:1 6377:1 9870:1 9871:1 9908:1 9919:1 9970:1 9971:1 9972:1 9973:1 9974:1 9975:1 9976:1 9987:1 9988:1 11027:1 11107:1 11950:1 11957:1 11980:1 12129:1 12241:1 12344:1 12502:1 12510:1 12518:1 12523:1 12541:1 12546:1  |EV| 
-0.10000000000000000555111512312578 325:1 3335:1 6617:1 9869:1 9951:1 9953:1 10066:1 10134:1 10135:1 10136:1 11047:1 11107:1 11319:1 11952:1 11957:1 11990:1 12075:1 12205:1 12319:1 12502:1 12510:1 12518:1 12523:1 12541:1 12546:1  |EV| 
-0.056611898196395830928917547453239 483:1 4037:1 7779:1 9870:1 9871:1 9879:1 9884:1 9908:1 9962:1 9970:1 10114:1 10325:1 10328:1 10481:1 10497:1 10498:1 11026:1 11107:1 11319:1 11952:1 11957:1 11968:1 12078:1 12240:1 12318:1 12502:1 12510:1 12518:1 12523:1 12541:1 12546:1  |EV| 
-0.076911298323194404735758666902257 1844:1 4992:1 8554:1 9978:1 10346:1 11026:1 11107:1 11319:1 11952:1 11957:1 11968:1 12097:1 12201:1 12319:1 12502:1 12510:1 12518:1 12523:1 12546:1  |EV| 
0.10000000000000000555111512312578 322:1 3397:1 6675:1 9870:1 9998:1 10112:1 11036:1 11107:1 11947:1 11957:1 11977:1 12080:1 12224:1 12309:1 12502:1 12510:1 12518:1 12523:1 12541:1 12546:1  |EV| 
0.10000000000000000555111512312578 1325:1 4413:1 7934:1 9870:1 9908:1 9970:1 10021:1 10429:1 11037:1 11107:1 11947:1 11957:1 11994:1 12097:1 12198:1 12309:1 12502:1 12510:1 12518:1 12523:1 12541:1 12546:1  |EV| 
-0.043021532315143100333454384553988 2761:1 5968:1 9554:1 9879:1 9900:1 9908:1 10345:1 10988:1 10993:1 10994:1 11036:1 11107:1 11315:1 11947:1 11957:1 11971:1 12097:1 12199:1 12309:1 12502:1 12513:1 12518:1 12523:1 12541:1 12543:1 12546:1  |EV| 
-0.066185671059956777129151817007369 340:1 3351:1 6635:1 9908:1 9990:1 10119:1 10120:1 10121:1 11045:1 11107:1 11947:1 11957:1 11994:1 12076:1 12199:1 12309:1 12502:1 12510:1 12518:1 12523:1 12541:1 12546:1  |EV| 
-0.06841919421992871674920166924494 708:1 3747:1 7089:1 9870:1 9908:1 9990:1 10066:1 10119:1 10231:1 10334:1 11030:1 11062:1 11063:1 11064:1 11065:1 11107:1 11319:1 11952:1 11957:1 11968:1 12119:1 12205:1 12319:1 12502:1 12510:1 12518:1 12523:1 12541:1 12546:1  |EV| 
-0.0614042368517614817191585530054 959:1 4022:1 7500:1 9904:1 9985:1 10225:1 10231:1 10275:1 10301:1 11036:1 11107:1 11319:1 11952:1 11957:1 11968:1 12111:1 12236:1 12319:1 12502:1 12510:1 12518:1 12523:1 12527:1 12541:1  |EV| 
0.096903241865610376115647284223087 152:1 3139:1 6426:1 9870:1 9871:1 9879:1 9993:1 9994:1 9995:1 9996:1 9997:1 9998:1 9999:1 10000:1 10006:1 11021:1 11107:1 11947:1 11957:1 12006:1 12076:1 12243:1 12310:1 12502:1 12510:1 12518:1 12523:1 12541:1 12546:1  |EV| 
-0.032514692671432914028439853382224 1277:1 4365:1 7956:1 9871:1 9874:1 9884:1 9908:1 9910:1 9911:1 9939:1 10006:1 10025:1 10160:1 10177:1 10209:1 10221:1 10284:1 10519:1 10522:1 10523:1 10549:1 10550:1 10551:1 10552:1 11024:1 11107:1 11502:1 11949:1 11957:1 12021:1 12081:1 12262:1 12368:1 12502:1 12510:1 12518:1 12523:1 12541:1 12546:1  |EV| 
0.094230320503356224115520944906166 1934:1 5093:1 8653:1 9871:1 9879:1 9908:1 10095:1 10114:1 10118:1 10322:1 11034:1 11088:1 11107:1 11952:1 11957:1 11990:1 12075:1 12205:1 12319:1 12502:1 12510:1 12518:1 12523:1 12541:1 12546:1  |EV| 
-0.10000000000000000555111512312578 178:1 3175:1 6466:1 9870:1 9908:1 9919:1 9931:1 9979:1 10033:1 10034:1 10041:1 11025:1 11107:1 11952:1 11957:1 11990:1 12111:1 12220:1 12324:1 12502:1 12510:1 12518:1 12523:1 12541:1 12546:1  |EV| 
-0.053816811127858854568728474987438 477:1 3498:1 6790:1 9870:1 9957:1 10132:1 10224:1 10225:1 10226:1 11022:1 11107:1 11398:1 11948:1 11957:1 12000:1 12081:1 12201:1 12311:1 12502:1 12510:1 12518:1 12523:1 12541:1 12546:1  |EV| 
-0.073598852230480737990347961385851 319:1 3328:1 6610:1 11046:1 11107:1 11152:1 11319:1 11685:1 11797:1 11951:1 11956:1 11968:1 12083:1 12202:1 12315:1 12502:1 12510:1 12518:1 12523:1 12541:1 12546:1  |EV| 
-0.055128299919040391063873585153488 2743:1 5948:1 9681:1 9866:1 9870:1 9871:1 9879:1 9886:1 9890:1 9976:1 9992:1 10039:1 10068:1 10646:1 10804:1 10989:1 10990:1 10991:1 10992:1 11026:1 11107:1 11952:1 11957:1 12016:1 12076:1 12215:1 12334:1 12502:1 12510:1 12518:1 12523:1 12541:1 12546:1  |EV| 
-0.10000000000000000555111512312578 793:1 3850:1 7281:1 9870:1 9879:1 9904:1 9907:1 9908:1 9922:1 9978:1 9985:1 10014:1 10073:1 10095:1 10184:1 10219:1 10225:1 10257:1 10275:1 10330:1 10343:1 10344:1 10347:1 10350:1 10351:1 10355:1 11027:1 11107:1 11952:1 11957:1 11969:1 12111:1 12266:1 12327:1 12502:1 12510:1 12518:1 12523:1 12541:1 12546:1  |EV| 
-0.10000000000000000555111512312578 2002:1 5164:1 8723:1 9870:1 9879:1 9984:1 10377:1 11026:1 11107:1 11950:1 11957:1 11967:1 12075:1 12197:1 12316:1 12502:1 12510:1 12518:1 12523:1 12541:1 12546:1  |EV| 
0.10000000000000000555111512312578 80:1 3063:1 6337:1 9870:1 9908:1 9970:1 9971:1 9972:1 11025:1 11107:1 11319:1 11952:1 11957:1 11968:1 12111:1 12236:1 12319:1 12502:1 12510:1 12518:1 12523:1 12541:1 12546:1  |EV| 
0.10000000000000000555111512312578 189:1 3189:1 6483:1 9870:1 9875:1 9908:1 9919:1 9979:1 10033:1 10034:1 10041:1 11025:1 11107:1 11952:1 11957:1 11976:1 12076:1 12220:1 12324:1 12502:1 12510:1 12518:1 12523:1 12541:1 12546:1  |EV| 
-0.052171900620045681684633365193804 554:1 3579:1 6872:1 9870:1 9871:1 9874:1 9879:1 9883:1 9894:1 9900:1 9907:1 9908:1 9922:1 10039:1 10045:1 10059:1 10166:1 10232:1 10233:1 10234:1 10235:1 10236:1 10237:1 10238:1 10239:1 10240:1 10241:1 10278:1 11026:1 11107:1 11952:1 11957:1 11964:1 12149:1 12274:1 12378:1 12502:1 12510:1 12518:1 12523:1 12541:1 12546:1  |EV| 
-0.0075141391673440947190920624620958 1603:1 4737:1 6423:1 9870:1 11033:1 11107:1 11523:1 11952:1 11957:1 11966:1 12076:1 12214:1 12319:1 12502:1 12512:1 12518:1 12523:1 12546:1  |EV| 
-0.021098539601886900918259470927296 942:1 4005:1 7484:1 9870:1 10306:1 10412:1 11026:1 11107:1 11446:1 11447:1 11952:1 11957:1 11964:1 12076:1 12211:1 12319:1 12502:1 12512:1 12518:1 12523:1 12537:1 12546:1  |EV| 
-0.0098883271496483654550146980000136 382:1 3400:1 6677:1 9870:1 9871:1 9874:1 9879:1 9884:1 9908:1 9951:1 10070:1 10089:1 10151:1 10152:1 10153:1 10154:1 10155:1 10156:1 10157:1 10158:1 10159:1 10160:1 11023:1 11107:1 11951:1 11956:1 12005:1 12142:1 12249:1 12360:1 12502:1 12510:1 12518:1 12523:1 12541:1 12546:1  |EV| 
-0.061019586016388828453305137600182 1333:1 4421:1 7942:1 9870:1 9871:1 9908:1 9928:1 9978:1 9980:1 10528:1 10538:1 11066:1 11107:1 11950:1 11957:1 12002:1 12103:1 12197:1 12313:1 12502:1 12510:1 12518:1 12523:1 12541:1 12546:1  |EV| 
0.040500113627491687862125502306299 2446:1 5637:1 9213:1 9870:1 9877:1 9879:1 9900:1 10139:1 10158:1 10175:1 10177:1 10191:1 10853:1 10895:1 10896:1 10905:1 11026:1 11107:1 11952:1 11957:1 12009:1 12076:1 12240:1 12334:1 12502:1 12510:1 12518:1 12523:1 12541:1 12546:1  |EV| 
-0.061454444042786583735082928114934 1148:1 4213:1 7753:1 9870:1 9871:1 9879:1 9884:1 9908:1 9970:1 10085:1 10114:1 10325:1 10328:1 10481:1 10497:1 10498:1 11026:1 11107:1 11952:1 11957:1 12015:1 12119:1 12240:1 12324:1 12502:1 12510:1 12518:1 12523:1 12541:1 12546:1  |EV| 
0.012727105294952356651094760309206 1198:1 4267:1 7748:1 9979:1 11026:1 11107:1 11319:1 11952:1 11957:1 11968:1 12080:1 12214:1 12319:1 12502:1 12513:1 12518:1 12523:1 12541:1 12546:1  |EV| 
-0.010418955775640850736074582982837 1508:1 4607:1 8143:1 9871:1 10014:1 10570:1 11040:1 11107:1 11422:1 11952:1 11957:1 11990:1 12097:1 12192:1 12319:1 12502:1 12512:1 12518:1 12523:1 12536:1 12539:1 12546:1  |EV| 
-0.09154563337907262177139955383609 2028:1 5190:1 8750:1 9884:1 9900:1 9904:1 9908:1 10179:1 11039:1 11106:1 11709:1 11894:1 11947:1 11957:1 11994:1 12080:1 12194:1 12309:1 12502:1 12510:1 12518:1 12523:1 12541:1 12546:1  |EV| 
-0.03856642769025613037836563989913 565:1 3590:1 6885:1 10016:1 10163:1 10242:1 10243:1 11023:1 11107:1 11947:1 11957:1 11958:1 12076:1 12194:1 12309:1 12502:1 12510:1 12518:1 12523:1 12546:1  |EV| 
-0.068448072786331012884453173228394 1661:1 4798:1 8348:1 9870:1 9907:1 9908:1 9922:1 9985:1 10199:1 10433:1 10613:1 10615:1 10616:1 11034:1 11107:1 11952:1 11957:1 11965:1 12075:1 12209:1 12324:1 12502:1 12510:1 12518:1 12523:1 12541:1 12546:1  |EV| 
-0.089730680196010159654917970328825 2100:1 5263:1 8837:1 10773:1 11026:1 11107:1 11584:1 11952:1 11957:1 11966:1 12076:1 12214:1 12319:1 12502:1 12510:1 12518:1 12523:1 12546:1  |EV| 
-0.10000000000000000555111512312578 371:1 5462:1 9044:1 9870:1 9871:1 9908:1 10816:1 10817:1 11045:1 11107:1 11947:1 11957:1 11994:1 12076:1 12199:1 12309:1 12502:1 12510:1 12518:1 12523:1 12541:1 12546:1  |EV| 
0.08585278736795082243915544495394 897:1 3960:1 7444:1 9879:1 9883:1 9900:1 10073:1 10095:1 10374:1 10375:1 10376:1 10384:1 11067:1 11107:1 11952:1 11957:1 11964:1 12111:1 12204:1 12324:1 12502:1 12510:1 12518:1 12523:1 12541:1 12546:1  |EV| 
0.074596180722717148059430769535538 2317:1 5502:1 9088:1 9870:1 9871:1 9874:1 10012:1 10197:1 10287:1 10843:1 11028:1 11107:1 11952:1 11957:1 12015:1 12097:1 12220:1 12324:1 12502:1 12510:1 12518:1 12523:1 12541:1 12546:1  |EV| 
0.033359052936846364523226782239362 676:1 3714:1 7047:1 9871:1 10323:1 10324:1 10328:1 11026:1 11107:1 11952:1 11957:1 11964:1 12080:1 12192:1 12319:1 12502:1 12510:1 12518:1 12523:1 12527:1 12541:1 12546:1  |EV| 
0.069617315678752275664997739568207 178:1 3175:1 6461:1 9979:1 10033:1 10034:1 11025:1 11107:1 11952:1 11957:1 11990:1 12080:1 12211:1 12319:1 12502:1 12510:1 12518:1 12523:1 12541:1 12546:1  |EV| 
0.025373794925333318511784241877649 638:1 3670:1 6989:1 9871:1 10019:1 10139:1 10143:1 10297:1 10307:1 10308:1 10309:1 11037:1 11107:1 11952:1 11957:1 12000:1 12080:1 12220:1 12324:1 12502:1 12510:1 12518:1 12523:1 12527:1 12538:1 12541:1 12546:1  |EV| 
-0.04408002973718780359568825133465 495:1 3516:1 6807:1 9870:1 9874:1 9964:1 10006:1 10132:1 10224:1 10225:1 10226:1 10227:1 10228:1 10229:1 10230:1 11026:1 11107:1 11952:1 11957:1 11990:1 12092:1 12240:1 12318:1 12502:1 12510:1 12518:1 12523:1 12541:1 12546:1  |EV| 
-0.069082046211227474130645020977681 72:1 3054:1 6319:1 11028:1 11107:1 11317:1 11950:1 11957:1 11959:1 12080:1 12193:1 12316:1 12502:1 12510:1 12518:1 12523:1 12546:1  |EV| 
-0.050752360531535228860278152751562 233:1 3235:1 6522:1 9871:1 9876:1 9879:1 9893:1 9900:1 10006:1 10072:1 10095:1 10104:1 11039:1 11107:1 11948:1 11957:1 12001:1 12107:1 12236:1 12333:1 12502:1 12510:1 12518:1 12523:1 12541:1 12546:1  |EV| 
-0.035999304004121240874169984635955 1974:1 5135:1 8720:1 9879:1 9884:1 9900:1 9904:1 9908:1 9915:1 9937:1 9954:1 10064:1 10090:1 10179:1 10282:1 10295:1 10635:1 10751:1 11049:1 11107:1 11952:1 11957:1 11976:1 12088:1 12215:1 12324:1 12502:1 12510:1 12518:1 12523:1 12541:1 12546:1  |EV| 
0.096460499807431640539867601091828 1020:1 4085:1 7560:1 9870:1 9871:1 9879:1 9904:1 9908:1 10440:1 10441:1 10442:1 10443:1 10444:1 10445:1 11028:1 11107:1 11326:1 11947:1 11957:1 11985:1 12076:1 12218:1 12310:1 12502:1 12510:1 12518:1 12523:1 12541:1 12546:1  |EV| 
0.058615782023389184640649318680516 671:1 3709:1 6224:1 11060:1 11107:1 11420:1 11952:1 11957:1 11968:1 12076:1 12197:1 12319:1 12502:1 12510:1 12518:1 12523:1 12541:1 12546:1  |EV| 
-0.10000000000000000555111512312578 1038:1 4103:1 7578:1 9870:1 9871:1 9879:1 9900:1 9904:1 9908:1 9954:1 10282:1 10439:1 10440:1 10441:1 10442:1 10443:1 10444:1 10445:1 11028:1 11107:1 11947:1 11957:1 12008:1 12094:1 12218:1 12310:1 12502:1 12510:1 12518:1 12541:1 12546:1  |EV| 
-0.10000000000000000555111512312578 322:1 5580:1 6224:1 11036:1 11107:1 11386:1 11952:1 11957:1 11968:1 12076:1 12197:1 12319:1 12502:1 12510:1 12518:1 12523:1 12546:1  |EV| 
-0.04952897220111145137888541967186 1249:1 4336:1 7841:1 9870:1 9871:1 9908:1 10221:1 10519:1 10525:1 10526:1 10527:1 11025:1 11107:1 11326:1 11947:1 11957:1 11986:1 12076:1 12210:1 12335:1 12502:1 12510:1 12518:1 12523:1 12541:1 12546:1  |EV| 
-0.018816683524164892760133227511687 102:1 3088:1 6363:1 9870:1 9871:1 9900:1 9965:1 9966:1 9967:1 9968:1 11022:1 11107:1 11346:1 11947:1 11957:1 11986:1 12076:1 12210:1 12335:1 12502:1 12510:1 12518:1 12523:1 12541:1 12546:1  |EV| 
0.05115529829736469719092539776284 483:1 4037:1 7514:1 9907:1 9908:1 9922:1 10006:1 10425:1 10426:1 10427:1 11026:1 11107:1 11319:1 11952:1 11957:1 11968:1 12119:1 12205:1 12319:1 12502:1 12510:1 12518:1 12523:1 12541:1 12546:1  |EV| 
0.058917469718079221174811266337201 627:1 3658:1 6969:1 9871:1 9874:1 9879:1 9894:1 9900:1 9907:1 9908:1 9922:1 10039:1 10045:1 10059:1 10166:1 10232:1 10233:1 10234:1 10235:1 10236:1 10237:1 10238:1 10278:1 10279:1 11023:1 11107:1 11952:1 11957:1 12018:1 12076:1 12254:1 12337:1 12502:1 12510:1 12518:1 12523:1 12541:1 12546:1  |EV| 
-0.047038366764028401167951898287356 1352:1 4469:1 7999:1 9870:1 9996:1 10179:1 10435:1 10436:1 10571:1 11040:1 11107:1 11319:1 11951:1 11956:1 11966:1 12117:1 12199:1 12315:1 12502:1 12510:1 12518:1 12523:1 12541:1 12546:1  |EV| 
0.071073065172041843817751782808045 129:1 3115:1 6399:1 9870:1 9876:1 9963:1 11028:1 11107:1 11114:1 11332:1 11658:1 11772:1 11952:1 11957:1 11990:1 12080:1 12211:1 12319:1 12502:1 12510:1 12518:1 12523:1 12541:1 12546:1  |EV| 
-0.10000000000000000555111512312578 666:1 3704:1 7337:1 9870:1 9904:1 10054:1 10327:1 11026:1 11107:1 11311:1 11947:1 11957:1 11958:1 12080:1 12198:1 12309:1 12502:1 12510:1 12518:1 12523:1 12541:1 12546:1  |EV| 
