SVM-light Version V5.01-TK-1.5
0 # kernel type
3 # kernel parameter -d 
1 # kernel parameter -g 
1 # kernel parameter -s 
1 # kernel parameter -r 
empty# kernel parameter -u 
0.4 # kernel parameter -L 
1 # kernel parameter -T 
T # kernel parameter -C 
1 # kernel parameter -F 
0 # kernel parameter -S 
0.400000 # kernel parameter -M 
3 # kernel parameter -N 
S # kernel parameter -V 
S # kernel parameter -W 
0 # kernel parameter -U 
40799 # highest feature index 
13688 # number of training documents 
186 # number of support vectors plus 1 
3.0169384 # threshold b, each following line is a SV (starting with alpha*y)
-0.047454031029624844928438420765815 9226:1 20395:1 33555:1 35103:1 36304:1 36929:1 37925:1 40034:1 40040:1 40085:1 40211:1 40328:1 40488:1 40753:1 40761:1 40766:1 40771:1 40786:1 40792:1 40797:1  |EV| 
-0.018730197999118822910213921772993 283:1 10386:1 21817:1 34722:1 34729:1 34845:1 34859:1 34860:1 34862:1 36304:1 36929:1 40033:1 40040:1 40042:1 40224:1 40333:1 40497:1 40753:1 40761:1 40766:1 40771:1 40786:1 40793:1  |EV| 
-0.014268454361198839794311332695997 4710:1 15876:1 28418:1 34722:1 34810:1 34882:1 36614:1 36615:1 36929:1 37925:1 40034:1 40040:1 40060:1 40185:1 40380:1 40488:1 40753:1 40761:1 40769:1 40771:1 40786:1 40792:1 40797:1  |EV| 
0.10000000000000000555111512312578 8670:1 19814:1 32912:1 34722:1 34729:1 35060:1 36124:1 36125:1 36651:1 36930:1 38105:1 40034:1 40040:1 40067:1 40185:1 40330:1 40488:1 40753:1 40762:1 40766:1 40771:1 40786:1 40792:1 40793:1  |EV| 
0.10000000000000000555111512312578 7518:1 18568:1 31474:1 34722:1 34729:1 34730:1 34862:1 34863:1 35060:1 35062:1 35925:1 35982:1 35983:1 35984:1 35985:1 36689:1 36792:1 36929:1 40034:1 40040:1 40095:1 40206:1 40365:1 40501:1 40753:1 40761:1 40766:1 40771:1 40786:1 40792:1 40793:1  |EV| 
0.10000000000000000555111512312578 35:1 10075:1 21375:1 34722:1 34723:1 34724:1 34725:1 34726:1 34727:1 34728:1 34729:1 34730:1 34732:1 34740:1 34817:1 36272:1 36273:1 36929:1 40034:1 40040:1 40053:1 40185:1 40365:1 40501:1 40753:1 40761:1 40766:1 40771:1 40786:1 40792:1 40793:1  |EV| 
0.10000000000000000555111512312578 34:1 10074:1 21491:1 34732:1 36271:1 36929:1 37925:1 40034:1 40040:1 40085:1 40211:1 40328:1 40488:1 40753:1 40761:1 40766:1 40771:1 40786:1 40792:1 40793:1 40794:1  |EV| 
0.10000000000000000555111512312578 118:1 10176:1 21523:1 34722:1 34723:1 34724:1 34725:1 34726:1 34727:1 34728:1 36280:1 36929:1 37925:1 40034:1 40040:1 40085:1 40187:1 40367:1 40488:1 40753:1 40761:1 40766:1 40771:1 40786:1 40792:1 40793:1  |EV| 
0.10000000000000000555111512312578 116:1 10216:1 21579:1 34719:1 34720:1 34722:1 34723:1 34724:1 34725:1 34726:1 34727:1 34728:1 34729:1 34730:1 34731:1 34732:1 34740:1 34817:1 36271:1 36929:1 40034:1 40040:1 40050:1 40207:1 40369:1 40501:1 40753:1 40761:1 40766:1 40771:1 40786:1 40792:1 40793:1 40794:1  |EV| 
0.10000000000000000555111512312578 258:1 10351:1 21770:1 34722:1 34859:1 34860:1 36304:1 36929:1 37925:1 40034:1 40040:1 40085:1 40237:1 40333:1 40488:1 40753:1 40761:1 40766:1 40771:1 40786:1 40793:1  |EV| 
-0.10000000000000000555111512312578 3897:1 14416:1 26709:1 34722:1 34729:1 34740:1 34772:1 34859:1 35572:1 35602:1 36373:1 36929:1 37925:1 40034:1 40040:1 40085:1 40187:1 40367:1 40488:1 40753:1 40761:1 40766:1 40771:1 40786:1 40792:1 40793:1  |EV| 
-0.068125310498669613967770430917881 258:1 10351:1 31436:1 34722:1 35062:1 35925:1 35982:1 35983:1 35984:1 36304:1 36929:1 37925:1 40034:1 40040:1 40085:1 40187:1 40367:1 40488:1 40753:1 40761:1 40766:1 40771:1 40786:1 40792:1  |EV| 
-0.10000000000000000555111512312578 34:1 10074:1 21374:1 34719:1 34720:1 34722:1 34723:1 34724:1 34725:1 34726:1 34727:1 34728:1 34729:1 34730:1 34732:1 34733:1 34740:1 34817:1 36271:1 36929:1 40034:1 40040:1 40053:1 40194:1 40369:1 40501:1 40753:1 40761:1 40766:1 40771:1 40786:1 40792:1 40793:1 40794:1  |EV| 
-0.012030979871495643684919940596956 5786:1 16661:1 24649:1 34722:1 34772:1 36525:1 36929:1 37925:1 40034:1 40040:1 40085:1 40185:1 40349:1 40488:1 40753:1 40761:1 40766:1 40771:1 40786:1 40792:1 40794:1 40797:1  |EV| 
-0.064154333599915167041238817091653 2011:1 12444:1 24219:1 35226:1 36426:1 36929:1 37925:1 40034:1 40040:1 40085:1 40211:1 40328:1 40488:1 40753:1 40761:1 40766:1 40771:1 40774:1 40786:1 40792:1 40794:1  |EV| 
0.10000000000000000555111512312578 5774:1 16595:1 29262:1 34721:1 34722:1 34753:1 34837:1 34914:1 35772:1 35773:1 36660:1 36929:1 37129:1 37929:1 38479:1 39475:1 40034:1 40040:1 40060:1 40194:1 40367:1 40488:1 40753:1 40760:1 40769:1 40771:1 40782:1 40786:1 40793:1 40795:1  |EV| 
0.10000000000000000555111512312578 4078:1 14634:1 26946:1 34716:1 34722:1 34729:1 34762:1 34837:1 35582:1 35584:1 35585:1 35586:1 35587:1 36571:1 36929:1 40034:1 40040:1 40090:1 40185:1 40379:1 40473:1 40753:1 40763:1 40766:1 40771:1 40782:1 40786:1 40792:1 40793:1 40794:1  |EV| 
0.10000000000000000555111512312578 3502:1 17125:1 29835:1 34729:1 34754:1 34792:1 34860:1 34892:1 34910:1 35795:1 35796:1 36313:1 36929:1 40032:1 40040:1 40041:1 40237:1 40353:1 40470:1 40753:1 40761:1 40769:1 40771:1 40774:1 40786:1 40792:1 40793:1  |EV| 
0.10000000000000000555111512312578 1070:1 11330:1 22820:1 34721:1 34722:1 34729:1 34732:1 35111:1 35112:1 36389:1 36929:1 40032:1 40040:1 40044:1 40185:1 40353:1 40484:1 40753:1 40761:1 40766:1 40771:1 40786:1 40792:1 40793:1 40794:1  |EV| 
0.10000000000000000555111512312578 9000:1 20167:1 33313:1 34722:1 34729:1 34753:1 34784:1 34914:1 34986:1 35060:1 35949:1 36161:1 36177:1 36178:1 36179:1 36884:1 36929:1 40034:1 40040:1 40072:1 40190:1 40332:1 40473:1 40753:1 40763:1 40766:1 40771:1 40786:1 40792:1 40793:1 40794:1  |EV| 
-0.010352974341532742222349305905027 5804:1 16627:1 29293:1 34721:1 34722:1 34732:1 34753:1 34754:1 34837:1 34881:1 34914:1 35768:1 35772:1 35773:1 36660:1 36930:1 37491:1 38197:1 38644:1 39493:1 40034:1 40040:1 40072:1 40194:1 40365:1 40473:1 40753:1 40762:1 40769:1 40771:1 40784:1 40793:1 40795:1  |EV| 
-0.025986300968471813532811864888572 5853:1 16726:1 29388:1 34721:1 34722:1 34729:1 34732:1 34734:1 34749:1 34753:1 34754:1 34772:1 34837:1 34881:1 34914:1 34946:1 34987:1 35217:1 35466:1 35481:1 35768:1 35769:1 35772:1 35773:1 36660:1 36929:1 40034:1 40040:1 40078:1 40194:1 40363:1 40533:1 40753:1 40761:1 40769:1 40771:1 40786:1 40793:1 40795:1  |EV| 
-0.013968801525960528042702435413958 5933:1 16773:1 29435:1 34721:1 34722:1 34753:1 34754:1 34837:1 34881:1 34914:1 35772:1 35773:1 36660:1 36929:1 37532:1 37952:1 38548:1 39491:1 40034:1 40040:1 40067:1 40194:1 40372:1 40473:1 40753:1 40761:1 40769:1 40771:1 40784:1 40793:1 40795:1  |EV| 
-0.0022716398758575451211072504520416 9001:1 20168:1 33314:1 34721:1 34722:1 34729:1 34753:1 34784:1 34914:1 34986:1 35060:1 35949:1 36161:1 36177:1 36178:1 36179:1 36180:1 36300:1 36929:1 40034:1 40040:1 40072:1 40224:1 40406:1 40473:1 40753:1 40763:1 40766:1 40771:1 40786:1 40792:1  |EV| 
-0.037608352640940451161455371220654 4165:1 14753:1 27093:1 34716:1 34722:1 34729:1 34762:1 34837:1 35582:1 35586:1 35587:1 36571:1 36929:1 36999:1 37929:1 38401:1 39329:1 40034:1 40040:1 40072:1 40185:1 40383:1 40473:1 40753:1 40763:1 40766:1 40771:1 40792:1 40793:1 40794:1  |EV| 
0.10000000000000000555111512312578 6572:1 17549:1 30309:1 34730:1 35853:1 35854:1 36710:1 36929:1 37925:1 40034:1 40040:1 40085:1 40206:1 40380:1 40488:1 40753:1 40761:1 40766:1 40771:1 40786:1 40793:1  |EV| 
0.092385606722467192297720828264573 2152:1 12597:1 24461:1 34872:1 36371:1 36929:1 37925:1 40034:1 40040:1 40085:1 40211:1 40328:1 40488:1 40753:1 40761:1 40766:1 40771:1 40786:1 40792:1 40793:1  |EV| 
-0.039245240802432343474315246112383 6020:1 16866:1 29528:1 34729:1 34730:1 34733:1 34754:1 34792:1 34818:1 34860:1 34892:1 34910:1 34911:1 35643:1 35795:1 35796:1 36313:1 36929:1 40032:1 40040:1 40056:1 40240:1 40353:1 40518:1 40753:1 40761:1 40769:1 40771:1 40786:1 40792:1 40793:1  |EV| 
-0.054115221187011952608258980035316 6143:1 17001:1 29680:1 34729:1 34792:1 34892:1 35796:1 36313:1 36929:1 37925:1 40035:1 40039:1 40085:1 40209:1 40353:1 40481:1 40753:1 40761:1 40769:1 40771:1 40786:1 40792:1 40793:1  |EV| 
-0.010898102512511432388153664874153 3987:1 14521:1 26822:1 34753:1 36454:1 36929:1 37925:1 40034:1 40040:1 40085:1 40211:1 40328:1 40488:1 40753:1 40761:1 40766:1 40771:1 40786:1 40797:1  |EV| 
-0.040457510496557359813696308492581 7518:1 18568:1 31398:1 34730:1 34749:1 34873:1 35060:1 35170:1 35605:1 35971:1 35972:1 35973:1 35985:1 36689:1 36792:1 36929:1 38283:1 40032:1 40040:1 40093:1 40206:1 40358:1 40470:1 40753:1 40761:1 40766:1 40771:1 40786:1 40792:1 40793:1  |EV| 
-0.079679073189339172378353737258294 121:1 10180:1 21528:1 34722:1 34723:1 34724:1 34725:1 34726:1 34727:1 34728:1 34729:1 34730:1 34731:1 34732:1 34817:1 36272:1 36273:1 36929:1 37925:1 40034:1 40040:1 40085:1 40189:1 40365:1 40482:1 40753:1 40761:1 40766:1 40771:1 40786:1 40792:1 40793:1  |EV| 
0.10000000000000000555111512312578 2474:1 13017:1 25069:1 34716:1 34722:1 34729:1 34762:1 34772:1 34801:1 34836:1 34853:1 34865:1 34933:1 34957:1 34998:1 35122:1 35205:1 35210:1 35228:1 35260:1 35304:1 35305:1 35308:1 35309:1 35344:1 35348:1 36440:1 36929:1 40034:1 40040:1 40124:1 40185:1 40363:1 40533:1 40753:1 40761:1 40766:1 40771:1 40786:1 40793:1  |EV| 
0.10000000000000000555111512312578 7062:1 18007:1 30767:1 34715:1 34716:1 34722:1 34729:1 34730:1 34732:1 34737:1 34753:1 34762:1 34777:1 34833:1 34859:1 34864:1 35062:1 35170:1 35197:1 35496:1 35544:1 35829:1 35915:1 35916:1 35917:1 35921:1 35922:1 36688:1 36929:1 40034:1 40040:1 40119:1 40240:1 40409:1 40500:1 40753:1 40761:1 40766:1 40771:1 40786:1 40792:1 40793:1  |EV| 
0.10000000000000000555111512312578 3502:1 14005:1 26250:1 34722:1 34729:1 34750:1 34754:1 34860:1 34866:1 34910:1 34944:1 35287:1 35391:1 35515:1 35516:1 35517:1 35518:1 36548:1 36929:1 40034:1 40040:1 40049:1 40194:1 40342:1 40473:1 40753:1 40761:1 40769:1 40771:1 40786:1 40792:1 40793:1  |EV| 
0.10000000000000000555111512312578 6072:1 16922:1 29586:1 34716:1 34721:1 34722:1 34744:1 34762:1 34772:1 34951:1 35060:1 35125:1 35811:1 35816:1 35817:1 35818:1 35819:1 36464:1 36929:1 37925:1 40034:1 40040:1 40085:1 40222:1 40342:1 40482:1 40753:1 40761:1 40766:1 40771:1 40786:1 40793:1  |EV| 
-0.076937891585404163952155442984804 2332:1 12777:1 24688:1 34716:1 34722:1 34729:1 34762:1 34772:1 34801:1 34836:1 34853:1 34865:1 34933:1 34957:1 34998:1 35122:1 35205:1 35210:1 35228:1 35260:1 35304:1 35305:1 35308:1 35339:1 35344:1 35348:1 36440:1 36929:1 40034:1 40040:1 40107:1 40224:1 40363:1 40524:1 40753:1 40761:1 40766:1 40771:1 40786:1 40793:1  |EV| 
-0.089786455871986275978358094107534 7115:1 18061:1 30828:1 34715:1 34716:1 34722:1 34729:1 34730:1 34732:1 34737:1 34753:1 34762:1 34777:1 34833:1 34859:1 34864:1 35062:1 35170:1 35197:1 35496:1 35544:1 35829:1 35915:1 35916:1 35917:1 35918:1 35921:1 36688:1 36929:1 40034:1 40040:1 40075:1 40189:1 40409:1 40500:1 40753:1 40761:1 40766:1 40771:1 40786:1 40792:1 40793:1  |EV| 
-0.064348235750887994299773708917201 3707:1 14214:1 26485:1 34722:1 34729:1 34740:1 34750:1 34754:1 34860:1 34866:1 34910:1 34944:1 35391:1 35515:1 35516:1 35517:1 35518:1 36548:1 36929:1 37925:1 40034:1 40040:1 40060:1 40189:1 40342:1 40482:1 40753:1 40761:1 40769:1 40771:1 40786:1 40792:1 40793:1  |EV| 
-0.012184743441946064429481921820297 1985:1 12417:1 22843:1 34772:1 36436:1 36929:1 37925:1 40034:1 40040:1 40085:1 40211:1 40328:1 40488:1 40753:1 40761:1 40766:1 40771:1 40786:1 40792:1 40797:1  |EV| 
0.082600526917801508908212326787179 5986:1 16831:1 29494:1 34754:1 34860:1 34987:1 36681:1 36929:1 38072:1 40034:1 40040:1 40060:1 40185:1 40380:1 40488:1 40753:1 40761:1 40769:1 40771:1 40774:1 40786:1 40792:1 40793:1  |EV| 
0.083110495350777469081293702402036 888:1 11119:1 22573:1 34730:1 34864:1 35060:1 35061:1 35076:1 35077:1 36377:1 36929:1 37925:1 40034:1 40040:1 40085:1 40194:1 40330:1 40488:1 40753:1 40761:1 40769:1 40771:1 40786:1 40792:1 40793:1  |EV| 
-0.091997957646897929318008380050742 2669:1 13149:1 25279:1 34721:1 34722:1 34724:1 34732:1 34757:1 34758:1 34772:1 34787:1 34848:1 35064:1 35115:1 35264:1 35371:1 35379:1 36473:1 36929:1 40034:1 40040:1 40065:1 40185:1 40342:1 40501:1 40753:1 40761:1 40766:1 40771:1 40786:1 40792:1 40793:1  |EV| 
-0.00069652731086745911515123452772968 7876:1 18946:1 31859:1 34721:1 34722:1 34730:1 34792:1 34860:1 34964:1 35025:1 35060:1 35120:1 35315:1 35845:1 36047:1 36300:1 36929:1 40034:1 40040:1 40053:1 40185:1 40365:1 40501:1 40753:1 40761:1 40766:1 40771:1 40786:1 40798:1  |EV| 
-0.03513685889906926346215598755407 6182:1 17041:1 29726:1 34885:1 35042:1 35060:1 36473:1 36929:1 37925:1 40034:1 40040:1 40085:1 40206:1 40380:1 40488:1 40753:1 40761:1 40766:1 40771:1 40786:1 40792:1 40798:1  |EV| 
-0.10000000000000000555111512312578 7619:1 18606:1 31447:1 34722:1 34729:1 34863:1 35060:1 35062:1 35402:1 35925:1 35982:1 35983:1 35984:1 36791:1 36929:1 37925:1 40034:1 40040:1 40085:1 40229:1 40379:1 40482:1 40753:1 40761:1 40766:1 40771:1 40786:1 40792:1 40793:1  |EV| 
-0.041939613740177086875782208608143 962:1 11204:1 22674:1 34730:1 34864:1 34924:1 35060:1 35061:1 35076:1 35077:1 35083:1 35084:1 36377:1 36929:1 37940:1 40033:1 40040:1 40042:1 40240:1 40330:1 40472:1 40753:1 40761:1 40769:1 40771:1 40786:1 40792:1 40793:1  |EV| 
0.10000000000000000555111512312578 2152:1 14501:1 26801:1 34722:1 34729:1 34772:1 34859:1 35315:1 35572:1 35602:1 36373:1 36929:1 40034:1 40040:1 40043:1 40211:1 40367:1 40488:1 40753:1 40761:1 40766:1 40771:1 40786:1 40792:1 40793:1  |EV| 
0.10000000000000000555111512312578 1591:1 15375:1 27851:1 34729:1 34730:1 34801:1 34933:1 34944:1 35060:1 35121:1 35391:1 35603:1 35666:1 35667:1 36308:1 36929:1 40032:1 40040:1 40079:1 40185:1 40339:1 40525:1 40753:1 40761:1 40766:1 40771:1 40786:1 40792:1 40793:1  |EV| 
-0.025239892464709007269263452144514 1591:1 15375:1 28004:1 34715:1 34722:1 34724:1 34725:1 34726:1 34729:1 34730:1 34734:1 34754:1 34792:1 34801:1 34810:1 34834:1 34860:1 34882:1 34933:1 34937:1 34944:1 34974:1 34980:1 35060:1 35121:1 35156:1 35297:1 35391:1 35603:1 35666:1 35667:1 35668:1 35669:1 35670:1 35671:1 35672:1 35673:1 35674:1 35675:1 35676:1 35677:1 35678:1 35679:1 35680:1 35681:1 36308:1 36929:1 40032:1 40040:1 40105:1 40185:1 40348:1 40696:1 40753:1 40761:1 40766:1 40771:1 40786:1 40792:1 40793:1  |EV| 
-0.053509771668213815254411258592881 2152:1 12591:1 24452:1 34717:1 34722:1 34729:1 34754:1 34872:1 34893:1 34954:1 34989:1 35034:1 35207:1 35304:1 35310:1 35318:1 36371:1 36929:1 38048:1 40032:1 40040:1 40079:1 40211:1 40351:1 40525:1 40753:1 40761:1 40766:1 40771:1 40786:1 40792:1 40793:1  |EV| 
-0.029011755602126241410099183326565 4656:1 15294:1 27772:1 34729:1 34730:1 34801:1 34933:1 34944:1 35121:1 35391:1 35603:1 35667:1 36308:1 36929:1 40037:1 40040:1 40051:1 40210:1 40339:1 40485:1 40753:1 40761:1 40766:1 40771:1 40786:1 40792:1 40793:1  |EV| 
-0.024776583942134233068399495891754 4818:1 15470:1 28790:1 34729:1 34730:1 34801:1 34933:1 34944:1 35121:1 35391:1 35666:1 35667:1 36308:1 36929:1 40037:1 40040:1 40081:1 40197:1 40339:1 40485:1 40753:1 40761:1 40766:1 40771:1 40786:1 40792:1 40793:1  |EV| 
-0.021560451451528919730726840953139 9513:1 20707:1 33908:1 34760:1 34777:1 34826:1 36254:1 36916:1 36929:1 37925:1 40034:1 40040:1 40085:1 40237:1 40333:1 40488:1 40753:1 40761:1 40766:1 40771:1 40786:1 40792:1  |EV| 
0.083132501919012821711696403781389 1010:1 11262:1 22738:1 34792:1 35058:1 36382:1 36929:1 37925:1 40034:1 40040:1 40085:1 40185:1 40349:1 40488:1 40753:1 40761:1 40769:1 40771:1 40786:1 40792:1 40793:1  |EV| 
0.10000000000000000555111512312578 8510:1 19634:1 32737:1 34772:1 34897:1 34914:1 36855:1 36929:1 37925:1 40034:1 40040:1 40085:1 40206:1 40380:1 40488:1 40753:1 40761:1 40766:1 40771:1 40786:1 40793:1  |EV| 
0.10000000000000000555111512312578 835:1 11053:1 22501:1 34722:1 34732:1 34754:1 34960:1 34961:1 36339:1 36929:1 37925:1 40034:1 40040:1 40085:1 40190:1 40337:1 40488:1 40753:1 40761:1 40769:1 40771:1 40786:1 40793:1  |EV| 
0.095883210019988202033047741679184 2642:1 13122:1 25335:1 34722:1 34732:1 36473:1 36929:1 37925:1 40034:1 40040:1 40085:1 40185:1 40349:1 40488:1 40753:1 40761:1 40766:1 40771:1 40786:1 40792:1 40793:1  |EV| 
0.10000000000000000555111512312578 3541:1 14044:1 26294:1 34721:1 34722:1 34750:1 34754:1 34772:1 34784:1 34808:1 34847:1 34877:1 35033:1 35472:1 35557:1 35558:1 36554:1 36929:1 40034:1 40040:1 40084:1 40211:1 40406:1 40501:1 40753:1 40761:1 40766:1 40771:1 40786:1 40792:1 40793:1  |EV| 
-0.085728719718264762006398882476788 3541:1 14044:1 26355:1 34721:1 34722:1 34734:1 34750:1 34754:1 34772:1 34784:1 34808:1 34847:1 34877:1 35033:1 35161:1 35472:1 35557:1 35558:1 36554:1 36929:1 40034:1 40040:1 40119:1 40211:1 40369:1 40501:1 40753:1 40761:1 40766:1 40771:1 40792:1 40793:1  |EV| 
-0.0034333323974499248450176214220164 3645:1 14151:1 26414:1 34722:1 34753:1 34772:1 34786:1 35533:1 36551:1 36929:1 40034:1 40040:1 40067:1 40185:1 40367:1 40488:1 40753:1 40761:1 40766:1 40771:1 40786:1 40797:1  |EV| 
-0.021231952784635049757966385186592 4235:1 14843:1 27203:1 34722:1 34729:1 34740:1 34860:1 35113:1 36304:1 36929:1 40036:1 40040:1 40043:1 40203:1 40380:1 40487:1 40753:1 40763:1 40766:1 40771:1 40786:1 40792:1 40793:1  |EV| 
-0.014931573158810523827000338314974 368:1 10572:1 22021:1 34890:1 36317:1 36929:1 40034:1 40040:1 40085:1 40211:1 40328:1 40488:1 40753:1 40761:1 40769:1 40771:1 40786:1 40794:1 40799:1  |EV| 
0.10000000000000000555111512312578 7520:1 18566:1 31473:1 34722:1 34729:1 34862:1 34863:1 35060:1 35062:1 35925:1 35982:1 35983:1 35984:1 36791:1 36929:1 40034:1 40040:1 40095:1 40211:1 40379:1 40501:1 40753:1 40761:1 40766:1 40771:1 40786:1 40792:1 40793:1  |EV| 
0.10000000000000000555111512312578 5552:1 16360:1 29012:1 34722:1 34729:1 34732:1 36651:1 36929:1 40032:1 40040:1 40094:1 40185:1 40346:1 40484:1 40753:1 40761:1 40766:1 40771:1 40786:1 40792:1 40793:1  |EV| 
-0.0044542316584931691825222088709779 7429:1 18379:1 31444:1 34722:1 34729:1 34730:1 34862:1 34863:1 35060:1 35062:1 35170:1 35402:1 35925:1 35982:1 35983:1 35984:1 35985:1 36689:1 36792:1 36929:1 40036:1 40040:1 40050:1 40203:1 40365:1 40505:1 40753:1 40761:1 40766:1 40771:1 40786:1 40792:1 40793:1  |EV| 
-0.10000000000000000555111512312578 8644:1 19784:1 32883:1 34722:1 34729:1 35060:1 36651:1 36930:1 38071:1 38191:1 40034:1 40040:1 40060:1 40185:1 40380:1 40488:1 40753:1 40762:1 40766:1 40771:1 40792:1 40793:1  |EV| 
-0.03130804672618071882173040876296 2145:1 12585:1 24629:1 34716:1 34729:1 34772:1 34853:1 34865:1 35122:1 35228:1 35304:1 35308:1 35309:1 36440:1 36929:1 40034:1 40040:1 40095:1 40185:1 40332:1 40501:1 40753:1 40763:1 40766:1 40771:1 40793:1  |EV| 
-0.02613067571205691594360409624187 6483:1 17350:1 30115:1 35068:1 35853:1 35856:1 35857:1 36707:1 36929:1 37940:1 40033:1 40040:1 40042:1 40190:1 40328:1 40497:1 40753:1 40761:1 40766:1 40771:1 40786:1 40793:1  |EV| 
-0.0094867177496300997274758515231952 7518:1 18483:1 31300:1 34722:1 34729:1 34730:1 34754:1 34862:1 34863:1 35060:1 35062:1 35402:1 35657:1 35925:1 35982:1 35983:1 35984:1 35985:1 35987:1 36689:1 36792:1 36929:1 40033:1 40040:1 40094:1 40234:1 40365:1 40475:1 40753:1 40761:1 40766:1 40771:1 40786:1 40792:1 40793:1  |EV| 
0.10000000000000000555111512312578 975:1 11222:1 21692:1 34722:1 36372:1 36929:1 37925:1 40034:1 40040:1 40085:1 40211:1 40328:1 40488:1 40753:1 40761:1 40769:1 40771:1 40786:1 40792:1 40793:1  |EV| 
0.10000000000000000555111512312578 1059:1 11319:1 21692:1 34722:1 36300:1 36929:1 37925:1 40034:1 40040:1 40085:1 40211:1 40328:1 40488:1 40753:1 40761:1 40766:1 40771:1 40786:1 40792:1 40793:1  |EV| 
-0.034949046712243331258562761831854 5486:1 16292:1 21692:1 34722:1 36642:1 36929:1 37925:1 40034:1 40040:1 40085:1 40211:1 40328:1 40488:1 40753:1 40761:1 40766:1 40771:1 40786:1 40795:1  |EV| 
-0.0397982734223318590505158454107 1166:1 11427:1 21692:1 34722:1 36300:1 36929:1 37925:1 40034:1 40040:1 40085:1 40211:1 40328:1 40488:1 40753:1 40761:1 40766:1 40771:1 40786:1 40795:1  |EV| 
-0.082553539961589303408651119298156 203:1 10285:1 21692:1 34722:1 36300:1 36929:1 37925:1 40034:1 40040:1 40085:1 40211:1 40328:1 40488:1 40753:1 40761:1 40766:1 40771:1 40786:1  |EV| 
-0.0044303602820552744762094832253752 32:1 10072:1 21371:1 34722:1 34723:1 34724:1 34725:1 34726:1 34727:1 34728:1 34729:1 34730:1 34740:1 36280:1 36929:1 40036:1 40040:1 40053:1 40197:1 40367:1 40498:1 40753:1 40761:1 40766:1 40771:1 40786:1 40792:1 40793:1  |EV| 
-0.0056961609082413627858088034372486 8277:1 19392:1 32448:1 34777:1 34846:1 36009:1 36288:1 36597:1 36929:1 40034:1 40040:1 40054:1 40211:1 40380:1 40488:1 40753:1 40761:1 40766:1 40771:1 40774:1 40786:1 40792:1  |EV| 
0.09084498632012094621046571774059 2220:1 12662:1 24531:1 34722:1 34893:1 34987:1 36304:1 36929:1 37925:1 40034:1 40040:1 40060:1 40185:1 40380:1 40488:1 40753:1 40763:1 40766:1 40771:1 40786:1 40792:1 40793:1 40794:1  |EV| 
-0.050546625052062747751602245216418 9124:1 20291:1 33441:1 34722:1 34729:1 34753:1 34914:1 35060:1 36179:1 36884:1 36929:1 37692:1 38108:1 38490:1 39952:1 40034:1 40040:1 40060:1 40190:1 40330:1 40488:1 40753:1 40763:1 40766:1 40771:1 40782:1 40784:1 40792:1 40793:1 40794:1  |EV| 
-0.051917045115559244672365224460009 8982:1 20149:1 33295:1 34722:1 34729:1 34753:1 34914:1 34986:1 35060:1 35949:1 36177:1 36178:1 36179:1 36884:1 36929:1 40034:1 40040:1 40066:1 40190:1 40372:1 40473:1 40753:1 40760:1 40766:1 40771:1 40782:1 40792:1 40793:1 40794:1  |EV| 
-0.03813611702648996015785343161042 3811:1 14323:1 26617:1 34716:1 34722:1 34729:1 34762:1 34801:1 34837:1 34868:1 35582:1 35583:1 35584:1 35585:1 35586:1 35587:1 36571:1 36929:1 40034:1 40040:1 40084:1 40185:1 40331:1 40501:1 40753:1 40763:1 40766:1 40771:1 40792:1 40793:1 40794:1  |EV| 
-0.041692622386298491821143841207231 6249:1 17113:1 29814:1 34716:1 34721:1 34722:1 34729:1 34754:1 34762:1 34777:1 34831:1 34841:1 34860:1 34900:1 34987:1 35063:1 35414:1 35470:1 35686:1 35805:1 35806:1 35807:1 35808:1 35809:1 35812:1 35813:1 36681:1 36929:1 40034:1 40040:1 40116:1 40185:1 40408:1 40533:1 40753:1 40761:1 40769:1 40771:1 40774:1 40786:1 40792:1 40793:1  |EV| 
-0.022723949523660136318170543745509 2518:1 12986:1 25008:1 34722:1 34744:1 34995:1 35237:1 36465:1 36929:1 37925:1 40034:1 40040:1 40085:1 40237:1 40333:1 40488:1 40753:1 40761:1 40767:1 40771:1 40786:1 40792:1  |EV| 
-0.0065838238242283894652295828109345 3145:1 13637:1 25861:1 34801:1 34853:1 35205:1 35207:1 36416:1 36929:1 37925:1 40034:1 40040:1 40085:1 40237:1 40333:1 40488:1 40753:1 40761:1 40769:1 40771:1 40774:1 40786:1 40792:1  |EV| 
-0.058044534606675995958013913877949 102:1 10158:1 21490:1 34721:1 34732:1 34814:1 36288:1 36929:1 37925:1 40034:1 40040:1 40085:1 40206:1 40380:1 40488:1 40753:1 40761:1 40766:1 40771:1 40786:1 40792:1  |EV| 
-0.0041405566555484940582942954279133 1915:1 12338:1 24051:1 34722:1 34801:1 35226:1 35227:1 36416:1 36929:1 37925:1 40034:1 40040:1 40085:1 40237:1 40333:1 40488:1 40753:1 40761:1 40769:1 40771:1 40774:1 40786:1 40792:1  |EV| 
-0.043335216485443917022735149657819 6264:1 17130:1 29844:1 34716:1 34721:1 34722:1 34729:1 34737:1 34744:1 34762:1 34772:1 34858:1 34951:1 35060:1 35125:1 35811:1 35816:1 35817:1 35818:1 35819:1 36464:1 36929:1 40033:1 40040:1 40042:1 40226:1 40342:1 40471:1 40753:1 40761:1 40766:1 40771:1 40786:1 40793:1  |EV| 
-0.024467345809286975694130106262492 118:1 10218:1 21584:1 34719:1 34720:1 34722:1 34723:1 34724:1 34725:1 34726:1 34727:1 34728:1 34729:1 34730:1 34731:1 34732:1 34740:1 36280:1 36929:1 40036:1 40040:1 40050:1 40192:1 40367:1 40498:1 40753:1 40761:1 40766:1 40771:1 40786:1 40792:1 40793:1  |EV| 
-0.011587159104861478528536444798647 1080:1 11340:1 22833:1 34721:1 34722:1 34732:1 36389:1 36929:1 36969:1 37082:1 37946:1 38013:1 38362:1 38426:1 38967:1 38971:1 40032:1 40040:1 40094:1 40185:1 40346:1 40484:1 40753:1 40760:1 40766:1 40771:1 40782:1 40792:1 40793:1 40794:1  |EV| 
-0.011263072263580791582127105243671 99:1 10155:1 21487:1 34715:1 34721:1 34732:1 34818:1 36271:1 36929:1 37923:1 40032:1 40040:1 40047:1 40211:1 40334:1 40484:1 40753:1 40761:1 40766:1 40771:1 40792:1 40793:1 40794:1  |EV| 
-0.0505468289632294287549996170128 128:1 10189:1 21539:1 34722:1 34729:1 34730:1 34732:1 36272:1 36273:1 36929:1 40034:1 40040:1 40054:1 40185:1 40333:1 40488:1 40753:1 40760:1 40766:1 40771:1 40782:1 40783:1 40792:1 40793:1  |EV| 
-0.060894791165168701829735198316484 3683:1 14189:1 26459:1 34729:1 34860:1 34910:1 34944:1 35391:1 35517:1 35518:1 36548:1 36929:1 40034:1 40040:1 40060:1 40194:1 40367:1 40488:1 40753:1 40763:1 40769:1 40771:1 40789:1 40792:1 40793:1  |EV| 
-0.024648980844391599198672793136211 848:1 11074:1 22525:1 34732:1 34985:1 34986:1 36304:1 36929:1 37925:1 40034:1 40040:1 40085:1 40206:1 40380:1 40488:1 40753:1 40761:1 40766:1 40771:1 40786:1 40798:1  |EV| 
-0.026564996862333916521903276475314 1012:1 11265:1 22742:1 34792:1 35023:1 35058:1 35059:1 36386:1 36929:1 37925:1 40034:1 40040:1 40085:1 40237:1 40333:1 40488:1 40753:1 40761:1 40769:1 40771:1 40786:1  |EV| 
-0.030186392987065858994899514300414 913:1 11149:1 22605:1 34792:1 35023:1 35058:1 36382:1 36929:1 37072:1 38002:1 38450:1 38947:1 40032:1 40040:1 40094:1 40185:1 40346:1 40484:1 40753:1 40763:1 40769:1 40771:1 40792:1 40793:1  |EV| 
-0.0053268579650363311744909466938225 1198:1 11465:1 23202:1 34722:1 34724:1 34727:1 34730:1 34731:1 34732:1 34734:1 34753:1 34757:1 34758:1 34777:1 34778:1 34784:1 34791:1 34792:1 34801:1 34851:1 34853:1 35033:1 35104:1 35111:1 35112:1 35164:1 35165:1 35166:1 35167:1 35168:1 35171:1 35172:1 35173:1 35182:1 36398:1 36929:1 40033:1 40040:1 40077:1 40315:1 40330:1 40561:1 40753:1 40761:1 40766:1 40771:1 40786:1 40792:1 40793:1  |EV| 
-0.0074975593880797775092617030168185 3535:1 14038:1 26288:1 34970:1 35057:1 35567:1 36560:1 36929:1 37925:1 40034:1 40040:1 40085:1 40206:1 40380:1 40488:1 40753:1 40761:1 40766:1 40771:1 40786:1 40794:1 40795:1  |EV| 
-0.033770409784923516305354951327899 6454:1 17320:1 30085:1 34900:1 35853:1 36707:1 36929:1 37129:1 37929:1 38479:1 39589:1 40034:1 40040:1 40060:1 40211:1 40349:1 40488:1 40753:1 40760:1 40766:1 40771:1 40785:1 40793:1  |EV| 
-0.0084253323500133175949500241586065 7520:1 18487:1 31304:1 34722:1 34729:1 34754:1 34862:1 34863:1 35060:1 35062:1 35402:1 35657:1 35925:1 35982:1 35983:1 35984:1 35987:1 36791:1 36929:1 40033:1 40040:1 40094:1 40188:1 40379:1 40471:1 40753:1 40761:1 40766:1 40771:1 40786:1 40792:1 40793:1  |EV| 
-0.015889904910029364198953416575932 3374:1 13925:1 25714:1 34722:1 34801:1 36299:1 36929:1 37925:1 40034:1 40040:1 40085:1 40185:1 40349:1 40488:1 40753:1 40761:1 40769:1 40771:1 40774:1 40786:1 40792:1  |EV| 
-0.014821355428889879807252683008301 2423:1 12871:1 24853:1 34808:1 34911:1 34938:1 35301:1 35314:1 35369:1 36374:1 36929:1 38068:1 40034:1 40040:1 40067:1 40185:1 40330:1 40488:1 40753:1 40761:1 40767:1 40771:1 40786:1 40792:1  |EV| 
-0.05113218490550937300742617708238 4205:1 14810:1 27167:1 34716:1 34722:1 34729:1 34837:1 35582:1 36571:1 36929:1 40034:1 40040:1 40048:1 40185:1 40337:1 40488:1 40753:1 40763:1 40766:1 40771:1 40792:1 40793:1 40794:1  |EV| 
-0.036992123807699200943588380141591 9452:1 20639:1 33825:1 34937:1 36224:1 36914:1 36929:1 37925:1 40034:1 40040:1 40085:1 40185:1 40349:1 40488:1 40753:1 40761:1 40766:1 40771:1 40774:1 40786:1 40792:1  |EV| 
-0.012009127380987173749904428632362 3065:1 13548:1 25773:1 34722:1 34762:1 34911:1 35462:1 35463:1 36523:1 36929:1 37925:1 40034:1 40040:1 40085:1 40190:1 40337:1 40488:1 40753:1 40761:1 40766:1 40771:1 40786:1 40792:1  |EV| 
-0.031761223739685665035104022990708 7741:1 18792:1 32410:1 34721:1 34722:1 36003:1 36814:1 36929:1 37925:1 40034:1 40040:1 40085:1 40206:1 40380:1 40488:1 40753:1 40761:1 40766:1 40771:1 40786:1 40792:1  |EV| 
-0.028528724817084738507588781430968 8943:1 20108:1 21692:1 34722:1 36878:1 36929:1 37925:1 40034:1 40040:1 40085:1 40211:1 40328:1 40488:1 40753:1 40761:1 40769:1 40771:1 40786:1 40799:1  |EV| 
-0.0070454148741260352872828320869303 834:1 11052:1 22500:1 34754:1 36338:1 36929:1 37925:1 40034:1 40040:1 40085:1 40211:1 40328:1 40488:1 40753:1 40761:1 40769:1 40771:1 40786:1 40799:1  |EV| 
-0.0024193264764013067136261270206887 8869:1 20028:1 33139:1 34849:1 36872:1 36929:1 37925:1 40034:1 40040:1 40085:1 40211:1 40328:1 40488:1 40753:1 40761:1 40769:1 40771:1 40786:1 40797:1  |EV| 
-0.011070623095696478441207766252319 209:1 10292:1 21692:1 34722:1 36299:1 36929:1 37925:1 40034:1 40040:1 40085:1 40211:1 40328:1 40488:1 40753:1 40761:1 40769:1 40771:1 40786:1 40799:1  |EV| 
-0.012154453288492978596524451972982 8665:1 19807:1 32906:1 34722:1 34730:1 34860:1 34864:1 35060:1 35236:1 35910:1 36651:1 36929:1 37949:1 38100:1 40032:1 40040:1 40081:1 40185:1 40352:1 40484:1 40753:1 40760:1 40766:1 40771:1 40782:1 40792:1 40793:1  |EV| 
-0.044381705861760253895020866821142 6887:1 17824:1 30579:1 34722:1 34772:1 34900:1 34998:1 35060:1 36373:1 36929:1 40034:1 40040:1 40048:1 40185:1 40337:1 40488:1 40753:1 40760:1 40766:1 40771:1 40785:1 40793:1  |EV| 
-0.01375924531320868449135730315902 7628:1 18615:1 31458:1 34729:1 35060:1 36791:1 36929:1 40034:1 40040:1 40060:1 40211:1 40349:1 40488:1 40753:1 40760:1 40766:1 40771:1 40782:1 40792:1 40793:1  |EV| 
-0.047310472516704817069754795966219 116:1 10174:1 21521:1 34719:1 34720:1 34722:1 34723:1 34724:1 34725:1 34726:1 34727:1 34728:1 34729:1 34730:1 34731:1 34732:1 34733:1 34817:1 36271:1 36929:1 37925:1 40034:1 40040:1 40085:1 40188:1 40369:1 40482:1 40753:1 40761:1 40766:1 40771:1 40786:1 40792:1 40793:1 40794:1  |EV| 
-0.054324869136862366514328925859445 820:1 11037:1 22485:1 34722:1 34732:1 34754:1 34772:1 34953:1 34960:1 34961:1 36339:1 36929:1 40036:1 40040:1 40049:1 40203:1 40337:1 40487:1 40753:1 40761:1 40769:1 40771:1 40786:1 40793:1  |EV| 
-0.023713632910988977076094386120531 6468:1 17334:1 30099:1 34722:1 34730:1 34749:1 34754:1 34772:1 35072:1 35242:1 35853:1 35854:1 35858:1 36710:1 36929:1 37950:1 40032:1 40040:1 40086:1 40206:1 40358:1 40470:1 40753:1 40761:1 40766:1 40771:1 40786:1 40793:1  |EV| 
-0.00032150820902790422373129786137724 603:1 10759:1 22210:1 34722:1 34729:1 34732:1 34754:1 34949:1 34950:1 34951:1 34952:1 34953:1 34960:1 34961:1 36339:1 36929:1 40033:1 40040:1 40047:1 40236:1 40337:1 40472:1 40753:1 40761:1 40769:1 40771:1 40786:1 40793:1  |EV| 
-0.020463279519720298932350388554369 6467:1 17333:1 30098:1 34722:1 34730:1 34749:1 34754:1 34772:1 35072:1 35242:1 35853:1 35855:1 35858:1 36707:1 36929:1 37950:1 40032:1 40040:1 40086:1 40211:1 40376:1 40470:1 40753:1 40761:1 40766:1 40771:1 40786:1 40793:1  |EV| 
0.10000000000000000555111512312578 2198:1 17838:1 30593:1 34722:1 34772:1 34998:1 35060:1 36373:1 36929:1 40034:1 40040:1 40054:1 40185:1 40333:1 40488:1 40753:1 40761:1 40766:1 40771:1 40786:1 40793:1  |EV| 
0.062770706129882600232683387275756 8519:1 19643:1 32746:1 34772:1 34955:1 35060:1 36794:1 36856:1 36929:1 40034:1 40040:1 40054:1 40211:1 40380:1 40488:1 40753:1 40761:1 40766:1 40771:1 40786:1 40792:1 40793:1  |EV| 
0.10000000000000000555111512312578 6542:1 17552:1 30312:1 35853:1 36707:1 36929:1 37925:1 40034:1 40040:1 40085:1 40211:1 40328:1 40488:1 40753:1 40761:1 40766:1 40771:1 40786:1 40793:1  |EV| 
0.059899698025925866839980216127515 1315:1 11607:1 23588:1 34722:1 34732:1 34753:1 34792:1 35167:1 35168:1 36398:1 36929:1 37925:1 40034:1 40040:1 40085:1 40194:1 40330:1 40488:1 40753:1 40761:1 40766:1 40771:1 40786:1 40792:1 40793:1  |EV| 
0.057998597753087965944729376133182 2220:1 15049:1 27446:1 34722:1 34860:1 35113:1 36304:1 36929:1 37925:1 40034:1 40040:1 40060:1 40185:1 40380:1 40488:1 40753:1 40763:1 40766:1 40771:1 40786:1 40792:1 40793:1  |EV| 
-0.007755114900639275415938911351077 6524:1 17395:1 30159:1 35230:1 35314:1 36717:1 36718:1 36929:1 37925:1 40034:1 40040:1 40085:1 40185:1 40349:1 40488:1 40753:1 40761:1 40769:1 40771:1 40772:1 40774:1 40786:1  |EV| 
-0.014896962292141269212919496567338 7373:1 18319:1 31115:1 34773:1 35103:1 35239:1 36784:1 36929:1 37925:1 40034:1 40040:1 40054:1 40211:1 40380:1 40488:1 40753:1 40761:1 40766:1 40771:1 40786:1 40792:1 40798:1  |EV| 
-0.033577731024151749594786053876305 7520:1 18566:1 31397:1 34730:1 34749:1 34873:1 35060:1 35170:1 35605:1 35824:1 35971:1 35972:1 35973:1 35986:1 36791:1 36929:1 38283:1 40032:1 40040:1 40093:1 40211:1 40381:1 40525:1 40753:1 40761:1 40766:1 40771:1 40786:1 40792:1 40793:1  |EV| 
-0.011780437369026289934348383781071 4085:1 14642:1 26955:1 34716:1 34722:1 34729:1 34762:1 34801:1 34837:1 34868:1 35582:1 35584:1 35585:1 35586:1 35587:1 36571:1 36930:1 40034:1 40040:1 40075:1 40185:1 40406:1 40501:1 40753:1 40762:1 40766:1 40771:1 40792:1 40793:1 40794:1  |EV| 
-0.041252830833899863105518335260058 500:1 10629:1 29949:1 34722:1 34732:1 34772:1 34792:1 34951:1 34985:1 36305:1 36929:1 37925:1 40034:1 40040:1 40085:1 40194:1 40330:1 40488:1 40753:1 40761:1 40766:1 40771:1 40786:1  |EV| 
-0.0084421338751160032026765733803586 2517:1 12985:1 21692:1 34722:1 36347:1 36929:1 37925:1 40034:1 40040:1 40085:1 40211:1 40328:1 40488:1 40753:1 40761:1 40767:1 40771:1 40786:1 40796:1  |EV| 
-0.0084421338751159476915253421225316 3162:1 13656:1 21692:1 34722:1 36529:1 36929:1 37925:1 40034:1 40040:1 40085:1 40211:1 40328:1 40488:1 40753:1 40761:1 40767:1 40771:1 40786:1 40796:1  |EV| 
-0.010696516698176578713530560094114 2187:1 12629:1 25181:1 34911:1 36440:1 36929:1 37925:1 40034:1 40040:1 40085:1 40211:1 40328:1 40488:1 40753:1 40761:1 40766:1 40771:1 40786:1 40795:1  |EV| 
-0.024534446003612073866628762175424 4514:1 15142:1 27570:1 34722:1 34810:1 34987:1 36584:1 36597:1 36929:1 37925:1 37976:1 40034:1 40040:1 40060:1 40185:1 40380:1 40488:1 40753:1 40761:1 40766:1 40771:1 40786:1 40792:1 40797:1  |EV| 
-0.018651304163796716267809117084653 1013:1 11266:1 22743:1 34730:1 34864:1 35060:1 35061:1 35077:1 36368:1 36929:1 40032:1 40040:1 40051:1 40185:1 40334:1 40484:1 40753:1 40763:1 40766:1 40771:1 40782:1 40783:1 40792:1 40793:1  |EV| 
-0.011959425483252609026529889035828 3837:1 14350:1 22843:1 34772:1 36459:1 36929:1 37925:1 40034:1 40040:1 40085:1 40211:1 40328:1 40488:1 40753:1 40761:1 40766:1 40771:1 40786:1 40792:1 40797:1  |EV| 
-0.0009223119933491740612963027956539 4155:1 14743:1 26680:1 34722:1 34729:1 36373:1 36929:1 40034:1 40040:1 40060:1 40211:1 40349:1 40488:1 40753:1 40760:1 40766:1 40771:1 40787:1 40792:1 40793:1  |EV| 
-0.0045315911570559946897063241522119 1118:1 11378:1 22149:1 34777:1 36303:1 36929:1 37925:1 40034:1 40040:1 40085:1 40211:1 40328:1 40488:1 40753:1 40761:1 40766:1 40771:1 40774:1 40786:1 40792:1 40798:1  |EV| 
-0.0051348029630946135509761418802555 992:1 11240:1 22715:1 34753:1 34820:1 34937:1 35028:1 36366:1 36929:1 37925:1 40034:1 40040:1 40060:1 40206:1 40333:1 40488:1 40753:1 40761:1 40766:1 40771:1 40774:1 40786:1 40792:1  |EV| 
-0.016104922721704609950288400455065 5928:1 16778:1 29440:1 34721:1 34722:1 34729:1 34732:1 34734:1 34749:1 34753:1 34754:1 34772:1 34837:1 34881:1 34891:1 34914:1 34987:1 35217:1 35466:1 35481:1 35768:1 35769:1 35772:1 35773:1 36660:1 36929:1 37925:1 40034:1 40040:1 40085:1 40266:1 40363:1 40527:1 40753:1 40761:1 40769:1 40771:1 40786:1 40793:1 40795:1  |EV| 
-0.04497250023721326150916155484083 959:1 11212:1 22683:1 34722:1 35060:1 36371:1 36929:1 37925:1 40034:1 40040:1 40085:1 40185:1 40349:1 40488:1 40753:1 40761:1 40766:1 40771:1 40786:1 40798:1  |EV| 
-0.020727110178075863061719630309199 7145:1 18091:1 30858:1 34722:1 34753:1 34842:1 34866:1 35019:1 35938:1 36762:1 36763:1 36929:1 40034:1 40040:1 40067:1 40185:1 40330:1 40488:1 40753:1 40761:1 40769:1 40771:1 40786:1 40799:1  |EV| 
-0.043373169601250982641005293771741 3589:1 14093:1 26345:1 34860:1 35565:1 36561:1 36929:1 37925:1 40034:1 40040:1 40085:1 40185:1 40349:1 40488:1 40753:1 40761:1 40766:1 40771:1 40786:1 40792:1 40797:1  |EV| 
-0.032343252144029430161786820008274 1731:1 12137:1 23793:1 34722:1 35230:1 36415:1 36929:1 37925:1 40034:1 40040:1 40085:1 40185:1 40349:1 40488:1 40753:1 40761:1 40766:1 40771:1 40786:1  |EV| 
-0.019530267867352107263867466713236 4609:1 15246:1 27707:1 34754:1 34893:1 35064:1 36373:1 36929:1 37925:1 40034:1 40040:1 40060:1 40185:1 40380:1 40488:1 40753:1 40761:1 40766:1 40771:1 40786:1 40792:1 40798:1  |EV| 
0.029357029302657409314258885046911 7001:1 17944:1 30699:1 34722:1 34732:1 34792:1 34864:1 34865:1 34951:1 35914:1 36339:1 36929:1 37925:1 40034:1 40040:1 40060:1 40194:1 40367:1 40488:1 40753:1 40761:1 40766:1 40771:1 40786:1 40792:1 40793:1  |EV| 
0.054061819933882204747277455680887 6399:1 17265:1 30010:1 34732:1 34792:1 34951:1 36688:1 36929:1 37925:1 40034:1 40040:1 40085:1 40206:1 40380:1 40488:1 40753:1 40761:1 40766:1 40771:1 40786:1 40792:1 40793:1  |EV| 
0.052448696557427100517490003994681 4840:1 15492:1 27983:1 35060:1 36421:1 36929:1 37925:1 40034:1 40040:1 40085:1 40211:1 40328:1 40488:1 40753:1 40761:1 40766:1 40771:1 40786:1 40792:1 40793:1  |EV| 
0.054546861788359428391270711244943 867:1 11096:1 22547:1 35060:1 35061:1 36368:1 36929:1 37925:1 40034:1 40040:1 40085:1 40185:1 40349:1 40488:1 40753:1 40761:1 40766:1 40771:1 40786:1 40792:1 40793:1  |EV| 
-0.028171942758855358923675282767363 6277:1 17143:1 29867:1 34722:1 34729:1 34731:1 34732:1 34792:1 34801:1 34951:1 35055:1 35821:1 35830:1 35831:1 36688:1 36929:1 37951:1 40033:1 40040:1 40044:1 40236:1 40380:1 40472:1 40753:1 40761:1 40766:1 40771:1 40786:1 40792:1 40793:1  |EV| 
-0.025762865602875162363005756560597 5707:1 16524:1 21771:1 34729:1 36651:1 36929:1 37925:1 40035:1 40039:1 40085:1 40197:1 40346:1 40481:1 40753:1 40761:1 40766:1 40771:1 40786:1 40792:1 40793:1  |EV| 
-0.014622511347137075524149629757176 114:1 10170:1 21517:1 34715:1 34721:1 34729:1 34730:1 34731:1 34732:1 34818:1 34819:1 34820:1 36271:1 36929:1 40036:1 40040:1 40095:1 40215:1 40328:1 40498:1 40753:1 40761:1 40766:1 40771:1 40786:1 40792:1 40793:1 40794:1  |EV| 
-0.016009213003053843205059081356012 1151:1 11411:1 23103:1 34722:1 34729:1 34731:1 34732:1 34753:1 34754:1 34755:1 34792:1 34816:1 34989:1 35142:1 35167:1 35168:1 35169:1 35170:1 36398:1 36929:1 40036:1 40040:1 40050:1 40233:1 40330:1 40498:1 40753:1 40761:1 40766:1 40771:1 40786:1 40792:1 40793:1  |EV| 
-0.0046837421350160723942934737351607 1085:1 11345:1 22839:1 34721:1 34722:1 34729:1 34730:1 34750:1 34772:1 34777:1 34839:1 34960:1 35081:1 35099:1 35100:1 35101:1 35102:1 35103:1 35104:1 35105:1 35111:1 35112:1 36389:1 36929:1 40035:1 40039:1 40058:1 40214:1 40353:1 40647:1 40753:1 40761:1 40766:1 40771:1 40786:1 40792:1 40793:1 40794:1  |EV| 
-0.021552759923400225533507423847368 9267:1 20439:1 33598:1 34722:1 34981:1 34987:1 36624:1 36929:1 37925:1 40034:1 40040:1 40054:1 40211:1 40380:1 40488:1 40753:1 40761:1 40767:1 40771:1 40786:1  |EV| 
-0.016111634684291921415510984161301 1681:1 12085:1 23832:1 34772:1 34866:1 34955:1 36421:1 36929:1 40034:1 40040:1 40054:1 40211:1 40380:1 40488:1 40753:1 40761:1 40766:1 40771:1 40786:1 40795:1  |EV| 
-0.035444233460002409763500708095307 7617:1 18604:1 31445:1 34722:1 34729:1 34730:1 34863:1 35060:1 35062:1 35402:1 35925:1 35982:1 35983:1 35984:1 35985:1 36689:1 36792:1 36929:1 37925:1 40034:1 40040:1 40085:1 40189:1 40365:1 40482:1 40753:1 40761:1 40766:1 40771:1 40786:1 40792:1 40793:1  |EV| 
-0.024946295945575978902919445090447 8374:1 19491:1 32566:1 34754:1 35060:1 36067:1 36435:1 36929:1 37925:1 40034:1 40040:1 40085:1 40206:1 40380:1 40488:1 40753:1 40761:1 40766:1 40771:1 40786:1 40792:1 40798:1  |EV| 
-0.011764537517718014550394123318711 1025:1 11283:1 22763:1 34722:1 34872:1 35060:1 35066:1 35067:1 35069:1 36331:1 36929:1 37925:1 40034:1 40040:1 40085:1 40194:1 40330:1 40488:1 40753:1 40761:1 40767:1 40771:1 40786:1 40796:1  |EV| 
-0.021122524974257126523236038906362 885:1 11116:1 22569:1 34924:1 35060:1 35061:1 35083:1 35084:1 36368:1 36929:1 37940:1 40033:1 40040:1 40042:1 40194:1 40349:1 40497:1 40753:1 40761:1 40766:1 40771:1 40786:1 40792:1 40793:1  |EV| 
-0.0055263548121332189966281589477148 7113:1 18059:1 30826:1 34772:1 35210:1 35919:1 36367:1 36929:1 37975:1 40034:1 40040:1 40085:1 40206:1 40380:1 40488:1 40753:1 40761:1 40766:1 40771:1 40774:1 40786:1 40792:1  |EV| 
-0.033678229366896135499320763528885 3374:1 13925:1 26164:1 34722:1 35062:1 36299:1 36929:1 37925:1 40034:1 40040:1 40085:1 40185:1 40349:1 40488:1 40753:1 40761:1 40769:1 40771:1 40774:1 40786:1 40792:1  |EV| 
-0.013905055325183466458094372342202 7835:1 18899:1 31802:1 34722:1 35060:1 36005:1 36806:1 36929:1 37925:1 40034:1 40040:1 40085:1 40206:1 40380:1 40488:1 40753:1 40761:1 40766:1 40771:1 40786:1 40798:1  |EV| 
-0.0052871558547005984701749881082833 450:1 10565:1 22014:1 34722:1 34777:1 34893:1 34925:1 36308:1 36929:1 37975:1 40034:1 40040:1 40085:1 40237:1 40333:1 40488:1 40753:1 40761:1 40766:1 40771:1 40774:1 40786:1 40792:1  |EV| 
-0.0078561885094593081335645479157392 6728:1 17645:1 30399:1 34722:1 34772:1 34998:1 36720:1 36929:1 40034:1 40040:1 40054:1 40211:1 40380:1 40488:1 40753:1 40761:1 40769:1 40771:1 40786:1 40794:1 40799:1  |EV| 
-0.0054861116813015881749082680585161 6459:1 17325:1 30090:1 34730:1 34900:1 35853:1 35854:1 36710:1 36929:1 37581:1 37929:1 38677:1 39592:1 40034:1 40040:1 40060:1 40206:1 40333:1 40488:1 40753:1 40760:1 40766:1 40771:1 40785:1 40793:1  |EV| 
-0.010501278867772953495851595562272 6729:1 17646:1 30400:1 34721:1 34722:1 34772:1 34998:1 35828:1 36416:1 36929:1 40034:1 40040:1 40054:1 40237:1 40330:1 40488:1 40753:1 40761:1 40769:1 40771:1 40786:1 40792:1  |EV| 
-0.0068553095107392013340952274802476 999:1 11250:1 21841:1 34722:1 34729:1 34734:1 36372:1 36929:1 37991:1 40034:1 40040:1 40054:1 40211:1 40380:1 40488:1 40753:1 40760:1 40769:1 40771:1 40785:1 40792:1 40793:1  |EV| 
-0.0049710468691944670674431883128364 2415:1 12860:1 24798:1 34722:1 34772:1 34773:1 34859:1 34998:1 35172:1 35230:1 35287:1 35319:1 36458:1 36929:1 40034:1 40040:1 40049:1 40185:1 40372:1 40473:1 40753:1 40761:1 40766:1 40771:1 40786:1  |EV| 
-0.0076025681296626136315697230827482 9291:1 20465:1 33625:1 34934:1 36218:1 36907:1 36929:1 37925:1 40034:1 40040:1 40085:1 40185:1 40349:1 40488:1 40753:1 40761:1 40769:1 40771:1 40774:1 40786:1 40792:1 40797:1  |EV| 
-0.010307676548699684637711015966488 550:1 10697:1 29610:1 34722:1 34777:1 36305:1 36929:1 37925:1 40034:1 40040:1 40085:1 40185:1 40349:1 40488:1 40753:1 40761:1 40766:1 40771:1 40786:1  |EV| 
-0.0062238575481220548626937194569564 725:1 10908:1 22357:1 34722:1 34738:1 34810:1 34851:1 34859:1 34929:1 36304:1 36929:1 40034:1 40040:1 40066:1 40185:1 40367:1 40488:1 40753:1 40761:1 40766:1 40771:1 40786:1 40797:1  |EV| 
-0.0062623192654021600164759853157648 104:1 10160:1 21493:1 34729:1 36271:1 36929:1 37943:1 37944:1 40034:1 40040:1 40060:1 40207:1 40328:1 40488:1 40753:1 40760:1 40766:1 40771:1 40782:1 40783:1 40792:1 40793:1 40794:1  |EV| 
-0.0046410901885028032695656996509115 7630:1 18618:1 31461:1 34737:1 34788:1 34795:1 34830:1 34911:1 35845:1 36802:1 36929:1 40034:1 40040:1 40067:1 40185:1 40330:1 40488:1 40753:1 40761:1 40766:1 40771:1 40786:1 40795:1  |EV| 
-0.0043768816092574014744998045500779 7475:1 18728:1 31600:1 34722:1 34729:1 34863:1 35060:1 35062:1 35925:1 36791:1 36929:1 40034:1 40040:1 40066:1 40211:1 40330:1 40488:1 40753:1 40763:1 40766:1 40771:1 40784:1 40785:1 40789:1 40792:1 40793:1  |EV| 
-0.0049232656791024544118418049265529 2615:1 13094:1 25214:1 34722:1 34772:1 34965:1 36362:1 36929:1 40034:1 40040:1 40060:1 40185:1 40380:1 40488:1 40753:1 40761:1 40769:1 40771:1 40786:1 40794:1 40799:1  |EV| 
-0.0064965600335990117755735617777191 7627:1 18614:1 31457:1 34729:1 34730:1 35060:1 35985:1 36689:1 36792:1 36929:1 40034:1 40040:1 40060:1 40206:1 40333:1 40488:1 40753:1 40760:1 40766:1 40771:1 40782:1 40792:1 40793:1  |EV| 
-0.0046727046910145560859595192937377 1315:1 11607:1 23453:1 34722:1 34724:1 34730:1 34732:1 34734:1 34753:1 34757:1 34758:1 34778:1 34784:1 34791:1 34792:1 34801:1 34853:1 35033:1 35164:1 35165:1 35166:1 35167:1 35168:1 36398:1 36929:1 40034:1 40040:1 40050:1 40194:1 40403:1 40524:1 40753:1 40761:1 40766:1 40771:1 40792:1 40793:1  |EV| 
-0.0032577944038296303801149900181144 8649:1 19789:1 32888:1 34722:1 34730:1 34864:1 35060:1 36651:1 36930:1 37941:1 40032:1 40040:1 40047:1 40185:1 40340:1 40484:1 40753:1 40762:1 40766:1 40771:1 40784:1 40792:1 40793:1  |EV| 
-0.0057586358375978381057835875367346 8631:1 19766:1 32866:1 36113:1 36740:1 36929:1 37975:1 40034:1 40040:1 40085:1 40211:1 40328:1 40488:1 40753:1 40761:1 40769:1 40771:1 40786:1 40799:1  |EV| 
-0.0060928591150554442870679316968108 7607:1 18591:1 21692:1 34722:1 36796:1 36797:1 36798:1 36929:1 37925:1 40034:1 40040:1 40085:1 40211:1 40328:1 40488:1 40753:1 40761:1 40769:1 40771:1 40786:1 40794:1 40795:1 40799:1  |EV| 
-0.0043052180476755210619677072259037 7825:1 18889:1 32174:1 34754:1 35998:1 36819:1 36929:1 37925:1 40034:1 40040:1 40085:1 40185:1 40349:1 40488:1 40753:1 40761:1 40766:1 40771:1 40786:1 40792:1 40797:1  |EV| 
-0.002706820303048217135621911211274 6234:1 17098:1 29793:1 34716:1 34721:1 34722:1 34729:1 34754:1 34762:1 34777:1 34831:1 34841:1 34860:1 34900:1 34987:1 35063:1 35414:1 35470:1 35686:1 35805:1 35806:1 35807:1 35808:1 35809:1 35813:1 35820:1 36681:1 36929:1 37925:1 40034:1 40040:1 40085:1 40260:1 40408:1 40527:1 40753:1 40761:1 40769:1 40771:1 40786:1 40792:1 40793:1  |EV| 
-0.0039928650318038390321095931767559 2423:1 12871:1 25166:1 34938:1 35314:1 36374:1 36929:1 38069:1 40034:1 40040:1 40085:1 40185:1 40349:1 40488:1 40753:1 40761:1 40767:1 40771:1 40786:1 40792:1  |EV| 
-0.0032049797662487226196370571074112 326:1 10437:1 21883:1 34721:1 34885:1 34890:1 34891:1 34892:1 34893:1 36308:1 36929:1 40034:1 40040:1 40085:1 40194:1 40330:1 40488:1 40753:1 40761:1 40766:1 40771:1 40786:1 40792:1  |EV| 
-0.0046900296753772507257762569565784 7744:1 18796:1 21692:1 34722:1 36805:1 36929:1 37925:1 40034:1 40040:1 40085:1 40211:1 40328:1 40488:1 40753:1 40761:1 40766:1 40771:1 40786:1 40794:1 40797:1  |EV| 
-0.0018532686866617395504697185515397 4818:1 15719:1 28491:1 34729:1 34730:1 34801:1 34882:1 34933:1 34944:1 35121:1 35391:1 35603:1 35666:1 35667:1 36308:1 36929:1 37925:1 40035:1 40039:1 40060:1 40218:1 40339:1 40506:1 40753:1 40761:1 40766:1 40771:1 40786:1 40792:1 40793:1  |EV| 
-0.0027780948237274734335944259555617 4704:1 15347:1 27821:1 34715:1 34722:1 36299:1 36929:1 37925:1 40034:1 40040:1 40085:1 40185:1 40380:1 40488:1 40753:1 40761:1 40769:1 40771:1 40786:1 40797:1  |EV| 
