SVM-light Version V5.01-TK-1.5
0 # kernel type
3 # kernel parameter -d 
1 # kernel parameter -g 
1 # kernel parameter -s 
1 # kernel parameter -r 
empty# kernel parameter -u 
0.4 # kernel parameter -L 
1 # kernel parameter -T 
T # kernel parameter -C 
1 # kernel parameter -F 
0 # kernel parameter -S 
0.400000 # kernel parameter -M 
3 # kernel parameter -N 
S # kernel parameter -V 
S # kernel parameter -W 
0 # kernel parameter -U 
44401 # highest feature index 
14770 # number of training documents 
453 # number of support vectors plus 1 
2.10912 # threshold b, each following line is a SV (starting with alpha*y)
-0.010000000000000000208166817117217 214:1 11149:1 23558:1 37654:1 37661:1 37666:1 37794:1 39234:1 39943:1 43631:1 43639:1 43646:1 43806:1 43952:1 44084:1 44355:1 44365:1 44368:1 44373:1 44391:1 44397:1  |EV| 
-0.010000000000000000208166817117217 10478:1 22678:1 36970:1 37654:1 37670:1 37832:1 37843:1 38694:1 39930:1 39943:1 43633:1 43639:1 43653:1 43805:1 43936:1 44088:1 44355:1 44362:1 44368:1 44373:1 44390:1 44397:1  |EV| 
-0.010000000000000000208166817117217 8966:1 21052:1 35129:1 37653:1 37654:1 38042:1 38973:1 38974:1 39381:1 39943:1 41194:1 43633:1 43639:1 43647:1 43784:1 43936:1 44088:1 44355:1 44363:1 44368:1 44373:1 44388:1 44396:1 44400:1  |EV| 
-0.0096577115536308558163547388630832 7303:1 19145:1 32960:1 37832:1 38001:1 38785:1 39448:1 39704:1 39943:1 40801:1 41274:1 41784:1 43131:1 43631:1 43639:1 43646:1 43806:1 43933:1 44084:1 44355:1 44362:1 44368:1 44373:1 44385:1 44397:1  |EV| 
-0.010000000000000000208166817117217 10570:1 22788:1 37113:1 37654:1 37704:1 37843:1 38694:1 39930:1 39943:1 41192:1 43631:1 43639:1 43646:1 43805:1 43945:1 44084:1 44355:1 44362:1 44368:1 44373:1 44389:1 44397:1  |EV| 
0.059999999999999997779553950749687 14:1 10905:1 23200:1 37661:1 37667:1 39211:1 39212:1 39943:1 41194:1 43634:1 43638:1 43659:1 43790:1 43945:1 44081:1 44355:1 44363:1 44368:1 44373:1 44388:1 44397:1  |EV| 
0.02670421450082385503299597928617 293:1 11249:1 23678:1 37661:1 39234:1 39943:1 43631:1 43639:1 43641:1 43806:1 43945:1 44084:1 44355:1 44363:1 44368:1 44373:1 44388:1 44397:1  |EV| 
0.056735853517786684341306369105951 348:1 11312:1 23759:1 37661:1 37662:1 37669:1 37704:1 37812:1 37813:1 37814:1 37815:1 37816:1 37817:1 37818:1 37843:1 39252:1 39943:1 43631:1 43639:1 43679:1 43784:1 43938:1 44124:1 44355:1 44363:1 44368:1 44373:1 44388:1 44397:1  |EV| 
0.036340480341807236686069160214174 569:1 11569:1 24022:1 37661:1 37882:1 37883:1 37884:1 39281:1 39943:1 43631:1 43639:1 43646:1 43806:1 43952:1 44084:1 44355:1 44363:1 44368:1 44373:1 44388:1 44397:1  |EV| 
0.059999999999999997779553950749687 716:1 11740:1 24193:1 37661:1 37882:1 37883:1 37884:1 39281:1 39943:1 41194:1 43634:1 43638:1 43685:1 43808:1 43952:1 44081:1 44355:1 44363:1 44368:1 44373:1 44388:1 44397:1  |EV| 
-0.010000000000000000208166817117217 270:1 11215:1 23635:1 37661:1 39234:1 39943:1 41194:1 43634:1 43638:1 43685:1 43796:1 43945:1 44081:1 44355:1 44363:1 44368:1 44373:1 44388:1 44397:1  |EV| 
-0.010000000000000000208166817117217 348:1 11474:1 23926:1 37661:1 37662:1 37704:1 37812:1 37813:1 37814:1 37815:1 37816:1 37817:1 37818:1 37819:1 37820:1 37821:1 39252:1 39943:1 43634:1 43638:1 43647:1 43845:1 43938:1 44105:1 44355:1 44363:1 44368:1 44373:1 44388:1 44397:1  |EV| 
-0.010000000000000000208166817117217 342:1 11502:1 23954:1 37661:1 37662:1 37666:1 37669:1 37704:1 37812:1 37813:1 37814:1 37815:1 37816:1 37817:1 37818:1 37819:1 37820:1 37843:1 39252:1 39943:1 43631:1 43639:1 43644:1 43784:1 43970:1 44124:1 44355:1 44363:1 44368:1 44373:1 44388:1 44397:1  |EV| 
-0.010000000000000000208166817117217 958:1 12053:1 23635:1 37661:1 39312:1 39943:1 41194:1 43634:1 43638:1 43685:1 43796:1 43945:1 44081:1 44355:1 44363:1 44368:1 44373:1 44388:1 44397:1  |EV| 
-0.010000000000000000208166817117217 1432:1 12577:1 23635:1 37661:1 39364:1 39943:1 41194:1 43634:1 43638:1 43685:1 43796:1 43945:1 44081:1 44355:1 44363:1 44368:1 44373:1 44388:1 44397:1  |EV| 
0.059999999999999997779553950749687 6405:1 18177:1 31898:1 37653:1 37654:1 37685:1 37769:1 37846:1 38704:1 38705:1 39646:1 39943:1 40200:1 41198:1 41770:1 42990:1 43633:1 43639:1 43659:1 43793:1 43967:1 44088:1 44355:1 44362:1 44371:1 44373:1 44384:1 44388:1 44395:1 44397:1  |EV| 
0.059999999999999997779553950749687 9473:1 21597:1 35758:1 37654:1 37733:1 38527:1 39557:1 39943:1 41098:1 41244:1 41631:1 42930:1 43635:1 43639:1 43666:1 43828:1 43948:1 44087:1 44355:1 44362:1 44371:1 44373:1 44386:1 44388:1 44394:1 44397:1  |EV| 
0.059999999999999997779553950749687 9085:1 21181:1 35518:1 37661:1 37662:1 37949:1 37996:1 38866:1 38996:1 38997:1 39839:1 39943:1 41208:1 43636:1 43639:1 43663:1 43833:1 43980:1 44085:1 44355:1 44363:1 44369:1 44373:1 44388:1 44394:1 44396:1 44397:1  |EV| 
0.059999999999999997779553950749687 9170:1 21269:1 35405:1 37653:1 37654:1 37661:1 37686:1 37709:1 37715:1 37731:1 37742:1 37753:1 37769:1 37825:1 39010:1 39011:1 39012:1 39013:1 39014:1 39844:1 39943:1 43632:1 43639:1 43667:1 43787:1 43941:1 44070:1 44355:1 44363:1 44368:1 44373:1 44388:1 44394:1 44397:1  |EV| 
0.059999999999999997779553950749687 4464:1 15933:1 29270:1 37654:1 37661:1 37847:1 38527:1 38530:1 39318:1 39943:1 43633:1 43639:1 43665:1 43810:1 43929:1 44088:1 44355:1 44365:1 44368:1 44373:1 44388:1 44397:1  |EV| 
-0.010000000000000000208166817117217 9098:1 21195:1 35321:1 37653:1 37654:1 37686:1 37709:1 37715:1 37731:1 37742:1 37769:1 37825:1 39010:1 39011:1 39012:1 39013:1 39014:1 39844:1 39943:1 41194:1 43633:1 43639:1 43685:1 43822:1 43941:1 44082:1 44355:1 44363:1 44368:1 44373:1 44388:1 44394:1 44397:1  |EV| 
-0.010000000000000000208166817117217 9132:1 21230:1 35499:1 37653:1 37661:1 37662:1 37686:1 37709:1 37716:1 37769:1 37949:1 37973:1 37996:1 37999:1 38130:1 38866:1 38996:1 38997:1 39004:1 39005:1 39006:1 39007:1 39008:1 39839:1 39943:1 41387:1 43636:1 43639:1 43655:1 43833:1 44009:1 44151:1 44355:1 44363:1 44369:1 44373:1 44388:1 44394:1 44396:1 44397:1  |EV| 
-0.010000000000000000208166817117217 9137:1 21235:1 35389:1 37653:1 37661:1 37662:1 37686:1 37709:1 37716:1 37769:1 37949:1 37973:1 37996:1 37999:1 38130:1 38866:1 38996:1 38997:1 39004:1 39005:1 39006:1 39007:1 39016:1 39839:1 39943:1 41192:1 43636:1 43639:1 43667:1 43800:1 44009:1 44125:1 44355:1 44363:1 44369:1 44373:1 44388:1 44394:1 44396:1 44397:1  |EV| 
-0.010000000000000000208166817117217 9181:1 21280:1 35418:1 37653:1 37654:1 37661:1 37686:1 37709:1 37716:1 37769:1 37973:1 37989:1 37999:1 38130:1 38866:1 39004:1 39005:1 39006:1 39007:1 39008:1 39844:1 39943:1 41208:1 43632:1 43639:1 43663:1 43834:1 43969:1 44074:1 44355:1 44363:1 44368:1 44373:1 44388:1 44397:1  |EV| 
-0.010000000000000000208166817117217 6586:1 18379:1 32095:1 37653:1 37654:1 37685:1 37686:1 37769:1 37813:1 37846:1 38704:1 38705:1 39646:1 39943:1 40731:1 41221:1 41857:1 43010:1 43633:1 43639:1 43666:1 43793:1 43972:1 44072:1 44355:1 44363:1 44371:1 44373:1 44386:1 44395:1 44397:1  |EV| 
0.059999999999999997779553950749687 5184:1 16759:1 23635:1 37661:1 39595:1 39943:1 41194:1 43634:1 43638:1 43685:1 43796:1 43945:1 44081:1 44355:1 44363:1 44368:1 44373:1 44388:1 44397:1  |EV| 
0.059999999999999997779553950749687 9672:1 21810:1 23635:1 37661:1 39881:1 39943:1 41194:1 43634:1 43638:1 43685:1 43796:1 43945:1 44081:1 44355:1 44363:1 44368:1 44373:1 44388:1 44397:1  |EV| 
0.059999999999999997779553950749687 9521:1 21650:1 23635:1 37661:1 39649:1 39943:1 41194:1 43634:1 43638:1 43685:1 43796:1 43945:1 44081:1 44355:1 44363:1 44368:1 44373:1 44388:1 44394:1 44397:1  |EV| 
0.059999999999999997779553950749687 3964:1 16429:1 29847:1 37648:1 37661:1 37666:1 37681:1 37686:1 37692:1 37694:1 37714:1 37742:1 37753:1 38556:1 39318:1 39943:1 41194:1 43634:1 43638:1 43685:1 43807:1 43938:1 44105:1 44355:1 44363:1 44368:1 44373:1 44388:1 44394:1 44397:1  |EV| 
0.059999999999999997779553950749687 7061:1 18881:1 32679:1 37654:1 37661:1 37733:1 37987:1 38753:1 39683:1 39684:1 39943:1 41194:1 43634:1 43638:1 43685:1 43785:1 43951:1 44081:1 44355:1 44363:1 44368:1 44373:1 44388:1 44396:1 44397:1  |EV| 
-0.010000000000000000208166817117217 4721:1 16264:1 29809:1 37681:1 37694:1 39318:1 39943:1 41194:1 43634:1 43638:1 43685:1 43790:1 43939:1 44081:1 44355:1 44363:1 44368:1 44373:1 44376:1 44388:1 44394:1 44397:1  |EV| 
-0.010000000000000000208166817117217 4470:1 15944:1 23635:1 37661:1 39318:1 39943:1 41194:1 43634:1 43638:1 43685:1 43796:1 43945:1 44081:1 44355:1 44363:1 44368:1 44373:1 44388:1 44394:1  |EV| 
-0.010000000000000000208166817117217 4292:1 15739:1 29069:1 37648:1 39232:1 39540:1 39943:1 41194:1 43634:1 43638:1 43685:1 43796:1 43945:1 44081:1 44355:1 44363:1 44371:1 44373:1 44376:1 44388:1 44397:1  |EV| 
-0.0081713851303194980080224496532537 3301:1 14714:1 27975:1 37661:1 38235:1 39471:1 39472:1 39943:1 41194:1 43634:1 43638:1 43659:1 43790:1 43945:1 44081:1 44355:1 44363:1 44368:1 44373:1 44388:1 44399:1  |EV| 
-0.010000000000000000208166817117217 6974:1 20664:1 34636:1 37661:1 38171:1 39239:1 39943:1 41194:1 43634:1 43638:1 43659:1 43790:1 43945:1 44081:1 44355:1 44363:1 44368:1 44373:1 44388:1 44400:1  |EV| 
0.059999999999999997779553950749687 9905:1 22055:1 36273:1 37653:1 37686:1 37716:1 37769:1 37843:1 38356:1 38357:1 38358:1 39108:1 39459:1 39465:1 39466:1 39467:1 39943:1 43633:1 43639:1 43648:1 43810:1 43982:1 44072:1 44355:1 44365:1 44368:1 44373:1 44388:1 44397:1  |EV| 
0.059999999999999997779553950749687 9235:1 21336:1 35486:1 37653:1 37654:1 37989:1 39844:1 39943:1 41192:1 43632:1 43639:1 43667:1 43789:1 43948:1 44096:1 44355:1 44363:1 44368:1 44373:1 44388:1 44397:1  |EV| 
0.059999999999999997779553950749687 4292:1 15748:1 29077:1 37653:1 37654:1 37661:1 37662:1 37672:1 37704:1 38005:1 38247:1 38504:1 38520:1 39232:1 39540:1 39943:1 43635:1 43639:1 43664:1 43833:1 43953:1 44097:1 44355:1 44363:1 44371:1 44373:1 44388:1 44397:1 44401:1  |EV| 
0.059999999999999997779553950749687 7863:1 19764:1 33589:1 37653:1 37654:1 37669:1 37704:1 37716:1 37781:1 37843:1 37945:1 37993:1 38017:1 38160:1 38875:1 38876:1 38878:1 38879:1 38880:1 38890:1 38891:1 39763:1 39943:1 40901:1 41378:1 41780:1 43267:1 43631:1 43639:1 43651:1 43824:1 43950:1 44077:1 44355:1 44365:1 44368:1 44373:1 44388:1 44396:1 44397:1  |EV| 
-0.010000000000000000208166817117217 9941:1 22091:1 36310:1 37769:1 37843:1 39459:1 39465:1 39466:1 39467:1 39943:1 40200:1 40779:1 41198:1 41770:1 41904:1 43534:1 43535:1 43536:1 43537:1 43633:1 43639:1 43659:1 43810:1 43948:1 44088:1 44355:1 44365:1 44368:1 44373:1 44397:1  |EV| 
-0.010000000000000000208166817117217 4291:1 15738:1 29068:1 37654:1 37661:1 37847:1 38527:1 38529:1 39318:1 39943:1 41253:1 43633:1 43639:1 43685:1 43793:1 43929:1 44088:1 44355:1 44365:1 44368:1 44373:1 44388:1 44397:1  |EV| 
-0.010000000000000000208166817117217 10425:1 22613:1 36896:1 37654:1 37686:1 37704:1 37843:1 37995:1 38694:1 39177:1 39930:1 39943:1 41192:1 43631:1 43639:1 43681:1 43805:1 43952:1 44084:1 44355:1 44365:1 44368:1 44373:1 44388:1 44391:1 44397:1  |EV| 
-0.010000000000000000208166817117217 2508:1 13881:1 26923:1 37843:1 39400:1 39943:1 39973:1 41206:1 41648:1 42459:1 43631:1 43639:1 43641:1 43810:1 43971:1 44084:1 44355:1 44363:1 44368:1 44373:1 44388:1 44397:1  |EV| 
-0.010000000000000000208166817117217 8195:1 20105:1 33975:1 37669:1 37727:1 37843:1 38446:1 39800:1 39943:1 40939:1 41208:1 42073:1 43347:1 43632:1 43639:1 43667:1 43789:1 43948:1 44096:1 44355:1 44363:1 44368:1 44373:1 44388:1 44389:1 44397:1  |EV| 
0.046267999278209043234610930994677 7981:1 19882:1 33719:1 37661:1 37717:1 39381:1 39943:1 41194:1 43634:1 43638:1 43659:1 43790:1 43945:1 44081:1 44355:1 44363:1 44368:1 44373:1 44388:1 44397:1  |EV| 
0.059999999999999997779553950749687 5043:1 16609:1 30102:1 37997:1 39381:1 39943:1 41194:1 43634:1 43638:1 43659:1 43796:1 43971:1 44081:1 44355:1 44363:1 44368:1 44373:1 44388:1 44397:1  |EV| 
0.059999999999999997779553950749687 8413:1 20435:1 34367:1 37653:1 37661:1 37686:1 37692:1 37869:1 38118:1 38920:1 38921:1 39417:1 39943:1 41194:1 43634:1 43638:1 43685:1 43833:1 43934:1 44081:1 44355:1 44363:1 44368:1 44373:1 44388:1 44394:1 44397:1  |EV| 
-0.010000000000000000208166817117217 10678:1 22922:1 37293:1 37661:1 37720:1 37756:1 37757:1 37762:1 39930:1 39943:1 43634:1 43638:1 43666:1 43785:1 43945:1 44081:1 44355:1 44363:1 44368:1 44373:1 44388:1 44397:1  |EV| 
-0.010000000000000000208166817117217 3964:1 16429:1 30093:1 37648:1 37661:1 37666:1 37681:1 37686:1 37692:1 37694:1 37714:1 37742:1 37753:1 38556:1 39318:1 39943:1 43634:1 43638:1 43690:1 43807:1 43939:1 44073:1 44355:1 44363:1 44368:1 44373:1 44388:1 44394:1 44397:1  |EV| 
-0.010000000000000000208166817117217 10650:1 22879:1 37227:1 37661:1 37666:1 37720:1 37756:1 37762:1 39930:1 39943:1 43634:1 43638:1 43659:1 43785:1 43952:1 44081:1 44355:1 44363:1 44368:1 44373:1 44388:1 44397:1  |EV| 
-0.010000000000000000208166817117217 7204:1 19176:1 26322:1 39448:1 39704:1 39943:1 39968:1 41194:1 41629:1 43133:1 43634:1 43638:1 43685:1 43802:1 43971:1 44081:1 44355:1 44363:1 44368:1 44373:1 44388:1 44397:1  |EV| 
-0.010000000000000000208166817117217 8218:1 20141:1 34011:1 37653:1 37661:1 37686:1 37692:1 37704:1 37869:1 38118:1 38274:1 38906:1 38907:1 38920:1 38921:1 39417:1 39943:1 43634:1 43638:1 43642:1 43845:1 43934:1 44073:1 44355:1 44363:1 44368:1 44373:1 44388:1 44394:1 44397:1  |EV| 
0.037869871344748520791689827547088 8294:1 20231:1 34115:1 37669:1 37843:1 39800:1 39943:1 40963:1 41234:1 42073:1 43347:1 43633:1 43639:1 43685:1 43784:1 43948:1 44088:1 44355:1 44363:1 44368:1 44373:1 44388:1 44389:1 44397:1  |EV| 
0.059999999999999997779553950749687 1109:1 12227:1 24705:1 37816:1 37843:1 39241:1 39943:1 41194:1 43633:1 43639:1 43685:1 43784:1 43948:1 44088:1 44355:1 44363:1 44369:1 44373:1 44388:1 44397:1  |EV| 
0.059999999999999997779553950749687 6631:1 18429:1 32145:1 37661:1 37662:1 37665:1 37686:1 37724:1 37792:1 37824:1 37842:1 37843:1 37856:1 38727:1 38728:1 39221:1 39574:1 39943:1 43631:1 43639:1 43655:1 43810:1 43950:1 44124:1 44355:1 44363:1 44368:1 44373:1 44388:1 44397:1  |EV| 
-0.010000000000000000208166817117217 4556:1 16046:1 23641:1 39232:1 39540:1 39943:1 41194:1 43633:1 43639:1 43685:1 43806:1 43953:1 44088:1 44355:1 44363:1 44371:1 44373:1 44388:1 44397:1 44401:1  |EV| 
-0.010000000000000000208166817117217 8323:1 20272:1 23552:1 37654:1 39794:1 39795:1 39796:1 39943:1 41194:1 43633:1 43639:1 43685:1 43810:1 43927:1 44088:1 44355:1 44363:1 44371:1 44373:1 44388:1 44396:1 44397:1 44401:1  |EV| 
-0.010000000000000000208166817117217 9362:1 21468:1 28049:1 37654:1 37733:1 39483:1 39943:1 41194:1 43633:1 43639:1 43685:1 43784:1 43948:1 44088:1 44355:1 44363:1 44371:1 44373:1 44388:1 44401:1  |EV| 
-0.010000000000000000208166817117217 10197:1 22363:1 36601:1 37653:1 37654:1 37913:1 37918:1 37989:1 38630:1 39364:1 39943:1 41194:1 43633:1 43639:1 43653:1 43836:1 43929:1 44088:1 44355:1 44363:1 44368:1 44373:1 44388:1 44397:1  |EV| 
-0.010000000000000000208166817117217 4384:1 15839:1 29168:1 37661:1 37704:1 38247:1 38504:1 39232:1 39540:1 39943:1 43635:1 43639:1 43642:1 43790:1 43953:1 44087:1 44355:1 44363:1 44371:1 44373:1 44388:1 44397:1 44401:1  |EV| 
0.059999999999999997779553950749687 9773:1 21919:1 36121:1 37653:1 37686:1 37704:1 37706:1 37769:1 37771:1 37825:1 37876:1 37947:1 37999:1 38149:1 38325:1 39073:1 39381:1 39943:1 43634:1 43638:1 43666:1 43827:1 43976:1 44073:1 44355:1 44363:1 44368:1 44373:1 44388:1 44397:1  |EV| 
0.059999999999999997779553950749687 3136:1 19457:1 33266:1 37704:1 37939:1 39321:1 39943:1 43634:1 43638:1 43653:1 43790:1 43971:1 44081:1 44355:1 44363:1 44368:1 44373:1 44388:1 44397:1  |EV| 
-0.010000000000000000208166817117217 6839:1 18651:1 32390:1 37661:1 37662:1 37665:1 37686:1 37724:1 37792:1 37824:1 37842:1 37856:1 38727:1 38728:1 39221:1 39574:1 39943:1 41194:1 43634:1 43638:1 43685:1 43818:1 43950:1 44105:1 44355:1 44363:1 44368:1 44373:1 44388:1 44397:1  |EV| 
-0.010000000000000000208166817117217 6746:1 18550:1 32268:1 37661:1 37662:1 37686:1 37724:1 37792:1 37824:1 37842:1 37856:1 38727:1 38728:1 39221:1 39574:1 39943:1 43636:1 43639:1 43640:1 43796:1 43950:1 44092:1 44355:1 44363:1 44368:1 44373:1 44376:1 44388:1 44397:1  |EV| 
-0.010000000000000000208166817117217 5043:1 16609:1 30081:1 37653:1 37654:1 37656:1 37662:1 37666:1 37689:1 37690:1 37704:1 37709:1 37769:1 37771:1 37810:1 37843:1 37887:1 37997:1 38037:1 38153:1 38545:1 38546:1 38559:1 38560:1 38561:1 38562:1 39381:1 39943:1 43634:1 43638:1 43680:1 43817:1 43971:1 44252:1 44355:1 44363:1 44368:1 44373:1 44388:1 44397:1  |EV| 
-0.010000000000000000208166817117217 9094:1 21191:1 35317:1 37661:1 37686:1 37763:1 37843:1 38645:1 38990:1 38991:1 39236:1 39943:1 41208:1 43636:1 43639:1 43663:1 43791:1 43976:1 44086:1 44355:1 44363:1 44368:1 44373:1 44388:1 44397:1  |EV| 
-0.010000000000000000208166817117217 4447:1 15915:1 23641:1 39420:1 39943:1 41194:1 43633:1 43639:1 43685:1 43806:1 43953:1 44088:1 44355:1 44363:1 44368:1 44373:1 44376:1 44388:1 44399:1  |EV| 
0.059999999999999997779553950749687 2444:1 13814:1 23641:1 39408:1 39943:1 41194:1 43633:1 43639:1 43685:1 43806:1 43953:1 44088:1 44355:1 44363:1 44371:1 44373:1 44376:1 44388:1 44397:1  |EV| 
0.059999999999999997779553950749687 8329:1 20284:1 34178:1 37654:1 37661:1 37662:1 37794:1 37795:1 37993:1 37995:1 38085:1 38334:1 38756:1 38857:1 38917:1 38918:1 39794:1 39795:1 39796:1 39943:1 43635:1 43639:1 43649:1 43807:1 43927:1 44157:1 44355:1 44363:1 44371:1 44373:1 44388:1 44396:1 44397:1 44401:1  |EV| 
0.059999999999999997779553950749687 2896:1 14301:1 27386:1 37662:1 38275:1 39408:1 39943:1 43635:1 43639:1 43647:1 43802:1 43953:1 44087:1 44355:1 44363:1 44371:1 44373:1 44376:1 44388:1 44397:1  |EV| 
0.059999999999999997779553950749687 4387:1 19011:1 32829:1 37654:1 38812:1 39375:1 39943:1 41194:1 43633:1 43639:1 43659:1 43810:1 43948:1 44088:1 44355:1 44363:1 44371:1 44373:1 44376:1 44388:1 44397:1  |EV| 
0.059999999999999997779553950749687 10394:1 22579:1 36857:1 37654:1 37843:1 38694:1 39930:1 39943:1 41194:1 43633:1 43639:1 43685:1 43805:1 43979:1 44088:1 44355:1 44363:1 44368:1 44373:1 44388:1 44397:1  |EV| 
-0.010000000000000000208166817117217 8300:1 20351:1 34268:1 37654:1 37661:1 37794:1 37795:1 37995:1 38857:1 39794:1 39795:1 39796:1 39943:1 43635:1 43639:1 43694:1 43808:1 43927:1 44097:1 44355:1 44363:1 44371:1 44373:1 44388:1 44396:1 44397:1 44401:1  |EV| 
-0.010000000000000000208166817117217 1121:1 12244:1 24724:1 37662:1 37760:1 37816:1 37843:1 37913:1 37918:1 37976:1 39241:1 39943:1 43635:1 43639:1 43648:1 43809:1 43948:1 44087:1 44355:1 44363:1 44369:1 44373:1 44388:1 44397:1  |EV| 
-0.010000000000000000208166817117217 2823:1 14212:1 27224:1 37740:1 37843:1 38301:1 39400:1 39943:1 41337:1 43635:1 43639:1 43666:1 43802:1 43927:1 44087:1 44355:1 44363:1 44368:1 44373:1 44388:1 44397:1  |EV| 
-0.010000000000000000208166817117217 8329:1 20284:1 34292:1 37654:1 37661:1 37662:1 37681:1 37795:1 37805:1 37993:1 37995:1 38085:1 38334:1 38756:1 38857:1 38903:1 38904:1 38905:1 38917:1 38918:1 39794:1 39795:1 39796:1 39943:1 41396:1 43636:1 43639:1 43646:1 43807:1 43940:1 44093:1 44355:1 44363:1 44371:1 44373:1 44388:1 44396:1 44397:1 44401:1  |EV| 
-0.010000000000000000208166817117217 8323:1 20272:1 34163:1 37654:1 37661:1 37662:1 37681:1 37795:1 37805:1 37993:1 37995:1 38085:1 38334:1 38537:1 38756:1 38857:1 38903:1 38904:1 38905:1 38917:1 38918:1 39794:1 39795:1 39796:1 39943:1 41554:1 43631:1 43639:1 43718:1 43810:1 43940:1 44077:1 44355:1 44363:1 44371:1 44373:1 44388:1 44396:1 44397:1 44401:1  |EV| 
0.059999999999999997779553950749687 9243:1 21345:1 35495:1 37653:1 37661:1 37686:1 37763:1 37843:1 37989:1 38247:1 38645:1 38990:1 38991:1 39236:1 39943:1 43631:1 43639:1 43673:1 43784:1 43976:1 44069:1 44355:1 44363:1 44368:1 44373:1 44388:1 44397:1  |EV| 
0.059999999999999997779553950749687 10254:1 22426:1 36676:1 37654:1 37661:1 37709:1 37730:1 37751:1 37842:1 37878:1 37997:1 38055:1 38137:1 38459:1 38589:1 38611:1 38836:1 39132:1 39316:1 39943:1 43633:1 43639:1 43664:1 43836:1 43930:1 44100:1 44355:1 44363:1 44368:1 44373:1 44388:1 44397:1  |EV| 
0.047222859785656511044660277320872 1938:1 13270:1 25921:1 37661:1 37709:1 37710:1 37802:1 37843:1 37949:1 38135:1 38136:1 38137:1 38143:1 38145:1 39370:1 39943:1 41301:1 43633:1 43639:1 43671:1 43789:1 43931:1 44072:1 44355:1 44363:1 44368:1 44373:1 44388:1 44397:1  |EV| 
0.059999999999999997779553950749687 3893:1 15327:1 28606:1 37654:1 37661:1 37662:1 37704:1 37709:1 37733:1 37802:1 37947:1 37988:1 38076:1 38077:1 38489:1 38490:1 38494:1 38495:1 39531:1 39532:1 39943:1 41199:1 43632:1 43639:1 43673:1 43863:1 43948:1 44080:1 44355:1 44363:1 44368:1 44373:1 44388:1 44397:1  |EV| 
-0.010000000000000000208166817117217 10192:1 22357:1 36594:1 37654:1 37661:1 37709:1 37730:1 37751:1 37842:1 37997:1 38055:1 38137:1 38459:1 38589:1 38611:1 38836:1 39132:1 39133:1 39316:1 39943:1 41194:1 43633:1 43639:1 43659:1 43798:1 43930:1 44082:1 44355:1 44363:1 44368:1 44373:1 44388:1 44397:1  |EV| 
-0.010000000000000000208166817117217 1942:1 13274:1 25925:1 37661:1 37709:1 37802:1 37843:1 37949:1 38135:1 38136:1 38137:1 38143:1 38144:1 38145:1 39370:1 39943:1 43633:1 43639:1 43653:1 43839:1 43931:1 44082:1 44355:1 44363:1 44368:1 44373:1 44388:1 44397:1  |EV| 
-0.010000000000000000208166817117217 10147:1 22309:1 36540:1 37654:1 37661:1 37709:1 37730:1 37751:1 37842:1 37869:1 37878:1 37997:1 38055:1 38137:1 38459:1 38589:1 38611:1 38836:1 39132:1 39133:1 39134:1 39316:1 39943:1 43635:1 43639:1 43678:1 43790:1 43930:1 44136:1 44355:1 44363:1 44368:1 44373:1 44388:1 44397:1  |EV| 
-0.010000000000000000208166817117217 10181:1 22345:1 36582:1 37653:1 37654:1 37661:1 37662:1 37704:1 37709:1 37730:1 37751:1 37796:1 37842:1 37869:1 37878:1 37997:1 38055:1 38137:1 38459:1 38589:1 38611:1 38613:1 38614:1 38836:1 39132:1 39133:1 39134:1 39135:1 39136:1 39137:1 39138:1 39316:1 39943:1 43635:1 43639:1 43762:1 43821:1 43930:1 44309:1 44355:1 44363:1 44368:1 44373:1 44388:1 44397:1  |EV| 
-0.010000000000000000208166817117217 3814:1 15246:1 28519:1 37654:1 37661:1 37662:1 37686:1 37704:1 37706:1 37709:1 37733:1 37802:1 37947:1 37988:1 38076:1 38077:1 38488:1 38489:1 38490:1 38494:1 38495:1 39531:1 39532:1 39943:1 43632:1 43639:1 43720:1 43835:1 43948:1 44078:1 44355:1 44363:1 44368:1 44388:1 44397:1  |EV| 
0.059999999999999997779553950749687 791:1 11846:1 24296:1 37654:1 37661:1 37662:1 37686:1 37733:1 37853:1 37870:1 37901:1 37902:1 37903:1 37904:1 37906:1 37907:1 37908:1 37909:1 39299:1 39943:1 43635:1 43639:1 43707:1 43807:1 43936:1 44157:1 44355:1 44363:1 44368:1 44373:1 44388:1 44394:1 44396:1 44397:1  |EV| 
0.045234976623579156718157889827125 4292:1 16202:1 29590:1 37648:1 37843:1 38274:1 39232:1 39540:1 39943:1 43631:1 43639:1 43646:1 43784:1 43945:1 44084:1 44355:1 44363:1 44371:1 44373:1 44374:1 44388:1 44397:1  |EV| 
0.056197896389181808962653974504065 8978:1 21069:1 35149:1 37661:1 38274:1 38969:1 39221:1 39574:1 39943:1 43635:1 43639:1 43665:1 43802:1 43927:1 44087:1 44355:1 44363:1 44368:1 44373:1 44388:1 44397:1  |EV| 
-0.010000000000000000208166817117217 933:1 12024:1 24476:1 37654:1 37661:1 37662:1 37686:1 37733:1 37853:1 37870:1 37901:1 37902:1 37903:1 37904:1 37906:1 37907:1 37908:1 39299:1 39943:1 43635:1 43639:1 43649:1 43837:1 43936:1 44157:1 44355:1 44363:1 44368:1 44373:1 44388:1 44394:1 44396:1 44397:1  |EV| 
-0.00090203678222374058214005909661637 1626:1 16850:1 30369:1 37661:1 37662:1 37733:1 37865:1 37876:1 37993:1 38055:1 38325:1 38536:1 38616:1 38617:1 39242:1 39943:1 43631:1 43639:1 43679:1 43784:1 43938:1 44124:1 44355:1 44363:1 44368:1 44373:1 44388:1 44394:1 44395:1  |EV| 
-0.010000000000000000208166817117217 8807:1 20890:1 34930:1 37661:1 37686:1 37733:1 37769:1 37791:1 38274:1 38951:1 38969:1 39221:1 39574:1 39943:1 43635:1 43639:1 43694:1 43785:1 43927:1 44097:1 44355:1 44363:1 44368:1 44373:1 44388:1 44397:1  |EV| 
-0.010000000000000000208166817117217 9217:1 21317:1 35459:1 37653:1 37654:1 37661:1 37686:1 37742:1 37763:1 37783:1 37843:1 37989:1 38247:1 38645:1 38990:1 38991:1 39236:1 39943:1 43631:1 43639:1 43655:1 43784:1 43950:1 44124:1 44355:1 44362:1 44368:1 44373:1 44386:1 44389:1 44397:1  |EV| 
-0.010000000000000000208166817117217 262:1 11207:1 23625:1 37654:1 37661:1 37666:1 37742:1 37791:1 37792:1 37794:1 37795:1 39234:1 39943:1 43631:1 43639:1 43673:1 43806:1 43938:1 44124:1 44355:1 44365:1 44368:1 44373:1 44397:1  |EV| 
0.059999999999999997779553950749687 1945:1 13277:1 25928:1 37709:1 38137:1 38145:1 39371:1 39943:1 43633:1 43639:1 43653:1 43810:1 43979:1 44088:1 44355:1 44363:1 44368:1 44373:1 44388:1 44397:1  |EV| 
-0.010000000000000000208166817117217 1941:1 13273:1 25924:1 37661:1 37709:1 37710:1 37949:1 38137:1 38145:1 39371:1 39943:1 41301:1 43635:1 43639:1 43671:1 43796:1 43979:1 44087:1 44355:1 44363:1 44368:1 44373:1 44388:1 44397:1  |EV| 
-0.010000000000000000208166817117217 8310:1 20253:1 34142:1 37669:1 37720:1 37727:1 37843:1 38446:1 38777:1 39800:1 39943:1 41194:1 43633:1 43639:1 43659:1 43789:1 43929:1 44088:1 44355:1 44363:1 44368:1 44373:1 44388:1 44397:1  |EV| 
-0.010000000000000000208166817117217 8347:1 20303:1 34204:1 37669:1 37720:1 37727:1 37762:1 37843:1 38777:1 39800:1 39943:1 43633:1 43639:1 43666:1 43784:1 43929:1 44088:1 44355:1 44363:1 44368:1 44373:1 44388:1 44397:1  |EV| 
-0.00090075935967498803498554327262582 733:1 11771:1 24223:1 37661:1 37666:1 37686:1 37882:1 37883:1 37884:1 39281:1 39943:1 41208:1 43636:1 43639:1 43667:1 43808:1 43957:1 44086:1 44355:1 44365:1 44368:1 44373:1 44391:1 44397:1  |EV| 
-0.010000000000000000208166817117217 4940:1 16493:1 29931:1 37704:1 37715:1 39561:1 39943:1 40200:1 41198:1 41770:1 42856:1 43633:1 43639:1 43659:1 43810:1 43948:1 44088:1 44355:1 44363:1 44368:1 44373:1 44388:1 44399:1  |EV| 
0.059999999999999997779553950749687 2755:1 14134:1 23718:1 37654:1 39402:1 39943:1 43631:1 43639:1 43641:1 43806:1 43945:1 44084:1 44355:1 44365:1 44368:1 44373:1 44388:1 44397:1  |EV| 
0.059999999999999997779553950749687 1977:1 13312:1 26381:1 37653:1 37654:1 37662:1 37676:1 37843:1 37897:1 37918:1 37984:1 37989:1 38201:1 38202:1 38217:1 38218:1 39231:1 39943:1 43631:1 43639:1 43720:1 43836:1 43938:1 44124:1 44355:1 44363:1 44371:1 44373:1 44388:1 44397:1  |EV| 
-0.010000000000000000208166817117217 1977:1 13312:1 26408:1 37654:1 37662:1 37676:1 37705:1 37843:1 37918:1 37984:1 38171:1 38201:1 38202:1 38217:1 38218:1 39231:1 39943:1 41194:1 43634:1 43638:1 43653:1 43827:1 43938:1 44105:1 44355:1 44363:1 44371:1 44373:1 44388:1 44397:1  |EV| 
-0.010000000000000000208166817117217 922:1 12007:1 24456:1 37654:1 37661:1 37662:1 37853:1 37870:1 37906:1 37907:1 37909:1 39299:1 39943:1 43634:1 43638:1 43653:1 43807:1 43976:1 44073:1 44355:1 44363:1 44368:1 44373:1 44388:1 44394:1 44396:1 44397:1  |EV| 
-0.010000000000000000208166817117217 2065:1 13406:1 26082:1 37653:1 37654:1 37662:1 37676:1 37843:1 37897:1 37918:1 37984:1 37989:1 38201:1 38202:1 39231:1 39943:1 43631:1 43639:1 43679:1 43836:1 43976:1 44069:1 44355:1 44365:1 44371:1 44373:1 44397:1  |EV| 
-0.010000000000000000208166817117217 790:1 11844:1 24294:1 37654:1 37661:1 37662:1 37853:1 37870:1 37906:1 37907:1 39299:1 39943:1 41194:1 43634:1 43638:1 43685:1 43837:1 43976:1 44073:1 44355:1 44363:1 44368:1 44373:1 44388:1 44394:1 44396:1 44397:1  |EV| 
-0.010000000000000000208166817117217 9085:1 21181:1 35306:1 37661:1 37662:1 37996:1 38866:1 38996:1 38997:1 39839:1 39943:1 43634:1 43638:1 43653:1 43833:1 43928:1 44081:1 44355:1 44363:1 44369:1 44373:1 44394:1 44396:1 44397:1  |EV| 
0.056809323605821020197748083546685 2508:1 13881:1 27479:1 37843:1 39400:1 39943:1 41194:1 43633:1 43639:1 43685:1 43810:1 43927:1 44088:1 44355:1 44363:1 44368:1 44373:1 44388:1 44397:1  |EV| 
0.059999999999999997779553950749687 6444:1 18219:1 31939:1 37653:1 37654:1 37662:1 37742:1 37989:1 39395:1 39943:1 41253:1 43633:1 43639:1 43685:1 43789:1 43936:1 44088:1 44355:1 44363:1 44368:1 44373:1 44388:1 44397:1 44399:1  |EV| 
0.059999999999999997779553950749687 4461:1 15930:1 23641:1 39541:1 39943:1 41253:1 43633:1 43639:1 43685:1 43806:1 43953:1 44088:1 44355:1 44365:1 44368:1 44373:1 44388:1 44397:1  |EV| 
0.059999999999999997779553950749687 1291:1 12420:1 23552:1 37654:1 39233:1 39943:1 41194:1 43633:1 43639:1 43685:1 43810:1 43927:1 44088:1 44355:1 44363:1 44368:1 44373:1 44388:1 44397:1  |EV| 
-0.010000000000000000208166817117217 3358:1 14771:1 23641:1 39381:1 39943:1 41244:1 43633:1 43639:1 43685:1 43806:1 43953:1 44088:1 44355:1 44363:1 44368:1 44373:1 44388:1 44399:1  |EV| 
-0.010000000000000000208166817117217 210:1 11144:1 23552:1 37654:1 39233:1 39943:1 41194:1 43633:1 43639:1 43685:1 43810:1 43927:1 44088:1 44355:1 44363:1 44368:1 44373:1 44388:1  |EV| 
-0.010000000000000000208166817117217 5388:1 16979:1 30513:1 37993:1 39381:1 39943:1 41194:1 43633:1 43639:1 43685:1 43810:1 43927:1 44088:1 44355:1 44363:1 44368:1 44373:1 44388:1 44394:1 44395:1  |EV| 
-0.010000000000000000208166817117217 4527:1 16016:1 23641:1 39442:1 39943:1 41194:1 43633:1 43639:1 43685:1 43806:1 43953:1 44088:1 44355:1 44363:1 44368:1 44373:1 44388:1 44399:1  |EV| 
-0.010000000000000000208166817117217 9476:1 21600:1 23641:1 39877:1 39943:1 41194:1 43633:1 43639:1 43685:1 43806:1 43953:1 44088:1 44355:1 44363:1 44368:1 44373:1 44388:1 44399:1  |EV| 
-0.0098367553473372847799849338912281 4923:1 16474:1 29904:1 37648:1 37661:1 37666:1 37681:1 37686:1 37692:1 37694:1 37709:1 37714:1 37742:1 37753:1 37825:1 38556:1 38587:1 39318:1 39943:1 41631:1 42333:1 43635:1 43639:1 43649:1 43807:1 43979:1 44157:1 44355:1 44364:1 44368:1 44373:1 44386:1 44394:1 44397:1  |EV| 
-0.010000000000000000208166817117217 2604:1 14232:1 27267:1 37648:1 37653:1 37654:1 37661:1 37662:1 37686:1 37694:1 37827:1 37828:1 37843:1 37866:1 37945:1 38144:1 38153:1 38253:1 38254:1 38255:1 38256:1 38257:1 38258:1 38259:1 38260:1 38275:1 38277:1 38278:1 38279:1 39408:1 39943:1 43632:1 43639:1 43699:1 43801:1 43953:1 44316:1 44355:1 44363:1 44371:1 44373:1 44388:1 44397:1  |EV| 
-0.010000000000000000208166817117217 2823:1 14212:1 26322:1 39400:1 39943:1 40237:1 41338:1 41648:1 42459:1 43634:1 43638:1 43685:1 43802:1 43971:1 44081:1 44355:1 44363:1 44368:1 44373:1 44388:1 44397:1  |EV| 
-0.010000000000000000208166817117217 4721:1 16264:1 29664:1 37648:1 37661:1 37666:1 37681:1 37686:1 37692:1 37694:1 37714:1 37742:1 38556:1 39318:1 39943:1 43636:1 43639:1 43643:1 43790:1 43938:1 44085:1 44355:1 44363:1 44368:1 44373:1 44376:1 44388:1 44394:1 44397:1  |EV| 
-0.010000000000000000208166817117217 7342:1 19207:1 33019:1 37654:1 37662:1 37681:1 37686:1 37704:1 37832:1 38001:1 38005:1 38174:1 38785:1 38786:1 38787:1 38790:1 39448:1 39704:1 39943:1 40810:1 41498:1 41888:1 43128:1 43631:1 43639:1 43655:1 43806:1 43961:1 44124:1 44355:1 44363:1 44368:1 44373:1 44388:1 44397:1  |EV| 
0.026734480501125420376373753583721 9039:1 21131:1 35232:1 38969:1 39221:1 39574:1 39943:1 41194:1 43633:1 43639:1 43659:1 43806:1 43927:1 44088:1 44355:1 44363:1 44368:1 44373:1 44388:1 44397:1  |EV| 
0.059999999999999997779553950749687 6095:1 17850:1 23552:1 37654:1 39628:1 39943:1 41194:1 43633:1 43639:1 43685:1 43810:1 43927:1 44088:1 44355:1 44363:1 44368:1 44373:1 44388:1 44397:1  |EV| 
-0.010000000000000000208166817117217 3019:1 21210:1 35336:1 37843:1 37869:1 38229:1 39017:1 39236:1 39943:1 41276:1 43633:1 43639:1 43685:1 43836:1 43932:1 44088:1 44355:1 44363:1 44368:1 44373:1 44397:1  |EV| 
-0.010000000000000000208166817117217 3451:1 14866:1 28125:1 37733:1 37785:1 38137:1 38139:1 38160:1 39240:1 39943:1 41194:1 43633:1 43639:1 43685:1 43789:1 43936:1 44088:1 44355:1 44363:1 44368:1 44373:1 44376:1 44388:1  |EV| 
-0.010000000000000000208166817117217 3449:1 14864:1 28123:1 37733:1 37785:1 37806:1 37843:1 38137:1 38139:1 38160:1 39492:1 39493:1 39943:1 41194:1 43633:1 43639:1 43685:1 43786:1 43967:1 44088:1 44355:1 44363:1 44368:1 44373:1 44376:1 44388:1  |EV| 
-0.010000000000000000208166817117217 9437:1 21553:1 35714:1 39045:1 39731:1 39943:1 41244:1 43633:1 43639:1 43685:1 43810:1 43927:1 44088:1 44355:1 44363:1 44371:1 44373:1 44388:1 44401:1  |EV| 
-0.010000000000000000208166817117217 4207:1 15650:1 28972:1 37653:1 37654:1 37691:1 37869:1 39232:1 39943:1 41194:1 43633:1 43639:1 43685:1 43789:1 43936:1 44088:1 44355:1 44363:1 44371:1 44373:1 44388:1  |EV| 
-0.010000000000000000208166817117217 8906:1 20991:1 35058:1 37661:1 37686:1 37733:1 38951:1 39221:1 39574:1 39943:1 40590:1 41444:1 41724:1 43375:1 43631:1 43639:1 43650:1 43806:1 43952:1 44084:1 44355:1 44365:1 44368:1 44373:1 44384:1 44388:1 44391:1 44397:1  |EV| 
-0.010000000000000000208166817117217 10837:1 23123:1 37570:1 37661:1 37666:1 37756:1 37762:1 39930:1 39943:1 43631:1 43639:1 43646:1 43806:1 43952:1 44084:1 44355:1 44363:1 44368:1 44373:1 44388:1 44397:1  |EV| 
-0.010000000000000000208166817117217 9103:1 21200:1 35326:1 37653:1 37661:1 37686:1 37989:1 38645:1 39236:1 39943:1 41657:1 43435:1 43631:1 43639:1 43650:1 43784:1 43933:1 44084:1 44355:1 44363:1 44368:1 44373:1 44397:1  |EV| 
-0.010000000000000000208166817117217 9150:1 21248:1 35381:1 37653:1 37654:1 37661:1 37686:1 37709:1 37715:1 37731:1 37742:1 37753:1 37769:1 37825:1 37832:1 39010:1 39011:1 39012:1 39013:1 39844:1 39943:1 42108:1 43440:1 43632:1 43639:1 43646:1 43787:1 43972:1 44070:1 44355:1 44363:1 44368:1 44373:1 44389:1 44394:1 44397:1  |EV| 
-0.0064178624058388250919748863054792 935:1 12026:1 24478:1 37664:1 37916:1 37917:1 39237:1 39943:1 41194:1 43633:1 43639:1 43685:1 43805:1 43979:1 44088:1 44355:1 44363:1 44368:1 44373:1 44388:1 44400:1  |EV| 
-0.010000000000000000208166817117217 4369:1 15822:1 29152:1 37662:1 38538:1 39541:1 39943:1 43635:1 43639:1 43647:1 43802:1 43953:1 44087:1 44355:1 44365:1 44368:1 44373:1 44388:1 44397:1  |EV| 
-0.010000000000000000208166817117217 4611:1 16121:1 29491:1 37648:1 37662:1 37819:1 38252:1 38274:1 39232:1 39540:1 39943:1 43634:1 43638:1 43666:1 43785:1 43945:1 44081:1 44355:1 44363:1 44371:1 44373:1 44388:1 44397:1  |EV| 
-0.010000000000000000208166817117217 4203:1 15646:1 28964:1 37662:1 37663:1 37709:1 37902:1 37989:1 38145:1 38500:1 38501:1 39534:1 39943:1 43635:1 43639:1 43690:1 43809:1 43979:1 44087:1 44355:1 44363:1 44368:1 44373:1 44388:1 44396:1 44397:1  |EV| 
-0.010000000000000000208166817117217 10435:1 22623:1 36906:1 37656:1 37689:1 37690:1 39278:1 39943:1 41194:1 43634:1 43638:1 43685:1 43809:1 43933:1 44081:1 44355:1 44363:1 44368:1 44373:1 44388:1 44397:1  |EV| 
-0.010000000000000000208166817117217 7187:1 19012:1 32830:1 38162:1 38246:1 39708:1 39709:1 39943:1 41194:1 43633:1 43639:1 43685:1 43784:1 43948:1 44088:1 44355:1 44363:1 44371:1 44373:1 44374:1 44376:1 44388:1  |EV| 
0.059999999999999997779553950749687 10644:1 22869:1 37217:1 37656:1 37689:1 37690:1 37843:1 39278:1 39943:1 43631:1 43639:1 43646:1 43810:1 43933:1 44084:1 44355:1 44363:1 44368:1 44373:1 44388:1 44397:1  |EV| 
0.03495050973893584767004938385071 7147:1 18968:1 32787:1 39448:1 39704:1 39943:1 39962:1 41209:1 41629:1 43133:1 43631:1 43639:1 43641:1 43806:1 43971:1 44084:1 44355:1 44363:1 44368:1 44373:1 44388:1 44397:1  |EV| 
0.035866136000456794175050845296937 7617:1 19514:1 33320:1 37843:1 37848:1 39740:1 39943:1 41208:1 43632:1 43639:1 43663:1 43805:1 43927:1 44096:1 44355:1 44363:1 44368:1 44373:1 44388:1 44397:1  |EV| 
-0.010000000000000000208166817117217 1291:1 12744:1 25309:1 37647:1 37653:1 37654:1 37704:1 37715:1 37756:1 37774:1 38003:1 38045:1 38097:1 38098:1 38099:1 39233:1 39943:1 41295:1 43631:1 43639:1 43645:1 43810:1 43938:1 44124:1 44355:1 44363:1 44368:1 44373:1 44397:1  |EV| 
-0.010000000000000000208166817117217 7821:1 19722:1 33545:1 37653:1 37654:1 37669:1 37781:1 37843:1 37945:1 37993:1 38017:1 38875:1 38876:1 38878:1 38879:1 39763:1 39943:1 43631:1 43639:1 43679:1 43824:1 43951:1 44069:1 44355:1 44365:1 44368:1 44373:1 44391:1 44396:1 44397:1  |EV| 
-0.010000000000000000208166817117217 6499:1 18328:1 32044:1 37653:1 37654:1 37661:1 37664:1 37666:1 37681:1 37685:1 37686:1 37704:1 37769:1 37813:1 37846:1 37878:1 37918:1 38149:1 38398:1 38418:1 38700:1 38701:1 38704:1 38705:1 39646:1 39943:1 43633:1 43639:1 43678:1 43793:1 43963:1 44132:1 44355:1 44363:1 44371:1 44373:1 44388:1 44395:1 44397:1  |EV| 
-0.010000000000000000208166817117217 7987:1 19888:1 33725:1 37653:1 37654:1 37669:1 37704:1 37716:1 37781:1 37843:1 37945:1 37993:1 38017:1 38160:1 38875:1 38876:1 38878:1 38879:1 38880:1 38881:1 38882:1 38890:1 38891:1 39763:1 39943:1 43631:1 43639:1 43710:1 43824:1 43970:1 44077:1 44355:1 44365:1 44368:1 44373:1 44396:1 44397:1  |EV| 
-0.010000000000000000208166817117217 6581:1 18384:1 32100:1 37653:1 37654:1 37661:1 37664:1 37666:1 37681:1 37685:1 37686:1 37704:1 37769:1 37813:1 37823:1 37846:1 37918:1 38149:1 38398:1 38418:1 38700:1 38701:1 38704:1 38705:1 39646:1 39943:1 41194:1 43633:1 43639:1 43685:1 43840:1 43963:1 44126:1 44355:1 44363:1 44371:1 44373:1 44388:1 44395:1 44397:1  |EV| 
-0.010000000000000000208166817117217 2717:1 14096:1 23635:1 37661:1 39402:1 39943:1 41194:1 43634:1 43638:1 43685:1 43796:1 43945:1 44081:1 44355:1 44363:1 44368:1 44373:1 44376:1 44388:1  |EV| 
-0.010000000000000000208166817117217 1177:1 12305:1 23635:1 37661:1 39342:1 39943:1 41194:1 43634:1 43638:1 43685:1 43796:1 43945:1 44081:1 44355:1 44363:1 44368:1 44373:1 44388:1 44394:1  |EV| 
-0.010000000000000000208166817117217 6841:1 18653:1 23635:1 37661:1 39665:1 39943:1 41194:1 43634:1 43638:1 43685:1 43796:1 43945:1 44081:1 44355:1 44363:1 44368:1 44373:1 44388:1  |EV| 
-0.010000000000000000208166817117217 8414:1 20436:1 23635:1 37661:1 39797:1 39943:1 41194:1 43634:1 43638:1 43685:1 43796:1 43945:1 44081:1 44355:1 44363:1 44368:1 44373:1 44388:1  |EV| 
-0.010000000000000000208166817117217 8571:1 20613:1 23635:1 37661:1 39805:1 39943:1 41194:1 43634:1 43638:1 43685:1 43796:1 43945:1 44081:1 44355:1 44363:1 44368:1 44373:1 44388:1  |EV| 
-0.010000000000000000208166817117217 2604:1 13981:1 26887:1 37648:1 37661:1 37827:1 37828:1 37866:1 38144:1 38260:1 38275:1 39408:1 39943:1 43632:1 43639:1 43643:1 43783:1 43953:1 44071:1 44355:1 44363:1 44371:1 44373:1 44388:1 44397:1  |EV| 
-0.010000000000000000208166817117217 10409:1 22596:1 36877:1 37654:1 37661:1 37662:1 37663:1 37670:1 37750:1 37843:1 38047:1 38078:1 38657:1 38694:1 39057:1 39930:1 39943:1 43632:1 43639:1 43696:1 43798:1 43979:1 44080:1 44355:1 44363:1 44368:1 44373:1 44388:1 44397:1  |EV| 
-0.010000000000000000208166817117217 9927:1 22077:1 36295:1 37704:1 37843:1 39459:1 39465:1 39466:1 39467:1 39943:1 39983:1 40123:1 41215:1 41283:1 41631:1 41701:1 43529:1 43530:1 43631:1 43639:1 43650:1 43810:1 43945:1 44084:1 44355:1 44362:1 44368:1 44373:1 44389:1 44397:1  |EV| 
-0.010000000000000000208166817117217 5028:1 16591:1 30059:1 37656:1 37657:1 37742:1 37918:1 38137:1 39560:1 39943:1 41373:1 43633:1 43639:1 43647:1 43784:1 43936:1 44088:1 44355:1 44363:1 44369:1 44373:1 44388:1 44397:1 44399:1  |EV| 
-0.010000000000000000208166817117217 6213:1 17972:1 31679:1 37824:1 38684:1 39439:1 39943:1 39977:1 41208:1 41631:1 42546:1 43632:1 43639:1 43667:1 43805:1 43953:1 44096:1 44355:1 44363:1 44368:1 44373:1 44397:1  |EV| 
-0.010000000000000000208166817117217 908:1 11990:1 24439:1 37654:1 37661:1 37664:1 37686:1 37704:1 37882:1 37883:1 37884:1 37885:1 37892:1 37893:1 37894:1 39281:1 39943:1 43634:1 43638:1 43648:1 43818:1 43952:1 44073:1 44355:1 44363:1 44368:1 44373:1 44388:1 44397:1  |EV| 
-0.010000000000000000208166817117217 6040:1 17787:1 31486:1 37661:1 37686:1 37733:1 37791:1 37876:1 37893:1 38055:1 38617:1 38638:1 39595:1 39943:1 43634:1 43638:1 43690:1 43795:1 43945:1 44073:1 44355:1 44363:1 44368:1 44373:1 44388:1 44397:1  |EV| 
-0.0085677366019275679603905970793676 1622:1 12823:1 25396:1 37647:1 37653:1 37769:1 37771:1 38112:1 38113:1 38115:1 38116:1 39361:1 39943:1 41194:1 43634:1 43638:1 43685:1 43833:1 43934:1 44081:1 44355:1 44363:1 44368:1 44373:1 44388:1 44394:1 44396:1  |EV| 
-0.010000000000000000208166817117217 10794:1 23071:1 37506:1 37686:1 37704:1 37769:1 37995:1 39177:1 39930:1 39943:1 41198:1 43634:1 43638:1 43659:1 43785:1 43952:1 44081:1 44355:1 44365:1 44368:1 44373:1 44388:1 44391:1 44397:1  |EV| 
-0.0022743827625326257235727211991616 6168:1 17925:1 31631:1 37654:1 37661:1 37670:1 37685:1 37686:1 37769:1 37820:1 37824:1 38646:1 38679:1 38680:1 38681:1 38682:1 38683:1 38684:1 39439:1 39943:1 43633:1 43639:1 43675:1 43805:1 43930:1 44100:1 44355:1 44363:1 44368:1 44373:1 44397:1  |EV| 
0.038758934739395206614531730338058 3540:1 14966:1 28223:1 37654:1 37843:1 39488:1 39943:1 41208:1 43632:1 43639:1 43667:1 43805:1 43953:1 44096:1 44355:1 44363:1 44368:1 44373:1 44388:1 44396:1 44397:1  |EV| 
0.054351847331450736655611422065704 1984:1 13319:1 26086:1 37704:1 37798:1 37887:1 39381:1 39943:1 43633:1 43639:1 43653:1 43810:1 43979:1 44088:1 44355:1 44363:1 44368:1 44373:1 44388:1 44397:1  |EV| 
-0.010000000000000000208166817117217 1928:1 13260:1 25909:1 37661:1 37802:1 37843:1 37949:1 38135:1 38136:1 38137:1 39370:1 39943:1 41299:1 43633:1 43639:1 43653:1 43789:1 43967:1 44088:1 44355:1 44362:1 44368:1 44373:1 44387:1 44397:1  |EV| 
-0.001770481039703697759279954482281 4314:1 15766:1 29094:1 37654:1 37661:1 37670:1 37706:1 37717:1 37791:1 37847:1 37897:1 38527:1 38528:1 38530:1 39318:1 39943:1 43633:1 43639:1 43675:1 43810:1 43941:1 44100:1 44355:1 44362:1 44368:1 44373:1 44386:1 44397:1  |EV| 
-0.010000000000000000208166817117217 10246:1 22416:1 36665:1 37653:1 37654:1 37989:1 39364:1 39943:1 41303:1 43632:1 43639:1 43667:1 43836:1 43927:1 44096:1 44355:1 44363:1 44368:1 44373:1 44397:1  |EV| 
-0.010000000000000000208166817117217 4389:1 15945:1 29280:1 37654:1 37661:1 37670:1 37706:1 37717:1 37756:1 37791:1 37847:1 37897:1 38526:1 38527:1 38528:1 38530:1 39318:1 39943:1 43633:1 43639:1 43719:1 43810:1 43969:1 44100:1 44355:1 44363:1 44368:1 44373:1 44384:1 44397:1  |EV| 
-0.010000000000000000208166817117217 7741:1 19641:1 33456:1 37843:1 37848:1 37920:1 38866:1 39740:1 39943:1 40148:1 41273:1 41749:1 43242:1 43633:1 43639:1 43659:1 43805:1 43932:1 44088:1 44355:1 44364:1 44368:1 44373:1 44386:1 44397:1  |EV| 
0.03472564423619780432650472334899 10876:1 23168:1 23678:1 37661:1 39930:1 39943:1 43631:1 43639:1 43641:1 43806:1 43945:1 44084:1 44355:1 44363:1 44368:1 44373:1 44388:1 44397:1  |EV| 
0.017903867592704753725074695580588 6943:1 18763:1 32536:1 37654:1 37661:1 37733:1 37987:1 38753:1 39683:1 39684:1 39943:1 41220:1 43631:1 43639:1 43643:1 43806:1 43951:1 44084:1 44355:1 44363:1 44368:1 44373:1 44388:1 44396:1 44397:1  |EV| 
-0.010000000000000000208166817117217 3098:1 14511:1 27775:1 37993:1 39441:1 39943:1 43631:1 43639:1 43641:1 43810:1 43971:1 44084:1 44355:1 44363:1 44371:1 44373:1 44388:1 44400:1  |EV| 
-0.010000000000000000208166817117217 4019:1 20015:1 23678:1 37661:1 39535:1 39943:1 43631:1 43639:1 43641:1 43806:1 43945:1 44084:1 44355:1 44363:1 44368:1 44373:1 44376:1 44388:1 44399:1  |EV| 
-0.010000000000000000208166817117217 342:1 11306:1 23754:1 37661:1 37662:1 37666:1 37704:1 37812:1 37813:1 37814:1 37815:1 37816:1 37817:1 37818:1 37819:1 37820:1 39252:1 39943:1 43634:1 43638:1 43685:1 43845:1 43970:1 44105:1 44355:1 44363:1 44368:1 44373:1 44388:1 44397:1  |EV| 
-0.010000000000000000208166817117217 8300:1 20238:1 34371:1 37654:1 37661:1 37686:1 37794:1 38589:1 38919:1 39794:1 39795:1 39796:1 39943:1 43632:1 43639:1 43693:1 43786:1 43927:1 44096:1 44355:1 44363:1 44371:1 44373:1 44388:1 44396:1 44397:1 44401:1  |EV| 
-0.010000000000000000208166817117217 1432:1 22243:1 36472:1 37653:1 37654:1 37686:1 37704:1 37913:1 37918:1 37989:1 38630:1 38850:1 39150:1 39364:1 39943:1 43635:1 43639:1 43652:1 43790:1 43929:1 44097:1 44355:1 44363:1 44368:1 44373:1 44388:1 44397:1  |EV| 
0.043990848936069477936872118561951 3957:1 15394:1 28678:1 37902:1 37989:1 38500:1 39534:1 39943:1 41194:1 43633:1 43639:1 43685:1 43805:1 43979:1 44088:1 44355:1 44363:1 44368:1 44373:1 44388:1 44396:1 44397:1  |EV| 
-0.010000000000000000208166817117217 8463:1 20491:1 35234:1 37653:1 37654:1 38937:1 39812:1 39943:1 41194:1 43633:1 43639:1 43685:1 43805:1 43979:1 44088:1 44355:1 44363:1 44368:1 44373:1 44388:1 44394:1  |EV| 
-0.010000000000000000208166817117217 3435:1 14849:1 28108:1 37654:1 37694:1 37843:1 38394:1 38395:1 39489:1 39943:1 41194:1 43633:1 43639:1 43685:1 43789:1 43936:1 44088:1 44355:1 44363:1 44368:1 44373:1 44388:1 44394:1  |EV| 
-0.010000000000000000208166817117217 1172:1 12300:1 23552:1 37654:1 39233:1 39943:1 41194:1 43633:1 43639:1 43685:1 43810:1 43927:1 44088:1 44355:1 44363:1 44368:1 44373:1 44388:1 44394:1 44395:1  |EV| 
-0.010000000000000000208166817117217 2327:1 13691:1 26484:1 38158:1 39386:1 39943:1 41194:1 43633:1 43639:1 43685:1 43810:1 43927:1 44088:1 44355:1 44363:1 44368:1 44373:1 44376:1 44388:1 44394:1 44396:1  |EV| 
-0.010000000000000000208166817117217 2253:1 13611:1 26352:1 37654:1 37814:1 39321:1 39943:1 41194:1 43633:1 43639:1 43659:1 43810:1 43948:1 44088:1 44355:1 44363:1 44368:1 44373:1 44388:1 44399:1  |EV| 
0.023711244386711648191035095578627 1016:1 12117:1 24575:1 37661:1 37816:1 37843:1 39312:1 39943:1 43631:1 43639:1 43693:1 43784:1 43945:1 44084:1 44355:1 44363:1 44368:1 44373:1 44388:1 44397:1  |EV| 
-0.010000000000000000208166817117217 4867:1 16414:1 29829:1 37653:1 37654:1 37656:1 37662:1 37689:1 37690:1 37709:1 37769:1 37771:1 37810:1 37832:1 37843:1 37997:1 38037:1 38545:1 38546:1 38559:1 38560:1 38561:1 38562:1 39381:1 39943:1 41423:1 43636:1 43639:1 43651:1 43796:1 44007:1 44109:1 44355:1 44363:1 44368:1 44373:1 44388:1 44397:1  |EV| 
-0.010000000000000000208166817117217 3470:1 14886:1 28144:1 37654:1 37694:1 37843:1 38394:1 39488:1 39943:1 40090:1 41263:1 41657:1 42603:1 43631:1 43639:1 43646:1 43805:1 43945:1 44084:1 44355:1 44362:1 44368:1 44373:1 44384:1 44396:1 44397:1  |EV| 
-0.010000000000000000208166817117217 4392:1 15848:1 29177:1 37654:1 37661:1 37662:1 37847:1 37973:1 38527:1 38536:1 39541:1 39943:1 41304:1 43631:1 43639:1 43681:1 43806:1 43957:1 44084:1 44355:1 44363:1 44368:1 44373:1 44397:1  |EV| 
-0.010000000000000000208166817117217 8300:1 20351:1 34269:1 37654:1 37661:1 37662:1 37681:1 37795:1 37805:1 37993:1 37995:1 38085:1 38537:1 38756:1 38857:1 38903:1 38904:1 38905:1 38917:1 38918:1 39794:1 39795:1 39796:1 39943:1 41552:1 43636:1 43639:1 43673:1 43808:1 43940:1 44092:1 44355:1 44363:1 44371:1 44373:1 44388:1 44396:1 44397:1 44401:1  |EV| 
-0.010000000000000000208166817117217 4867:1 16414:1 29857:1 37653:1 37654:1 37656:1 37662:1 37689:1 37690:1 37704:1 37709:1 37769:1 37771:1 37810:1 37832:1 37843:1 37887:1 37997:1 38037:1 38153:1 38545:1 38546:1 38559:1 38560:1 38561:1 38562:1 39381:1 39943:1 43634:1 43638:1 43653:1 43817:1 44007:1 44091:1 44355:1 44363:1 44368:1 44373:1 44388:1 44397:1  |EV| 
0.028200151037113912327880527186608 9199:1 21298:1 35438:1 37653:1 37989:1 38042:1 39850:1 39943:1 41244:1 43633:1 43639:1 43685:1 43805:1 43979:1 44088:1 44355:1 44363:1 44368:1 44373:1 44388:1 44397:1  |EV| 
-0.010000000000000000208166817117217 9128:1 21226:1 35544:1 37653:1 37654:1 37661:1 37686:1 37709:1 37716:1 37769:1 37973:1 37989:1 37999:1 38130:1 38866:1 39004:1 39005:1 39006:1 39007:1 39844:1 39943:1 43633:1 43639:1 43664:1 43789:1 43969:1 44100:1 44355:1 44363:1 44368:1 44373:1 44388:1 44397:1  |EV| 
-0.010000000000000000208166817117217 2184:1 13831:1 26886:1 37843:1 38233:1 39319:1 39943:1 41194:1 43633:1 43639:1 43685:1 43784:1 43948:1 44088:1 44355:1 44363:1 44369:1 44373:1 44388:1 44398:1  |EV| 
-0.010000000000000000208166817117217 9403:1 21515:1 35677:1 38694:1 39032:1 39862:1 39943:1 41194:1 43633:1 43639:1 43685:1 43784:1 43948:1 44088:1 44355:1 44363:1 44370:1 44373:1 44388:1 44396:1  |EV| 
-0.010000000000000000208166817117217 578:1 11578:1 24031:1 37742:1 37913:1 39287:1 39943:1 41194:1 43633:1 43639:1 43659:1 43810:1 43948:1 44088:1 44355:1 44363:1 44369:1 44373:1 44388:1  |EV| 
-0.010000000000000000208166817117217 2036:1 13373:1 26046:1 37654:1 38162:1 39374:1 39943:1 41194:1 43633:1 43639:1 43685:1 43784:1 43948:1 44088:1 44355:1 44363:1 44368:1 44373:1 44388:1  |EV| 
-0.010000000000000000208166817117217 8488:1 20519:1 34461:1 37661:1 37686:1 37733:1 37769:1 38951:1 39221:1 39574:1 39943:1 40993:1 41724:1 43375:1 43634:1 43638:1 43659:1 43785:1 43952:1 44081:1 44355:1 44365:1 44368:1 44373:1 44384:1 44388:1 44391:1 44397:1  |EV| 
-0.010000000000000000208166817117217 2508:1 13881:1 26765:1 37740:1 37843:1 37870:1 38245:1 38246:1 39400:1 39943:1 43631:1 43639:1 43650:1 43810:1 43952:1 44084:1 44355:1 44363:1 44368:1 44373:1 44384:1 44397:1  |EV| 
-0.010000000000000000208166817117217 7223:1 19051:1 32869:1 37654:1 37662:1 37681:1 37686:1 37704:1 37899:1 38001:1 38005:1 38174:1 38785:1 38786:1 38787:1 38790:1 38791:1 39448:1 39704:1 39943:1 40796:1 41629:1 43133:1 43634:1 43638:1 43702:1 43862:1 43971:1 44158:1 44355:1 44363:1 44368:1 44373:1 44388:1 44397:1  |EV| 
-0.010000000000000000208166817117217 3889:1 15323:1 28602:1 37709:1 37902:1 37989:1 38500:1 39534:1 39943:1 41192:1 43631:1 43639:1 43646:1 43805:1 43945:1 44084:1 44355:1 44362:1 44368:1 44373:1 44384:1 44396:1 44397:1  |EV| 
-0.010000000000000000208166817117217 8989:1 21080:1 35161:1 37661:1 37686:1 37733:1 39221:1 39574:1 39943:1 41053:1 41192:1 41724:1 43375:1 43636:1 43639:1 43641:1 43802:1 43952:1 44086:1 44355:1 44365:1 44368:1 44373:1 44384:1 44388:1 44391:1 44397:1  |EV| 
0.0497532953562837068628432746209 3434:1 14848:1 28107:1 37654:1 37843:1 38394:1 39488:1 39943:1 41194:1 43633:1 43639:1 43685:1 43805:1 43979:1 44088:1 44355:1 44363:1 44368:1 44373:1 44388:1 44396:1 44397:1  |EV| 
-0.010000000000000000208166817117217 9132:1 21230:1 35359:1 37661:1 37662:1 37949:1 37996:1 38996:1 38997:1 39839:1 39943:1 43634:1 43638:1 43665:1 43833:1 43933:1 44081:1 44355:1 44363:1 44369:1 44373:1 44386:1 44394:1 44396:1 44397:1  |EV| 
-0.010000000000000000208166817117217 9647:1 21784:1 23552:1 37654:1 39889:1 39943:1 41194:1 43633:1 43639:1 43685:1 43810:1 43927:1 44088:1 44355:1 44363:1 44371:1 44373:1 44388:1 44401:1  |EV| 
-0.0014496734052636902918137495888118 3513:1 14937:1 28195:1 37648:1 37654:1 37694:1 37704:1 37843:1 38394:1 38396:1 39488:1 39943:1 41192:1 43631:1 43639:1 43681:1 43805:1 43952:1 44084:1 44355:1 44362:1 44368:1 44373:1 44389:1 44396:1 44397:1  |EV| 
-0.010000000000000000208166817117217 216:1 11151:1 23552:1 37654:1 39232:1 39943:1 41194:1 43633:1 43639:1 43685:1 43810:1 43927:1 44088:1 44355:1 44363:1 44371:1 44373:1 44388:1 44401:1  |EV| 
-0.010000000000000000208166817117217 4941:1 16494:1 29932:1 37656:1 37657:1 37661:1 37662:1 37742:1 37918:1 38137:1 38573:1 39560:1 39943:1 43635:1 43639:1 43690:1 43796:1 43936:1 44087:1 44355:1 44363:1 44369:1 44373:1 44388:1 44397:1 44399:1  |EV| 
0.034589370694654314464244748705823 1639:1 12847:1 23678:1 37661:1 39364:1 39943:1 43631:1 43639:1 43641:1 43806:1 43945:1 44084:1 44355:1 44363:1 44368:1 44373:1 44388:1 44397:1  |EV| 
-0.010000000000000000208166817117217 6721:1 18523:1 32240:1 37661:1 37662:1 37665:1 37686:1 37724:1 37792:1 37824:1 37842:1 37843:1 37856:1 38727:1 39221:1 39574:1 39943:1 43631:1 43639:1 43645:1 43810:1 43980:1 44124:1 44355:1 44362:1 44368:1 44373:1 44397:1  |EV| 
-0.010000000000000000208166817117217 10687:1 22934:1 37314:1 37654:1 37663:1 37686:1 37704:1 37769:1 37791:1 37843:1 37995:1 38694:1 39177:1 39930:1 39943:1 43635:1 43639:1 43652:1 43785:1 43979:1 44097:1 44355:1 44363:1 44368:1 44373:1 44388:1 44397:1  |EV| 
-0.010000000000000000208166817117217 346:1 20632:1 34599:1 37661:1 37802:1 39239:1 39943:1 43631:1 43639:1 43662:1 43810:1 43945:1 44084:1 44355:1 44363:1 44368:1 44373:1 44388:1 44400:1  |EV| 
-0.010000000000000000208166817117217 846:1 11914:1 24364:1 37704:1 37715:1 37843:1 37938:1 39295:1 39943:1 43635:1 43639:1 43665:1 43790:1 43953:1 44087:1 44355:1 44363:1 44368:1 44373:1 44388:1  |EV| 
-0.010000000000000000208166817117217 7592:1 19488:1 33295:1 37653:1 37676:1 37704:1 37786:1 37866:1 37939:1 38274:1 38825:1 38826:1 39722:1 39943:1 43633:1 43639:1 43665:1 43836:1 43982:1 44072:1 44355:1 44363:1 44368:1 44373:1 44388:1  |EV| 
-0.010000000000000000208166817117217 1892:1 13222:1 25857:1 37654:1 37661:1 37662:1 37678:1 37686:1 37709:1 37795:1 37796:1 37831:1 37842:1 37856:1 37865:1 37891:1 37912:1 38055:1 38083:1 39364:1 39943:1 43634:1 43638:1 43678:1 43800:1 43945:1 44252:1 44355:1 44363:1 44368:1 44373:1 44388:1 44397:1  |EV| 
-0.010000000000000000208166817117217 8122:1 20026:1 33894:1 37654:1 37661:1 37662:1 37666:1 37681:1 37794:1 37795:1 37805:1 37993:1 37995:1 38085:1 38334:1 38537:1 38756:1 38857:1 38903:1 38904:1 38905:1 38917:1 38918:1 39794:1 39795:1 39796:1 39943:1 43635:1 43639:1 43721:1 43850:1 43927:1 44183:1 44355:1 44363:1 44371:1 44373:1 44376:1 44388:1 44396:1 44397:1 44401:1  |EV| 
-0.010000000000000000208166817117217 7082:1 18902:1 32707:1 37653:1 37654:1 37661:1 37663:1 37664:1 37666:1 37704:1 37716:1 37724:1 37733:1 37779:1 37784:1 37866:1 37883:1 37916:1 37987:1 37996:1 38753:1 38756:1 38757:1 38758:1 38759:1 38760:1 38769:1 39683:1 39684:1 39943:1 43631:1 43639:1 43768:1 43806:1 44014:1 44286:1 44355:1 44363:1 44368:1 44373:1 44386:1 44396:1 44397:1  |EV| 
-0.010000000000000000208166817117217 8122:1 20026:1 34237:1 37654:1 37661:1 37662:1 37681:1 37795:1 37805:1 37993:1 37995:1 38085:1 38334:1 38537:1 38756:1 38857:1 38903:1 38904:1 38905:1 38917:1 38918:1 39794:1 39795:1 39796:1 39943:1 41194:1 43634:1 43638:1 43685:1 43850:1 43940:1 44105:1 44355:1 44363:1 44371:1 44373:1 44376:1 44388:1 44396:1 44397:1 44401:1  |EV| 
-0.0092285089566269233596340626490928 8567:1 20609:1 34570:1 37654:1 37993:1 38939:1 39804:1 39943:1 41194:1 43633:1 43639:1 43685:1 43805:1 43979:1 44088:1 44355:1 44363:1 44368:1 44373:1 44388:1 44400:1  |EV| 
-0.010000000000000000208166817117217 4938:1 16489:1 29925:1 37654:1 37662:1 38554:1 39589:1 39943:1 43635:1 43639:1 43666:1 43802:1 43927:1 44087:1 44355:1 44363:1 44369:1 44373:1 44397:1  |EV| 
-0.010000000000000000208166817117217 4314:1 15766:1 29110:1 37654:1 37661:1 39318:1 39943:1 43633:1 43639:1 43659:1 43810:1 43948:1 44088:1 44355:1 44365:1 44368:1 44373:1 44391:1 44397:1  |EV| 
-0.010000000000000000208166817117217 4457:1 15925:1 29263:1 37685:1 39414:1 39943:1 41194:1 43633:1 43639:1 43685:1 43810:1 43927:1 44088:1 44355:1 44363:1 44368:1 44373:1 44388:1 44399:1  |EV| 
-0.010000000000000000208166817117217 338:1 11302:1 23750:1 37653:1 37817:1 37822:1 37823:1 37824:1 37825:1 39242:1 39943:1 43633:1 43639:1 43685:1 43793:1 43929:1 44088:1 44355:1 44363:1 44368:1 44373:1 44388:1 44394:1  |EV| 
-0.010000000000000000208166817117217 6255:1 18014:1 31725:1 37654:1 37701:1 37704:1 37889:1 39628:1 39943:1 41229:1 43631:1 43639:1 43646:1 43810:1 43933:1 44084:1 44355:1 44364:1 44368:1 44373:1 44386:1 44397:1  |EV| 
-0.010000000000000000208166817117217 9235:1 21384:1 35549:1 37653:1 37662:1 37917:1 38049:1 38091:1 38199:1 39018:1 39019:1 39844:1 39943:1 41244:1 43634:1 43638:1 43685:1 43833:1 43934:1 44081:1 44355:1 44363:1 44368:1 44373:1 44388:1 44394:1  |EV| 
-0.010000000000000000208166817117217 7044:1 18864:1 32657:1 37654:1 37661:1 37662:1 37750:1 37843:1 38494:1 38495:1 38648:1 39688:1 39943:1 43635:1 43639:1 43652:1 43833:1 43953:1 44097:1 44355:1 44363:1 44368:1 44373:1 44388:1  |EV| 
-0.010000000000000000208166817117217 10765:1 23028:1 23635:1 37661:1 39941:1 39943:1 41194:1 43634:1 43638:1 43685:1 43796:1 43945:1 44081:1 44355:1 44363:1 44371:1 44373:1 44388:1 44396:1  |EV| 
-0.0032531091917196970977887993115019 5638:1 17293:1 30868:1 37661:1 37666:1 37686:1 37724:1 37733:1 37791:1 37876:1 37889:1 37893:1 38055:1 38617:1 38638:1 39595:1 39943:1 41208:1 43636:1 43639:1 43641:1 43795:1 43970:1 44093:1 44355:1 44363:1 44368:1 44373:1 44390:1 44397:1  |EV| 
-0.0015942910543141081830542660213723 7579:1 19475:1 33283:1 37661:1 37662:1 37685:1 37714:1 37902:1 37930:1 38218:1 38336:1 38814:1 38815:1 38816:1 38817:1 38818:1 39215:1 39943:1 43635:1 43639:1 43649:1 43845:1 43953:1 44157:1 44355:1 44363:1 44369:1 44373:1 44388:1  |EV| 
-0.010000000000000000208166817117217 9279:1 21382:1 35547:1 37662:1 37666:1 37843:1 37869:1 38229:1 39017:1 39236:1 39943:1 41194:1 43633:1 43639:1 43653:1 43836:1 43929:1 44088:1 44355:1 44363:1 44368:1 44373:1 44397:1  |EV| 
-0.010000000000000000208166817117217 10357:1 22540:1 23641:1 39211:1 39630:1 39937:1 39943:1 41194:1 43633:1 43639:1 43685:1 43806:1 43953:1 44088:1 44355:1 44363:1 44368:1 44373:1 44388:1 44396:1 44399:1  |EV| 
-0.010000000000000000208166817117217 474:1 11443:1 23641:1 39243:1 39943:1 41194:1 43633:1 43639:1 43685:1 43806:1 43953:1 44088:1 44355:1 44363:1 44371:1 44373:1 44388:1 44400:1  |EV| 
-0.010000000000000000208166817117217 7256:1 19093:1 23552:1 37654:1 39321:1 39943:1 41194:1 43633:1 43639:1 43685:1 43810:1 43927:1 44088:1 44355:1 44363:1 44368:1 44373:1 44388:1 44399:1  |EV| 
-0.0029784935714606032564066850909512 7285:1 19125:1 32939:1 37654:1 37832:1 38812:1 39375:1 39943:1 41192:1 43633:1 43639:1 43653:1 43810:1 43979:1 44088:1 44355:1 44362:1 44371:1 44373:1 44376:1 44384:1 44397:1  |EV| 
-0.010000000000000000208166817117217 9674:1 21812:1 35987:1 37654:1 37661:1 37663:1 37666:1 37681:1 37686:1 37704:1 37800:1 37820:1 39063:1 39649:1 39943:1 41194:1 43634:1 43638:1 43685:1 43818:1 43950:1 44105:1 44355:1 44363:1 44368:1 44373:1 44388:1 44394:1 44397:1  |EV| 
-0.010000000000000000208166817117217 9626:1 21763:1 35926:1 37654:1 37661:1 37666:1 37681:1 37686:1 37704:1 37800:1 37820:1 39063:1 39649:1 39943:1 41591:1 43636:1 43639:1 43640:1 43796:1 43950:1 44092:1 44355:1 44363:1 44368:1 44373:1 44388:1 44394:1 44397:1  |EV| 
-0.010000000000000000208166817117217 9613:1 21750:1 35913:1 37654:1 37661:1 37663:1 37666:1 37681:1 37686:1 37704:1 37800:1 37820:1 38447:1 39063:1 39649:1 39943:1 43634:1 43638:1 43652:1 43818:1 43945:1 44158:1 44355:1 44363:1 44368:1 44373:1 44388:1 44394:1 44397:1  |EV| 
-0.010000000000000000208166817117217 9224:1 21324:1 35474:1 37661:1 37686:1 37763:1 37843:1 38645:1 38991:1 39236:1 39943:1 40090:1 41263:1 41657:1 43435:1 43634:1 43638:1 43666:1 43791:1 43933:1 44081:1 44355:1 44363:1 44368:1 44373:1 44397:1  |EV| 
-0.010000000000000000208166817117217 9183:1 21282:1 35434:1 37653:1 37654:1 37661:1 37686:1 37709:1 37716:1 37769:1 37949:1 37973:1 37989:1 37999:1 38130:1 39004:1 39005:1 39006:1 39007:1 39008:1 39844:1 39943:1 41387:1 43632:1 43639:1 43655:1 43834:1 43948:1 44078:1 44355:1 44363:1 44368:1 44373:1 44388:1 44397:1  |EV| 
-0.0078690423304537977094996747950972 1093:1 12207:1 24684:1 37685:1 37752:1 37869:1 37947:1 39308:1 39943:1 41194:1 43633:1 43639:1 43659:1 43805:1 43932:1 44088:1 44355:1 44363:1 44368:1 44373:1 44376:1 44388:1 44394:1  |EV| 
-0.010000000000000000208166817117217 108:1 11016:1 23349:1 37653:1 37664:1 37746:1 39221:1 39943:1 41194:1 43633:1 43639:1 43685:1 43805:1 43979:1 44088:1 44355:1 44363:1 44368:1 44373:1 44388:1 44394:1  |EV| 
-0.010000000000000000208166817117217 9645:1 21782:1 35948:1 37653:1 37654:1 37659:1 38448:1 39884:1 39943:1 41194:1 43633:1 43639:1 43685:1 43789:1 43936:1 44088:1 44355:1 44363:1 44371:1 44373:1 44388:1  |EV| 
-0.00076615102913618203690770958047551 5918:1 22435:1 36685:1 37654:1 37661:1 37709:1 37730:1 37751:1 37842:1 38055:1 38137:1 38459:1 38589:1 38611:1 39132:1 39133:1 39316:1 39943:1 41208:1 43632:1 43639:1 43693:1 43798:1 43982:1 44070:1 44355:1 44362:1 44368:1 44373:1 44389:1 44397:1  |EV| 
-0.010000000000000000208166817117217 7205:1 19171:1 32985:1 38785:1 39697:1 39943:1 41194:1 43633:1 43639:1 43685:1 43810:1 43927:1 44088:1 44355:1 44363:1 44368:1 44373:1 44388:1 44395:1  |EV| 
-0.0081308862564517074555947573344383 7939:1 19840:1 33670:1 37653:1 37654:1 37669:1 37704:1 37781:1 37843:1 37945:1 37993:1 38017:1 38160:1 38875:1 38876:1 38878:1 38879:1 39763:1 39943:1 43631:1 43639:1 43720:1 43824:1 43957:1 44069:1 44355:1 44362:1 44368:1 44373:1 44389:1 44396:1 44397:1  |EV| 
-0.010000000000000000208166817117217 4251:1 15696:1 29023:1 37654:1 37661:1 37662:1 37704:1 37709:1 37733:1 37802:1 37832:1 37947:1 37988:1 38076:1 38077:1 38489:1 38490:1 39531:1 39532:1 39943:1 41191:1 41192:1 43632:1 43639:1 43641:1 43863:1 43959:1 44070:1 44355:1 44362:1 44368:1 44373:1 44390:1 44397:1  |EV| 
-0.010000000000000000208166817117217 1291:1 12420:1 24952:1 37647:1 37653:1 37654:1 37661:1 37704:1 37715:1 37756:1 37774:1 37783:1 38003:1 38045:1 38097:1 38098:1 38099:1 39233:1 39943:1 41285:1 43631:1 43639:1 43720:1 43810:1 43970:1 44124:1 44355:1 44363:1 44368:1 44373:1 44397:1  |EV| 
-0.010000000000000000208166817117217 3441:1 14855:1 28114:1 37648:1 37654:1 37661:1 37694:1 37704:1 37784:1 37843:1 38394:1 38396:1 38397:1 38402:1 38403:1 39488:1 39943:1 41192:1 43631:1 43639:1 43720:1 43805:1 43950:1 44124:1 44355:1 44362:1 44368:1 44373:1 44396:1 44397:1  |EV| 
-0.010000000000000000208166817117217 9105:1 21202:1 35328:1 37653:1 37654:1 37661:1 37686:1 37742:1 37763:1 37769:1 37783:1 37795:1 37843:1 37989:1 38247:1 38645:1 38990:1 38991:1 39003:1 39236:1 39943:1 43631:1 43639:1 43691:1 43784:1 44005:1 44077:1 44355:1 44362:1 44368:1 44373:1 44384:1 44397:1  |EV| 
-0.010000000000000000208166817117217 1986:1 13662:1 26322:1 39321:1 39943:1 41194:1 43634:1 43638:1 43685:1 43802:1 43971:1 44081:1 44355:1 44363:1 44368:1 44373:1 44388:1  |EV| 
-0.010000000000000000208166817117217 4883:1 16432:1 29850:1 37742:1 39561:1 39943:1 41194:1 43633:1 43639:1 43685:1 43810:1 43927:1 44088:1 44355:1 44363:1 44368:1 44373:1 44388:1 44399:1  |EV| 
-0.010000000000000000208166817117217 2473:1 13849:1 26732:1 37804:1 39314:1 39943:1 41194:1 43633:1 43639:1 43685:1 43810:1 43927:1 44088:1 44355:1 44363:1 44368:1 44373:1 44388:1 44394:1 44395:1  |EV| 
-0.010000000000000000208166817117217 2711:1 16213:1 26322:1 39375:1 39943:1 39968:1 41194:1 41629:1 42434:1 43634:1 43638:1 43685:1 43802:1 43971:1 44081:1 44355:1 44363:1 44371:1 44373:1 44388:1 44396:1  |EV| 
-0.010000000000000000208166817117217 4221:1 15664:1 28987:1 37709:1 37902:1 37989:1 38500:1 38503:1 39278:1 39943:1 41194:1 43633:1 43639:1 43685:1 43789:1 43936:1 44088:1 44355:1 44363:1 44368:1 44373:1 44388:1 44394:1  |EV| 
-0.010000000000000000208166817117217 6821:1 18632:1 32366:1 37661:1 37662:1 37665:1 37686:1 37792:1 37842:1 37843:1 38727:1 39221:1 39574:1 39943:1 41253:1 41631:1 41688:1 43069:1 43070:1 43631:1 43639:1 43696:1 43810:1 43957:1 44069:1 44355:1 44365:1 44368:1 44373:1 44384:1 44385:1 44397:1  |EV| 
-0.010000000000000000208166817117217 4488:1 15969:1 29445:1 37654:1 37661:1 37847:1 38529:1 39318:1 39943:1 41303:1 43632:1 43639:1 43641:1 43793:1 43948:1 44096:1 44355:1 44365:1 44368:1 44373:1 44391:1 44397:1  |EV| 
-0.010000000000000000208166817117217 859:1 11932:1 24383:1 37654:1 37661:1 37664:1 37666:1 37686:1 37882:1 37883:1 37884:1 37885:1 37892:1 37893:1 39281:1 39943:1 43631:1 43639:1 43673:1 43806:1 43938:1 44124:1 44355:1 44365:1 44368:1 44373:1 44385:1 44397:1  |EV| 
-0.010000000000000000208166817117217 4645:1 16168:1 29549:1 37654:1 37662:1 37847:1 38536:1 39541:1 39943:1 40493:1 41419:1 41873:1 42751:1 43631:1 43639:1 43646:1 43806:1 43952:1 44084:1 44355:1 44365:1 44368:1 44373:1 44391:1 44397:1  |EV| 
-0.010000000000000000208166817117217 829:1 11892:1 24342:1 37654:1 37661:1 37662:1 37686:1 37733:1 37853:1 37870:1 37902:1 37903:1 37904:1 37906:1 37907:1 37908:1 37909:1 39299:1 39943:1 41210:1 41270:1 41631:1 42297:1 43635:1 43639:1 43654:1 43807:1 43932:1 44157:1 44355:1 44364:1 44368:1 44373:1 44386:1 44394:1 44396:1 44397:1  |EV| 
-0.010000000000000000208166817117217 7792:1 19693:1 33516:1 37653:1 39736:1 39943:1 40054:1 41244:1 41631:1 43246:1 43634:1 43638:1 43685:1 43796:1 43945:1 44081:1 44355:1 44363:1 44368:1 44373:1 44376:1 44388:1  |EV| 
-0.010000000000000000208166817117217 10029:1 22179:1 23635:1 37661:1 39459:1 39465:1 39892:1 39943:1 41194:1 43634:1 43638:1 43685:1 43796:1 43945:1 44081:1 44355:1 44363:1 44368:1 44373:1 44376:1 44388:1 44394:1  |EV| 
-0.0038514415629296618048815759038916 1564:1 20584:1 23635:1 37661:1 39233:1 39943:1 41194:1 43634:1 43638:1 43685:1 43796:1 43945:1 44081:1 44355:1 44363:1 44368:1 44373:1 44376:1 44388:1 44394:1  |EV| 
-0.0073655626286391259749386506427982 530:1 11524:1 23635:1 37661:1 39253:1 39254:1 39943:1 41194:1 43634:1 43638:1 43685:1 43796:1 43945:1 44081:1 44355:1 44363:1 44371:1 44373:1 44388:1 44394:1  |EV| 
-0.0098207501715185299001609209312846 5973:1 17697:1 23635:1 37661:1 39594:1 39943:1 41194:1 43634:1 43638:1 43685:1 43796:1 43945:1 44081:1 44355:1 44363:1 44371:1 44373:1 44388:1 44394:1  |EV| 
-0.0070772306939657905408558313808953 10336:1 22513:1 36777:1 37653:1 37654:1 37661:1 37662:1 37668:1 37670:1 37682:1 37684:1 37685:1 37686:1 37704:1 37709:1 37750:1 37786:1 37804:1 37810:1 37832:1 37843:1 37918:1 37949:1 38047:1 38057:1 38078:1 38129:1 38446:1 38482:1 38657:1 38694:1 39006:1 39057:1 39143:1 39172:1 39173:1 39174:1 39930:1 39943:1 43633:1 43639:1 43737:1 43805:1 43981:1 44296:1 44355:1 44363:1 44368:1 44373:1 44388:1 44397:1  |EV| 
-0.010000000000000000208166817117217 10394:1 22579:1 37291:1 37653:1 37654:1 37661:1 37662:1 37668:1 37670:1 37750:1 37832:1 37843:1 38047:1 38078:1 38657:1 38694:1 39057:1 39172:1 39173:1 39930:1 39943:1 43633:1 43639:1 43702:1 43805:1 43977:1 44123:1 44355:1 44363:1 44368:1 44373:1 44397:1  |EV| 
-0.010000000000000000208166817117217 10157:1 22319:1 36549:1 37653:1 37686:1 37704:1 37989:1 39150:1 39364:1 39943:1 43635:1 43639:1 43642:1 43790:1 43927:1 44087:1 44355:1 44363:1 44368:1 44373:1 44397:1  |EV| 
-0.010000000000000000208166817117217 6603:1 18401:1 32117:1 37653:1 37654:1 37661:1 37662:1 37704:1 37716:1 37742:1 37769:1 37989:1 38044:1 38167:1 38689:1 38690:1 38691:1 38692:1 38693:1 39395:1 39943:1 41471:1 41990:1 43059:1 43633:1 43639:1 43675:1 43789:1 43977:1 44123:1 44355:1 44363:1 44368:1 44373:1 44397:1 44399:1  |EV| 
-0.010000000000000000208166817117217 4464:1 15933:1 29395:1 37653:1 37654:1 37661:1 37670:1 37706:1 37709:1 37717:1 37756:1 37791:1 37847:1 37889:1 37897:1 38248:1 38500:1 38526:1 38527:1 38528:1 38530:1 39318:1 39943:1 43633:1 43639:1 43716:1 43810:1 44003:1 44132:1 44355:1 44365:1 44368:1 44373:1 44386:1 44397:1  |EV| 
-0.010000000000000000208166817117217 8330:1 20285:1 23635:1 37661:1 39587:1 39943:1 41194:1 43634:1 43638:1 43685:1 43796:1 43945:1 44081:1 44355:1 44363:1 44368:1 44373:1 44388:1 44400:1  |EV| 
-0.010000000000000000208166817117217 738:1 17403:1 30990:1 37661:1 37814:1 39304:1 39943:1 41194:1 43634:1 43638:1 43659:1 43790:1 43945:1 44081:1 44355:1 44363:1 44371:1 44373:1 44388:1 44401:1  |EV| 
-0.010000000000000000208166817117217 5132:1 16706:1 30211:1 37661:1 37662:1 37687:1 37935:1 37997:1 38093:1 39601:1 39943:1 41194:1 43634:1 43638:1 43659:1 43814:1 43951:1 44081:1 44355:1 44363:1 44368:1 44373:1 44388:1 44396:1  |EV| 
-0.0011888627946530765794319606243334 7746:1 19646:1 23635:1 37661:1 39746:1 39943:1 41194:1 43634:1 43638:1 43685:1 43796:1 43945:1 44081:1 44355:1 44363:1 44368:1 44373:1 44388:1 44399:1  |EV| 
-0.010000000000000000208166817117217 4807:1 16592:1 30061:1 37997:1 38101:1 39206:1 39943:1 41194:1 43634:1 43638:1 43659:1 43790:1 43945:1 44081:1 44355:1 44363:1 44369:1 44373:1 44388:1  |EV| 
-0.010000000000000000208166817117217 10164:1 22326:1 36558:1 37661:1 37709:1 37730:1 37751:1 37842:1 38055:1 38137:1 38589:1 38611:1 39316:1 39943:1 43633:1 43639:1 43665:1 43836:1 43982:1 44072:1 44355:1 44362:1 44368:1 44373:1 44389:1 44397:1  |EV| 
-0.010000000000000000208166817117217 3541:1 14967:1 28224:1 37654:1 37694:1 37843:1 38395:1 39489:1 39943:1 41208:1 43632:1 43639:1 43667:1 43789:1 43948:1 44096:1 44355:1 44363:1 44368:1 44373:1 44388:1 44394:1  |EV| 
-0.010000000000000000208166817117217 1936:1 13268:1 25918:1 37661:1 37709:1 37802:1 37843:1 37949:1 38135:1 38136:1 38137:1 38144:1 39370:1 39943:1 43632:1 43639:1 43667:1 43839:1 43967:1 44071:1 44355:1 44362:1 44368:1 44373:1 44387:1 44397:1  |EV| 
-0.010000000000000000208166817117217 9164:1 21262:1 35398:1 37653:1 37654:1 37686:1 37709:1 37715:1 37731:1 37742:1 37769:1 37825:1 39010:1 39011:1 39012:1 39013:1 39844:1 39943:1 41065:1 41192:1 42108:1 43440:1 43632:1 43639:1 43641:1 43822:1 43972:1 44070:1 44355:1 44363:1 44368:1 44373:1 44389:1 44394:1 44397:1  |EV| 
-0.002552074466370312256363606095988 4295:1 15742:1 29071:1 37653:1 37654:1 37661:1 37662:1 37672:1 37704:1 38005:1 38274:1 38504:1 38520:1 39232:1 39540:1 39943:1 41208:1 41403:1 41404:1 43636:1 43639:1 43641:1 43833:1 43950:1 44085:1 44355:1 44362:1 44371:1 44373:1 44389:1 44397:1 44401:1  |EV| 
-0.010000000000000000208166817117217 14:1 10905:1 23466:1 37661:1 37666:1 37667:1 37668:1 37669:1 37670:1 37671:1 39211:1 39212:1 39943:1 41219:1 43636:1 43639:1 43646:1 43790:1 43976:1 44086:1 44355:1 44363:1 44368:1 44373:1 44397:1  |EV| 
-0.010000000000000000208166817117217 8464:1 20492:1 34434:1 37653:1 37654:1 37661:1 38254:1 38946:1 38950:1 39805:1 39943:1 41220:1 43631:1 43639:1 43681:1 43793:1 43945:1 44084:1 44355:1 44363:1 44368:1 44373:1 44388:1  |EV| 
-0.010000000000000000208166817117217 10351:1 22533:1 36805:1 37656:1 37666:1 37686:1 37689:1 37690:1 37843:1 38247:1 39278:1 39943:1 43631:1 43639:1 43681:1 43810:1 43928:1 44084:1 44355:1 44363:1 44368:1 44373:1 44397:1  |EV| 
-0.010000000000000000208166817117217 1010:1 12111:1 24624:1 37973:1 39240:1 39943:1 40112:1 41629:1 42326:1 43631:1 43639:1 43641:1 43806:1 43945:1 44084:1 44355:1 44363:1 44368:1 44373:1 44388:1 44399:1  |EV| 
-0.010000000000000000208166817117217 323:1 11286:1 23689:1 37661:1 39214:1 39943:1 39985:1 41198:1 41632:1 42142:1 43635:1 43639:1 43653:1 43828:1 43953:1 44087:1 44355:1 44363:1 44369:1 44373:1 44388:1  |EV| 
-0.010000000000000000208166817117217 7304:1 19152:1 32967:1 37654:1 37662:1 37681:1 37686:1 37704:1 37832:1 37899:1 38001:1 38005:1 38174:1 38785:1 38786:1 38787:1 38790:1 39448:1 39704:1 39943:1 40806:1 41888:1 43128:1 43634:1 43638:1 43653:1 43862:1 43961:1 44105:1 44355:1 44363:1 44368:1 44373:1 44388:1 44397:1  |EV| 
-0.010000000000000000208166817117217 9173:1 21272:1 35408:1 37661:1 37662:1 37686:1 37709:1 37716:1 37769:1 37949:1 37973:1 37996:1 37999:1 38130:1 38866:1 38996:1 38997:1 39004:1 39005:1 39006:1 39007:1 39016:1 39839:1 39943:1 43634:1 43638:1 43664:1 43800:1 43980:1 44095:1 44355:1 44363:1 44369:1 44373:1 44388:1 44394:1 44396:1 44397:1  |EV| 
-0.010000000000000000208166817117217 2752:1 14131:1 27136:1 37843:1 38233:1 38301:1 39319:1 39943:1 41337:1 43635:1 43639:1 43666:1 43828:1 43948:1 44087:1 44355:1 44363:1 44369:1 44373:1 44388:1 44398:1  |EV| 
-0.010000000000000000208166817117217 7039:1 18859:1 32648:1 37654:1 37661:1 37662:1 37843:1 38494:1 38495:1 38648:1 38778:1 39221:1 39943:1 43635:1 43639:1 43652:1 43828:1 43982:1 44104:1 44355:1 44363:1 44368:1 44373:1 44388:1  |EV| 
-0.010000000000000000208166817117217 3247:1 14660:1 27922:1 37654:1 37847:1 38198:1 38348:1 38356:1 38357:1 38358:1 38370:1 39470:1 39943:1 43632:1 43639:1 43646:1 43783:1 43948:1 44071:1 44355:1 44363:1 44368:1 44373:1 44388:1  |EV| 
-0.010000000000000000208166817117217 7897:1 19798:1 33627:1 37654:1 37669:1 37843:1 37945:1 37993:1 38017:1 38875:1 39763:1 39943:1 41192:1 43632:1 43639:1 43646:1 43824:1 43927:1 44096:1 44355:1 44362:1 44368:1 44373:1 44390:1 44396:1 44397:1  |EV| 
-0.010000000000000000208166817117217 9305:1 21410:1 35574:1 37704:1 37829:1 37846:1 39858:1 39943:1 41194:1 43633:1 43639:1 43685:1 43805:1 43979:1 44088:1 44355:1 44363:1 44368:1 44373:1 44388:1 44395:1  |EV| 
-0.010000000000000000208166817117217 6272:1 18033:1 31745:1 37662:1 37824:1 38646:1 38684:1 39439:1 39943:1 40638:1 41458:1 41662:1 42965:1 43631:1 43639:1 43646:1 43805:1 43945:1 44084:1 44355:1 44362:1 44368:1 44373:1 44389:1 44397:1  |EV| 
-0.010000000000000000208166817117217 6080:1 17835:1 28126:1 37785:1 39618:1 39943:1 40620:1 41378:1 41945:1 42937:1 43633:1 43639:1 43685:1 43810:1 43927:1 44088:1 44355:1 44363:1 44371:1 44373:1 44388:1 44401:1  |EV| 
-0.010000000000000000208166817117217 1986:1 13565:1 26291:1 37653:1 37654:1 37662:1 37676:1 37801:1 37843:1 37897:1 37918:1 37989:1 38201:1 38202:1 38217:1 38218:1 39321:1 39943:1 43631:1 43639:1 43720:1 43786:1 43934:1 44069:1 44355:1 44363:1 44368:1 44373:1 44388:1  |EV| 
-0.010000000000000000208166817117217 1948:1 13280:1 25931:1 37661:1 37709:1 37802:1 37843:1 37949:1 38135:1 38136:1 38137:1 38144:1 39371:1 39943:1 43631:1 43639:1 43696:1 43810:1 43934:1 44069:1 44355:1 44362:1 44368:1 44373:1 44387:1 44397:1  |EV| 
-0.010000000000000000208166817117217 10242:1 22412:1 36659:1 37653:1 37654:1 37661:1 37704:1 37842:1 37869:1 38137:1 38589:1 38611:1 39134:1 39135:1 39316:1 39943:1 41231:1 43631:1 43639:1 43679:1 43836:1 43976:1 44069:1 44355:1 44365:1 44368:1 44373:1 44384:1 44397:1  |EV| 
-0.010000000000000000208166817117217 2274:1 13633:1 26386:1 37653:1 37654:1 37662:1 37676:1 37801:1 37843:1 37897:1 37918:1 37984:1 37989:1 38201:1 38202:1 38218:1 39380:1 39943:1 43631:1 43639:1 43720:1 43822:1 43945:1 44117:1 44355:1 44363:1 44371:1 44373:1 44388:1  |EV| 
-0.0061058707617916369372879081822703 2665:1 14040:1 26974:1 37653:1 37654:1 37661:1 37662:1 37676:1 37709:1 37837:1 37843:1 38005:1 38192:1 38233:1 38244:1 39402:1 39943:1 43631:1 43639:1 43655:1 43788:1 43945:1 44117:1 44355:1 44363:1 44368:1 44373:1 44388:1  |EV| 
-0.010000000000000000208166817117217 3029:1 14440:1 27595:1 37654:1 37802:1 39440:1 39943:1 41194:1 43633:1 43639:1 43685:1 43784:1 43948:1 44088:1 44355:1 44363:1 44368:1 44373:1 44388:1 44400:1  |EV| 
-0.010000000000000000208166817117217 1137:1 12265:1 23641:1 39328:1 39943:1 40021:1 41234:1 41684:1 42340:1 43633:1 43639:1 43685:1 43806:1 43953:1 44088:1 44355:1 44363:1 44369:1 44373:1 44388:1 44398:1  |EV| 
-0.0081487774593740937290053949482171 7655:1 19553:1 33362:1 37654:1 37685:1 39745:1 39943:1 41253:1 43633:1 43639:1 43685:1 43784:1 43948:1 44088:1 44355:1 44363:1 44368:1 44373:1 44388:1 44399:1  |EV| 
-0.010000000000000000208166817117217 9526:1 21655:1 35813:1 38235:1 39442:1 39943:1 41194:1 43633:1 43639:1 43659:1 43806:1 43927:1 44088:1 44355:1 44363:1 44368:1 44373:1 44388:1 44399:1  |EV| 
-0.010000000000000000208166817117217 566:1 11566:1 32273:1 37654:1 37709:1 39239:1 39943:1 41194:1 43633:1 43639:1 43685:1 43784:1 43948:1 44088:1 44355:1 44363:1 44368:1 44373:1 44388:1  |EV| 
-0.010000000000000000208166817117217 1015:1 12116:1 24574:1 37654:1 37661:1 37666:1 37672:1 37816:1 37843:1 39312:1 39943:1 43631:1 43639:1 43643:1 43784:1 43952:1 44084:1 44355:1 44365:1 44368:1 44373:1 44384:1 44385:1 44397:1  |EV| 
-0.010000000000000000208166817117217 8674:1 20737:1 34743:1 37661:1 37686:1 37724:1 37733:1 37769:1 37791:1 37824:1 37842:1 38951:1 38952:1 38953:1 39221:1 39574:1 39943:1 41015:1 41566:1 42096:1 43409:1 43631:1 43639:1 43645:1 43806:1 43938:1 44124:1 44355:1 44362:1 44368:1 44373:1 44397:1  |EV| 
-0.010000000000000000208166817117217 1982:1 13317:1 25976:1 37653:1 37654:1 37662:1 37897:1 37989:1 39231:1 39943:1 43631:1 43639:1 43643:1 43836:1 43939:1 44084:1 44355:1 44362:1 44371:1 44373:1 44397:1  |EV| 
-0.010000000000000000208166817117217 10848:1 23137:1 37592:1 37654:1 37656:1 37666:1 37686:1 37689:1 37690:1 37704:1 37843:1 38051:1 38247:1 39175:1 39278:1 39943:1 43631:1 43639:1 43673:1 43810:1 43980:1 44124:1 44355:1 44363:1 44368:1 44373:1 44386:1 44389:1 44397:1  |EV| 
-0.010000000000000000208166817117217 4536:1 16025:1 29371:1 37686:1 37694:1 37751:1 37769:1 37837:1 37843:1 38274:1 38420:1 38505:1 38506:1 38531:1 38532:1 38533:1 39232:1 39540:1 39943:1 40474:1 40475:1 41408:1 41869:1 41870:1 42740:1 42741:1 43633:1 43639:1 43652:1 43784:1 43965:1 44100:1 44355:1 44363:1 44371:1 44373:1 44374:1 44384:1 44386:1 44397:1  |EV| 
-0.0078982076148152724481832365199807 8043:1 19944:1 33841:1 37705:1 38042:1 38171:1 39776:1 39943:1 41194:1 43633:1 43639:1 43653:1 43810:1 43979:1 44088:1 44355:1 44363:1 44368:1 44373:1 44388:1 44394:1 44400:1  |EV| 
-0.0063777557318781246536998352780756 2478:1 13850:1 23552:1 37654:1 39418:1 39943:1 41194:1 43633:1 43639:1 43685:1 43810:1 43927:1 44088:1 44355:1 44363:1 44368:1 44373:1 44388:1 44399:1  |EV| 
-0.0063777557318781003675711716027763 2478:1 15943:1 23552:1 37654:1 39418:1 39943:1 41194:1 43633:1 43639:1 43685:1 43810:1 43927:1 44088:1 44355:1 44363:1 44368:1 44373:1 44388:1 44399:1  |EV| 
-0.010000000000000000208166817117217 8492:1 20523:1 23552:1 37654:1 39818:1 39943:1 41194:1 43633:1 43639:1 43685:1 43810:1 43927:1 44088:1 44355:1 44363:1 44368:1 44373:1 44388:1 44399:1  |EV| 
-0.010000000000000000208166817117217 10112:1 22272:1 23552:1 37654:1 39491:1 39943:1 41194:1 43633:1 43639:1 43685:1 43810:1 43927:1 44088:1 44355:1 44363:1 44368:1 44373:1 44388:1 44399:1  |EV| 
-0.010000000000000000208166817117217 847:1 11915:1 24365:1 37661:1 37666:1 37686:1 37882:1 37883:1 37884:1 37885:1 39281:1 39943:1 43631:1 43639:1 43681:1 43806:1 43957:1 44084:1 44355:1 44365:1 44368:1 44373:1 44391:1 44397:1  |EV| 
-0.010000000000000000208166817117217 5617:1 17272:1 31023:1 37661:1 37733:1 37876:1 38055:1 38617:1 39304:1 39943:1 43631:1 43639:1 43650:1 43836:1 43945:1 44084:1 44355:1 44363:1 44371:1 44373:1 44388:1 44401:1  |EV| 
-0.0074797774941106820109637531857061 7105:1 21558:1 35719:1 37654:1 37661:1 37798:1 39237:1 39943:1 43631:1 43639:1 43693:1 43784:1 43945:1 44084:1 44355:1 44363:1 44371:1 44373:1 44388:1 44401:1  |EV| 
-0.010000000000000000208166817117217 6274:1 18035:1 31747:1 37843:1 37920:1 37974:1 38644:1 38645:1 39625:1 39943:1 41192:1 43632:1 43639:1 43693:1 43793:1 43953:1 44096:1 44355:1 44363:1 44368:1 44373:1 44388:1  |EV| 
-0.0074739312230622471228125291986544 792:1 11847:1 24297:1 37654:1 37661:1 37662:1 37686:1 37733:1 37870:1 37901:1 37902:1 37903:1 37904:1 37905:1 37906:1 37907:1 37908:1 37909:1 39262:1 39943:1 43635:1 43639:1 43707:1 43833:1 43926:1 44104:1 44355:1 44363:1 44368:1 44373:1 44388:1 44394:1  |EV| 
-0.010000000000000000208166817117217 7302:1 19144:1 32959:1 38812:1 39374:1 39943:1 41194:1 43634:1 43638:1 43659:1 43796:1 43971:1 44081:1 44355:1 44363:1 44368:1 44373:1 44376:1 44388:1 44394:1  |EV| 
-0.010000000000000000208166817117217 2823:1 14212:1 27451:1 37740:1 37870:1 38246:1 39400:1 39943:1 41219:1 43636:1 43639:1 43641:1 43802:1 43952:1 44086:1 44355:1 44363:1 44368:1 44373:1 44384:1 44397:1  |EV| 
-0.010000000000000000208166817117217 2043:1 13381:1 26057:1 37662:1 37666:1 37704:1 37798:1 37887:1 39381:1 39943:1 43633:1 43639:1 43666:1 43810:1 43936:1 44088:1 44355:1 44365:1 44368:1 44373:1 44384:1 44397:1  |EV| 
-0.010000000000000000208166817117217 9063:1 21159:1 35276:1 37709:1 37778:1 38943:1 39221:1 39574:1 39943:1 43633:1 43639:1 43653:1 43810:1 43979:1 44088:1 44355:1 44363:1 44368:1 44373:1 44376:1 44388:1 44394:1  |EV| 
-0.010000000000000000208166817117217 240:1 13664:1 26434:1 37704:1 37945:1 38226:1 39240:1 39943:1 41194:1 43633:1 43639:1 43685:1 43805:1 43979:1 44088:1 44355:1 44363:1 44368:1 44373:1 44388:1 44396:1  |EV| 
-0.0087912911012289970957844786880742 8352:1 20314:1 34221:1 37653:1 37654:1 37661:1 37666:1 37686:1 37692:1 37869:1 38118:1 38920:1 38921:1 39417:1 39943:1 40190:1 41273:1 41631:1 43361:1 43635:1 43639:1 43664:1 43833:1 43927:1 44097:1 44355:1 44364:1 44368:1 44373:1 44386:1 44394:1 44397:1  |EV| 
-0.010000000000000000208166817117217 7131:1 18951:1 32770:1 37654:1 37662:1 37681:1 37686:1 37704:1 37832:1 38005:1 38174:1 38785:1 38786:1 38787:1 38790:1 39448:1 39704:1 39943:1 40515:1 41219:1 41888:1 43128:1 43636:1 43639:1 43686:1 43802:1 43961:1 44092:1 44355:1 44363:1 44368:1 44373:1 44388:1 44397:1  |EV| 
-0.010000000000000000208166817117217 4333:1 15785:1 29115:1 37648:1 37653:1 37654:1 37662:1 37819:1 37832:1 37843:1 38005:1 38068:1 38252:1 38274:1 39232:1 39540:1 39943:1 43631:1 43639:1 43679:1 43784:1 43980:1 44124:1 44355:1 44362:1 44371:1 44373:1 44374:1 44397:1  |EV| 
-0.0097091765783057989991355896108871 7898:1 19799:1 33628:1 37653:1 37654:1 37669:1 37704:1 37716:1 37781:1 37843:1 37945:1 37993:1 38017:1 38160:1 38875:1 38877:1 38878:1 38879:1 38880:1 38890:1 38891:1 39764:1 39943:1 40901:1 41378:1 41780:1 43274:1 43631:1 43639:1 43651:1 43789:1 43988:1 44077:1 44355:1 44365:1 44368:1 44373:1 44388:1 44400:1  |EV| 
-0.010000000000000000208166817117217 4297:1 16117:1 29487:1 37654:1 37661:1 37662:1 37847:1 37973:1 38527:1 39541:1 39943:1 43636:1 43639:1 43646:1 43802:1 43957:1 44086:1 44355:1 44363:1 44368:1 44373:1 44397:1  |EV| 
-0.0091011932083623070521838371860213 2774:1 14159:1 27146:1 37740:1 37769:1 37843:1 37870:1 38051:1 38233:1 38246:1 38301:1 39409:1 39943:1 41337:1 43633:1 43639:1 43666:1 43789:1 43982:1 44072:1 44355:1 44363:1 44368:1 44373:1 44388:1 44396:1  |EV| 
-0.010000000000000000208166817117217 6277:1 18038:1 31751:1 37661:1 37843:1 37920:1 37974:1 38644:1 38645:1 38647:1 39623:1 39943:1 41192:1 43632:1 43639:1 43693:1 43824:1 43948:1 44096:1 44355:1 44363:1 44368:1 44373:1 44388:1  |EV| 
-0.0063912340094103466114905387485123 318:1 11280:1 23589:1 37661:1 37715:1 39215:1 39943:1 40019:1 41198:1 41673:1 42202:1 43633:1 43639:1 43653:1 43806:1 43948:1 44088:1 44355:1 44363:1 44369:1 44373:1 44388:1  |EV| 
-0.010000000000000000208166817117217 9528:1 21657:1 35815:1 37656:1 37689:1 37690:1 38235:1 39241:1 39943:1 41194:1 43634:1 43638:1 43659:1 43808:1 43933:1 44081:1 44355:1 44363:1 44368:1 44373:1 44388:1  |EV| 
-0.010000000000000000208166817117217 2633:1 14153:1 27138:1 37751:1 37769:1 37920:1 39404:1 39943:1 41208:1 43632:1 43639:1 43663:1 43836:1 43948:1 44096:1 44355:1 44363:1 44368:1 44373:1 44388:1 44400:1  |EV| 
-0.0040999977632754742648546475436433 7929:1 19830:1 33660:1 37653:1 37654:1 37669:1 37704:1 37716:1 37781:1 37843:1 37945:1 37993:1 38017:1 38160:1 38875:1 38876:1 38877:1 38878:1 38879:1 38880:1 38882:1 38890:1 38891:1 39758:1 39943:1 41378:1 41684:1 43281:1 43632:1 43639:1 43651:1 43853:1 43953:1 44154:1 44355:1 44365:1 44371:1 44373:1 44388:1  |EV| 
-0.0085915413643695218159912485589302 9226:1 21326:1 35476:1 37653:1 37662:1 37917:1 37989:1 38042:1 38049:1 38091:1 38199:1 38866:1 39018:1 39019:1 39850:1 39943:1 41577:1 43633:1 43639:1 43690:1 43805:1 43931:1 44072:1 44355:1 44362:1 44368:1 44373:1 44384:1 44397:1  |EV| 
-0.0046141658446046847352750575055325 2139:1 13490:1 26241:1 37653:1 37654:1 37662:1 37666:1 37676:1 37704:1 37705:1 37733:1 37798:1 37843:1 37897:1 37918:1 37984:1 37989:1 38171:1 38201:1 38202:1 38203:1 38217:1 38218:1 39231:1 39943:1 43631:1 43639:1 43717:1 43836:1 43993:1 44077:1 44355:1 44365:1 44371:1 44373:1 44389:1 44397:1  |EV| 
-0.0085418985259133554249766362431728 7847:1 19748:1 33573:1 37653:1 37654:1 37669:1 37843:1 37945:1 37993:1 38017:1 38875:1 38876:1 39763:1 39943:1 39983:1 40123:1 41215:1 41283:1 41631:1 41701:1 43258:1 43259:1 43631:1 43639:1 43696:1 43824:1 43945:1 44069:1 44355:1 44362:1 44368:1 44373:1 44384:1 44396:1 44397:1  |EV| 
-0.0010669462603930812694130736417719 1204:1 12332:1 24832:1 37704:1 39343:1 39943:1 41253:1 43633:1 43639:1 43685:1 43810:1 43927:1 44088:1 44355:1 44363:1 44368:1 44373:1 44388:1 44399:1  |EV| 
-0.010000000000000000208166817117217 7195:1 19022:1 26322:1 39712:1 39943:1 41194:1 43634:1 43638:1 43685:1 43802:1 43971:1 44081:1 44355:1 44363:1 44368:1 44373:1 44374:1 44376:1 44388:1 44396:1  |EV| 
-0.010000000000000000208166817117217 1564:1 20584:1 36011:1 37653:1 37661:1 38695:1 39233:1 39943:1 41194:1 43634:1 43638:1 43685:1 43809:1 43933:1 44081:1 44355:1 44363:1 44368:1 44373:1 44388:1 44396:1  |EV| 
-0.009830444710103282413005132411854 1204:1 12332:1 24885:1 37653:1 37661:1 37733:1 37748:1 37889:1 37989:1 38054:1 38055:1 38059:1 39343:1 39943:1 40131:1 41253:1 41745:1 42360:1 43634:1 43638:1 43685:1 43837:1 43976:1 44073:1 44355:1 44363:1 44370:1 44373:1 44388:1 44396:1  |EV| 
-0.0093867711543183969535864008548742 6038:1 17785:1 23635:1 37661:1 39610:1 39943:1 41194:1 43634:1 43638:1 43685:1 43796:1 43945:1 44081:1 44355:1 44363:1 44368:1 44373:1 44376:1 44388:1 44394:1  |EV| 
-0.0093867711543182841965604623624131 8767:1 20847:1 23635:1 37661:1 39835:1 39943:1 41194:1 43634:1 43638:1 43685:1 43796:1 43945:1 44081:1 44355:1 44363:1 44368:1 44373:1 44376:1 44388:1 44394:1  |EV| 
-0.010000000000000000208166817117217 6179:1 17936:1 31642:1 37654:1 37661:1 37670:1 37685:1 37686:1 37824:1 38646:1 38680:1 38681:1 38682:1 38683:1 38684:1 39439:1 39943:1 41194:1 43633:1 43639:1 43694:1 43805:1 43965:1 44100:1 44355:1 44363:1 44368:1 44373:1 44397:1  |EV| 
-0.0068393889386699577986883369362658 4702:1 16245:1 29644:1 37647:1 37656:1 37657:1 37661:1 37662:1 37668:1 37742:1 37753:1 38137:1 38158:1 38541:1 39560:1 39943:1 41422:1 43631:1 43639:1 43673:1 43784:1 43976:1 44069:1 44355:1 44363:1 44369:1 44373:1 44397:1 44399:1  |EV| 
-0.010000000000000000208166817117217 9108:1 21205:1 35331:1 37653:1 37661:1 37686:1 37763:1 37843:1 37989:1 38049:1 38247:1 38645:1 38991:1 39845:1 39943:1 43631:1 43639:1 43673:1 43793:1 43951:1 44069:1 44355:1 44363:1 44369:1 44373:1 44388:1  |EV| 
-0.010000000000000000208166817117217 7056:1 18876:1 32671:1 37654:1 37661:1 37663:1 37664:1 37666:1 37724:1 37733:1 37883:1 37987:1 38753:1 39683:1 39684:1 39943:1 41212:1 43631:1 43639:1 43673:1 43806:1 43980:1 44124:1 44355:1 44362:1 44368:1 44373:1 44384:1 44385:1 44396:1 44397:1  |EV| 
-0.0096400596405583835468711129124131 4846:1 16392:1 29804:1 37654:1 37661:1 37662:1 37886:1 38552:1 38553:1 38554:1 39589:1 39943:1 43635:1 43639:1 43690:1 43802:1 43929:1 44087:1 44355:1 44363:1 44369:1 44373:1 44386:1 44397:1  |EV| 
-0.003376042385784181615315802105215 9158:1 21256:1 35387:1 37653:1 37661:1 37686:1 37715:1 37742:1 37753:1 37769:1 37825:1 39010:1 39011:1 39012:1 39013:1 39014:1 39363:1 39943:1 43632:1 43639:1 43667:1 43822:1 43959:1 44070:1 44355:1 44363:1 44370:1 44373:1 44388:1 44396:1  |EV| 
-0.0033982854305059672674060866626178 10188:1 22353:1 36590:1 37654:1 37842:1 37997:1 38459:1 39132:1 39735:1 39943:1 41194:1 43633:1 43639:1 43659:1 43836:1 43936:1 44088:1 44355:1 44363:1 44368:1 44373:1 44388:1 44399:1  |EV| 
-0.0078859185105155452100156310279999 7105:1 18925:1 32743:1 37647:1 37654:1 37661:1 37669:1 37682:1 38779:1 39237:1 39943:1 41194:1 43633:1 43639:1 43659:1 43789:1 43929:1 44088:1 44355:1 44363:1 44368:1 44373:1 44388:1  |EV| 
-0.004636149629788590201262543644134 9651:1 21788:1 35956:1 37682:1 37709:1 37719:1 39883:1 39943:1 41194:1 43633:1 43639:1 43653:1 43810:1 43979:1 44088:1 44355:1 44363:1 44368:1 44373:1 44388:1 44399:1  |EV| 
-0.0040136168253980799777713706077975 5006:1 16567:1 30103:1 37654:1 37997:1 38545:1 39568:1 39943:1 41194:1 43633:1 43639:1 43659:1 43784:1 43979:1 44088:1 44355:1 44363:1 44368:1 44373:1 44388:1 44396:1 44399:1  |EV| 
-0.0025403596140410314094260080253207 978:1 12074:1 24528:1 37856:1 37993:1 37994:1 38016:1 38017:1 39311:1 39943:1 41209:1 43632:1 43639:1 43641:1 43793:1 43948:1 44096:1 44355:1 44363:1 44368:1 44373:1 44388:1 44394:1 44395:1  |EV| 
-0.010000000000000000208166817117217 4348:1 15801:1 29131:1 37704:1 39232:1 39540:1 39943:1 41192:1 43631:1 43639:1 43662:1 43806:1 43945:1 44084:1 44355:1 44362:1 44371:1 44373:1 44389:1 44397:1 44401:1  |EV| 
-0.008389009453878326638687212835066 3213:1 14626:1 27889:1 37847:1 38348:1 39368:1 39456:1 39457:1 39943:1 43631:1 43639:1 43646:1 43784:1 43971:1 44084:1 44355:1 44363:1 44371:1 44373:1 44388:1 44401:1  |EV| 
-0.010000000000000000208166817117217 1950:1 13282:1 25933:1 37661:1 37802:1 37843:1 37949:1 38135:1 38136:1 38137:1 39371:1 39943:1 41195:1 43636:1 43639:1 43646:1 43796:1 43934:1 44086:1 44355:1 44362:1 44368:1 44373:1 44387:1 44397:1  |EV| 
-0.010000000000000000208166817117217 14:1 10905:1 23218:1 37661:1 37662:1 37666:1 37667:1 37668:1 37669:1 37670:1 37671:1 37717:1 39211:1 39212:1 39943:1 41199:1 43636:1 43639:1 43640:1 43790:1 43961:1 44092:1 44355:1 44363:1 44368:1 44373:1 44386:1 44397:1  |EV| 
-0.0066168665078269219004258872018909 340:1 11304:1 23752:1 37653:1 37822:1 37823:1 39218:1 39943:1 43633:1 43639:1 43685:1 43805:1 43979:1 44088:1 44355:1 44363:1 44368:1 44373:1 44388:1 44394:1 44400:1  |EV| 
-0.0080977604424008545191959740350285 213:1 11148:1 23556:1 37653:1 37654:1 37768:1 39234:1 39943:1 41194:1 43633:1 43639:1 43685:1 43805:1 43979:1 44088:1 44355:1 44363:1 44368:1 44373:1 44388:1 44399:1  |EV| 
-0.0046356220372010745189861324888625 4684:1 16222:1 29614:1 37653:1 37654:1 37662:1 37819:1 38005:1 38252:1 38274:1 39541:1 39943:1 43633:1 43639:1 43666:1 43805:1 43967:1 44088:1 44355:1 44363:1 44368:1 44373:1 44388:1  |EV| 
-0.0019452692844130765447568931492128 2960:1 14370:1 27508:1 37654:1 37706:1 37870:1 37947:1 38312:1 39233:1 39943:1 41194:1 43634:1 43638:1 43685:1 43785:1 43951:1 44081:1 44355:1 44365:1 44368:1 44373:1 44388:1  |EV| 
-0.0095895214692442182907727854512814 6549:1 18338:1 32054:1 37654:1 37661:1 37771:1 39395:1 39943:1 41341:1 43633:1 43639:1 43659:1 43784:1 43979:1 44088:1 44355:1 44365:1 44368:1 44373:1 44374:1 44388:1 44398:1  |EV| 
-0.0058729859357500796904205664361598 4389:1 15845:1 29174:1 37653:1 37654:1 37661:1 37670:1 37706:1 37709:1 37717:1 37756:1 37791:1 37847:1 37889:1 37897:1 38051:1 38248:1 38500:1 38526:1 38527:1 38528:1 38530:1 39318:1 39943:1 43633:1 43639:1 43680:1 43810:1 43963:1 44132:1 44355:1 44363:1 44368:1 44373:1 44384:1 44397:1  |EV| 
-0.0025799720128302601127034954231476 3510:1 14931:1 28189:1 37648:1 37654:1 37661:1 37694:1 37704:1 37843:1 38394:1 38396:1 38397:1 39488:1 39943:1 41263:1 43631:1 43639:1 43686:1 43805:1 43957:1 44069:1 44355:1 44362:1 44368:1 44373:1 44396:1 44397:1  |EV| 
-0.0027628683816716959054105018367409 8464:1 20492:1 34516:1 37653:1 37654:1 38254:1 38946:1 38950:1 39805:1 39943:1 41194:1 43633:1 43639:1 43685:1 43793:1 43929:1 44088:1 44355:1 44363:1 44368:1 44373:1 44388:1  |EV| 
-0.010000000000000000208166817117217 219:1 11154:1 23641:1 39215:1 39943:1 41194:1 43633:1 43639:1 43685:1 43806:1 43953:1 44088:1 44355:1 44363:1 44369:1 44373:1 44388:1  |EV| 
-0.0080189997732988214235172463872914 2865:1 14265:1 27309:1 37648:1 37686:1 37694:1 37711:1 37843:1 38051:1 38283:1 38284:1 39240:1 39943:1 43634:1 43638:1 43653:1 43833:1 43928:1 44081:1 44355:1 44363:1 44368:1 44373:1 44388:1  |EV| 
-0.0088867629804551089012232267805302 10618:1 22843:1 37186:1 37654:1 37661:1 37662:1 37663:1 37670:1 37686:1 37704:1 37750:1 37832:1 37843:1 37995:1 38047:1 38078:1 38657:1 38694:1 39057:1 39177:1 39930:1 39943:1 43631:1 43639:1 43692:1 43798:1 43952:1 44076:1 44355:1 44365:1 44368:1 44373:1 44388:1 44391:1 44397:1  |EV| 
-0.0074564490723379936443215854069422 9065:1 21161:1 35278:1 37661:1 37778:1 38943:1 39789:1 39790:1 39943:1 43634:1 43638:1 43653:1 43809:1 43945:1 44081:1 44355:1 44363:1 44368:1 44373:1 44376:1 44388:1  |EV| 
-0.010000000000000000208166817117217 7059:1 18879:1 32678:1 37664:1 37724:1 37883:1 39678:1 39943:1 41194:1 43633:1 43639:1 43685:1 43805:1 43979:1 44088:1 44355:1 44363:1 44368:1 44373:1 44388:1 44394:1 44395:1  |EV| 
-0.010000000000000000208166817117217 7144:1 18965:1 32784:1 38001:1 38785:1 38788:1 38789:1 39697:1 39943:1 41209:1 43632:1 43639:1 43641:1 43789:1 43927:1 44096:1 44355:1 44363:1 44368:1 44373:1 44388:1 44395:1  |EV| 
-0.010000000000000000208166817117217 1239:1 12367:1 24020:1 37709:1 39342:1 39943:1 43633:1 43639:1 43685:1 43810:1 43927:1 44088:1 44355:1 44363:1 44368:1 44373:1 44388:1 44400:1  |EV| 
-0.0074644752003020682640244132244334 3835:1 15267:1 28940:1 37709:1 38235:1 39256:1 39257:1 39943:1 43633:1 43639:1 43659:1 43810:1 43948:1 44088:1 44355:1 44363:1 44368:1 44373:1 44376:1 44388:1 44394:1  |EV| 
-0.0096940518246542532743159625852059 10292:1 22466:1 36722:1 37869:1 39157:1 39927:1 39943:1 41194:1 43633:1 43639:1 43685:1 43784:1 43948:1 44088:1 44355:1 44363:1 44368:1 44373:1 44376:1 44388:1 44394:1  |EV| 
-0.0058609184032404190375920016720102 5004:1 16565:1 30018:1 37648:1 37661:1 37666:1 37681:1 37686:1 37692:1 37694:1 37742:1 37753:1 38556:1 39318:1 39943:1 43634:1 43638:1 43647:1 43807:1 43934:1 44073:1 44355:1 44363:1 44368:1 44373:1 44389:1 44394:1 44397:1  |EV| 
-0.0063770168898289961850744944626967 1051:1 12159:1 24631:1 37662:1 37733:1 37760:1 37816:1 37843:1 37913:1 37918:1 37977:1 38024:1 39241:1 39943:1 41218:1 43631:1 43639:1 43696:1 43784:1 43957:1 44069:1 44355:1 44365:1 44369:1 44373:1 44391:1 44397:1  |EV| 
-0.0072980208906471902285950648092694 3843:1 15276:1 28550:1 37662:1 37709:1 38145:1 39534:1 39943:1 43634:1 43638:1 43653:1 43809:1 43945:1 44081:1 44355:1 44362:1 44368:1 44373:1 44384:1 44396:1 44397:1  |EV| 
-0.0040636885120625999834320651871167 7731:1 19631:1 33445:1 37661:1 37662:1 37704:1 37706:1 37729:1 37774:1 37869:1 37950:1 38847:1 38853:1 39751:1 39943:1 41253:1 43634:1 43638:1 43685:1 43807:1 43938:1 44105:1 44355:1 44363:1 44368:1 44373:1 44388:1 44396:1  |EV| 
-0.010000000000000000208166817117217 6101:1 17856:1 31557:1 37654:1 37661:1 37715:1 38643:1 39632:1 39943:1 40623:1 41194:1 41245:1 41673:1 42941:1 43635:1 43639:1 43642:1 43802:1 43979:1 44087:1 44355:1 44363:1 44368:1 44373:1 44388:1  |EV| 
-0.0069664004914517336716772710758505 630:1 11715:1 23641:1 39215:1 39943:1 41194:1 43633:1 43639:1 43685:1 43806:1 43953:1 44088:1 44355:1 44363:1 44369:1 44373:1 44388:1 44400:1  |EV| 
-0.0085180322127999252845853561666445 873:1 11950:1 24400:1 37661:1 37662:1 37727:1 37742:1 37843:1 37913:1 37914:1 37915:1 37932:1 37942:1 39279:1 39280:1 39943:1 41194:1 43633:1 43639:1 43659:1 43829:1 43931:1 44082:1 44355:1 44363:1 44368:1 44373:1 44388:1  |EV| 
-0.0007459610525322440260920231480668 630:1 11756:1 23641:1 39215:1 39943:1 41256:1 43633:1 43639:1 43685:1 43806:1 43953:1 44088:1 44355:1 44363:1 44369:1 44373:1 44388:1 44400:1  |EV| 
-0.0020669889134706026165289038942774 8133:1 20039:1 33908:1 37653:1 37654:1 37661:1 37666:1 37686:1 37692:1 37704:1 37869:1 38118:1 38274:1 38906:1 38907:1 38920:1 38921:1 39417:1 39943:1 41208:1 41320:1 43636:1 43639:1 43667:1 43845:1 43935:1 44093:1 44355:1 44363:1 44368:1 44373:1 44390:1 44394:1 44397:1  |EV| 
-0.00051384714607107841166655504139271 2460:1 13830:1 26322:1 39375:1 39943:1 39968:1 41194:1 41629:1 42434:1 43634:1 43638:1 43685:1 43802:1 43971:1 44081:1 44355:1 44363:1 44371:1 44373:1 44388:1 44401:1  |EV| 
-0.0047640334594274396512458835672987 7366:1 19233:1 33042:1 37686:1 37742:1 38160:1 38162:1 38246:1 38252:1 38806:1 38807:1 39712:1 39943:1 43634:1 43638:1 43648:1 43833:1 43971:1 44081:1 44355:1 44363:1 44368:1 44373:1 44388:1 44396:1  |EV| 
-0.010000000000000000208166817117217 6329:1 18097:1 23635:1 37661:1 39637:1 39943:1 41194:1 43634:1 43638:1 43685:1 43796:1 43945:1 44081:1 44355:1 44363:1 44368:1 44373:1 44388:1 44394:1 44395:1  |EV| 
-0.010000000000000000208166817117217 1930:1 13262:1 25911:1 37654:1 37661:1 37704:1 37709:1 37802:1 37843:1 37949:1 38135:1 38136:1 38137:1 38138:1 38139:1 38144:1 39371:1 39943:1 43631:1 43639:1 43679:1 43810:1 43950:1 44124:1 44355:1 44362:1 44368:1 44373:1 44389:1 44397:1  |EV| 
-0.005845093537105422627775386246185 7659:1 19557:1 33366:1 37653:1 37661:1 37681:1 37686:1 37716:1 37771:1 37843:1 37848:1 37920:1 37980:1 38117:1 38852:1 38856:1 38857:1 38858:1 38866:1 39740:1 39943:1 43633:1 43639:1 43684:1 43805:1 43969:1 44100:1 44355:1 44362:1 44368:1 44373:1 44397:1  |EV| 
-0.0061980559741020950503820330368399 10316:1 22491:1 37345:1 37653:1 37654:1 37661:1 37662:1 37663:1 37668:1 37670:1 37682:1 37685:1 37686:1 37704:1 37709:1 37750:1 37786:1 37804:1 37810:1 37832:1 37843:1 37918:1 37949:1 38047:1 38078:1 38129:1 38446:1 38482:1 38657:1 38694:1 39006:1 39057:1 39172:1 39173:1 39174:1 39930:1 39943:1 43632:1 43639:1 43739:1 43916:1 43979:1 44313:1 44355:1 44363:1 44368:1 44373:1 44388:1 44397:1  |EV| 
-0.00400245578656271191325677349937 8300:1 20238:1 34125:1 37654:1 37661:1 37662:1 37666:1 37681:1 37686:1 37794:1 37795:1 37805:1 37993:1 37995:1 38085:1 38334:1 38537:1 38589:1 38756:1 38857:1 38903:1 38904:1 38905:1 38917:1 38918:1 38919:1 39794:1 39795:1 39796:1 39943:1 43631:1 43639:1 43677:1 43786:1 43940:1 44077:1 44355:1 44363:1 44371:1 44373:1 44388:1 44396:1 44397:1 44401:1  |EV| 
-0.0049293193888379979727965007896273 10730:1 22986:1 37389:1 37656:1 37666:1 37686:1 37689:1 37690:1 39278:1 39943:1 41208:1 43636:1 43639:1 43667:1 43809:1 43928:1 44086:1 44355:1 44363:1 44368:1 44373:1 44397:1  |EV| 
-0.010000000000000000208166817117217 70:1 10966:1 23277:1 37647:1 39224:1 39943:1 41194:1 43633:1 43639:1 43685:1 43810:1 43948:1 44088:1 44355:1 44363:1 44369:1 44373:1 44388:1  |EV| 
-0.010000000000000000208166817117217 380:1 11437:1 23888:1 37822:1 39251:1 39943:1 43633:1 43639:1 43685:1 43810:1 43927:1 44088:1 44355:1 44363:1 44371:1 44373:1 44388:1 44396:1 44401:1  |EV| 
-0.0070500939750470026715079008283737 3956:1 15393:1 28677:1 37661:1 37792:1 38483:1 38484:1 38499:1 39524:1 39943:1 41194:1 43633:1 43639:1 43685:1 43789:1 43936:1 44088:1 44355:1 44363:1 44370:1 44373:1 44388:1 44396:1  |EV| 
-0.0068464628927714854186858950413352 1116:1 12236:1 24716:1 37724:1 37945:1 37991:1 37992:1 39331:1 39943:1 41194:1 43633:1 43639:1 43685:1 43836:1 43932:1 44088:1 44355:1 44363:1 44371:1 44373:1 44388:1  |EV| 
-0.0043552336446520010723726379353593 9619:1 21756:1 35919:1 37653:1 37666:1 37686:1 37704:1 37706:1 37769:1 37771:1 37825:1 37876:1 37947:1 37999:1 38149:1 39073:1 39381:1 39943:1 43634:1 43638:1 43642:1 43827:1 43957:1 44073:1 44355:1 44365:1 44368:1 44373:1 44391:1 44397:1  |EV| 
-0.0054413008319196534343098470287714 1271:1 12399:1 24931:1 37656:1 37657:1 37658:1 37661:1 37669:1 37913:1 38067:1 38068:1 38069:1 38070:1 39233:1 39943:1 43632:1 43639:1 43641:1 43816:1 43926:1 44070:1 44355:1 44363:1 44368:1 44373:1 44388:1  |EV| 
-0.0026178827232812415179430409750694 3532:1 14958:1 28216:1 37648:1 37654:1 37661:1 37694:1 37704:1 37784:1 37843:1 38395:1 38396:1 38397:1 38402:1 38403:1 39374:1 39943:1 41208:1 43632:1 43639:1 43667:1 43863:1 43965:1 44070:1 44355:1 44363:1 44368:1 44373:1 44388:1  |EV| 
-0.0009657744388027146228981045794626 6942:1 18762:1 32533:1 37653:1 37654:1 37661:1 37664:1 37666:1 37704:1 37716:1 37724:1 37733:1 37779:1 37784:1 37866:1 37883:1 37916:1 37987:1 37996:1 38753:1 38756:1 38757:1 38758:1 38759:1 38760:1 38769:1 39683:1 39684:1 39943:1 43636:1 43639:1 43697:1 43785:1 44014:1 44138:1 44355:1 44363:1 44368:1 44373:1 44386:1 44396:1 44397:1  |EV| 
-0.00053449878798942848656672310880822 10200:1 22367:1 36605:1 37661:1 37709:1 37730:1 37751:1 37842:1 37869:1 38055:1 38137:1 38589:1 38611:1 39133:1 39134:1 39316:1 39943:1 43635:1 43639:1 43684:1 43790:1 43982:1 44104:1 44355:1 44362:1 44368:1 44373:1 44389:1 44397:1  |EV| 
-0.0051567388901162343126105547241878 7793:1 19694:1 33517:1 37704:1 38142:1 38851:1 39309:1 39943:1 41244:1 43633:1 43639:1 43685:1 43805:1 43979:1 44088:1 44355:1 44363:1 44368:1 44373:1 44376:1 44388:1 44394:1  |EV| 
-0.0063311054912025353097471125352058 711:1 11733:1 24186:1 37654:1 37670:1 37783:1 37861:1 39232:1 39943:1 43635:1 43639:1 43665:1 43828:1 43979:1 44087:1 44355:1 44363:1 44371:1 44373:1 44388:1 44398:1  |EV| 
-0.010000000000000000208166817117217 4481:1 15957:1 29294:1 37653:1 37654:1 37661:1 38005:1 39521:1 39943:1 41194:1 43634:1 43638:1 43685:1 43808:1 43952:1 44081:1 44355:1 44363:1 44368:1 44373:1 44388:1 44396:1  |EV| 
-0.0072801843897531814259194149485666 2427:1 13796:1 26668:1 37740:1 37769:1 37843:1 37870:1 38051:1 38245:1 38246:1 39400:1 39943:1 43631:1 43639:1 43640:1 43810:1 43957:1 44069:1 44355:1 44362:1 44368:1 44373:1 44386:1 44397:1  |EV| 
-0.010000000000000000208166817117217 4784:1 16329:1 29734:1 37661:1 39206:1 39943:1 41194:1 43633:1 43639:1 43685:1 43810:1 43927:1 44088:1 44355:1 44363:1 44369:1 44373:1 44388:1  |EV| 
-0.0055979081997651215091282850266907 7043:1 18863:1 32656:1 37654:1 37661:1 37662:1 37750:1 37843:1 38494:1 38495:1 38778:1 39623:1 39943:1 43635:1 43639:1 43652:1 43814:1 43948:1 44097:1 44355:1 44363:1 44368:1 44373:1 44388:1  |EV| 
-0.010000000000000000208166817117217 957:1 12051:1 24503:1 37993:1 37994:1 39311:1 39943:1 41194:1 43633:1 43639:1 43685:1 43784:1 43948:1 44088:1 44355:1 44363:1 44368:1 44373:1 44388:1 44394:1 44395:1  |EV| 
