SVM-light Version V5.01-TK-1.5
0 # kernel type
3 # kernel parameter -d 
1 # kernel parameter -g 
1 # kernel parameter -s 
1 # kernel parameter -r 
empty# kernel parameter -u 
0.4 # kernel parameter -L 
1 # kernel parameter -T 
T # kernel parameter -C 
1 # kernel parameter -F 
0 # kernel parameter -S 
0.400000 # kernel parameter -M 
3 # kernel parameter -N 
S # kernel parameter -V 
S # kernel parameter -W 
0 # kernel parameter -U 
108518 # highest feature index 
42796 # number of training documents 
1804 # number of support vectors plus 1 
4.3445566 # threshold b, each following line is a SV (starting with alpha*y)
-0.10000000000000000555111512312578 17878:1 49485:1 87004:1 101871:1 101883:1 101884:1 101895:1 102842:1 102966:1 102972:1 103003:1 103570:1 103652:1 106823:1 107161:1 107624:1 107634:1 107659:1 107791:1 107943:1 108098:1 108469:1 108473:1 108481:1 108487:1 108497:1 108498:1 108510:1  |EV| 
0.10674628794266853570871234069273 21514:1 53549:1 62879:1 103652:1 105649:1 107617:1 107625:1 107634:1 107652:1 107784:1 107932:1 108091:1 108469:1 108473:1 108485:1 108487:1 108497:1 108518:1  |EV| 
0.036562435013701932717822273843922 7:1 29811:1 63582:1 101916:1 101917:1 103566:1 103652:1 105610:1 106823:1 107097:1 107624:1 107634:1 107655:1 107787:1 107946:1 108087:1 108465:1 108473:1 108481:1 108487:1 108497:1 108510:1  |EV| 
-0.045967367133681255597643655619322 24651:1 56978:1 95332:1 101897:1 101991:1 103570:1 103652:1 106648:1 107629:1 107634:1 107647:1 107800:1 107951:1 108103:1 108469:1 108477:1 108481:1 108487:1 108497:1 108510:1  |EV| 
-0.0099710397963102010560065835420573 29324:1 62162:1 101098:1 101857:1 101859:1 101883:1 101895:1 102013:1 102035:1 102288:1 103040:1 103435:1 103538:1 103542:1 103566:1 103652:1 106823:1 107097:1 107626:1 107633:1 107635:1 107825:1 107966:1 108174:1 108469:1 108473:1 108481:1 108487:1 108497:1 108510:1  |EV| 
0.074299225121260595305905383156642 73:1 29877:1 62855:1 101857:1 103569:1 103652:1 105633:1 106830:1 107108:1 107627:1 107634:1 107647:1 107798:1 107936:1 108104:1 108465:1 108473:1 108481:1 108487:1 108497:1 108510:1  |EV| 
0.16616944899557178905169507743267 119:1 29924:1 62907:1 101857:1 101897:1 101923:1 101924:1 101925:1 101926:1 103567:1 103652:1 103658:1 105615:1 106825:1 107101:1 107627:1 107634:1 107651:1 107820:1 107951:1 108104:1 108469:1 108473:1 108481:1 108487:1 108497:1 108498:1 108510:1  |EV| 
-0.0083145747406874678797628064330638 9942:1 40629:1 75754:1 101857:1 101859:1 101883:1 101897:1 101993:1 102019:1 102049:1 102137:1 102594:1 102595:1 102596:1 102640:1 102651:1 102652:1 102653:1 102654:1 103571:1 103652:1 106823:1 107116:1 107626:1 107633:1 107656:1 107824:1 107966:1 108174:1 108466:1 108473:1 108481:1 108487:1 108497:1 108510:1  |EV| 
-0.091388743182154827393581797423394 270:1 30081:1 63111:1 101857:1 101858:1 101923:1 101924:1 101925:1 101926:1 103568:1 103652:1 105615:1 106825:1 107099:1 107627:1 107634:1 107651:1 107811:1 107948:1 108104:1 108469:1 108473:1 108481:1 108487:1 108497:1 108498:1 108510:1  |EV| 
-0.10000000000000000555111512312578 26188:1 58700:1 63502:1 103568:1 103652:1 103658:1 105615:1 106825:1 107099:1 107627:1 107634:1 107670:1 107798:1 107948:1 108104:1 108466:1 108473:1 108481:1 108486:1 108487:1 108497:1 108498:1 108510:1  |EV| 
-0.10000000000000000555111512312578 5129:1 35477:1 69677:1 102271:1 103568:1 103651:1 103662:1 105615:1 106823:1 107103:1 107624:1 107634:1 107639:1 107800:1 107966:1 108087:1 108466:1 108473:1 108481:1 108486:1 108487:1 108498:1 108500:1 108510:1  |EV| 
-0.011884230972573493062549587762078 9902:1 40589:1 75704:1 101859:1 101867:1 101897:1 101904:1 101912:1 102118:1 102272:1 102600:1 102681:1 102688:1 102689:1 103571:1 103652:1 106823:1 107116:1 107626:1 107633:1 107684:1 107783:1 107943:1 108174:1 108466:1 108473:1 108481:1 108487:1 108497:1 108498:1 108510:1  |EV| 
-0.025162330837697290120136273117168 25544:1 58004:1 96519:1 101908:1 101929:1 102075:1 103652:1 107617:1 107620:1 107634:1 107672:1 107784:1 107932:1 108089:1 108469:1 108473:1 108485:1 108487:1 108497:1 108518:1  |EV| 
0.49097630712723744350611809750262 22500:1 54573:1 62774:1 101857:1 103569:1 103653:1 103663:1 107609:1 107611:1 107615:1 107622:1 107634:1 107636:1 107788:1 107932:1 108081:1 108466:1 108478:1 108481:1 108487:1 108493:1 108507:1 108510:1  |EV| 
0.5186312034983537877508297242457 256:1 30066:1 71310:1 102075:1 103570:1 103653:1 107609:1 107611:1 107615:1 107622:1 107634:1 107636:1 107788:1 107932:1 108081:1 108466:1 108478:1 108481:1 108487:1 108493:1 108507:1 108510:1  |EV| 
0.43375998906084595185816965567938 24430:1 56716:1 95028:1 101859:1 102077:1 103301:1 103571:1 103623:1 103653:1 103654:1 104617:1 107609:1 107611:1 107615:1 107622:1 107634:1 107636:1 107803:1 107932:1 108081:1 108469:1 108478:1 108481:1 108487:1 108507:1 108510:1  |EV| 
0.359176832992678829459265443802 2891:1 33015:1 66659:1 101874:1 102075:1 102126:1 102203:1 103581:1 103653:1 107609:1 107611:1 107615:1 107622:1 107634:1 107636:1 107817:1 107932:1 108081:1 108465:1 108478:1 108481:1 108487:1 108507:1 108510:1  |EV| 
0.29780266517431736028598265875189 2797:1 32910:1 66534:1 101962:1 102191:1 103583:1 103653:1 103886:1 107609:1 107611:1 107615:1 107622:1 107634:1 107636:1 107787:1 107932:1 108081:1 108466:1 108478:1 108481:1 108487:1 108507:1 108510:1  |EV| 
-0.038061046242570048536713045450597 21293:1 53303:1 91276:1 101874:1 101986:1 102126:1 102541:1 102577:1 103571:1 103653:1 105114:1 107609:1 107611:1 107615:1 107622:1 107634:1 107636:1 107809:1 107932:1 108081:1 108466:1 108478:1 108481:1 108487:1 108493:1 108507:1 108510:1  |EV| 
-0.055240582548652841787806266893313 2798:1 32911:1 66535:1 101942:1 101962:1 102191:1 102192:1 103581:1 103582:1 103653:1 103811:1 103887:1 107609:1 107611:1 107615:1 107622:1 107634:1 107636:1 107817:1 107932:1 108081:1 108466:1 108478:1 108481:1 108487:1 108507:1 108510:1  |EV| 
-0.049540244754179146857708815332444 25679:1 58151:1 96656:1 101986:1 103641:1 103653:1 105029:1 107609:1 107611:1 107615:1 107622:1 107634:1 107636:1 107788:1 107932:1 108081:1 108466:1 108478:1 108481:1 108487:1 108493:1 108507:1 108510:1  |EV| 
-0.035349608517673408725201511515479 5590:1 36007:1 70268:1 102075:1 102086:1 102359:1 102360:1 103590:1 103591:1 103653:1 107609:1 107611:1 107615:1 107622:1 107634:1 107636:1 107817:1 107932:1 108081:1 108466:1 108478:1 108481:1 108487:1 108507:1 108510:1  |EV| 
-0.013602964918651511139202625599864 12962:1 43882:1 80286:1 101859:1 101876:1 101898:1 101924:1 102019:1 102163:1 102229:1 102346:1 103624:1 103652:1 105610:1 105615:1 106215:1 107630:1 107634:1 107640:1 107799:1 107941:1 108122:1 108465:1 108473:1 108481:1 108487:1 108497:1 108510:1  |EV| 
0.14403398266632708168977217155771 26895:1 59506:1 98242:1 101857:1 101859:1 101860:1 101861:1 101862:1 101863:1 101864:1 101870:1 101884:1 101962:1 102326:1 102803:1 103424:1 103425:1 103652:1 107617:1 107620:1 107634:1 107691:1 107784:1 107932:1 108079:1 108466:1 108473:1 108485:1 108487:1 108497:1 108518:1  |EV| 
0.22182268327587661982391864512465 24633:1 56958:1 95303:1 101857:1 101867:1 101868:1 101870:1 101873:1 101874:1 101875:1 101876:1 101877:1 101878:1 101879:1 101880:1 101883:1 101884:1 101904:1 101908:1 101947:1 102008:1 102075:1 102133:1 102255:1 102291:1 102310:1 102540:1 103283:1 103284:1 103291:1 103652:1 107617:1 107620:1 107634:1 107753:1 107784:1 107932:1 108176:1 108469:1 108473:1 108485:1 108487:1 108497:1 108518:1  |EV| 
0.21962271955717535543151086585567 14730:1 45862:1 82715:1 101857:1 101861:1 101862:1 101863:1 101870:1 102301:1 102886:1 102887:1 102888:1 103652:1 107617:1 107620:1 107634:1 107703:1 107784:1 107932:1 108079:1 108466:1 108477:1 108485:1 108487:1 108490:1 108497:1 108504:1 108518:1  |EV| 
0.19831567545000700070190191581787 267:1 30078:1 63120:1 101857:1 101859:1 101860:1 101861:1 101862:1 101863:1 101864:1 101865:1 103567:1 103652:1 105662:1 106825:1 107101:1 107627:1 107634:1 107645:1 107799:1 107936:1 108104:1 108466:1 108473:1 108481:1 108487:1 108489:1 108497:1 108510:1  |EV| 
0.35644000393380304014812054447248 15720:1 47014:1 83999:1 101857:1 101867:1 101876:1 101924:1 101934:1 101947:1 101993:1 102013:1 102083:1 102092:1 102440:1 102918:1 102925:1 103652:1 107617:1 107620:1 107634:1 107635:1 107784:1 107932:1 108079:1 108468:1 108473:1 108485:1 108487:1 108491:1 108497:1 108518:1  |EV| 
-0.068519333726594300326695474723238 15693:1 46982:1 83961:1 101857:1 101861:1 101862:1 101863:1 101870:1 102301:1 102540:1 102886:1 102887:1 102888:1 102889:1 102890:1 102891:1 102892:1 102893:1 103652:1 107617:1 107620:1 107634:1 107677:1 107784:1 107932:1 108079:1 108469:1 108477:1 108485:1 108487:1 108497:1 108504:1 108518:1  |EV| 
0.10268084175741257202396639058861 7868:1 38458:1 73536:1 101897:1 102465:1 103593:1 103652:1 107627:1 107634:1 107672:1 107795:1 107948:1 108104:1 108466:1 108473:1 108481:1 108487:1 108497:1 108510:1  |EV| 
-0.024513526074033353124859146987546 6028:1 36479:1 70811:1 101859:1 101943:1 102113:1 102409:1 102443:1 102449:1 103570:1 103652:1 105673:1 105736:1 107624:1 107634:1 107643:1 107800:1 107947:1 108087:1 108469:1 108473:1 108481:1 108487:1 108497:1 108510:1  |EV| 
-0.10000000000000000555111512312578 440:1 30251:1 63344:1 101857:1 101858:1 101859:1 101860:1 101861:1 101862:1 101863:1 101864:1 101865:1 103652:1 105662:1 107617:1 107620:1 107634:1 107645:1 107784:1 107932:1 108089:1 108466:1 108473:1 108485:1 108487:1 108489:1 108497:1 108518:1  |EV| 
0.54529138162024459735022219319944 13754:1 44831:1 62939:1 103621:1 103653:1 104192:1 107609:1 107611:1 107615:1 107622:1 107634:1 107636:1 107800:1 107932:1 108081:1 108465:1 108478:1 108481:1 108487:1 108507:1 108510:1  |EV| 
0.62306074918886023006336927210214 14236:1 45338:1 62939:1 103621:1 103653:1 107609:1 107611:1 107615:1 107622:1 107634:1 107636:1 107800:1 107932:1 108081:1 108465:1 108478:1 108481:1 108487:1 108507:1 108510:1  |EV| 
0.35083332232289604624142498323636 20882:1 52862:1 90838:1 101962:1 102396:1 102801:1 103591:1 103634:1 103653:1 107609:1 107611:1 107615:1 107622:1 107634:1 107636:1 107803:1 107932:1 108081:1 108466:1 108478:1 108481:1 108487:1 108507:1 108510:1  |EV| 
0.98386373054462961107446972164325 26020:1 58517:1 62939:1 103570:1 103653:1 103654:1 107609:1 107611:1 107615:1 107622:1 107634:1 107636:1 107800:1 107932:1 108081:1 108469:1 108478:1 108481:1 108487:1 108507:1 108510:1  |EV| 
-0.023962834078787409453070722520351 4376:1 45541:1 62939:1 103570:1 103653:1 107609:1 107611:1 107615:1 107622:1 107634:1 107636:1 107800:1 107932:1 108081:1 108469:1 108478:1 108481:1 108487:1 108507:1 108510:1  |EV| 
-0.023962834078785189007021472207271 4376:1 34622:1 62939:1 103570:1 103653:1 107609:1 107611:1 107615:1 107622:1 107634:1 107636:1 107800:1 107932:1 108081:1 108469:1 108478:1 108481:1 108487:1 108507:1 108510:1  |EV| 
-0.010757512970242188998781784903258 4140:1 34360:1 62939:1 103570:1 103653:1 103654:1 107609:1 107611:1 107615:1 107622:1 107634:1 107636:1 107800:1 107932:1 108081:1 108469:1 108478:1 108481:1 108487:1 108507:1 108510:1  |EV| 
-0.016152433634394891548424766369862 4566:1 34827:1 62939:1 103570:1 103653:1 103654:1 107609:1 107611:1 107615:1 107622:1 107634:1 107636:1 107800:1 107932:1 108081:1 108469:1 108478:1 108481:1 108487:1 108507:1 108510:1  |EV| 
-0.010757512970244853534040885278955 4140:1 36542:1 62939:1 103570:1 103653:1 103654:1 107609:1 107611:1 107615:1 107622:1 107634:1 107636:1 107800:1 107932:1 108081:1 108469:1 108478:1 108481:1 108487:1 108507:1 108510:1  |EV| 
0.13098989532174887262527818165836 25024:1 57424:1 95891:1 101867:1 101877:1 101986:1 102033:1 102039:1 103011:1 103310:1 103311:1 103312:1 103652:1 107617:1 107620:1 107634:1 107645:1 107784:1 107932:1 108089:1 108466:1 108477:1 108485:1 108486:1 108487:1 108497:1 108501:1 108506:1 108518:1  |EV| 
0.74984819338898001106485935451929 3990:1 34193:1 68230:1 101857:1 101859:1 103652:1 107617:1 107620:1 107634:1 107647:1 107784:1 107932:1 108089:1 108466:1 108473:1 108485:1 108486:1 108487:1 108497:1 108518:1  |EV| 
0.33753874520960391869550676346989 22110:1 54179:1 92220:1 101888:1 102229:1 102336:1 103652:1 107617:1 107620:1 107634:1 107672:1 107784:1 107932:1 108089:1 108466:1 108472:1 108485:1 108486:1 108487:1 108497:1 108518:1  |EV| 
0.24547899700957165336490106710698 5614:1 36031:1 62838:1 101859:1 101897:1 103652:1 105615:1 107617:1 107625:1 107634:1 107639:1 107784:1 107932:1 108091:1 108466:1 108477:1 108485:1 108486:1 108487:1 108497:1 108498:1 108518:1  |EV| 
0.1540556838623402535759510101343 16891:1 48416:1 85714:1 101859:1 101884:1 101913:1 102291:1 102936:1 102937:1 102938:1 103570:1 103652:1 107624:1 107634:1 107662:1 107800:1 107960:1 108098:1 108469:1 108473:1 108481:1 108487:1 108497:1 108510:1  |EV| 
-0.069007615130827898441978618393478 4354:1 34595:1 68663:1 101857:1 101859:1 101876:1 101883:1 102019:1 102295:1 102304:1 103588:1 103652:1 106823:1 107184:1 107624:1 107634:1 107643:1 107809:1 107943:1 108087:1 108466:1 108473:1 108481:1 108487:1 108497:1 108510:1  |EV| 
-0.027571016629565528455181322442513 9777:1 40463:1 62847:1 103568:1 103614:1 103653:1 107609:1 107611:1 107615:1 107623:1 107634:1 107636:1 107798:1 107932:1 108086:1 108466:1 108478:1 108481:1 108487:1 108507:1 108510:1  |EV| 
-0.099225748435034427652468025371491 6006:1 36454:1 70776:1 101947:1 102010:1 103566:1 103652:1 106823:1 107097:1 107624:1 107634:1 107655:1 107788:1 107966:1 108087:1 108465:1 108473:1 108481:1 108490:1 108497:1 108510:1  |EV| 
0.13581848770134763437766878269031 13316:1 44294:1 80830:1 101857:1 101859:1 102013:1 102118:1 102175:1 102227:1 103579:1 103652:1 104158:1 106014:1 106823:1 107145:1 107624:1 107634:1 107648:1 107817:1 107943:1 108087:1 108470:1 108477:1 108481:1 108487:1 108497:1 108506:1 108510:1  |EV| 
0.42800035938343128361083245181362 16062:1 47466:1 84564:1 101877:1 101948:1 103570:1 103653:1 103656:1 107609:1 107611:1 107615:1 107622:1 107634:1 107636:1 107787:1 107932:1 108081:1 108469:1 108478:1 108481:1 108487:1 108507:1 108510:1  |EV| 
0.28348234761313811924665628794173 7154:1 44574:1 81208:1 102793:1 103569:1 103653:1 103669:1 107609:1 107611:1 107615:1 107622:1 107634:1 107636:1 107788:1 107932:1 108081:1 108469:1 108478:1 108481:1 108487:1 108507:1 108510:1  |EV| 
-0.033517176208112016422280277083701 16673:1 48184:1 85429:1 101929:1 102049:1 102930:1 102931:1 103570:1 103652:1 104156:1 105699:1 106902:1 107403:1 107629:1 107634:1 107665:1 107800:1 107957:1 108103:1 108469:1 108473:1 108481:1 108487:1 108497:1 108510:1  |EV| 
0.0097375680177360784961493322953174 3002:1 33130:1 66900:1 101859:1 101951:1 102007:1 102019:1 102141:1 103570:1 103652:1 103662:1 105615:1 105791:1 106823:1 107161:1 107624:1 107634:1 107649:1 107817:1 107966:1 108087:1 108469:1 108477:1 108481:1 108487:1 108497:1 108510:1  |EV| 
-0.10000000000000000555111512312578 1517:1 31478:1 64989:1 102082:1 103569:1 103653:1 107609:1 107611:1 107615:1 107622:1 107634:1 107636:1 107788:1 107932:1 108081:1 108465:1 108478:1 108481:1 108487:1 108507:1 108510:1  |EV| 
-0.047659910614991779498339496967674 15874:1 47208:1 84229:1 102075:1 102147:1 103577:1 103653:1 107609:1 107611:1 107615:1 107622:1 107634:1 107636:1 107787:1 107932:1 108081:1 108470:1 108478:1 108481:1 108486:1 108487:1 108507:1 108510:1  |EV| 
-0.10000000000000000555111512312578 26092:1 58594:1 62939:1 103621:1 103653:1 103654:1 107609:1 107611:1 107615:1 107622:1 107634:1 107636:1 107800:1 107932:1 108081:1 108469:1 108478:1 108481:1 108487:1 108507:1 108510:1  |EV| 
0.16986200648443519622965425242 3591:1 33778:1 67798:1 101857:1 101859:1 101861:1 101866:1 101883:1 101884:1 101892:1 101895:1 101958:1 101962:1 102001:1 102091:1 102137:1 102205:1 102221:1 102222:1 102223:1 102224:1 102225:1 102226:1 102234:1 102235:1 103652:1 107617:1 107620:1 107634:1 107726:1 107784:1 107932:1 108138:1 108469:1 108473:1 108485:1 108487:1 108497:1 108518:1  |EV| 
0.42092835353834406886264218883298 19549:1 51332:1 89880:1 101857:1 101859:1 101868:1 101877:1 101888:1 101908:1 101931:1 102069:1 102228:1 103054:1 103652:1 107617:1 107625:1 107634:1 107675:1 107784:1 107932:1 108101:1 108466:1 108473:1 108485:1 108487:1 108494:1 108497:1 108503:1 108518:1  |EV| 
0.42122493977954500454785602414631 18047:1 49671:1 87229:1 101857:1 101871:1 101874:1 101876:1 101883:1 101884:1 101895:1 101908:1 101943:1 102788:1 102842:1 102844:1 102966:1 102972:1 103002:1 103003:1 103652:1 105902:1 107617:1 107620:1 107634:1 107676:1 107784:1 107932:1 108079:1 108469:1 108473:1 108485:1 108487:1 108497:1 108518:1  |EV| 
0.11188254017126959827255205937035 12433:1 43297:1 79650:1 101857:1 101870:1 101871:1 101883:1 101884:1 101897:1 101953:1 101962:1 102143:1 102411:1 102465:1 102824:1 102825:1 103652:1 107617:1 107620:1 107634:1 107677:1 107784:1 107932:1 108079:1 108465:1 108473:1 108485:1 108487:1 108497:1 108518:1  |EV| 
-0.05800136174366766345089629908216 21648:1 53698:1 91688:1 103166:1 103590:1 103591:1 103653:1 103654:1 104617:1 107609:1 107611:1 107615:1 107622:1 107634:1 107636:1 107788:1 107932:1 108081:1 108468:1 108478:1 108481:1 108487:1 108491:1 108507:1 108510:1  |EV| 
-0.10000000000000000555111512312578 12330:1 44403:1 63025:1 101857:1 103620:1 103652:1 107624:1 107634:1 107639:1 107788:1 107946:1 108087:1 108465:1 108472:1 108481:1 108487:1 108497:1 108510:1  |EV| 
-0.10000000000000000555111512312578 19655:1 51443:1 89388:1 101857:1 101884:1 101929:1 101931:1 102013:1 102928:1 103066:1 103067:1 103571:1 103652:1 106339:1 106823:1 107116:1 107626:1 107633:1 107651:1 107793:1 107966:1 108100:1 108469:1 108473:1 108481:1 108487:1 108497:1 108498:1 108510:1  |EV| 
0.079768253169600150664919624432514 15334:1 46555:1 83456:1 101857:1 101915:1 102013:1 103569:1 103652:1 107627:1 107634:1 107665:1 107795:1 107936:1 108104:1 108469:1 108473:1 108481:1 108487:1 108497:1 108500:1 108510:1  |EV| 
-0.012602276021837943709158480487531 12485:1 53046:1 91026:1 103129:1 103570:1 103653:1 103654:1 107609:1 107611:1 107615:1 107622:1 107634:1 107636:1 107788:1 107932:1 108081:1 108468:1 108478:1 108481:1 108487:1 108491:1 108507:1 108510:1  |EV| 
0.65840305126631792909108753519831 12765:1 43665:1 80044:1 101859:1 101876:1 103624:1 103653:1 103752:1 107609:1 107611:1 107615:1 107623:1 107634:1 107636:1 107795:1 107932:1 108086:1 108470:1 108478:1 108481:1 108486:1 108487:1 108507:1 108510:1  |EV| 
-0.093500443959086090850441053135 26905:1 59517:1 67310:1 101859:1 102121:1 103652:1 107617:1 107625:1 107634:1 107639:1 107784:1 107932:1 108091:1 108466:1 108477:1 108485:1 108487:1 108493:1 108497:1 108518:1  |EV| 
-0.053929921983080511549424329587055 11783:1 42608:1 78482:1 101870:1 101947:1 101976:1 101982:1 103571:1 103652:1 106823:1 107116:1 107624:1 107634:1 107661:1 107803:1 107966:1 108087:1 108465:1 108477:1 108481:1 108497:1 108510:1  |EV| 
-0.023745972526011255993028115085508 24392:1 56672:1 62890:1 101857:1 103569:1 103652:1 107608:1 107610:1 107613:1 107628:1 107634:1 107636:1 107784:1 107936:1 108095:1 108471:1 108473:1 108481:1 108496:1 108497:1 108504:1 108510:1  |EV| 
-0.063942875097813545171021587520954 1208:1 31110:1 64584:1 101859:1 101867:1 101870:1 101908:1 101915:1 101993:1 101994:1 101995:1 102049:1 103573:1 103652:1 103770:1 106840:1 107124:1 107627:1 107634:1 107684:1 107793:1 107936:1 108128:1 108469:1 108473:1 108481:1 108487:1 108497:1 108510:1  |EV| 
-0.014772608259843750255768668466771 5263:1 35631:1 69846:1 101857:1 101908:1 102075:1 102220:1 103572:1 103653:1 103654:1 107609:1 107611:1 107615:1 107623:1 107634:1 107636:1 107813:1 107932:1 108086:1 108469:1 108478:1 108481:1 108487:1 108507:1 108510:1  |EV| 
0.37751074052281602400071847114305 10996:1 41764:1 77340:1 101857:1 101876:1 101917:1 101923:1 102470:1 102720:1 102721:1 102727:1 102728:1 103652:1 107617:1 107620:1 107634:1 107684:1 107784:1 107932:1 108079:1 108469:1 108473:1 108485:1 108487:1 108497:1 108498:1 108518:1  |EV| 
0.079383554551454710290769867242489 3416:1 33601:1 67547:1 101857:1 101883:1 101884:1 101942:1 101982:1 102001:1 102113:1 102211:1 102220:1 102243:1 102244:1 102245:1 102246:1 102250:1 102251:1 102252:1 103652:1 107617:1 107620:1 107634:1 107656:1 107784:1 107932:1 108079:1 108468:1 108473:1 108485:1 108487:1 108491:1 108497:1 108518:1  |EV| 
0.12984924971163114282290962364641 21598:1 53645:1 91633:1 101857:1 101884:1 101895:1 101908:1 101917:1 102069:1 102087:1 102126:1 102130:1 103569:1 103652:1 106503:1 106832:1 107111:1 107627:1 107634:1 107703:1 107799:1 107935:1 108128:1 108469:1 108473:1 108481:1 108487:1 108497:1 108510:1  |EV| 
0.28556252487388089633668641909026 17315:1 48885:1 86289:1 101857:1 101859:1 101867:1 101874:1 101876:1 101904:1 101962:1 102949:1 103006:1 103007:1 103008:1 103009:1 103652:1 107617:1 107620:1 107634:1 107642:1 107784:1 107932:1 108079:1 108469:1 108473:1 108485:1 108487:1 108497:1 108518:1  |EV| 
-0.10000000000000000555111512312578 3289:1 33468:1 67388:1 101857:1 101866:1 101883:1 101884:1 101962:1 102091:1 102221:1 102222:1 102223:1 102224:1 103652:1 107617:1 107620:1 107634:1 107684:1 107784:1 107932:1 108079:1 108469:1 108473:1 108485:1 108487:1 108497:1 108518:1  |EV| 
-0.10000000000000000555111512312578 10762:1 56508:1 95389:1 101857:1 101868:1 101870:1 101873:1 101874:1 101875:1 101876:1 101877:1 101878:1 101879:1 101880:1 101908:1 101947:1 102008:1 102133:1 102540:1 103283:1 103284:1 103652:1 107617:1 107620:1 107634:1 107690:1 107784:1 107932:1 108138:1 108468:1 108473:1 108485:1 108487:1 108491:1 108497:1 108518:1  |EV| 
-0.10000000000000000555111512312578 10886:1 41645:1 77109:1 101857:1 101917:1 102470:1 102720:1 102721:1 103652:1 107617:1 107620:1 107634:1 107663:1 107784:1 107932:1 108089:1 108469:1 108473:1 108485:1 108487:1 108497:1 108518:1  |EV| 
-0.090492757257232478429465061253723 23818:1 55966:1 94157:1 101857:1 101874:1 101876:1 101908:1 102320:1 103002:1 103040:1 103260:1 103261:1 103652:1 107617:1 107620:1 107634:1 107684:1 107784:1 107932:1 108079:1 108469:1 108473:1 108485:1 108487:1 108497:1 108518:1  |EV| 
-0.01666791465842536873465107305492 20275:1 52163:1 90169:1 101859:1 101874:1 101876:1 101884:1 101901:1 101986:1 102013:1 102365:1 102470:1 102508:1 103091:1 103092:1 103097:1 103098:1 103629:1 103652:1 106823:1 107459:1 107626:1 107633:1 107660:1 107839:1 107966:1 108174:1 108470:1 108473:1 108481:1 108490:1 108493:1 108497:1 108510:1  |EV| 
0.4076514710077711600710870243347 22776:1 54855:1 92916:1 101859:1 101962:1 103578:1 103653:1 103676:1 107609:1 107611:1 107615:1 107623:1 107634:1 107636:1 107795:1 107932:1 108086:1 108466:1 108478:1 108481:1 108487:1 108507:1 108510:1  |EV| 
0.68515601868662923124020380782895 25667:1 58139:1 63601:1 101859:1 103569:1 103653:1 107609:1 107611:1 107615:1 107623:1 107634:1 107636:1 107818:1 107932:1 108086:1 108469:1 108478:1 108481:1 108487:1 108507:1 108510:1  |EV| 
0.54228051773243202138274909884785 25015:1 61594:1 79344:1 101908:1 101916:1 103569:1 103653:1 103676:1 107609:1 107611:1 107615:1 107623:1 107634:1 107636:1 107795:1 107932:1 108086:1 108469:1 108478:1 108481:1 108487:1 108507:1 108510:1  |EV| 
0.52038007392424989738799467886565 3837:1 34035:1 68068:1 101908:1 102196:1 103569:1 103653:1 103676:1 107609:1 107611:1 107615:1 107623:1 107634:1 107636:1 107795:1 107932:1 108086:1 108469:1 108478:1 108481:1 108487:1 108507:1 108510:1  |EV| 
-0.016239554445654780234775671488023 2157:1 38441:1 73200:1 101859:1 102108:1 103569:1 103653:1 103676:1 107609:1 107611:1 107615:1 107623:1 107634:1 107636:1 107795:1 107932:1 108086:1 108469:1 108478:1 108481:1 108487:1 108507:1 108510:1  |EV| 
-0.066926359549045577601589229743695 14216:1 45316:1 82075:1 101859:1 102859:1 103569:1 103653:1 103676:1 107609:1 107611:1 107615:1 107623:1 107634:1 107636:1 107795:1 107932:1 108086:1 108469:1 108478:1 108481:1 108487:1 108507:1 108510:1  |EV| 
-0.10000000000000000555111512312578 19056:1 52219:1 96515:1 101908:1 102075:1 103569:1 103653:1 103676:1 107609:1 107611:1 107615:1 107623:1 107634:1 107636:1 107795:1 107932:1 108086:1 108469:1 108478:1 108481:1 108487:1 108507:1 108510:1  |EV| 
-0.10000000000000000555111512312578 12236:1 43085:1 79344:1 101908:1 101916:1 103569:1 103653:1 103676:1 107609:1 107611:1 107615:1 107623:1 107634:1 107636:1 107795:1 107932:1 108086:1 108469:1 108478:1 108481:1 108487:1 108507:1 108510:1  |EV| 
-0.10000000000000000555111512312578 19631:1 51417:1 89356:1 102234:1 103075:1 103569:1 103653:1 103676:1 107609:1 107611:1 107615:1 107623:1 107634:1 107636:1 107795:1 107932:1 108086:1 108468:1 108478:1 108481:1 108487:1 108491:1 108507:1 108510:1  |EV| 
0.1744035639511441193594265541833 8763:1 39443:1 74499:1 101857:1 101883:1 102107:1 102641:1 102642:1 102643:1 102644:1 103652:1 107617:1 107620:1 107634:1 107664:1 107784:1 107932:1 108089:1 108465:1 108473:1 108485:1 108487:1 108497:1 108518:1  |EV| 
0.032641251082276244444013713064123 28159:1 60870:1 99794:1 101857:1 101883:1 101897:1 102589:1 102657:1 103271:1 103508:1 103509:1 103510:1 103518:1 103652:1 105745:1 107617:1 107620:1 107634:1 107660:1 107784:1 107932:1 108079:1 108466:1 108473:1 108485:1 108487:1 108497:1 108518:1  |EV| 
0.1584689054931147644822431175271 3050:1 33190:1 66907:1 101883:1 101942:1 101962:1 102147:1 102182:1 102204:1 102205:1 102206:1 102207:1 102208:1 102209:1 103652:1 107617:1 107620:1 107634:1 107684:1 107784:1 107932:1 108079:1 108465:1 108473:1 108485:1 108487:1 108497:1 108518:1  |EV| 
0.28306204572996629398318191306316 5403:1 57172:1 95572:1 101857:1 101868:1 101908:1 102008:1 102540:1 103283:1 103652:1 107617:1 107620:1 107634:1 107651:1 107784:1 107932:1 108089:1 108469:1 108473:1 108485:1 108487:1 108497:1 108518:1  |EV| 
-0.10000000000000000555111512312578 19549:1 51332:1 89267:1 101857:1 101859:1 101868:1 101874:1 101877:1 101888:1 101897:1 101908:1 101931:1 101975:1 102062:1 102069:1 102182:1 102195:1 102211:1 102228:1 102335:1 102690:1 103054:1 103055:1 103056:1 103057:1 103652:1 107617:1 107625:1 107634:1 107686:1 107784:1 107932:1 108193:1 108466:1 108473:1 108485:1 108487:1 108494:1 108497:1 108518:1  |EV| 
-0.018695041822841998446769196107198 586:1 30401:1 63580:1 101857:1 101859:1 101868:1 101883:1 101921:1 101922:1 101931:1 101932:1 103652:1 107617:1 107620:1 107634:1 107645:1 107784:1 107932:1 108089:1 108466:1 108473:1 108485:1 108486:1 108487:1 108492:1 108497:1 108503:1 108518:1  |EV| 
-0.10000000000000000555111512312578 223:1 30030:1 63047:1 101857:1 101932:1 103652:1 107617:1 107620:1 107634:1 107647:1 107784:1 107932:1 108089:1 108466:1 108473:1 108485:1 108486:1 108487:1 108492:1 108497:1 108503:1 108518:1  |EV| 
-0.053323882188796870029712238192587 27315:1 59967:1 98844:1 101857:1 101867:1 101870:1 101904:1 102841:1 103038:1 103497:1 103652:1 105615:1 107617:1 107620:1 107634:1 107651:1 107784:1 107932:1 108089:1 108466:1 108473:1 108485:1 108487:1 108497:1 108518:1  |EV| 
-0.10000000000000000555111512312578 8845:1 39525:1 74574:1 101859:1 101953:1 101962:1 102107:1 102597:1 103652:1 105747:1 106032:1 107617:1 107620:1 107634:1 107658:1 107784:1 107932:1 108089:1 108466:1 108473:1 108485:1 108487:1 108497:1 108518:1  |EV| 
-0.04190555036355596979502635690551 1947:1 31937:1 65455:1 102013:1 103569:1 103653:1 103676:1 107609:1 107611:1 107615:1 107623:1 107634:1 107636:1 107818:1 107932:1 108086:1 108469:1 108478:1 108481:1 108487:1 108507:1 108510:1  |EV| 
-0.00069299886395900178737150554297841 10719:1 41475:1 76768:1 101857:1 101859:1 101883:1 101897:1 101936:1 101944:1 101962:1 102214:1 102236:1 102266:1 103571:1 103652:1 107629:1 107634:1 107684:1 107800:1 107963:1 108134:1 108466:1 108473:1 108481:1 108487:1 108493:1 108497:1 108498:1 108510:1  |EV| 
-0.054118874151534712702016349794576 16677:1 48188:1 65455:1 102013:1 103569:1 103653:1 103676:1 107609:1 107611:1 107615:1 107623:1 107634:1 107636:1 107818:1 107932:1 108086:1 108469:1 108478:1 108481:1 108487:1 108507:1 108510:1  |EV| 
-0.054118874151535462102557971775241 19728:1 51522:1 65455:1 102013:1 103569:1 103653:1 103676:1 107609:1 107611:1 107615:1 107623:1 107634:1 107636:1 107818:1 107932:1 108086:1 108469:1 108478:1 108481:1 108487:1 108507:1 108510:1  |EV| 
-0.022418758753820738904849463324354 520:1 30330:1 63467:1 101908:1 103569:1 103653:1 103676:1 107609:1 107611:1 107615:1 107623:1 107634:1 107636:1 107818:1 107932:1 108086:1 108469:1 108478:1 108481:1 108487:1 108507:1 108510:1  |EV| 
0.18600997221364742872928843553382 28942:1 61730:1 100685:1 101859:1 101874:1 102229:1 103555:1 103556:1 103652:1 107617:1 107620:1 107634:1 107658:1 107784:1 107932:1 108089:1 108466:1 108473:1 108485:1 108487:1 108497:1 108504:1 108518:1  |EV| 
0.48632127701442162681644276744919 12836:1 43744:1 80129:1 101857:1 101859:1 102019:1 102086:1 102348:1 102396:1 103652:1 107617:1 107620:1 107634:1 107663:1 107784:1 107932:1 108089:1 108470:1 108473:1 108485:1 108487:1 108497:1 108518:1  |EV| 
0.29241737905205467118463502629311 25068:1 57476:1 64783:1 101874:1 103652:1 105615:1 107617:1 107620:1 107634:1 107670:1 107784:1 107932:1 108089:1 108468:1 108473:1 108485:1 108487:1 108491:1 108497:1 108518:1  |EV| 
0.42688129083237769112457726805587 9215:1 39895:1 74916:1 101859:1 101962:1 102299:1 102581:1 102582:1 102583:1 103652:1 105610:1 107617:1 107620:1 107634:1 107663:1 107784:1 107932:1 108089:1 108466:1 108473:1 108485:1 108486:1 108487:1 108497:1 108518:1  |EV| 
0.875114758619750965351613558596 5310:1 57011:1 63996:1 101857:1 101908:1 103652:1 105617:1 107617:1 107620:1 107634:1 107647:1 107784:1 107932:1 108089:1 108468:1 108473:1 108485:1 108487:1 108491:1 108497:1 108518:1  |EV| 
-0.040365878903300331237424813934922 25836:1 58325:1 96827:1 101859:1 101876:1 102108:1 103568:1 103652:1 105670:1 106825:1 107099:1 107627:1 107634:1 107665:1 107820:1 107948:1 108104:1 108466:1 108473:1 108481:1 108486:1 108487:1 108497:1 108498:1 108510:1  |EV| 
-0.029975791987523120463166037552583 15489:1 46738:1 83664:1 101859:1 101942:1 102121:1 103652:1 105615:1 107617:1 107620:1 107634:1 107672:1 107784:1 107932:1 108089:1 108470:1 108473:1 108485:1 108486:1 108487:1 108497:1 108518:1  |EV| 
-0.10000000000000000555111512312578 27011:1 59638:1 68230:1 101857:1 101859:1 103652:1 105729:1 107617:1 107620:1 107634:1 107647:1 107784:1 107932:1 108089:1 108470:1 108473:1 108485:1 108487:1 108497:1 108518:1  |EV| 
-0.10000000000000000555111512312578 15952:1 47313:1 63996:1 101857:1 101908:1 103652:1 105615:1 107617:1 107620:1 107634:1 107647:1 107784:1 107932:1 108089:1 108468:1 108473:1 108485:1 108487:1 108491:1 108497:1 108518:1  |EV| 
-0.10000000000000000555111512312578 24531:1 56838:1 63996:1 101857:1 101908:1 103652:1 105615:1 107617:1 107620:1 107634:1 107647:1 107784:1 107932:1 108089:1 108468:1 108473:1 108485:1 108487:1 108491:1 108497:1 108518:1  |EV| 
-0.016158667620415734234029514482245 6632:1 37140:1 62939:1 103570:1 103653:1 103654:1 107609:1 107611:1 107615:1 107622:1 107634:1 107636:1 107800:1 107932:1 108081:1 108469:1 108478:1 108481:1 108487:1 108507:1 108510:1  |EV| 
-0.01615243363439036738959941885696 10449:1 41171:1 62939:1 103570:1 103653:1 103654:1 107609:1 107611:1 107615:1 107622:1 107634:1 107636:1 107800:1 107932:1 108081:1 108469:1 108478:1 108481:1 108487:1 108507:1 108510:1  |EV| 
-0.016152433634393004169282903603744 16793:1 48308:1 62939:1 103570:1 103653:1 103654:1 107609:1 107611:1 107615:1 107622:1 107634:1 107636:1 107800:1 107932:1 108081:1 108469:1 108478:1 108481:1 108487:1 108507:1 108510:1  |EV| 
-0.016152433634390894745536115806317 20425:1 52333:1 62939:1 103570:1 103653:1 103654:1 107609:1 107611:1 107615:1 107622:1 107634:1 107636:1 107800:1 107932:1 108081:1 108469:1 108478:1 108481:1 108487:1 108507:1 108510:1  |EV| 
-0.016158667620415734234029514482245 23787:1 55925:1 62939:1 103570:1 103653:1 103654:1 107609:1 107611:1 107615:1 107622:1 107634:1 107636:1 107800:1 107932:1 108081:1 108469:1 108478:1 108481:1 108487:1 108507:1 108510:1  |EV| 
0.3763984803252823363450829674548 16951:1 48484:1 85797:1 101857:1 101876:1 102013:1 102014:1 103652:1 107617:1 107620:1 107634:1 107665:1 107784:1 107932:1 108089:1 108466:1 108473:1 108485:1 108487:1 108493:1 108497:1 108503:1 108518:1  |EV| 
0.36465874042722856707143819221528 9849:1 62289:1 101229:1 101857:1 101874:1 101876:1 101943:1 103002:1 103056:1 103560:1 103561:1 103652:1 107617:1 107620:1 107634:1 107664:1 107784:1 107932:1 108089:1 108470:1 108473:1 108485:1 108487:1 108497:1 108518:1  |EV| 
0.32581456749542592188362277738634 22178:1 54248:1 92288:1 101895:1 103169:1 103652:1 105615:1 107617:1 107620:1 107634:1 107647:1 107784:1 107932:1 108089:1 108465:1 108473:1 108485:1 108487:1 108497:1 108518:1  |EV| 
0.21103948473938155538931482624321 28171:1 60883:1 99815:1 101897:1 103508:1 103652:1 105615:1 107617:1 107620:1 107634:1 107647:1 107784:1 107932:1 108089:1 108466:1 108473:1 108485:1 108487:1 108497:1 108518:1  |EV| 
-0.061970703044616319565829343218866 20297:1 52187:1 90194:1 101859:1 101874:1 101876:1 103091:1 103652:1 105670:1 107617:1 107620:1 107634:1 107665:1 107784:1 107932:1 108089:1 108466:1 108473:1 108485:1 108487:1 108497:1 108518:1  |EV| 
-0.061962884921569205687319481512532 25870:1 58360:1 96868:1 101859:1 101874:1 101897:1 102075:1 102656:1 103364:1 103366:1 103652:1 107617:1 107620:1 107634:1 107651:1 107784:1 107932:1 108089:1 108466:1 108473:1 108485:1 108487:1 108497:1 108518:1  |EV| 
-0.10000000000000000555111512312578 29596:1 62495:1 101478:1 101857:1 101874:1 101876:1 101908:1 101943:1 102255:1 102573:1 103002:1 103056:1 103560:1 103561:1 103652:1 107617:1 107620:1 107634:1 107642:1 107784:1 107932:1 108079:1 108466:1 108473:1 108485:1 108487:1 108493:1 108497:1 108518:1  |EV| 
-0.014118197747720558077322294820988 9820:1 40507:1 75605:1 101859:1 101867:1 101904:1 102118:1 102272:1 102600:1 102688:1 102689:1 103652:1 107617:1 107620:1 107634:1 107664:1 107784:1 107932:1 108089:1 108466:1 108473:1 108485:1 108487:1 108497:1 108518:1  |EV| 
-0.10000000000000000555111512312578 5967:1 36410:1 70726:1 101870:1 101884:1 101897:1 101942:1 102408:1 102409:1 102410:1 102411:1 103652:1 107617:1 107620:1 107634:1 107664:1 107784:1 107932:1 108089:1 108466:1 108473:1 108485:1 108487:1 108497:1 108504:1 108518:1  |EV| 
-0.035494233106125538945718744798796 20663:1 52627:1 90922:1 102077:1 103119:1 103632:1 103653:1 103752:1 107609:1 107611:1 107615:1 107623:1 107634:1 107636:1 107795:1 107932:1 108086:1 108465:1 108478:1 108481:1 108487:1 108507:1 108510:1  |EV| 
0.064409136945153044884193604957545 6187:1 36656:1 71019:1 101859:1 102439:1 103571:1 103652:1 106823:1 107116:1 107624:1 107634:1 107655:1 107788:1 107966:1 108087:1 108466:1 108477:1 108481:1 108487:1 108497:1 108510:1  |EV| 
-0.022020507265626931836521862351219 23430:1 55531:1 91110:1 101884:1 102003:1 103616:1 103653:1 103820:1 107609:1 107611:1 107615:1 107623:1 107634:1 107636:1 107795:1 107932:1 108086:1 108465:1 108478:1 108481:1 108487:1 108507:1 108510:1  |EV| 
-0.047114643145497264731247355484811 8411:1 39084:1 74073:1 101953:1 102077:1 103605:1 103653:1 103752:1 107609:1 107611:1 107615:1 107623:1 107634:1 107636:1 107795:1 107932:1 108086:1 108470:1 108478:1 108481:1 108487:1 108507:1 108510:1  |EV| 
-0.013873698536388787833084634826264 26426:1 58953:1 97623:1 101857:1 101859:1 103377:1 103572:1 103652:1 103662:1 105615:1 106823:1 107117:1 107626:1 107633:1 107672:1 107813:1 107946:1 108100:1 108468:1 108473:1 108481:1 108491:1 108497:1 108510:1  |EV| 
0.52066197112537127011933080211747 15449:1 46687:1 83613:1 101859:1 101942:1 102075:1 102097:1 102121:1 102147:1 102902:1 103652:1 107617:1 107620:1 107634:1 107664:1 107784:1 107932:1 108089:1 108470:1 108477:1 108485:1 108486:1 108487:1 108497:1 108498:1 108518:1  |EV| 
0.12634622081586199815461668549688 28479:1 61212:1 100163:1 101859:1 101884:1 101962:1 101986:1 102091:1 102290:1 102423:1 102427:1 103410:1 103523:1 103652:1 107617:1 107620:1 107634:1 107703:1 107784:1 107932:1 108079:1 108466:1 108473:1 108485:1 108486:1 108487:1 108497:1 108518:1  |EV| 
0.428962094867364029937562008854 17793:1 49395:1 86892:1 101857:1 101874:1 101876:1 103002:1 103652:1 107617:1 107620:1 107634:1 107665:1 107784:1 107932:1 108089:1 108469:1 108473:1 108485:1 108487:1 108497:1 108518:1  |EV| 
0.47917356777663544509238136015483 21469:1 53500:1 91479:1 101884:1 101897:1 102631:1 103124:1 103652:1 105615:1 107617:1 107625:1 107634:1 107669:1 107784:1 107932:1 108091:1 108466:1 108473:1 108485:1 108486:1 108487:1 108497:1 108518:1  |EV| 
-0.10000000000000000555111512312578 14889:1 46038:1 82905:1 101859:1 102075:1 102097:1 102147:1 103652:1 105610:1 107617:1 107625:1 107634:1 107669:1 107784:1 107932:1 108091:1 108470:1 108473:1 108485:1 108486:1 108487:1 108497:1 108518:1  |EV| 
-0.10000000000000000555111512312578 5403:1 57172:1 67074:1 101859:1 101876:1 103652:1 105615:1 107617:1 107625:1 107634:1 107639:1 107784:1 107932:1 108091:1 108469:1 108473:1 108485:1 108487:1 108497:1 108518:1  |EV| 
-0.068445781067558164600939107913291 26647:1 59212:1 82363:1 102112:1 103576:1 103591:1 103652:1 103664:1 103752:1 106823:1 106842:1 107139:1 107195:1 107608:1 107610:1 107613:1 107631:1 107634:1 107636:1 107784:1 107966:1 108121:1 108471:1 108472:1 108481:1 108496:1 108497:1 108510:1  |EV| 
-0.081542186384487722050629088244023 8362:1 39033:1 74009:1 101876:1 101884:1 102069:1 102087:1 103652:1 105615:1 107617:1 107625:1 107634:1 107669:1 107784:1 107932:1 108091:1 108469:1 108473:1 108485:1 108487:1 108497:1 108518:1  |EV| 
-0.016454031540303074021558416006883 4038:1 34241:1 68283:1 102329:1 103590:1 103591:1 103652:1 103664:1 106823:1 107195:1 107608:1 107610:1 107613:1 107631:1 107634:1 107636:1 107784:1 107966:1 108121:1 108471:1 108473:1 108481:1 108496:1 108497:1 108510:1  |EV| 
-0.075842662585708417455343521851319 15034:1 46208:1 83078:1 101908:1 102130:1 103569:1 103653:1 103676:1 107609:1 107611:1 107615:1 107623:1 107634:1 107636:1 107795:1 107932:1 108086:1 108469:1 108478:1 108481:1 108487:1 108507:1 108510:1  |EV| 
-0.020078420507976278697181982124675 21035:1 53029:1 91009:1 102029:1 102126:1 102346:1 102396:1 103131:1 103582:1 103591:1 103630:1 103633:1 103652:1 107627:1 107634:1 107645:1 107798:1 107957:1 108104:1 108466:1 108473:1 108481:1 108486:1 108487:1 108498:1 108510:1  |EV| 
0.063188771989487677038788149275206 16990:1 48529:1 85851:1 101883:1 102942:1 103574:1 103652:1 105738:1 107624:1 107634:1 107655:1 107800:1 107943:1 108087:1 108470:1 108473:1 108481:1 108486:1 108487:1 108497:1 108510:1  |EV| 
-0.081046700093772544581938177543634 18038:1 49659:1 87215:1 101857:1 101871:1 101874:1 101876:1 101883:1 101884:1 101895:1 102788:1 102842:1 102966:1 102972:1 103002:1 103003:1 103570:1 103652:1 107627:1 107634:1 107677:1 107795:1 107975:1 108093:1 108466:1 108473:1 108481:1 108486:1 108487:1 108497:1 108510:1  |EV| 
0.39881359509329938894950373651227 7828:1 38411:1 68954:1 101857:1 101859:1 103652:1 107617:1 107625:1 107634:1 107639:1 107784:1 107932:1 108091:1 108465:1 108473:1 108485:1 108487:1 108497:1 108500:1 108518:1  |EV| 
0.29244869815851864958133887739677 22233:1 54303:1 92342:1 101897:1 103201:1 103202:1 103652:1 105615:1 107617:1 107625:1 107634:1 107655:1 107784:1 107932:1 108091:1 108465:1 108473:1 108485:1 108487:1 108497:1 108518:1  |EV| 
0.20218157067653938496754051357129 12531:1 43403:1 72234:1 102019:1 103652:1 105610:1 105615:1 106215:1 107617:1 107625:1 107634:1 107640:1 107784:1 107932:1 108091:1 108465:1 108473:1 108485:1 108487:1 108497:1 108518:1  |EV| 
0.43283759088360684863516780751524 7194:1 37720:1 72234:1 102019:1 103652:1 105615:1 107617:1 107625:1 107634:1 107640:1 107784:1 107932:1 108091:1 108465:1 108473:1 108485:1 108487:1 108497:1 108518:1  |EV| 
0.48378757136100930535960173983767 13402:1 44395:1 63574:1 101870:1 103652:1 105615:1 107617:1 107625:1 107634:1 107640:1 107784:1 107932:1 108091:1 108470:1 108473:1 108485:1 108487:1 108497:1 108518:1  |EV| 
-0.10000000000000000555111512312578 29553:1 62432:1 63153:1 101897:1 103652:1 105614:1 105615:1 107617:1 107625:1 107634:1 107640:1 107784:1 107932:1 108091:1 108465:1 108473:1 108485:1 108487:1 108493:1 108497:1 108518:1  |EV| 
-0.10000000000000000555111512312578 19983:1 51832:1 89832:1 101857:1 101897:1 101962:1 102656:1 103652:1 107617:1 107620:1 107634:1 107665:1 107784:1 107932:1 108089:1 108465:1 108473:1 108485:1 108487:1 108497:1 108518:1  |EV| 
-0.015709051384548367025217885384336 13272:1 44238:1 80746:1 101857:1 101941:1 101962:1 102195:1 102340:1 102797:1 103652:1 106014:1 107617:1 107625:1 107634:1 107649:1 107784:1 107932:1 108091:1 108465:1 108473:1 108485:1 108487:1 108497:1 108518:1  |EV| 
-0.10000000000000000555111512312578 7194:1 37720:1 63641:1 101876:1 103652:1 105615:1 107617:1 107625:1 107634:1 107640:1 107784:1 107932:1 108091:1 108465:1 108473:1 108485:1 108487:1 108497:1 108518:1  |EV| 
-0.042259275327845111092095464755403 24120:1 56347:1 94589:1 102329:1 102540:1 103270:1 103652:1 105615:1 107617:1 107625:1 107634:1 107655:1 107784:1 107932:1 108091:1 108465:1 108473:1 108485:1 108487:1 108497:1 108518:1  |EV| 
-0.022951826020526679139610592983445 9992:1 40679:1 75809:1 101962:1 102594:1 102595:1 102596:1 103568:1 103615:1 103653:1 104160:1 104192:1 107609:1 107611:1 107615:1 107623:1 107634:1 107636:1 107813:1 107932:1 108086:1 108466:1 108478:1 108481:1 108487:1 108507:1 108510:1  |EV| 
-0.024674900823605447341968499586073 26536:1 59079:1 97763:1 101859:1 101985:1 102019:1 103624:1 103652:1 107608:1 107610:1 107613:1 107631:1 107634:1 107636:1 107784:1 107968:1 108121:1 108471:1 108473:1 108481:1 108496:1 108497:1 108510:1  |EV| 
0.027492459241096934424719577805263 13341:1 44327:1 80872:1 101857:1 101870:1 101871:1 101883:1 101884:1 101897:1 101953:1 101962:1 102132:1 102143:1 102389:1 102411:1 102465:1 102824:1 102825:1 102829:1 102832:1 103652:1 107617:1 107620:1 107634:1 107713:1 107784:1 107932:1 108138:1 108465:1 108473:1 108485:1 108487:1 108497:1 108518:1  |EV| 
0.32019773429226389138690933577891 7295:1 37829:1 63153:1 101897:1 103652:1 105614:1 105615:1 107617:1 107625:1 107634:1 107640:1 107784:1 107932:1 108091:1 108466:1 108473:1 108485:1 108486:1 108487:1 108492:1 108497:1 108518:1  |EV| 
0.096372021005294600248802794340008 12689:1 43583:1 79957:1 101857:1 101870:1 101871:1 101883:1 101884:1 101897:1 101953:1 101962:1 102143:1 102411:1 102465:1 102824:1 102825:1 102829:1 103652:1 107617:1 107620:1 107634:1 107685:1 107784:1 107932:1 108079:1 108465:1 108473:1 108485:1 108487:1 108497:1 108518:1  |EV| 
0.095251098078689047654599164616229 14423:1 45539:1 63153:1 101897:1 103652:1 105615:1 107617:1 107625:1 107634:1 107640:1 107784:1 107932:1 108091:1 108466:1 108473:1 108485:1 108487:1 108493:1 108497:1 108518:1  |EV| 
-0.10000000000000000555111512312578 865:1 30743:1 63153:1 101897:1 103652:1 105614:1 105615:1 107617:1 107625:1 107634:1 107640:1 107784:1 107932:1 108091:1 108466:1 108473:1 108485:1 108487:1 108489:1 108497:1 108518:1  |EV| 
-0.10000000000000000555111512312578 26961:1 59580:1 63153:1 101897:1 103652:1 105615:1 107617:1 107625:1 107634:1 107640:1 107784:1 107932:1 108091:1 108466:1 108473:1 108485:1 108487:1 108497:1 108505:1 108518:1  |EV| 
-0.10000000000000000555111512312578 29612:1 62516:1 63153:1 101897:1 103652:1 105615:1 107617:1 107625:1 107634:1 107640:1 107784:1 107932:1 108091:1 108466:1 108473:1 108485:1 108487:1 108497:1 108518:1  |EV| 
-0.10000000000000000555111512312578 3469:1 33655:1 63153:1 101897:1 103652:1 105614:1 105615:1 107617:1 107625:1 107634:1 107640:1 107784:1 107932:1 108091:1 108466:1 108473:1 108485:1 108486:1 108487:1 108492:1 108497:1 108518:1  |EV| 
-0.10000000000000000555111512312578 11441:1 42229:1 63153:1 101897:1 103652:1 105615:1 107617:1 107625:1 107634:1 107640:1 107784:1 107932:1 108091:1 108470:1 108473:1 108485:1 108487:1 108497:1 108518:1  |EV| 
-0.10000000000000000555111512312578 25449:1 57902:1 74267:1 101962:1 103642:1 103653:1 104192:1 107609:1 107611:1 107615:1 107622:1 107634:1 107636:1 107788:1 107932:1 108081:1 108466:1 108478:1 108481:1 108487:1 108507:1 108510:1  |EV| 
-0.10000000000000000555111512312578 2256:1 32286:1 62774:1 101857:1 103578:1 103653:1 103676:1 107609:1 107611:1 107615:1 107622:1 107634:1 107636:1 107788:1 107932:1 108081:1 108469:1 108478:1 108481:1 108487:1 108507:1 108510:1  |EV| 
-0.10000000000000000555111512312578 23086:1 55181:1 93299:1 102019:1 103638:1 103653:1 103752:1 107609:1 107611:1 107615:1 107622:1 107634:1 107636:1 107788:1 107932:1 108081:1 108469:1 108478:1 108481:1 108487:1 108507:1 108510:1  |EV| 
-0.10000000000000000555111512312578 25496:1 57954:1 96468:1 101962:1 102158:1 103570:1 103653:1 107609:1 107611:1 107615:1 107622:1 107634:1 107636:1 107787:1 107932:1 108081:1 108465:1 108478:1 108481:1 108487:1 108507:1 108510:1  |EV| 
-0.0051803786004447349711199422017671 30:1 29833:1 77173:1 101916:1 103566:1 103653:1 107609:1 107611:1 107615:1 107622:1 107634:1 107636:1 107788:1 107932:1 108081:1 108465:1 108478:1 108481:1 108487:1 108507:1 108510:1  |EV| 
0.23722413639786465999748088506749 12356:1 43211:1 63153:1 101897:1 103652:1 105615:1 107617:1 107625:1 107634:1 107640:1 107784:1 107932:1 108091:1 108466:1 108473:1 108485:1 108486:1 108487:1 108497:1 108518:1  |EV| 
0.2372247879159035677254507845646 21052:1 53047:1 63153:1 101897:1 103652:1 105615:1 107617:1 107625:1 107634:1 107640:1 107784:1 107932:1 108091:1 108466:1 108473:1 108485:1 108486:1 108487:1 108497:1 108518:1  |EV| 
0.21756480157558855115240703526069 12410:1 43269:1 63153:1 101897:1 103652:1 105615:1 107617:1 107625:1 107634:1 107640:1 107784:1 107932:1 108091:1 108470:1 108473:1 108485:1 108486:1 108487:1 108497:1 108518:1  |EV| 
0.12544866258008569026571876747767 6061:1 36513:1 63153:1 101897:1 103652:1 105615:1 107617:1 107625:1 107634:1 107640:1 107784:1 107932:1 108091:1 108466:1 108473:1 108485:1 108487:1 108497:1 108518:1  |EV| 
0.12544866258008635639953354257159 7981:1 38585:1 63153:1 101897:1 103652:1 105615:1 107617:1 107625:1 107634:1 107640:1 107784:1 107932:1 108091:1 108466:1 108473:1 108485:1 108487:1 108497:1 108518:1  |EV| 
-0.10000000000000000555111512312578 471:1 30281:1 63153:1 101897:1 103652:1 105615:1 107617:1 107625:1 107634:1 107640:1 107784:1 107932:1 108091:1 108466:1 108473:1 108485:1 108486:1 108487:1 108492:1 108497:1 108518:1  |EV| 
-0.10000000000000000555111512312578 296:1 30107:1 63153:1 101897:1 103652:1 105615:1 107617:1 107625:1 107634:1 107640:1 107784:1 107932:1 108091:1 108466:1 108473:1 108485:1 108486:1 108487:1 108497:1 108518:1  |EV| 
-0.10000000000000000555111512312578 25898:1 58388:1 63153:1 101897:1 103652:1 105615:1 107617:1 107625:1 107634:1 107640:1 107784:1 107932:1 108091:1 108466:1 108473:1 108485:1 108486:1 108487:1 108497:1 108518:1  |EV| 
-0.10000000000000000555111512312578 26265:1 58780:1 63153:1 101897:1 103652:1 105615:1 107617:1 107625:1 107634:1 107640:1 107784:1 107932:1 108091:1 108466:1 108473:1 108485:1 108486:1 108487:1 108497:1 108518:1  |EV| 
-0.10000000000000000555111512312578 29698:1 62629:1 63153:1 101897:1 103652:1 105615:1 107617:1 107625:1 107634:1 107640:1 107784:1 107932:1 108091:1 108466:1 108473:1 108485:1 108486:1 108487:1 108497:1 108518:1  |EV| 
-0.096456037536238770080387894267915 12739:1 43637:1 62939:1 103568:1 103621:1 103653:1 104473:1 104608:1 107609:1 107611:1 107615:1 107622:1 107634:1 107636:1 107800:1 107932:1 108081:1 108469:1 108478:1 108481:1 108487:1 108507:1 108510:1  |EV| 
-0.021799240227515337409158746595494 26966:1 59585:1 62939:1 103579:1 103653:1 107609:1 107611:1 107615:1 107622:1 107634:1 107636:1 107800:1 107932:1 108081:1 108466:1 108478:1 108481:1 108487:1 108493:1 108507:1 108510:1  |EV| 
-0.021632082115346486228535383133931 6690:1 37201:1 71785:1 102439:1 103571:1 103653:1 107609:1 107611:1 107615:1 107622:1 107634:1 107636:1 107788:1 107932:1 108081:1 108466:1 108478:1 108481:1 108487:1 108507:1 108510:1  |EV| 
-0.02361340250194386009008340465698 2936:1 33060:1 67016:1 101874:1 102126:1 103566:1 103653:1 103904:1 107609:1 107611:1 107615:1 107622:1 107634:1 107636:1 107787:1 107932:1 108081:1 108466:1 108478:1 108481:1 108487:1 108507:1 108510:1  |EV| 
-0.060143394380846953994890213834879 12998:1 43920:1 62939:1 103568:1 103571:1 103623:1 103653:1 103654:1 104617:1 107609:1 107611:1 107615:1 107622:1 107634:1 107636:1 107800:1 107932:1 108081:1 108469:1 108478:1 108481:1 108487:1 108507:1 108510:1  |EV| 
0.13929760060265242160859600062395 8685:1 39365:1 63153:1 101897:1 103652:1 105614:1 105615:1 107617:1 107625:1 107634:1 107640:1 107784:1 107932:1 108091:1 108469:1 108473:1 108485:1 108487:1 108497:1 108518:1  |EV| 
-0.10000000000000000555111512312578 10911:1 41672:1 63153:1 101897:1 103652:1 105614:1 105615:1 107617:1 107625:1 107634:1 107640:1 107784:1 107932:1 108091:1 108466:1 108473:1 108485:1 108486:1 108487:1 108497:1 108518:1  |EV| 
-0.10000000000000000555111512312578 26370:1 58891:1 63153:1 101897:1 103652:1 105614:1 105615:1 107617:1 107625:1 107634:1 107640:1 107784:1 107932:1 108091:1 108466:1 108473:1 108485:1 108486:1 108487:1 108497:1 108518:1  |EV| 
-0.10000000000000000555111512312578 966:1 30849:1 63153:1 101897:1 103652:1 105615:1 107617:1 107625:1 107634:1 107640:1 107784:1 107932:1 108091:1 108470:1 108473:1 108485:1 108487:1 108495:1 108497:1 108500:1 108518:1  |EV| 
-0.10000000000000000555111512312578 16466:1 47960:1 85166:1 102033:1 103652:1 105615:1 107617:1 107625:1 107634:1 107640:1 107784:1 107932:1 108091:1 108470:1 108473:1 108485:1 108486:1 108487:1 108497:1 108498:1 108518:1  |EV| 
-0.10000000000000000555111512312578 21168:1 53173:1 91150:1 101962:1 102396:1 103133:1 103582:1 103631:1 103653:1 107609:1 107611:1 107615:1 107622:1 107634:1 107636:1 107803:1 107932:1 108081:1 108466:1 108478:1 108481:1 108487:1 108507:1 108510:1  |EV| 
-0.040041622599038970142792948081478 16768:1 48281:1 85546:1 101859:1 101867:1 101888:1 102133:1 102405:1 102935:1 103566:1 103652:1 105922:1 107624:1 107634:1 107648:1 107800:1 107959:1 108087:1 108469:1 108472:1 108481:1 108487:1 108497:1 108510:1  |EV| 
-0.030676336175160551222873550614167 27317:1 59969:1 98846:1 101876:1 102036:1 103478:1 103566:1 103652:1 107624:1 107634:1 107669:1 107800:1 107968:1 108087:1 108466:1 108473:1 108481:1 108486:1 108487:1 108497:1 108510:1  |EV| 
-0.095586822526072673378294553003798 26060:1 58559:1 97114:1 101859:1 101874:1 101950:1 102330:1 103621:1 103652:1 106823:1 107347:1 107624:1 107634:1 107661:1 107803:1 107966:1 108087:1 108465:1 108473:1 108481:1 108497:1 108510:1  |EV| 
0.14152001403871417029023405120824 13984:1 45069:1 63153:1 101897:1 103652:1 105614:1 107617:1 107625:1 107634:1 107640:1 107784:1 107932:1 108091:1 108466:1 108473:1 108485:1 108486:1 108487:1 108493:1 108497:1 108518:1  |EV| 
0.12954775393032910701940352282691 7031:1 37553:1 62838:1 101859:1 101897:1 103652:1 105615:1 107617:1 107625:1 107634:1 107639:1 107784:1 107932:1 108091:1 108470:1 108473:1 108485:1 108486:1 108487:1 108490:1 108497:1 108518:1  |EV| 
0.10621190811334721426639760011312 9986:1 40673:1 63153:1 101897:1 103652:1 105615:1 107617:1 107625:1 107634:1 107640:1 107784:1 107932:1 108091:1 108470:1 108473:1 108485:1 108487:1 108497:1 108518:1  |EV| 
-0.10000000000000000555111512312578 5466:1 35873:1 62838:1 101859:1 101897:1 103652:1 105615:1 107617:1 107625:1 107634:1 107639:1 107784:1 107932:1 108091:1 108466:1 108473:1 108485:1 108486:1 108487:1 108493:1 108497:1 108518:1  |EV| 
-0.10000000000000000555111512312578 59:1 29862:1 62838:1 101859:1 101897:1 103652:1 105615:1 107617:1 107625:1 107634:1 107639:1 107784:1 107932:1 108091:1 108466:1 108473:1 108485:1 108486:1 108487:1 108492:1 108497:1 108518:1  |EV| 
-0.080707243675703171925661649765971 20893:1 52873:1 62939:1 103591:1 103653:1 107609:1 107611:1 107615:1 107622:1 107634:1 107636:1 107800:1 107932:1 108081:1 108470:1 108478:1 108481:1 108487:1 108507:1 108510:1  |EV| 
-0.096318013226473014887218937474245 22491:1 54564:1 62939:1 103591:1 103596:1 103630:1 103653:1 103654:1 103752:1 105162:1 107609:1 107611:1 107615:1 107622:1 107634:1 107636:1 107800:1 107932:1 108081:1 108470:1 108478:1 108481:1 108487:1 108490:1 108507:1 108510:1  |EV| 
-0.007302415015379178434007378939441 18157:1 58117:1 96706:1 101859:1 101874:1 101908:1 102075:1 102126:1 102196:1 102205:1 102230:1 102374:1 102554:1 102555:1 103337:1 103338:1 103339:1 103569:1 103652:1 107627:1 107634:1 107691:1 107795:1 107963:1 108093:1 108469:1 108472:1 108481:1 108487:1 108510:1  |EV| 
-0.0066932947782404605963080257424735 5150:1 35499:1 69702:1 101908:1 102196:1 103569:1 103652:1 103696:1 105672:1 106832:1 107111:1 107627:1 107634:1 107672:1 107795:1 107948:1 108104:1 108469:1 108475:1 108481:1 108487:1 108502:1 108510:1  |EV| 
-0.043885554183300035102632818961865 3888:1 34089:1 62939:1 103586:1 103653:1 107609:1 107611:1 107615:1 107622:1 107634:1 107636:1 107800:1 107932:1 108081:1 108470:1 108478:1 108481:1 108487:1 108507:1 108510:1  |EV| 
0.17761772905513739662097805194207 12688:1 43582:1 62838:1 101859:1 101897:1 103652:1 105615:1 107617:1 107625:1 107634:1 107639:1 107784:1 107932:1 108091:1 108466:1 108473:1 108485:1 108486:1 108487:1 108492:1 108497:1 108518:1  |EV| 
0.17797624004203671521651131115505 27960:1 60655:1 62838:1 101859:1 101897:1 103652:1 105615:1 107617:1 107625:1 107634:1 107639:1 107784:1 107932:1 108091:1 108466:1 108473:1 108485:1 108486:1 108487:1 108492:1 108497:1 108518:1  |EV| 
0.16937807162199725041773490374908 7744:1 38316:1 62838:1 101859:1 101897:1 103652:1 105615:1 107617:1 107625:1 107634:1 107639:1 107784:1 107932:1 108091:1 108466:1 108473:1 108485:1 108486:1 108487:1 108497:1 108518:1  |EV| 
0.16937807162199725041773490374908 9726:1 40411:1 62838:1 101859:1 101897:1 103652:1 105615:1 107617:1 107625:1 107634:1 107639:1 107784:1 107932:1 108091:1 108466:1 108473:1 108485:1 108486:1 108487:1 108497:1 108518:1  |EV| 
-0.10000000000000000555111512312578 15822:1 47134:1 62838:1 101859:1 101897:1 103652:1 105615:1 107617:1 107625:1 107634:1 107639:1 107784:1 107932:1 108091:1 108466:1 108477:1 108485:1 108486:1 108487:1 108497:1 108518:1  |EV| 
-0.10000000000000000555111512312578 27044:1 59672:1 62838:1 101859:1 101897:1 103652:1 105615:1 107617:1 107625:1 107634:1 107639:1 107784:1 107932:1 108091:1 108466:1 108477:1 108485:1 108487:1 108497:1 108518:1  |EV| 
-0.10000000000000000555111512312578 29147:1 61961:1 62838:1 101859:1 101897:1 103652:1 105615:1 107617:1 107625:1 107634:1 107639:1 107784:1 107932:1 108091:1 108466:1 108477:1 108485:1 108487:1 108493:1 108497:1 108518:1  |EV| 
0.55351535858606626394617933328846 24065:1 56269:1 94502:1 101857:1 101874:1 101876:1 101908:1 102320:1 103002:1 103040:1 103259:1 103260:1 103261:1 103566:1 103652:1 106825:1 107110:1 107627:1 107634:1 107660:1 107790:1 107948:1 108097:1 108469:1 108476:1 108481:1 108487:1 108497:1 108498:1 108510:1  |EV| 
0.4258186010229624285372551639739 18274:1 49912:1 87500:1 101857:1 101859:1 101867:1 101876:1 101883:1 101888:1 101897:1 101904:1 101926:1 101944:1 101975:1 102003:1 102080:1 102470:1 102690:1 103012:1 103013:1 103014:1 103566:1 103652:1 106429:1 106430:1 107624:1 107634:1 107686:1 107856:1 107961:1 108084:1 108469:1 108473:1 108481:1 108487:1 108497:1 108510:1  |EV| 
0.48775344311698820565226242251811 7945:1 38545:1 73327:1 101924:1 103598:1 103652:1 103664:1 106823:1 107213:1 107608:1 107610:1 107613:1 107631:1 107634:1 107636:1 107784:1 107966:1 108121:1 108471:1 108472:1 108481:1 108496:1 108497:1 108510:1  |EV| 
0.97418857094599031754000861837994 18042:1 49664:1 63180:1 103568:1 103652:1 103665:1 106825:1 107099:1 107608:1 107610:1 107613:1 107628:1 107634:1 107636:1 107784:1 107948:1 108095:1 108471:1 108473:1 108481:1 108496:1 108497:1 108510:1  |EV| 
-0.011797555897166009386545226789167 105:1 29910:1 62890:1 101857:1 103567:1 103652:1 103665:1 106825:1 107101:1 107608:1 107610:1 107613:1 107628:1 107634:1 107636:1 107784:1 107936:1 108095:1 108471:1 108473:1 108481:1 108496:1 108497:1 108510:1  |EV| 
-0.072288724842554122340665401225124 544:1 30356:1 63511:1 101857:1 101897:1 101923:1 103567:1 103652:1 103665:1 106825:1 107101:1 107608:1 107610:1 107613:1 107628:1 107634:1 107636:1 107784:1 107951:1 108095:1 108471:1 108473:1 108481:1 108496:1 108497:1 108498:1 108510:1  |EV| 
-0.085949056825043723684132146445336 23997:1 56189:1 94412:1 101857:1 101859:1 102097:1 102108:1 103163:1 103243:1 103579:1 103652:1 107624:1 107634:1 107648:1 107800:1 107959:1 108087:1 108470:1 108473:1 108481:1 108487:1 108494:1 108495:1 108497:1 108503:1 108510:1  |EV| 
-0.02418219619202537085111970327489 7570:1 38125:1 62890:1 101857:1 103569:1 103652:1 107608:1 107610:1 107613:1 107628:1 107634:1 107636:1 107784:1 107936:1 108095:1 108471:1 108473:1 108481:1 108496:1 108497:1 108504:1 108510:1  |EV| 
0.15763640256196040367875355059368 7442:1 37989:1 62838:1 101859:1 101897:1 103652:1 105615:1 105791:1 107617:1 107625:1 107634:1 107639:1 107784:1 107932:1 108091:1 108466:1 108477:1 108485:1 108486:1 108487:1 108497:1 108518:1  |EV| 
0.21596541494913101821850887063192 7863:1 38452:1 62838:1 101859:1 101897:1 103652:1 105615:1 107617:1 107625:1 107634:1 107639:1 107784:1 107932:1 108091:1 108466:1 108477:1 108485:1 108486:1 108487:1 108497:1 108518:1  |EV| 
0.073960490415175356160304431796249 10237:1 40928:1 62838:1 101859:1 101897:1 103652:1 105615:1 107617:1 107625:1 107634:1 107639:1 107784:1 107932:1 108091:1 108466:1 108477:1 108485:1 108487:1 108493:1 108497:1 108518:1  |EV| 
0.12394863225788460558973724801035 5614:1 36827:1 62838:1 101859:1 101897:1 103652:1 105615:1 107617:1 107625:1 107634:1 107639:1 107784:1 107932:1 108091:1 108470:1 108477:1 108485:1 108486:1 108487:1 108497:1 108518:1  |EV| 
-0.10000000000000000555111512312578 10937:1 41700:1 62838:1 101859:1 101897:1 103652:1 105615:1 105617:1 105802:1 107617:1 107625:1 107634:1 107639:1 107784:1 107932:1 108091:1 108470:1 108477:1 108485:1 108486:1 108487:1 108497:1 108518:1  |EV| 
-0.10000000000000000555111512312578 15101:1 46283:1 62838:1 101859:1 101897:1 103652:1 105615:1 107617:1 107625:1 107634:1 107639:1 107784:1 107932:1 108091:1 108470:1 108477:1 108485:1 108487:1 108493:1 108497:1 108518:1  |EV| 
-0.10000000000000000555111512312578 17651:1 49242:1 62838:1 101859:1 101897:1 103652:1 105615:1 107617:1 107625:1 107634:1 107639:1 107784:1 107932:1 108091:1 108466:1 108472:1 108485:1 108486:1 108487:1 108493:1 108497:1 108518:1  |EV| 
-0.10000000000000000555111512312578 20165:1 52036:1 62838:1 101859:1 101897:1 103652:1 105615:1 107617:1 107625:1 107634:1 107639:1 107784:1 107932:1 108091:1 108470:1 108477:1 108485:1 108487:1 108495:1 108497:1 108518:1  |EV| 
0.42302613997773019782755454798462 10452:1 41176:1 76348:1 102298:1 103574:1 103652:1 103752:1 106842:1 107321:1 107608:1 107610:1 107613:1 107628:1 107634:1 107636:1 107784:1 107936:1 108095:1 108471:1 108476:1 108481:1 108496:1 108497:1 108498:1 108510:1  |EV| 
0.67179925011497332310028696156223 19073:1 50786:1 63180:1 103574:1 103652:1 103665:1 106825:1 107129:1 107608:1 107610:1 107613:1 107628:1 107634:1 107636:1 107784:1 107948:1 108095:1 108471:1 108477:1 108481:1 108496:1 108497:1 108503:1 108510:1  |EV| 
0.34419543952759346083780656044837 20186:1 52061:1 72750:1 101986:1 103629:1 103652:1 103664:1 106823:1 107459:1 107608:1 107610:1 107613:1 107631:1 107634:1 107636:1 107784:1 107966:1 108121:1 108471:1 108473:1 108481:1 108496:1 108497:1 108510:1  |EV| 
0.21980115818636442037714573416451 29052:1 61853:1 100800:1 101874:1 102103:1 102757:1 103547:1 103644:1 103652:1 105565:1 107091:1 107599:1 107608:1 107610:1 107613:1 107628:1 107634:1 107636:1 107784:1 107965:1 108095:1 108471:1 108477:1 108481:1 108496:1 108497:1 108501:1 108510:1  |EV| 
-0.044564040688596012751432340337487 4962:1 61600:1 62861:1 103572:1 103652:1 103664:1 106823:1 107117:1 107608:1 107610:1 107613:1 107631:1 107634:1 107636:1 107784:1 107946:1 108121:1 108471:1 108473:1 108481:1 108496:1 108497:1 108510:1  |EV| 
-0.10000000000000000555111512312578 26161:1 58672:1 63151:1 101859:1 103621:1 103652:1 103664:1 106823:1 107347:1 107608:1 107610:1 107613:1 107631:1 107634:1 107636:1 107784:1 107966:1 108121:1 108471:1 108473:1 108481:1 108496:1 108497:1 108510:1  |EV| 
-0.10000000000000000555111512312578 962:1 30845:1 63180:1 103574:1 103652:1 103665:1 106825:1 107129:1 107608:1 107610:1 107613:1 107628:1 107634:1 107636:1 107784:1 107948:1 108095:1 108471:1 108473:1 108481:1 108496:1 108497:1 108500:1 108510:1  |EV| 
-0.064648271101645393699186570302118 1957:1 31949:1 65468:1 101876:1 102099:1 102109:1 102110:1 103571:1 103652:1 105617:1 107624:1 107634:1 107661:1 107800:1 107961:1 108087:1 108469:1 108473:1 108481:1 108487:1 108497:1 108510:1  |EV| 
-0.012582972746679549347348370247346 12467:1 43336:1 64668:1 101884:1 103568:1 103621:1 103652:1 103664:1 103909:1 106823:1 106867:1 107235:1 107347:1 107608:1 107610:1 107613:1 107631:1 107634:1 107636:1 107784:1 107966:1 108121:1 108471:1 108473:1 108481:1 108496:1 108497:1 108510:1  |EV| 
0.0077173331280365811690735711181333 8686:1 39366:1 62838:1 101859:1 101897:1 103652:1 105615:1 107617:1 107625:1 107634:1 107639:1 107784:1 107932:1 108091:1 108470:1 108473:1 108485:1 108487:1 108493:1 108497:1 108518:1  |EV| 
0.072744906977137674397582145502383 14506:1 45628:1 62838:1 101859:1 101897:1 103652:1 105615:1 105791:1 107617:1 107625:1 107634:1 107639:1 107784:1 107932:1 108091:1 108470:1 108477:1 108485:1 108487:1 108495:1 108497:1 108518:1  |EV| 
0.027380077654047638158196775748365 20925:1 52908:1 62838:1 101859:1 101897:1 103652:1 105615:1 107617:1 107625:1 107634:1 107639:1 107784:1 107932:1 108091:1 108466:1 108473:1 108485:1 108487:1 108493:1 108497:1 108518:1  |EV| 
0.16937807162199702837312997871777 10519:1 41262:1 62838:1 101859:1 101897:1 103652:1 105615:1 107617:1 107625:1 107634:1 107639:1 107784:1 107932:1 108091:1 108466:1 108473:1 108485:1 108486:1 108487:1 108497:1 108518:1  |EV| 
0.16937807162199858268536445393693 20999:1 52992:1 62838:1 101859:1 101897:1 103652:1 105615:1 107617:1 107625:1 107634:1 107639:1 107784:1 107932:1 108091:1 108466:1 108473:1 108485:1 108486:1 108487:1 108497:1 108518:1  |EV| 
0.65343964068746829276790322182933 5664:1 36085:1 63151:1 101859:1 103594:1 103652:1 103664:1 106823:1 107205:1 107608:1 107610:1 107613:1 107631:1 107634:1 107636:1 107784:1 107966:1 108121:1 108471:1 108473:1 108481:1 108496:1 108497:1 108510:1  |EV| 
0.77675389040708542331969965744065 23429:1 55530:1 63151:1 101859:1 103592:1 103652:1 103664:1 106823:1 107198:1 107608:1 107610:1 107613:1 107631:1 107634:1 107636:1 107784:1 107966:1 108121:1 108471:1 108473:1 108481:1 108496:1 108497:1 108510:1  |EV| 
0.50639570686045565217625608056551 16229:1 47692:1 84858:1 101884:1 102895:1 103580:1 103652:1 103820:1 106859:1 107155:1 107608:1 107610:1 107613:1 107631:1 107634:1 107636:1 107784:1 107943:1 108121:1 108471:1 108477:1 108481:1 108496:1 108497:1 108510:1  |EV| 
0.54953391998058109813030114310095 1906:1 44621:1 92773:1 102336:1 103571:1 103652:1 107608:1 107610:1 107613:1 107631:1 107634:1 107636:1 107784:1 107966:1 108121:1 108471:1 108473:1 108481:1 108496:1 108497:1 108498:1 108510:1  |EV| 
-0.055140006831194465775070057134144 17141:1 48694:1 86063:1 101877:1 102003:1 103574:1 103652:1 103664:1 106823:1 107121:1 107608:1 107610:1 107613:1 107631:1 107634:1 107636:1 107784:1 107943:1 108121:1 108471:1 108473:1 108481:1 108496:1 108497:1 108510:1  |EV| 
-0.013573345077388073928736922368898 10448:1 41170:1 81201:1 102470:1 103571:1 103653:1 103905:1 107609:1 107611:1 107615:1 107622:1 107634:1 107636:1 107788:1 107932:1 108081:1 108469:1 108478:1 108481:1 108487:1 108507:1 108510:1  |EV| 
-0.10000000000000000555111512312578 2401:1 32455:1 63151:1 101859:1 103580:1 103652:1 103820:1 106859:1 107155:1 107608:1 107610:1 107613:1 107631:1 107634:1 107636:1 107784:1 107966:1 108121:1 108471:1 108473:1 108481:1 108496:1 108497:1 108510:1  |EV| 
-0.02758330574152650926933461050794 1276:1 31189:1 64671:1 102003:1 103574:1 103652:1 103664:1 106823:1 107121:1 107608:1 107610:1 107613:1 107631:1 107634:1 107636:1 107784:1 107966:1 108121:1 108471:1 108473:1 108481:1 108496:1 108497:1 108510:1  |EV| 
-0.10000000000000000555111512312578 13318:1 44299:1 63170:1 101941:1 103592:1 103652:1 103664:1 106823:1 107198:1 107608:1 107610:1 107613:1 107631:1 107634:1 107636:1 107784:1 107966:1 108121:1 108471:1 108473:1 108481:1 108496:1 108497:1 108510:1  |EV| 
-0.10000000000000000555111512312578 25935:1 58426:1 80840:1 101859:1 102009:1 103652:1 107617:1 107625:1 107634:1 107639:1 107784:1 107932:1 108091:1 108465:1 108477:1 108485:1 108487:1 108497:1 108518:1  |EV| 
-0.038991084762416576559029834925241 29269:1 62102:1 101041:1 101859:1 103435:1 103652:1 107617:1 107625:1 107634:1 107639:1 107784:1 107932:1 108091:1 108465:1 108477:1 108485:1 108487:1 108497:1 108518:1  |EV| 
-0.0037673901709183825470272921620563 6468:1 36963:1 65772:1 101859:1 101888:1 103652:1 105840:1 107617:1 107625:1 107634:1 107639:1 107784:1 107932:1 108091:1 108466:1 108477:1 108485:1 108486:1 108487:1 108497:1 108518:1  |EV| 
-0.10000000000000000555111512312578 787:1 32348:1 92773:1 102336:1 103566:1 103652:1 103664:1 106823:1 107097:1 107608:1 107610:1 107613:1 107631:1 107634:1 107636:1 107784:1 107966:1 108121:1 108471:1 108473:1 108481:1 108496:1 108497:1 108510:1  |EV| 
-0.10000000000000000555111512312578 5555:1 35971:1 63151:1 101859:1 103592:1 103652:1 103664:1 106823:1 107198:1 107608:1 107610:1 107613:1 107631:1 107634:1 107636:1 107784:1 107966:1 108121:1 108471:1 108473:1 108481:1 108496:1 108497:1 108510:1  |EV| 
-0.10000000000000000555111512312578 7534:1 38087:1 72750:1 101986:1 103592:1 103652:1 103664:1 106823:1 107198:1 107608:1 107610:1 107613:1 107631:1 107634:1 107636:1 107784:1 107966:1 108121:1 108471:1 108472:1 108481:1 108496:1 108497:1 108510:1  |EV| 
0.0083591661696999219888226662078523 19653:1 51441:1 89386:1 101857:1 101931:1 102013:1 102928:1 103066:1 103067:1 103569:1 103652:1 105031:1 106339:1 107013:1 107444:1 107627:1 107634:1 107651:1 107818:1 107957:1 108104:1 108469:1 108473:1 108481:1 108487:1 108497:1 108498:1 108510:1  |EV| 
-0.0057185033594050783956053152223831 987:1 30871:1 64324:1 101897:1 101911:1 102003:1 102026:1 102028:1 102029:1 102030:1 102031:1 102032:1 103574:1 103652:1 106823:1 107121:1 107624:1 107634:1 107675:1 107791:1 107966:1 108098:1 108465:1 108473:1 108481:1 108490:1 108497:1 108510:1  |EV| 
0.29841669519141222899349941144465 14873:1 46022:1 82884:1 101874:1 101884:1 102086:1 102126:1 102195:1 102241:1 102508:1 102906:1 103652:1 105694:1 107617:1 107625:1 107634:1 107643:1 107784:1 107932:1 108091:1 108470:1 108477:1 108485:1 108487:1 108495:1 108497:1 108518:1  |EV| 
0.30597691116594988303134527996008 1351:1 31283:1 64769:1 101859:1 102007:1 102008:1 102009:1 102010:1 103652:1 107617:1 107625:1 107634:1 107661:1 107784:1 107932:1 108091:1 108470:1 108477:1 108485:1 108487:1 108495:1 108497:1 108518:1  |EV| 
0.32358341463623652156655907674576 1165:1 42971:1 79102:1 102039:1 102540:1 102735:1 102736:1 103652:1 107617:1 107625:1 107634:1 107669:1 107784:1 107932:1 108091:1 108470:1 108477:1 108485:1 108487:1 108495:1 108497:1 108503:1 108518:1  |EV| 
0.45895130669678069201822268041724 22791:1 54870:1 68954:1 101857:1 101859:1 103652:1 107617:1 107625:1 107634:1 107639:1 107784:1 107932:1 108091:1 108466:1 108473:1 108485:1 108487:1 108497:1 108518:1  |EV| 
-0.10000000000000000555111512312578 5614:1 36031:1 70296:1 101870:1 101962:1 102010:1 102415:1 103652:1 107617:1 107620:1 107634:1 107665:1 107784:1 107932:1 108089:1 108470:1 108477:1 108485:1 108487:1 108497:1 108518:1  |EV| 
-0.10000000000000000555111512312578 24103:1 56324:1 94561:1 101857:1 101874:1 101876:1 101908:1 102320:1 103002:1 103040:1 103259:1 103260:1 103261:1 103652:1 107617:1 107620:1 107634:1 107660:1 107784:1 107932:1 108079:1 108469:1 108476:1 108485:1 108487:1 108497:1 108498:1 108518:1  |EV| 
-0.10000000000000000555111512312578 24143:1 56382:1 94628:1 101857:1 101874:1 101876:1 101908:1 102320:1 103002:1 103259:1 103260:1 103652:1 105635:1 107617:1 107620:1 107634:1 107703:1 107784:1 107932:1 108079:1 108469:1 108476:1 108485:1 108487:1 108497:1 108498:1 108518:1  |EV| 
-0.059986619480759117983836858911673 9194:1 39874:1 74895:1 101857:1 101859:1 101870:1 101962:1 102299:1 102581:1 102582:1 102583:1 102625:1 102631:1 103652:1 107617:1 107620:1 107634:1 107703:1 107784:1 107932:1 108079:1 108470:1 108473:1 108485:1 108487:1 108497:1 108518:1  |EV| 
-0.010634206985209936416336695685914 18249:1 49884:1 74298:1 101857:1 101908:1 103590:1 103591:1 103652:1 105811:1 107629:1 107634:1 107647:1 107800:1 107951:1 108103:1 108469:1 108473:1 108481:1 108487:1 108497:1 108510:1  |EV| 
-0.07258653449695073867076189344516 27284:1 59934:1 63151:1 101859:1 103598:1 103652:1 103886:1 106865:1 107561:1 107608:1 107610:1 107613:1 107631:1 107634:1 107636:1 107784:1 107966:1 108121:1 108471:1 108477:1 108481:1 108496:1 108497:1 108510:1  |EV| 
-0.10000000000000000555111512312578 996:1 59099:1 63151:1 101859:1 103624:1 103652:1 103664:1 106823:1 107552:1 107608:1 107610:1 107613:1 107631:1 107634:1 107636:1 107784:1 107966:1 108121:1 108471:1 108477:1 108481:1 108496:1 108497:1 108510:1  |EV| 
-0.063929825496780362525939267470676 21758:1 53811:1 91812:1 101943:1 102329:1 103652:1 107617:1 107625:1 107634:1 107639:1 107784:1 107932:1 108091:1 108466:1 108473:1 108485:1 108487:1 108497:1 108518:1  |EV| 
-0.10000000000000000555111512312578 317:1 33996:1 63180:1 103568:1 103652:1 103665:1 106825:1 107099:1 107608:1 107610:1 107613:1 107628:1 107634:1 107636:1 107784:1 107948:1 108095:1 108471:1 108473:1 108481:1 108496:1 108497:1 108498:1 108504:1 108510:1  |EV| 
0.041367732948532097425609066476682 21009:1 53002:1 90982:1 101859:1 102051:1 103591:1 103652:1 106823:1 107195:1 107624:1 107634:1 107655:1 107788:1 107966:1 108087:1 108470:1 108473:1 108481:1 108487:1 108497:1 108510:1  |EV| 
0.21054378709987311979467961009505 3454:1 33640:1 67596:1 101857:1 101866:1 101962:1 102221:1 103652:1 107617:1 107620:1 107634:1 107665:1 107784:1 107932:1 108089:1 108469:1 108473:1 108485:1 108487:1 108497:1 108518:1  |EV| 
0.29104902333501592170961203009938 25607:1 58074:1 96581:1 101857:1 102195:1 103350:1 103652:1 107617:1 107620:1 107634:1 107672:1 107784:1 107932:1 108089:1 108465:1 108472:1 108485:1 108487:1 108497:1 108498:1 108505:1 108518:1  |EV| 
0.31779886115513300559598519612337 10658:1 41411:1 76665:1 101857:1 101876:1 101917:1 101923:1 102470:1 102727:1 102728:1 103652:1 107617:1 107620:1 107634:1 107645:1 107784:1 107932:1 108089:1 108469:1 108473:1 108485:1 108487:1 108497:1 108498:1 108518:1  |EV| 
0.15701491405285447622297567704663 25366:1 57810:1 96323:1 101876:1 101962:1 103345:1 103346:1 103652:1 107617:1 107620:1 107634:1 107665:1 107784:1 107932:1 108089:1 108465:1 108472:1 108485:1 108487:1 108497:1 108518:1  |EV| 
-0.10000000000000000555111512312578 9919:1 40606:1 75674:1 101884:1 101962:1 103652:1 105699:1 107617:1 107620:1 107634:1 107647:1 107784:1 107932:1 108089:1 108465:1 108473:1 108485:1 108487:1 108497:1 108518:1  |EV| 
-0.10000000000000000555111512312578 7156:1 37680:1 72279:1 101883:1 101924:1 103652:1 107617:1 107620:1 107634:1 107647:1 107784:1 107932:1 108089:1 108465:1 108473:1 108485:1 108487:1 108497:1 108518:1  |EV| 
-0.10000000000000000555111512312578 5267:1 35635:1 69852:1 101857:1 102080:1 103652:1 107617:1 107620:1 107634:1 107647:1 107784:1 107932:1 108089:1 108465:1 108473:1 108485:1 108487:1 108497:1 108518:1  |EV| 
-0.10000000000000000555111512312578 7295:1 37829:1 72446:1 101857:1 101870:1 101884:1 101897:1 102465:1 102486:1 103652:1 107617:1 107620:1 107634:1 107663:1 107784:1 107932:1 108089:1 108466:1 108473:1 108485:1 108487:1 108497:1 108518:1  |EV| 
-0.060306200765661177598531139665283 18020:1 49637:1 87186:1 101857:1 101871:1 101874:1 101876:1 101883:1 101884:1 101895:1 102788:1 102842:1 102972:1 103002:1 103652:1 107617:1 107620:1 107634:1 107642:1 107784:1 107932:1 108079:1 108465:1 108473:1 108485:1 108487:1 108497:1 108518:1  |EV| 
0.36874889663520693527942739819991 27803:1 60487:1 99377:1 101859:1 101962:1 103519:1 103648:1 103652:1 103676:1 106829:1 107585:1 107608:1 107610:1 107613:1 107631:1 107634:1 107636:1 107784:1 107968:1 108121:1 108471:1 108473:1 108481:1 108496:1 108497:1 108498:1 108510:1  |EV| 
-0.008103508471360279519224434352509 2665:1 32768:1 66370:1 101895:1 101935:1 103570:1 103653:1 103654:1 107609:1 107611:1 107615:1 107622:1 107634:1 107636:1 107787:1 107932:1 108081:1 108468:1 108478:1 108481:1 108487:1 108491:1 108507:1 108510:1  |EV| 
-0.037091245285565385692017059682257 16763:1 48276:1 85541:1 101884:1 101943:1 102936:1 103652:1 107617:1 107625:1 107634:1 107655:1 107784:1 107932:1 108091:1 108469:1 108473:1 108485:1 108487:1 108497:1 108518:1  |EV| 
-0.03599679952443941843842623029559 10202:1 40891:1 76098:1 101859:1 101867:1 101888:1 101912:1 102139:1 102680:1 103571:1 103652:1 106823:1 107116:1 107624:1 107634:1 107643:1 107809:1 107943:1 108087:1 108466:1 108473:1 108481:1 108487:1 108497:1 108498:1 108510:1  |EV| 
-0.087958170547117436877115892457368 8196:1 38843:1 63151:1 101859:1 103581:1 103582:1 103652:1 103664:1 103676:1 106823:1 106829:1 107214:1 107215:1 107608:1 107610:1 107613:1 107616:1 107631:1 107634:1 107636:1 107784:1 107966:1 108121:1 108471:1 108473:1 108481:1 108496:1 108497:1 108498:1 108510:1  |EV| 
0.42931615828893843200830815476365 21399:1 53421:1 91396:1 101884:1 101897:1 102003:1 103652:1 105615:1 107617:1 107620:1 107634:1 107672:1 107784:1 107932:1 108089:1 108470:1 108477:1 108485:1 108487:1 108497:1 108518:1  |EV| 
0.29668826489654254174865855020471 8755:1 39435:1 74492:1 101897:1 102587:1 102630:1 103652:1 107617:1 107620:1 107634:1 107672:1 107784:1 107932:1 108089:1 108466:1 108477:1 108485:1 108487:1 108497:1 108518:1  |EV| 
0.28227022817176466995547912119946 12187:1 43035:1 79232:1 101857:1 102788:1 103652:1 107617:1 107620:1 107634:1 107647:1 107784:1 107932:1 108089:1 108469:1 108473:1 108485:1 108487:1 108497:1 108504:1 108518:1  |EV| 
-0.10000000000000000555111512312578 4006:1 34209:1 68245:1 101857:1 101908:1 102075:1 103652:1 105615:1 107617:1 107620:1 107634:1 107672:1 107784:1 107932:1 108089:1 108469:1 108473:1 108485:1 108487:1 108497:1 108518:1  |EV| 
-0.10000000000000000555111512312578 23483:1 55585:1 86892:1 101857:1 101874:1 101876:1 103002:1 103652:1 107617:1 107620:1 107634:1 107665:1 107784:1 107932:1 108089:1 108468:1 108473:1 108485:1 108487:1 108491:1 108497:1 108518:1  |EV| 
-0.10000000000000000555111512312578 26201:1 58714:1 97330:1 101857:1 101897:1 101930:1 102126:1 102130:1 102175:1 102280:1 103363:1 103652:1 105615:1 107617:1 107620:1 107634:1 107664:1 107784:1 107932:1 108089:1 108469:1 108473:1 108485:1 108487:1 108497:1 108498:1 108518:1  |EV| 
-0.10000000000000000555111512312578 10569:1 41320:1 76501:1 101857:1 101917:1 102470:1 103652:1 107617:1 107620:1 107634:1 107665:1 107784:1 107932:1 108089:1 108469:1 108473:1 108485:1 108487:1 108497:1 108518:1  |EV| 
-0.10000000000000000555111512312578 19091:1 50805:1 88614:1 101857:1 101897:1 103015:1 103652:1 107617:1 107620:1 107634:1 107672:1 107784:1 107932:1 108089:1 108466:1 108473:1 108485:1 108486:1 108487:1 108497:1 108518:1  |EV| 
-0.060947333707498246857525714403891 22729:1 54808:1 92869:1 101857:1 101859:1 101898:1 101913:1 102185:1 102229:1 102336:1 103171:1 103172:1 103176:1 103571:1 103652:1 107627:1 107634:1 107660:1 107818:1 107955:1 108093:1 108466:1 108473:1 108481:1 108486:1 108487:1 108497:1 108510:1  |EV| 
-0.018296994512470406840654035818261 20879:1 52858:1 90836:1 101884:1 101915:1 101929:1 102003:1 102013:1 103566:1 103652:1 106823:1 107097:1 107626:1 107633:1 107672:1 107811:1 107943:1 108100:1 108468:1 108473:1 108481:1 108487:1 108491:1 108497:1 108510:1  |EV| 
-0.0095669696833461381757501840183977 9190:1 39870:1 74891:1 102621:1 103571:1 103652:1 107608:1 107610:1 107613:1 107631:1 107634:1 107636:1 107784:1 107966:1 108121:1 108471:1 108473:1 108481:1 108496:1 108497:1 108510:1  |EV| 
-0.036787629108427873092512783159691 21326:1 53338:1 91313:1 101876:1 102107:1 103106:1 103570:1 103652:1 107630:1 107634:1 107640:1 107795:1 107961:1 108122:1 108466:1 108473:1 108481:1 108486:1 108487:1 108497:1 108510:1  |EV| 
-0.10000000000000000555111512312578 2890:1 59940:1 63151:1 101859:1 103572:1 103652:1 107608:1 107610:1 107613:1 107631:1 107634:1 107636:1 107784:1 107966:1 108121:1 108471:1 108473:1 108481:1 108496:1 108497:1 108498:1 108510:1  |EV| 
0.16226680019855432846043186145835 25560:1 58021:1 96536:1 101857:1 101876:1 101883:1 101884:1 101913:1 101962:1 102895:1 103345:1 103346:1 103347:1 103348:1 103349:1 103652:1 107617:1 107620:1 107634:1 107642:1 107784:1 107932:1 108079:1 108465:1 108472:1 108485:1 108486:1 108487:1 108494:1 108497:1 108518:1  |EV| 
0.19406500778027546694204374944093 28346:1 61067:1 100004:1 101874:1 102091:1 102186:1 103133:1 103652:1 107617:1 107620:1 107634:1 107665:1 107784:1 107932:1 108089:1 108465:1 108473:1 108485:1 108487:1 108497:1 108518:1  |EV| 
0.19330876302437699498781853435503 12598:1 43483:1 79840:1 101857:1 101870:1 101883:1 101884:1 101953:1 101962:1 102411:1 102824:1 102825:1 103652:1 107617:1 107620:1 107634:1 107645:1 107784:1 107932:1 108089:1 108465:1 108473:1 108485:1 108487:1 108497:1 108518:1  |EV| 
-0.012238310091057191808516790842987 27386:1 60042:1 99280:1 101870:1 101874:1 102187:1 102207:1 102208:1 102442:1 103494:1 103495:1 103504:1 103652:1 107617:1 107620:1 107634:1 107645:1 107784:1 107932:1 108089:1 108465:1 108473:1 108485:1 108487:1 108497:1 108518:1  |EV| 
-0.037168621965908296700398238954222 23153:1 55252:1 93381:1 101874:1 101884:1 102137:1 102139:1 102669:1 103176:1 103226:1 103652:1 107617:1 107620:1 107634:1 107651:1 107784:1 107932:1 108089:1 108469:1 108473:1 108485:1 108487:1 108497:1 108518:1  |EV| 
-0.10000000000000000555111512312578 17:1 29821:1 62792:1 101874:1 101934:1 103652:1 107617:1 107620:1 107634:1 107647:1 107784:1 107932:1 108089:1 108469:1 108473:1 108485:1 108487:1 108497:1 108518:1  |EV| 
-0.10000000000000000555111512312578 21356:1 53371:1 91344:1 101859:1 101888:1 101962:1 102171:1 102396:1 102801:1 103591:1 103634:1 103652:1 106842:1 107468:1 107624:1 107634:1 107643:1 107803:1 107968:1 108087:1 108466:1 108473:1 108481:1 108487:1 108497:1 108498:1 108510:1  |EV| 
-0.10000000000000000555111512312578 16444:1 47936:1 63180:1 103574:1 103652:1 103665:1 106825:1 107129:1 107608:1 107610:1 107613:1 107628:1 107634:1 107636:1 107784:1 107948:1 108095:1 108471:1 108477:1 108481:1 108496:1 108497:1 108498:1 108510:1  |EV| 
0.026148547701539175125429181889558 28621:1 61362:1 100328:1 101857:1 103452:1 103453:1 103616:1 103652:1 106944:1 107581:1 107627:1 107634:1 107665:1 107820:1 107948:1 108104:1 108465:1 108473:1 108481:1 108487:1 108497:1 108504:1 108510:1  |EV| 
-0.083866836961217813839475354598108 28665:1 61410:1 100375:1 101874:1 102072:1 103645:1 103651:1 103752:1 106842:1 107582:1 107608:1 107610:1 107613:1 107631:1 107634:1 107636:1 107784:1 107943:1 108121:1 108471:1 108473:1 108481:1 108496:1 108497:1 108510:1  |EV| 
-0.020239757326230539691280796432693 4050:1 34254:1 81116:1 101897:1 101996:1 102107:1 102464:1 102820:1 102821:1 103569:1 103653:1 107609:1 107611:1 107615:1 107623:1 107634:1 107636:1 107811:1 107932:1 108086:1 108469:1 108478:1 108481:1 108487:1 108507:1 108510:1  |EV| 
0.58773869966515579488230969218421 11891:1 42720:1 63003:1 101857:1 103652:1 107617:1 107620:1 107634:1 107670:1 107784:1 107932:1 108089:1 108469:1 108473:1 108485:1 108487:1 108497:1 108504:1 108518:1  |EV| 
0.1994394619380759625659749190163 22473:1 54546:1 92582:1 101898:1 102346:1 103652:1 105902:1 107617:1 107620:1 107634:1 107647:1 107784:1 107932:1 108089:1 108469:1 108473:1 108485:1 108487:1 108497:1 108518:1  |EV| 
0.25591657025341391085149211903627 3230:1 33405:1 67317:1 102019:1 102188:1 102189:1 103652:1 107617:1 107620:1 107634:1 107672:1 107784:1 107932:1 108089:1 108469:1 108473:1 108485:1 108487:1 108497:1 108518:1  |EV| 
0.20171496713626169139388366602361 27094:1 59724:1 64783:1 101874:1 103652:1 105712:1 107617:1 107620:1 107634:1 107670:1 107784:1 107932:1 108089:1 108469:1 108473:1 108485:1 108487:1 108497:1 108518:1  |EV| 
0.30435388778188326996954060632561 9695:1 40380:1 75443:1 101857:1 102137:1 102654:1 103652:1 106113:1 106114:1 107617:1 107620:1 107634:1 107672:1 107784:1 107932:1 108089:1 108466:1 108473:1 108485:1 108487:1 108497:1 108518:1  |EV| 
-0.10000000000000000555111512312578 2224:1 32245:1 63003:1 101857:1 103652:1 107617:1 107620:1 107634:1 107670:1 107784:1 107932:1 108089:1 108469:1 108473:1 108485:1 108487:1 108497:1 108518:1  |EV| 
-0.10000000000000000555111512312578 11395:1 42181:1 63003:1 101857:1 103652:1 106183:1 107617:1 107620:1 107634:1 107670:1 107784:1 107932:1 108089:1 108469:1 108473:1 108485:1 108487:1 108497:1 108518:1  |EV| 
-0.10000000000000000555111512312578 18004:1 49619:1 63003:1 101857:1 103652:1 107617:1 107620:1 107634:1 107670:1 107784:1 107932:1 108089:1 108469:1 108473:1 108485:1 108487:1 108497:1 108518:1  |EV| 
-0.10000000000000000555111512312578 6532:1 37030:1 71538:1 102113:1 103652:1 107617:1 107620:1 107634:1 107670:1 107784:1 107932:1 108089:1 108469:1 108473:1 108485:1 108487:1 108497:1 108518:1  |EV| 
-0.10000000000000000555111512312578 16644:1 48153:1 63372:1 101867:1 103652:1 105649:1 107617:1 107620:1 107634:1 107670:1 107784:1 107932:1 108089:1 108469:1 108473:1 108485:1 108487:1 108497:1 108518:1  |EV| 
0.32680433685761633988420271634823 21250:1 53256:1 91233:1 101857:1 101859:1 101874:1 101888:1 101897:1 101962:1 102163:1 102171:1 102396:1 102448:1 102801:1 103137:1 103571:1 103652:1 106823:1 107116:1 107624:1 107634:1 107678:1 107827:1 107966:1 108117:1 108466:1 108473:1 108481:1 108487:1 108497:1 108498:1 108510:1  |EV| 
0.38627509315734576134104827360716 7897:1 38489:1 73256:1 101857:1 101859:1 101895:1 101974:1 102051:1 102054:1 102113:1 102145:1 102360:1 102386:1 102396:1 102402:1 102519:1 102520:1 102521:1 102522:1 102533:1 103599:1 103652:1 107621:1 107634:1 107667:1 107814:1 107944:1 108111:1 108465:1 108473:1 108481:1 108486:1 108487:1 108490:1 108497:1 108498:1 108510:1  |EV| 
-0.10000000000000000555111512312578 8209:1 38858:1 73765:1 101859:1 101895:1 101974:1 102054:1 102113:1 102145:1 102361:1 102386:1 102396:1 102520:1 102521:1 102522:1 102533:1 103576:1 103652:1 106823:1 107233:1 107624:1 107634:1 107680:1 107816:1 107966:1 108117:1 108465:1 108473:1 108481:1 108486:1 108487:1 108490:1 108497:1 108510:1  |EV| 
-0.10000000000000000555111512312578 8208:1 38857:1 73764:1 101857:1 101859:1 101895:1 101974:1 102051:1 102054:1 102113:1 102145:1 102360:1 102361:1 102386:1 102396:1 102402:1 102520:1 102521:1 102522:1 102533:1 103599:1 103652:1 106829:1 107234:1 107621:1 107634:1 107680:1 107814:1 107951:1 108111:1 108465:1 108473:1 108481:1 108486:1 108487:1 108490:1 108497:1 108510:1  |EV| 
-0.040414676886991074411525914911181 317:1 30129:1 63180:1 103568:1 103652:1 103665:1 106825:1 107099:1 107608:1 107610:1 107613:1 107628:1 107634:1 107636:1 107784:1 107948:1 108095:1 108471:1 108473:1 108481:1 108496:1 108497:1 108498:1 108503:1 108510:1  |EV| 
0.31049895543919131535304245517182 5687:1 36110:1 66700:1 101942:1 103652:1 105649:1 107617:1 107620:1 107634:1 107670:1 107784:1 107932:1 108089:1 108466:1 108473:1 108485:1 108487:1 108497:1 108504:1 108518:1  |EV| 
0.072177699752635493535279920251924 3174:1 33340:1 64783:1 101874:1 103652:1 107617:1 107620:1 107634:1 107670:1 107784:1 107932:1 108089:1 108469:1 108473:1 108485:1 108487:1 108497:1 108504:1 108518:1  |EV| 
0.21324028922757481963046188866429 25768:1 58249:1 96749:1 101895:1 101962:1 102226:1 102234:1 103352:1 103353:1 103652:1 107617:1 107620:1 107634:1 107663:1 107784:1 107932:1 108089:1 108469:1 108473:1 108485:1 108487:1 108497:1 108518:1  |EV| 
-0.10000000000000000555111512312578 26496:1 59033:1 97718:1 101962:1 102019:1 103395:1 103652:1 107617:1 107620:1 107634:1 107672:1 107784:1 107932:1 108089:1 108466:1 108477:1 108485:1 108487:1 108497:1 108518:1  |EV| 
-0.10000000000000000555111512312578 9145:1 39825:1 74849:1 101857:1 101870:1 101897:1 102587:1 102629:1 102630:1 103652:1 107617:1 107620:1 107634:1 107663:1 107784:1 107932:1 108089:1 108466:1 108477:1 108485:1 108487:1 108497:1 108504:1 108518:1  |EV| 
-0.10000000000000000555111512312578 29056:1 61857:1 100805:1 101870:1 101982:1 101986:1 102196:1 102415:1 102923:1 103530:1 103531:1 103652:1 106408:1 107617:1 107620:1 107634:1 107664:1 107784:1 107932:1 108089:1 108470:1 108477:1 108485:1 108487:1 108495:1 108497:1 108504:1 108518:1  |EV| 
-0.10000000000000000555111512312578 26443:1 58970:1 74414:1 101962:1 103652:1 107617:1 107620:1 107634:1 107670:1 107784:1 107932:1 108089:1 108466:1 108473:1 108485:1 108487:1 108497:1 108518:1  |EV| 
-0.10000000000000000555111512312578 10027:1 40715:1 75850:1 101857:1 101859:1 101962:1 103652:1 107617:1 107620:1 107634:1 107672:1 107784:1 107932:1 108089:1 108466:1 108473:1 108485:1 108487:1 108497:1 108518:1  |EV| 
0.16330371610937488568993103399407 10249:1 40941:1 76133:1 101859:1 101883:1 102033:1 102147:1 102298:1 103566:1 103652:1 104468:1 105738:1 106823:1 107097:1 107624:1 107634:1 107649:1 107817:1 107966:1 108087:1 108469:1 108473:1 108481:1 108486:1 108487:1 108497:1 108498:1 108510:1  |EV| 
-0.014432813139607678781795030431567 6345:1 36830:1 71265:1 101962:1 102010:1 103593:1 103652:1 107608:1 107610:1 107613:1 107628:1 107634:1 107636:1 107784:1 107935:1 108095:1 108471:1 108477:1 108481:1 108496:1 108497:1 108510:1  |EV| 
-0.10000000000000000555111512312578 6143:1 36608:1 70965:1 101859:1 101942:1 102440:1 103594:1 103652:1 103662:1 105615:1 106823:1 107205:1 107624:1 107634:1 107669:1 107787:1 107966:1 108087:1 108466:1 108473:1 108481:1 108486:1 108489:1 108497:1 108510:1  |EV| 
-0.10000000000000000555111512312578 6634:1 37142:1 71707:1 101942:1 102440:1 103594:1 103652:1 103665:1 106825:1 107202:1 107608:1 107610:1 107613:1 107628:1 107634:1 107636:1 107784:1 107935:1 108095:1 108471:1 108473:1 108481:1 108496:1 108497:1 108500:1 108510:1  |EV| 
-0.04931231334096838891944969418546 20560:1 52502:1 90490:1 102075:1 102239:1 103569:1 103652:1 105610:1 107626:1 107633:1 107670:1 107820:1 107966:1 108100:1 108469:1 108472:1 108481:1 108487:1 108498:1 108510:1  |EV| 
-0.10000000000000000555111512312578 8077:1 38692:1 73512:1 101859:1 101924:1 102246:1 103598:1 103652:1 103662:1 105615:1 106823:1 107213:1 107624:1 107634:1 107669:1 107787:1 107966:1 108087:1 108468:1 108472:1 108481:1 108491:1 108497:1 108510:1  |EV| 
0.15181633760430021662379829194833 9616:1 40301:1 75342:1 102107:1 102703:1 103652:1 106023:1 107617:1 107620:1 107634:1 107647:1 107784:1 107932:1 108089:1 108466:1 108473:1 108485:1 108487:1 108497:1 108518:1  |EV| 
0.12136530357546765346299366683525 13325:1 44308:1 80851:1 101895:1 101962:1 102629:1 102830:1 102831:1 103652:1 107617:1 107620:1 107634:1 107658:1 107784:1 107932:1 108089:1 108465:1 108473:1 108485:1 108487:1 108497:1 108518:1  |EV| 
-0.10000000000000000555111512312578 26665:1 59236:1 97930:1 101883:1 102309:1 103652:1 107617:1 107620:1 107634:1 107647:1 107784:1 107932:1 108089:1 108469:1 108473:1 108485:1 108487:1 108497:1 108503:1 108518:1  |EV| 
-0.014116447979929194062043151802754 20566:1 52510:1 63151:1 101859:1 103582:1 103631:1 103652:1 103664:1 103676:1 106823:1 106829:1 107215:1 107464:1 107608:1 107610:1 107613:1 107631:1 107634:1 107636:1 107784:1 107966:1 108121:1 108471:1 108473:1 108481:1 108496:1 108497:1 108510:1  |EV| 
-0.10000000000000000555111512312578 28506:1 61239:1 100199:1 102272:1 103452:1 103652:1 107617:1 107620:1 107634:1 107647:1 107784:1 107932:1 108089:1 108465:1 108473:1 108485:1 108487:1 108497:1 108504:1 108518:1  |EV| 
-0.10000000000000000555111512312578 12607:1 43493:1 79850:1 101898:1 101924:1 102229:1 102346:1 103652:1 107617:1 107620:1 107634:1 107665:1 107784:1 107932:1 108089:1 108465:1 108477:1 108485:1 108487:1 108497:1 108498:1 108518:1  |EV| 
-0.10000000000000000555111512312578 12473:1 43342:1 79693:1 101897:1 101929:1 101996:1 102107:1 102464:1 102820:1 102821:1 103652:1 107617:1 107620:1 107634:1 107651:1 107784:1 107932:1 108089:1 108469:1 108473:1 108485:1 108487:1 108497:1 108504:1 108518:1  |EV| 
0.22395767488416212787072367973451 11179:1 41951:1 77604:1 101857:1 101859:1 101870:1 101888:1 101908:1 101947:1 101976:1 101982:1 102284:1 102718:1 103566:1 103652:1 104517:1 105855:1 106823:1 107097:1 107624:1 107634:1 107659:1 107810:1 107966:1 108117:1 108465:1 108473:1 108481:1 108487:1 108497:1 108510:1  |EV| 
0.096116672119884838387804393278202 25342:1 57786:1 96301:1 101859:1 101897:1 103341:1 103566:1 103652:1 103657:1 105617:1 106823:1 107097:1 107624:1 107634:1 107669:1 107787:1 107966:1 108087:1 108466:1 108477:1 108481:1 108487:1 108497:1 108510:1  |EV| 
0.16770311267053697457107830359746 10369:1 41074:1 76255:1 101976:1 102239:1 102361:1 103571:1 103652:1 105614:1 107624:1 107634:1 107669:1 107787:1 107966:1 108087:1 108468:1 108477:1 108481:1 108487:1 108491:1 108497:1 108510:1  |EV| 
0.26588215799311060161258524203731 12477:1 43346:1 80767:1 101857:1 101859:1 101888:1 101897:1 101936:1 101985:1 102118:1 102470:1 102789:1 102811:1 103566:1 103568:1 103603:1 103652:1 104065:1 104646:1 105853:1 106823:1 106867:1 107097:1 107235:1 107236:1 107624:1 107634:1 107668:1 107810:1 107943:1 108117:1 108469:1 108473:1 108481:1 108487:1 108497:1 108510:1  |EV| 
0.081470007028188240472132974900887 4702:1 34976:1 69084:1 101857:1 101859:1 102318:1 102319:1 103566:1 103652:1 106823:1 107097:1 107624:1 107634:1 107661:1 107803:1 107966:1 108087:1 108470:1 108473:1 108481:1 108486:1 108487:1 108497:1 108510:1  |EV| 
-0.10000000000000000555111512312578 11450:1 42239:1 77970:1 101857:1 102039:1 102061:1 102540:1 102735:1 102736:1 102737:1 102738:1 102739:1 102740:1 103566:1 103652:1 106823:1 107097:1 107624:1 107634:1 107659:1 107810:1 107966:1 108117:1 108470:1 108473:1 108481:1 108487:1 108495:1 108497:1 108510:1  |EV| 
-0.10000000000000000555111512312578 1965:1 31957:1 65476:1 101888:1 102099:1 102109:1 102110:1 103566:1 103652:1 103657:1 105617:1 106823:1 107097:1 107624:1 107634:1 107661:1 107787:1 107943:1 108087:1 108469:1 108473:1 108481:1 108487:1 108497:1 108510:1  |EV| 
-0.0071935505475042259282414391918792 14162:1 45260:1 62904:1 103569:1 103652:1 105610:1 107626:1 107633:1 107650:1 107818:1 107946:1 108100:1 108468:1 108472:1 108481:1 108487:1 108491:1 108501:1 108510:1  |EV| 
-0.10000000000000000555111512312578 26163:1 58674:1 97271:1 101859:1 101897:1 102108:1 103566:1 103652:1 103657:1 105617:1 106823:1 107097:1 107624:1 107634:1 107669:1 107787:1 107966:1 108087:1 108466:1 108473:1 108481:1 108486:1 108487:1 108497:1 108498:1 108510:1  |EV| 
-0.10000000000000000555111512312578 7058:1 37581:1 72183:1 101857:1 101859:1 102036:1 102178:1 103566:1 103652:1 106823:1 107097:1 107624:1 107634:1 107661:1 107787:1 107943:1 108087:1 108466:1 108473:1 108481:1 108487:1 108497:1 108498:1 108510:1  |EV| 
0.30828147953025564209639242108096 3447:1 33633:1 67589:1 101884:1 102049:1 102087:1 102232:1 103652:1 107617:1 107620:1 107634:1 107665:1 107784:1 107932:1 108089:1 108470:1 108473:1 108485:1 108487:1 108497:1 108518:1  |EV| 
0.098499558660515199037810418758454 3262:1 33438:1 67357:1 101884:1 101942:1 101982:1 102211:1 102220:1 102243:1 102244:1 102245:1 102246:1 103652:1 107617:1 107620:1 107634:1 107645:1 107784:1 107932:1 108089:1 108468:1 108473:1 108485:1 108487:1 108491:1 108497:1 108518:1  |EV| 
0.22985351805538761782443657466501 27882:1 60570:1 99474:1 101897:1 103520:1 103521:1 103652:1 105615:1 107617:1 107620:1 107634:1 107672:1 107784:1 107932:1 108089:1 108469:1 108473:1 108485:1 108487:1 108497:1 108498:1 108518:1  |EV| 
-0.10000000000000000555111512312578 28462:1 61194:1 100143:1 101884:1 101942:1 101962:1 103446:1 103652:1 106143:1 107617:1 107620:1 107634:1 107665:1 107784:1 107932:1 108089:1 108465:1 108477:1 108485:1 108487:1 108497:1 108518:1  |EV| 
-0.10000000000000000555111512312578 10322:1 41022:1 79880:1 102013:1 103652:1 105615:1 107617:1 107620:1 107634:1 107670:1 107784:1 107932:1 108089:1 108468:1 108477:1 108485:1 108487:1 108491:1 108497:1 108506:1 108518:1  |EV| 
-0.010395538670978032858016604222939 27900:1 60589:1 99494:1 101859:1 101884:1 101897:1 101942:1 101962:1 101963:1 103446:1 103447:1 103448:1 103652:1 107617:1 107620:1 107634:1 107645:1 107784:1 107932:1 108089:1 108469:1 108477:1 108485:1 108487:1 108497:1 108518:1  |EV| 
-0.10000000000000000555111512312578 8443:1 39117:1 74119:1 101953:1 101962:1 102077:1 102574:1 103652:1 107617:1 107620:1 107634:1 107665:1 107784:1 107932:1 108089:1 108470:1 108473:1 108485:1 108487:1 108497:1 108518:1  |EV| 
-0.10000000000000000555111512312578 5773:1 36201:1 62832:1 103652:1 107617:1 107620:1 107634:1 107650:1 107784:1 107932:1 108089:1 108465:1 108477:1 108485:1 108487:1 108490:1 108497:1 108518:1  |EV| 
-0.016981358152169646891227472451646 16952:1 48485:1 85798:1 101943:1 102049:1 102930:1 102931:1 102933:1 103569:1 103652:1 105615:1 107630:1 107634:1 107639:1 107820:1 107959:1 108122:1 108469:1 108473:1 108481:1 108487:1 108497:1 108510:1  |EV| 
0.013778951139663105085464422927544 10635:1 41388:1 62975:1 101859:1 103568:1 103652:1 103662:1 105615:1 105617:1 105802:1 106823:1 107103:1 107624:1 107634:1 107639:1 107800:1 107966:1 108087:1 108470:1 108477:1 108481:1 108486:1 108487:1 108497:1 108510:1  |EV| 
0.16367077441278410354641437152168 2676:1 32779:1 66385:1 101857:1 101859:1 102172:1 102173:1 103566:1 103652:1 106823:1 107097:1 107624:1 107634:1 107661:1 107803:1 107966:1 108087:1 108465:1 108473:1 108481:1 108487:1 108497:1 108510:1  |EV| 
0.07071481319166023071787208209571 2172:1 32184:1 65720:1 101857:1 101859:1 103566:1 103652:1 103662:1 105615:1 106823:1 107097:1 107624:1 107634:1 107655:1 107788:1 107966:1 108087:1 108466:1 108473:1 108481:1 108486:1 108487:1 108497:1 108510:1  |EV| 
0.1504117307494923783117712901003 21264:1 53271:1 91247:1 101857:1 101859:1 101962:1 102019:1 102060:1 102161:1 102396:1 102757:1 103120:1 103133:1 103134:1 103566:1 103652:1 106823:1 107097:1 107624:1 107634:1 107679:1 107807:1 107966:1 108117:1 108466:1 108473:1 108481:1 108487:1 108497:1 108498:1 108510:1  |EV| 
-0.10000000000000000555111512312578 21258:1 53264:1 91242:1 101857:1 101859:1 101897:1 101962:1 102019:1 102060:1 102161:1 102396:1 102757:1 103120:1 103133:1 103134:1 103135:1 103566:1 103652:1 107624:1 107634:1 107678:1 107807:1 107968:1 108117:1 108466:1 108473:1 108481:1 108487:1 108497:1 108510:1  |EV| 
-0.10000000000000000555111512312578 26670:1 59303:1 97993:1 103163:1 103388:1 103566:1 103652:1 106823:1 107097:1 107624:1 107634:1 107655:1 107788:1 107966:1 108087:1 108465:1 108473:1 108481:1 108487:1 108497:1 108498:1 108510:1  |EV| 
-0.10000000000000000555111512312578 23837:1 55992:1 94185:1 101857:1 101859:1 103261:1 103262:1 103570:1 103652:1 104060:1 105673:1 106823:1 107161:1 107624:1 107634:1 107661:1 107803:1 107966:1 108087:1 108469:1 108473:1 108481:1 108487:1 108497:1 108510:1  |EV| 
-0.10000000000000000555111512312578 20902:1 52882:1 90886:1 101857:1 101859:1 101897:1 102163:1 103571:1 103652:1 106823:1 107116:1 107624:1 107634:1 107649:1 107817:1 107966:1 108087:1 108466:1 108473:1 108481:1 108486:1 108487:1 108497:1 108498:1 108510:1  |EV| 
-0.10000000000000000555111512312578 16373:1 47863:1 85063:1 101859:1 101884:1 102069:1 102087:1 103566:1 103652:1 103662:1 105615:1 106823:1 107097:1 107624:1 107634:1 107661:1 107803:1 107966:1 108087:1 108469:1 108473:1 108481:1 108487:1 108510:1  |EV| 
0.069619535816692862395527185981337 9384:1 40067:1 75066:1 102107:1 102641:1 103652:1 106023:1 107617:1 107620:1 107634:1 107647:1 107784:1 107932:1 108089:1 108470:1 108473:1 108485:1 108487:1 108497:1 108518:1  |EV| 
-0.056714264007177536686121754883061 8808:1 39488:1 62827:1 103571:1 103652:1 106823:1 107116:1 107624:1 107634:1 107640:1 107800:1 107946:1 108087:1 108466:1 108477:1 108481:1 108497:1 108510:1  |EV| 
-0.095380694846021227273347165009909 18430:1 50078:1 87690:1 101884:1 102540:1 103652:1 105615:1 107617:1 107625:1 107634:1 107639:1 107784:1 107932:1 108091:1 108468:1 108477:1 108485:1 108487:1 108491:1 108497:1 108503:1 108518:1  |EV| 
-0.10000000000000000555111512312578 14716:1 45848:1 82700:1 101976:1 102121:1 103652:1 107617:1 107625:1 107634:1 107639:1 107784:1 107932:1 108091:1 108465:1 108477:1 108485:1 108487:1 108497:1 108518:1  |EV| 
-0.10000000000000000555111512312578 29282:1 62117:1 101056:1 102182:1 103528:1 103652:1 105624:1 107617:1 107625:1 107634:1 107639:1 107784:1 107932:1 108091:1 108468:1 108477:1 108485:1 108487:1 108491:1 108497:1 108504:1 108518:1  |EV| 
-0.10000000000000000555111512312578 984:1 51016:1 88904:1 101884:1 102039:1 102540:1 103010:1 103652:1 105745:1 107617:1 107625:1 107634:1 107669:1 107784:1 107932:1 108091:1 108468:1 108477:1 108485:1 108487:1 108491:1 108497:1 108503:1 108518:1  |EV| 
0.26113905737269338391826067891088 19627:1 51413:1 89351:1 101859:1 101897:1 101916:1 101917:1 101975:1 103566:1 103652:1 107624:1 107634:1 107649:1 107787:1 107968:1 108087:1 108465:1 108473:1 108481:1 108487:1 108497:1 108510:1  |EV| 
0.23499218923496575928133722754865 7290:1 37822:1 72438:1 101857:1 101859:1 101897:1 102013:1 102494:1 103566:1 103652:1 103657:1 105617:1 106823:1 107097:1 107626:1 107633:1 107665:1 107811:1 107966:1 108100:1 108468:1 108473:1 108481:1 108487:1 108491:1 108497:1 108510:1  |EV| 
0.19012585595639341917717501928564 10584:1 41336:1 76522:1 101859:1 101888:1 101897:1 102061:1 102714:1 102715:1 102716:1 103571:1 103652:1 103662:1 105615:1 106823:1 107116:1 107624:1 107634:1 107659:1 107791:1 107943:1 108098:1 108469:1 108473:1 108481:1 108487:1 108497:1 108498:1 108510:1  |EV| 
-0.070263238281660186923538446990278 2374:1 32424:1 65990:1 101919:1 102082:1 103569:1 103652:1 107629:1 107634:1 107670:1 107788:1 107951:1 108103:1 108465:1 108477:1 108481:1 108487:1 108497:1 108510:1  |EV| 
-0.10000000000000000555111512312578 12701:1 43596:1 79969:1 101857:1 101859:1 101897:1 102019:1 102086:1 102348:1 102396:1 102461:1 102813:1 103566:1 103652:1 106823:1 107097:1 107626:1 107633:1 107664:1 107832:1 107943:1 108124:1 108470:1 108473:1 108481:1 108487:1 108497:1 108498:1 108510:1  |EV| 
-0.10000000000000000555111512312578 29666:1 62590:1 101601:1 101857:1 101859:1 101897:1 102477:1 103563:1 103566:1 103652:1 106823:1 107097:1 107626:1 107633:1 107658:1 107799:1 107966:1 108100:1 108466:1 108473:1 108481:1 108487:1 108497:1 108498:1 108510:1  |EV| 
-0.10000000000000000555111512312578 20351:1 52249:1 90248:1 101859:1 101874:1 101876:1 101986:1 103091:1 103629:1 103652:1 105670:1 106823:1 107459:1 107626:1 107633:1 107665:1 107811:1 107966:1 108100:1 108466:1 108473:1 108481:1 108487:1 108497:1 108510:1  |EV| 
-0.10000000000000000555111512312578 9872:1 40559:1 75671:1 101857:1 101859:1 101883:1 101993:1 102651:1 103571:1 103652:1 106823:1 107116:1 107626:1 107633:1 107658:1 107799:1 107966:1 108100:1 108470:1 108473:1 108481:1 108487:1 108497:1 108510:1  |EV| 
0.36152657553118816569082127898582 23194:1 55293:1 93423:1 102094:1 102577:1 103652:1 107617:1 107625:1 107634:1 107639:1 107784:1 107932:1 108091:1 108466:1 108473:1 108485:1 108487:1 108497:1 108518:1  |EV| 
0.21948311428934691447167892874859 22119:1 54188:1 92229:1 102577:1 103186:1 103652:1 107617:1 107625:1 107634:1 107639:1 107784:1 107932:1 108091:1 108466:1 108473:1 108485:1 108487:1 108497:1 108518:1  |EV| 
0.27035855802590835761378684765077 25418:1 57867:1 96378:1 101884:1 101889:1 101962:1 103652:1 105699:1 107617:1 107625:1 107634:1 107655:1 107784:1 107932:1 108091:1 108466:1 108473:1 108485:1 108487:1 108497:1 108518:1  |EV| 
0.12044703443192630865077319413103 8496:1 39174:1 62879:1 103652:1 106003:1 107617:1 107625:1 107634:1 107652:1 107784:1 107932:1 108091:1 108469:1 108473:1 108485:1 108487:1 108497:1 108498:1 108518:1  |EV| 
