SVM-light Version V5.01-TK-1.5
0 # kernel type
3 # kernel parameter -d 
1 # kernel parameter -g 
1 # kernel parameter -s 
1 # kernel parameter -r 
empty# kernel parameter -u 
0.4 # kernel parameter -L 
1 # kernel parameter -T 
T # kernel parameter -C 
1 # kernel parameter -F 
0 # kernel parameter -S 
0.400000 # kernel parameter -M 
3 # kernel parameter -N 
S # kernel parameter -V 
S # kernel parameter -W 
0 # kernel parameter -U 
44401 # highest feature index 
14770 # number of training documents 
444 # number of support vectors plus 1 
2.228603 # threshold b, each following line is a SV (starting with alpha*y)
-0.0071803544747959455185615240679908 10235:1 22405:1 23641:1 39921:1 39943:1 41194:1 43633:1 43639:1 43685:1 43806:1 43953:1 44088:1 44355:1 44363:1 44369:1 44373:1 44376:1 44388:1 44399:1  |EV| 
-0.0092365516721742563222008470802393 5006:1 16567:1 30103:1 37654:1 37997:1 38545:1 39568:1 39943:1 41194:1 43633:1 43639:1 43659:1 43784:1 43979:1 44088:1 44355:1 44363:1 44368:1 44373:1 44388:1 44396:1 44399:1  |EV| 
-0.010000000000000000208166817117217 9380:1 21489:1 35652:1 37653:1 37654:1 37661:1 37670:1 37686:1 37704:1 37847:1 37877:1 37918:1 38044:1 38615:1 38704:1 38755:1 39040:1 39041:1 39042:1 39043:1 39044:1 39045:1 39046:1 39397:1 39943:1 43633:1 43639:1 43719:1 43793:1 43996:1 44123:1 44355:1 44363:1 44371:1 44373:1 44400:1  |EV| 
-0.010000000000000000208166817117217 403:1 11369:1 23815:1 37653:1 37654:1 37838:1 39248:1 39943:1 39946:1 40038:1 41195:1 41249:1 41631:1 41701:1 42246:1 42247:1 43631:1 43639:1 43693:1 43784:1 43945:1 44084:1 44355:1 44362:1 44368:1 44373:1 44384:1 44396:1 44400:1  |EV| 
-0.010000000000000000208166817117217 8521:1 20557:1 34518:1 37661:1 37666:1 37713:1 37802:1 38055:1 38171:1 39239:1 39943:1 43631:1 43639:1 43643:1 43810:1 43951:1 44084:1 44355:1 44363:1 44368:1 44373:1 44389:1 44400:1  |EV| 
0.050338663055475713070663346115907 290:1 11243:1 23667:1 37654:1 37783:1 39239:1 39943:1 41194:1 43633:1 43639:1 43685:1 43784:1 43948:1 44088:1 44355:1 44363:1 44368:1 44373:1 44388:1 44400:1  |EV| 
0.076728191835325143532742231400334 339:1 11303:1 23751:1 37653:1 37822:1 37823:1 39218:1 39943:1 43633:1 43639:1 43685:1 43805:1 43979:1 44088:1 44355:1 44363:1 44368:1 44373:1 44388:1 44394:1 44400:1  |EV| 
0.07878530333574638999660777471945 462:1 11430:1 23881:1 37662:1 37833:1 39264:1 39943:1 41194:1 43633:1 43639:1 43685:1 43784:1 43948:1 44088:1 44355:1 44363:1 44368:1 44373:1 44388:1 44400:1  |EV| 
0.080220889702358535999771049773699 474:1 11443:1 23641:1 39243:1 39943:1 41194:1 43633:1 43639:1 43685:1 43806:1 43953:1 44088:1 44355:1 44363:1 44371:1 44373:1 44388:1 44400:1  |EV| 
0.013887797664010837969672529368381 630:1 11638:1 24091:1 37769:1 39215:1 39943:1 40019:1 41198:1 41673:1 42202:1 43633:1 43639:1 43659:1 43806:1 43927:1 44088:1 44355:1 44363:1 44369:1 44373:1 44388:1 44400:1  |EV| 
-0.010000000000000000208166817117217 514:1 11496:1 23961:1 37686:1 37742:1 39239:1 39943:1 41194:1 43633:1 43639:1 43685:1 43784:1 43948:1 44088:1 44355:1 44363:1 44368:1 44373:1 44388:1 44399:1  |EV| 
-0.010000000000000000208166817117217 4447:1 15915:1 23641:1 39420:1 39943:1 41194:1 43633:1 43639:1 43685:1 43806:1 43953:1 44088:1 44355:1 44363:1 44368:1 44373:1 44376:1 44388:1 44399:1  |EV| 
-0.010000000000000000208166817117217 4527:1 16016:1 23641:1 39442:1 39943:1 41194:1 43633:1 43639:1 43685:1 43806:1 43953:1 44088:1 44355:1 44363:1 44368:1 44373:1 44388:1 44399:1  |EV| 
-0.010000000000000000208166817117217 9475:1 21599:1 23641:1 39877:1 39943:1 41194:1 43633:1 43639:1 43685:1 43806:1 43953:1 44088:1 44355:1 44363:1 44368:1 44373:1 44388:1 44399:1  |EV| 
-0.010000000000000000208166817117217 2444:1 13814:1 23641:1 39408:1 39943:1 41194:1 43633:1 43639:1 43685:1 43806:1 43953:1 44088:1 44355:1 44363:1 44371:1 44373:1 44376:1 44388:1 44397:1  |EV| 
0.08217832338482683462999034418317 2921:1 14331:1 27452:1 37653:1 37654:1 37661:1 37751:1 37769:1 37824:1 38281:1 38282:1 39359:1 39943:1 41334:1 43633:1 43639:1 43671:1 43805:1 43972:1 44072:1 44355:1 44365:1 44369:1 44373:1 44384:1 44386:1 44388:1 44400:1  |EV| 
0.043158062116579097577950818731551 8836:1 20919:1 34962:1 37662:1 37686:1 37769:1 37927:1 38254:1 38863:1 38975:1 38976:1 38989:1 39836:1 39943:1 41037:1 41198:1 42101:1 43425:1 43633:1 43639:1 43647:1 43786:1 43972:1 44072:1 44355:1 44362:1 44369:1 44373:1 44388:1 44400:1  |EV| 
0.081338875440935903826655817283608 3889:1 15323:1 28602:1 37654:1 37661:1 37662:1 37704:1 37733:1 37802:1 38076:1 38077:1 38489:1 38490:1 39520:1 39529:1 39943:1 41199:1 43631:1 43639:1 43673:1 43784:1 43934:1 44069:1 44355:1 44363:1 44368:1 44373:1 44388:1 44400:1  |EV| 
0.066438146346144297260671862659365 4724:1 16267:1 29667:1 37654:1 37661:1 37672:1 37792:1 37795:1 38028:1 38031:1 38563:1 39322:1 39943:1 43633:1 43639:1 43642:1 43784:1 43926:1 44072:1 44355:1 44365:1 44368:1 44373:1 44388:1 44400:1  |EV| 
0.062615260938638936383249244954641 7898:1 19799:1 33628:1 37653:1 37654:1 37669:1 37704:1 37716:1 37781:1 37843:1 37945:1 37993:1 38017:1 38160:1 38875:1 38877:1 38878:1 38879:1 38880:1 38890:1 38891:1 39764:1 39943:1 40901:1 41378:1 41780:1 43274:1 43631:1 43639:1 43651:1 43789:1 43988:1 44077:1 44355:1 44365:1 44368:1 44373:1 44388:1 44400:1  |EV| 
-0.010000000000000000208166817117217 2914:1 16492:1 29930:1 37654:1 37661:1 37792:1 37795:1 38028:1 38031:1 38563:1 38591:1 39322:1 39943:1 41194:1 43633:1 43639:1 43659:1 43786:1 43926:1 44072:1 44355:1 44365:1 44368:1 44373:1 44388:1 44400:1  |EV| 
-0.010000000000000000208166817117217 3812:1 15244:1 28517:1 37654:1 37661:1 37662:1 37686:1 37704:1 37706:1 37733:1 37802:1 37947:1 38076:1 38077:1 38488:1 38489:1 38490:1 39520:1 39529:1 39943:1 43631:1 43639:1 43720:1 43793:1 43934:1 44069:1 44355:1 44363:1 44368:1 44388:1 44400:1  |EV| 
-0.010000000000000000208166817117217 2487:1 13859:1 26742:1 37653:1 37654:1 37661:1 37751:1 37769:1 37792:1 37800:1 37824:1 37897:1 38281:1 38282:1 39359:1 39943:1 41319:1 43633:1 43639:1 43664:1 43805:1 44006:1 44100:1 44355:1 44365:1 44369:1 44373:1 44386:1 44400:1  |EV| 
-0.010000000000000000208166817117217 2633:1 14009:1 26932:1 37686:1 37751:1 37769:1 37800:1 37825:1 37920:1 37995:1 38001:1 38248:1 39404:1 39943:1 43633:1 43639:1 43642:1 43836:1 43972:1 44072:1 44355:1 44363:1 44368:1 44373:1 44388:1 44400:1  |EV| 
-0.010000000000000000208166817117217 7951:1 19852:1 33683:1 37653:1 37654:1 37669:1 37704:1 37716:1 37781:1 37843:1 37945:1 37993:1 38017:1 38160:1 38875:1 38877:1 38878:1 38879:1 38880:1 38881:1 38882:1 38890:1 38891:1 39764:1 39943:1 43631:1 43639:1 43710:1 43789:1 43935:1 44077:1 44355:1 44365:1 44368:1 44373:1 44400:1  |EV| 
0.07489952531836864546566090439228 630:1 11714:1 23641:1 39215:1 39943:1 41194:1 43633:1 43639:1 43685:1 43806:1 43953:1 44088:1 44355:1 44363:1 44369:1 44373:1 44388:1 44400:1  |EV| 
0.1270303584268130669965302104174 7312:1 19164:1 32978:1 37681:1 37686:1 37704:1 37899:1 38174:1 38790:1 39318:1 39943:1 43634:1 43638:1 43653:1 43814:1 43952:1 44081:1 44355:1 44363:1 44368:1 44373:1 44388:1 44399:1 44400:1  |EV| 
0.048020180364880850343300977556282 630:1 11755:1 23641:1 39215:1 39943:1 41256:1 43633:1 43639:1 43685:1 43806:1 43953:1 44088:1 44355:1 44363:1 44369:1 44373:1 44388:1 44400:1  |EV| 
0.073586051027210580555149022075057 1624:1 12825:1 25398:1 37769:1 39359:1 39943:1 41194:1 43634:1 43638:1 43685:1 43796:1 43945:1 44081:1 44355:1 44363:1 44368:1 44373:1 44388:1 44396:1 44400:1  |EV| 
-0.010000000000000000208166817117217 3091:1 14504:1 26322:1 39441:1 39943:1 41194:1 43634:1 43638:1 43685:1 43802:1 43971:1 44081:1 44355:1 44363:1 44371:1 44373:1 44388:1 44400:1  |EV| 
-0.010000000000000000208166817117217 1315:1 12445:1 24979:1 37769:1 37856:1 38085:1 39359:1 39943:1 43634:1 43638:1 43653:1 43809:1 43945:1 44081:1 44355:1 44363:1 44368:1 44373:1 44388:1 44396:1 44400:1  |EV| 
-0.010000000000000000208166817117217 10395:1 22580:1 36439:1 37670:1 39355:1 39943:1 41194:1 43634:1 43638:1 43685:1 43796:1 43945:1 44081:1 44355:1 44363:1 44368:1 44373:1 44388:1 44400:1  |EV| 
-0.010000000000000000208166817117217 8098:1 19999:1 33868:1 37654:1 37704:1 37869:1 37895:1 38906:1 38907:1 39679:1 39783:1 39784:1 39943:1 41194:1 43633:1 43639:1 43685:1 43786:1 43967:1 44088:1 44355:1 44363:1 44369:1 44373:1 44388:1 44400:1  |EV| 
-0.010000000000000000208166817117217 980:1 12076:1 24530:1 37804:1 37999:1 38000:1 39314:1 39943:1 41234:1 43634:1 43638:1 43685:1 43809:1 43933:1 44081:1 44355:1 44363:1 44368:1 44373:1 44388:1 44400:1  |EV| 
0.09032127006720203077350106468657 7041:1 18861:1 32650:1 37654:1 37661:1 37662:1 37750:1 37843:1 38494:1 38495:1 38648:1 38778:1 39274:1 39943:1 43633:1 43639:1 43652:1 43810:1 43931:1 44100:1 44355:1 44363:1 44368:1 44373:1 44388:1 44400:1  |EV| 
0.085044766737324820060628383089352 3877:1 15311:1 28587:1 37653:1 37654:1 37661:1 37662:1 37672:1 37682:1 37686:1 37695:1 37709:1 37750:1 37778:1 37792:1 37798:1 37842:1 37876:1 38219:1 38325:1 38447:1 38448:1 38449:1 38450:1 38451:1 38452:1 38453:1 38454:1 38455:1 38456:1 38461:1 39514:1 39943:1 43633:1 43639:1 43698:1 43806:1 44025:1 44192:1 44355:1 44363:1 44369:1 44373:1 44376:1 44388:1 44400:1  |EV| 
0.090385980014838898655149534988595 2633:1 14153:1 27138:1 37751:1 37769:1 37920:1 39404:1 39943:1 41208:1 43632:1 43639:1 43663:1 43836:1 43948:1 44096:1 44355:1 44363:1 44368:1 44373:1 44388:1 44400:1  |EV| 
0.08442790143645119427251444221838 346:1 20632:1 34598:1 37661:1 37802:1 39239:1 39943:1 43631:1 43639:1 43662:1 43810:1 43945:1 44084:1 44355:1 44363:1 44368:1 44373:1 44388:1 44400:1  |EV| 
-0.010000000000000000208166817117217 3844:1 15277:1 28551:1 37653:1 37654:1 37661:1 37662:1 37682:1 37686:1 37695:1 37709:1 37750:1 37778:1 37792:1 37798:1 37842:1 37876:1 38219:1 38325:1 38447:1 38448:1 38449:1 38450:1 38451:1 38452:1 38453:1 38454:1 38455:1 38456:1 38457:1 38461:1 39514:1 39943:1 43633:1 43639:1 43648:1 43865:1 44025:1 44143:1 44355:1 44363:1 44369:1 44373:1 44388:1 44400:1  |EV| 
-0.010000000000000000208166817117217 3782:1 15214:1 28485:1 37653:1 37654:1 37661:1 37662:1 37672:1 37682:1 37686:1 37695:1 37709:1 37750:1 37778:1 37792:1 37798:1 37842:1 37876:1 38325:1 38447:1 38448:1 38449:1 38450:1 38451:1 38452:1 38453:1 38454:1 38455:1 38456:1 38457:1 38461:1 39514:1 39943:1 41194:1 43633:1 43639:1 43659:1 43879:1 44025:1 44165:1 44355:1 44363:1 44369:1 44373:1 44388:1 44400:1  |EV| 
-0.010000000000000000208166817117217 345:1 11469:1 23920:1 37653:1 37819:1 37820:1 37821:1 37822:1 37823:1 39218:1 39943:1 43633:1 43639:1 43647:1 43805:1 43929:1 44088:1 44355:1 44363:1 44368:1 44373:1 44388:1 44394:1 44400:1  |EV| 
-0.010000000000000000208166817117217 1913:1 13245:1 25895:1 37661:1 37662:1 37685:1 37704:1 37740:1 37769:1 37949:1 38051:1 38056:1 38127:1 38128:1 38129:1 38130:1 38131:1 38133:1 38134:1 39367:1 39943:1 43633:1 43639:1 43702:1 43784:1 43969:1 44100:1 44355:1 44363:1 44369:1 44373:1 44388:1 44400:1  |EV| 
-0.010000000000000000208166817117217 318:1 11280:1 23589:1 37661:1 37715:1 39215:1 39943:1 40019:1 41198:1 41673:1 42202:1 43633:1 43639:1 43653:1 43806:1 43948:1 44088:1 44355:1 44363:1 44369:1 44373:1 44388:1  |EV| 
0.08579816629801180483116951336342 10353:1 22535:1 28366:1 37682:1 37769:1 39936:1 39943:1 41194:1 43634:1 43638:1 43659:1 43790:1 43945:1 44081:1 44355:1 44363:1 44369:1 44373:1 44388:1 44400:1  |EV| 
0.079976759417420745235105528081476 782:1 11831:1 24281:1 37654:1 37664:1 37686:1 37704:1 37885:1 37892:1 37893:1 37894:1 39296:1 39943:1 43633:1 43639:1 43648:1 43806:1 43926:1 44072:1 44355:1 44363:1 44370:1 44373:1 44388:1 44396:1 44400:1  |EV| 
0.040818143074753468479975992977415 3187:1 14600:1 27863:1 37664:1 37686:1 37704:1 37889:1 37939:1 38342:1 38343:1 38344:1 39455:1 39943:1 43633:1 43639:1 43647:1 43789:1 43926:1 44072:1 44355:1 44363:1 44368:1 44373:1 44388:1 44400:1  |EV| 
0.085996732074372320142607861725992 2146:1 13497:1 26200:1 37654:1 37685:1 37716:1 37945:1 37948:1 38014:1 38130:1 38146:1 39306:1 39372:1 39943:1 41192:1 43636:1 43639:1 43641:1 43814:1 43980:1 44085:1 44355:1 44363:1 44368:1 44373:1 44388:1 44394:1 44400:1  |EV| 
-0.010000000000000000208166817117217 1991:1 13326:1 25985:1 37654:1 37662:1 37685:1 37716:1 37945:1 37948:1 38014:1 38130:1 38146:1 38148:1 39306:1 39372:1 39943:1 43636:1 43639:1 43693:1 43814:1 43950:1 44085:1 44355:1 44363:1 44368:1 44373:1 44388:1 44394:1 44400:1  |EV| 
-0.010000000000000000208166817117217 10479:1 22680:1 36972:1 37654:1 37686:1 37704:1 37769:1 37791:1 37802:1 37843:1 37995:1 38694:1 39176:1 39177:1 39179:1 39180:1 39931:1 39932:1 39943:1 41194:1 43633:1 43639:1 43685:1 43822:1 43941:1 44082:1 44355:1 44363:1 44368:1 44373:1 44388:1 44400:1  |EV| 
-0.010000000000000000208166817117217 7214:1 19272:1 33080:1 37681:1 37686:1 37704:1 37899:1 38174:1 38790:1 38791:1 39318:1 39943:1 41208:1 43636:1 43639:1 43663:1 43814:1 43934:1 44086:1 44355:1 44363:1 44368:1 44373:1 44399:1 44400:1  |EV| 
-0.010000000000000000208166817117217 618:1 11625:1 24078:1 37654:1 37664:1 37686:1 37704:1 37892:1 37893:1 37894:1 37895:1 39296:1 39943:1 41194:1 43633:1 43639:1 43685:1 43824:1 43926:1 44072:1 44355:1 44363:1 44370:1 44373:1 44388:1 44396:1 44400:1  |EV| 
-0.010000000000000000208166817117217 10689:1 22936:1 37316:1 37654:1 37663:1 37686:1 37704:1 37769:1 37791:1 37802:1 37843:1 37995:1 38694:1 39176:1 39177:1 39180:1 39931:1 39932:1 39943:1 43633:1 43639:1 43652:1 43805:1 43941:1 44100:1 44355:1 44363:1 44368:1 44373:1 44388:1 44400:1  |EV| 
0.019124266335183839893296919854038 8900:1 20985:1 35049:1 37654:1 37661:1 37662:1 37709:1 37802:1 37812:1 37863:1 38088:1 38199:1 38987:1 38988:1 39514:1 39943:1 43633:1 43639:1 43642:1 43793:1 43931:1 44072:1 44355:1 44363:1 44369:1 44373:1 44388:1 44400:1  |EV| 
0.054744877309499638540213339865659 3014:1 14425:1 27574:1 37661:1 37662:1 37709:1 37725:1 37771:1 37781:1 37792:1 37829:1 37920:1 37927:1 37970:1 38320:1 38321:1 38322:1 39304:1 39943:1 43635:1 43639:1 43702:1 43796:1 43959:1 44104:1 44355:1 44363:1 44371:1 44373:1 44388:1 44400:1  |EV| 
0.040730569070007355270135462887993 8901:1 20986:1 35050:1 37654:1 37661:1 37662:1 37709:1 37802:1 37812:1 37863:1 38088:1 38199:1 38458:1 38987:1 38988:1 39834:1 39943:1 43633:1 43639:1 43642:1 43824:1 43941:1 44072:1 44355:1 44363:1 44369:1 44373:1 44388:1 44400:1  |EV| 
0.052535857939969531071877639760714 2389:1 13757:1 26610:1 37654:1 37662:1 37670:1 37704:1 37709:1 37733:1 37765:1 37801:1 37813:1 37847:1 37848:1 37945:1 37985:1 38160:1 38199:1 38200:1 38223:1 38224:1 39392:1 39943:1 43633:1 43639:1 43719:1 43793:1 43996:1 44123:1 44355:1 44363:1 44369:1 44373:1 44388:1 44400:1  |EV| 
-0.010000000000000000208166817117217 8815:1 20898:1 34938:1 37654:1 37662:1 37709:1 37802:1 37812:1 38988:1 39514:1 39943:1 39981:1 41216:1 41662:1 43424:1 43631:1 43639:1 43681:1 43793:1 43945:1 44084:1 44355:1 44363:1 44369:1 44373:1 44390:1 44400:1  |EV| 
-0.010000000000000000208166817117217 2133:1 13481:1 26181:1 37654:1 37662:1 37670:1 37704:1 37709:1 37733:1 37801:1 37813:1 37847:1 37848:1 37945:1 37985:1 38160:1 38199:1 38200:1 38223:1 38224:1 39392:1 39943:1 40179:1 41264:1 41765:1 42417:1 43633:1 43639:1 43702:1 43793:1 44004:1 44123:1 44355:1 44364:1 44369:1 44373:1 44386:1 44400:1  |EV| 
-0.010000000000000000208166817117217 2225:1 13579:1 26310:1 37654:1 37662:1 37670:1 37704:1 37709:1 37733:1 37801:1 37813:1 37847:1 37848:1 37945:1 37985:1 38160:1 38199:1 38200:1 38222:1 38223:1 39392:1 39943:1 40183:1 41307:1 41765:1 42417:1 43633:1 43639:1 43649:1 43836:1 44004:1 44123:1 44355:1 44364:1 44369:1 44373:1 44386:1 44400:1  |EV| 
-0.010000000000000000208166817117217 597:1 11604:1 24057:1 37654:1 37670:1 39215:1 39943:1 41219:1 43631:1 43639:1 43662:1 43806:1 43939:1 44084:1 44355:1 44365:1 44369:1 44373:1 44388:1 44400:1  |EV| 
-0.010000000000000000208166817117217 588:1 11737:1 24190:1 37661:1 37662:1 39215:1 39943:1 41199:1 43631:1 43639:1 43662:1 43806:1 43939:1 44084:1 44355:1 44363:1 44369:1 44373:1 44400:1  |EV| 
0.060088188945473457180934673260708 9165:1 21263:1 35399:1 37686:1 37993:1 38999:1 39395:1 39943:1 41194:1 43633:1 43639:1 43685:1 43805:1 43979:1 44088:1 44355:1 44363:1 44368:1 44373:1 44388:1 44394:1 44400:1  |EV| 
0.02916234599850163825007776097209 935:1 12026:1 24478:1 37664:1 37916:1 37917:1 39237:1 39943:1 41194:1 43633:1 43639:1 43685:1 43805:1 43979:1 44088:1 44355:1 44363:1 44368:1 44373:1 44388:1 44400:1  |EV| 
0.037578319180167685242821562496829 6839:1 18651:1 32390:1 37817:1 37977:1 37993:1 39436:1 39943:1 41194:1 43633:1 43639:1 43685:1 43805:1 43979:1 44088:1 44355:1 44363:1 44368:1 44373:1 44388:1 44394:1 44400:1  |EV| 
0.064669694888867923499020662347903 8565:1 20607:1 34568:1 37654:1 37993:1 38939:1 39804:1 39943:1 41194:1 43633:1 43639:1 43685:1 43805:1 43979:1 44088:1 44355:1 44363:1 44368:1 44373:1 44388:1 44400:1  |EV| 
0.043375566571071916266433277087344 10820:1 23103:1 37546:1 37654:1 37769:1 37802:1 39180:1 39931:1 39932:1 39943:1 40200:1 40779:1 41198:1 41770:1 41904:1 43598:1 43599:1 43633:1 43639:1 43659:1 43805:1 43932:1 44088:1 44355:1 44365:1 44368:1 44373:1 44388:1 44391:1 44400:1  |EV| 
-0.010000000000000000208166817117217 8565:1 20607:1 34736:1 37653:1 37654:1 37661:1 37666:1 37993:1 38103:1 38254:1 38939:1 38946:1 38950:1 38957:1 39804:1 39943:1 43633:1 43639:1 43694:1 43805:1 43965:1 44100:1 44355:1 44363:1 44368:1 44373:1 44388:1 44400:1  |EV| 
-0.010000000000000000208166817117217 3957:1 15394:1 28678:1 37902:1 37989:1 38500:1 39534:1 39943:1 41194:1 43633:1 43639:1 43685:1 43805:1 43979:1 44088:1 44355:1 44363:1 44368:1 44373:1 44388:1 44396:1 44397:1  |EV| 
-0.010000000000000000208166817117217 9199:1 21298:1 35438:1 37653:1 37989:1 38042:1 39850:1 39943:1 41244:1 43633:1 43639:1 43685:1 43805:1 43979:1 44088:1 44355:1 44363:1 44368:1 44373:1 44388:1 44397:1  |EV| 
-0.010000000000000000208166817117217 108:1 11016:1 23349:1 37653:1 37664:1 37746:1 39221:1 39943:1 41194:1 43633:1 43639:1 43685:1 43805:1 43979:1 44088:1 44355:1 44363:1 44368:1 44373:1 44388:1 44394:1  |EV| 
-0.010000000000000000208166817117217 9100:1 21197:1 35323:1 37661:1 37662:1 37666:1 37686:1 37993:1 38508:1 38998:1 38999:1 39395:1 39943:1 43633:1 43639:1 43665:1 43805:1 43926:1 44072:1 44355:1 44363:1 44368:1 44373:1 44386:1 44388:1 44394:1 44400:1  |EV| 
0.047448107433077868488879857977736 2367:1 13733:1 26568:1 37654:1 37662:1 37670:1 37704:1 37709:1 37733:1 37765:1 37801:1 37813:1 37847:1 37848:1 37945:1 37985:1 38160:1 38199:1 38200:1 38222:1 38223:1 39392:1 39943:1 43633:1 43639:1 43654:1 43836:1 43996:1 44123:1 44355:1 44363:1 44369:1 44373:1 44388:1 44400:1  |EV| 
0.045608573599741138171470566931021 8252:1 20180:1 34057:1 37654:1 37704:1 37869:1 38274:1 38906:1 38907:1 39679:1 39783:1 39784:1 39943:1 43633:1 43639:1 43642:1 43810:1 43967:1 44088:1 44355:1 44363:1 44369:1 44373:1 44388:1 44400:1  |EV| 
-0.010000000000000000208166817117217 1191:1 12319:1 24813:1 37654:1 37694:1 37704:1 37709:1 37748:1 37779:1 37780:1 38048:1 38053:1 38054:1 39236:1 39943:1 43633:1 43639:1 43690:1 43810:1 43972:1 44072:1 44355:1 44363:1 44368:1 44373:1 44376:1 44388:1 44394:1 44400:1  |EV| 
-0.010000000000000000208166817117217 1211:1 12339:1 24841:1 37654:1 37694:1 37704:1 37709:1 37748:1 37779:1 37780:1 38053:1 38054:1 38057:1 39236:1 39943:1 43633:1 43639:1 43665:1 43789:1 43972:1 44072:1 44355:1 44363:1 44368:1 44373:1 44388:1 44394:1 44400:1  |EV| 
-0.010000000000000000208166817117217 1167:1 12295:1 24781:1 37694:1 37709:1 37779:1 38057:1 39236:1 39943:1 41220:1 43632:1 43639:1 43641:1 43789:1 43927:1 44096:1 44355:1 44363:1 44368:1 44373:1 44388:1 44394:1 44400:1  |EV| 
-0.010000000000000000208166817117217 2332:1 13696:1 26496:1 37654:1 37662:1 37685:1 37704:1 37716:1 37918:1 37945:1 37948:1 38014:1 38130:1 38146:1 38147:1 38148:1 38149:1 39306:1 39372:1 39943:1 43634:1 43638:1 43647:1 43862:1 43950:1 44105:1 44355:1 44363:1 44368:1 44373:1 44388:1 44394:1 44400:1  |EV| 
-0.010000000000000000208166817117217 2412:1 13780:1 26647:1 37654:1 37662:1 37666:1 37685:1 37704:1 37716:1 37918:1 37945:1 37948:1 38014:1 38130:1 38146:1 38147:1 38149:1 39306:1 39372:1 39943:1 43634:1 43638:1 43665:1 43862:1 43980:1 44105:1 44355:1 44363:1 44368:1 44373:1 44388:1 44394:1 44400:1  |EV| 
0.10796232370034149206095008821649 8235:1 20160:1 34035:1 37661:1 37686:1 38919:1 39587:1 39943:1 43631:1 43639:1 43693:1 43784:1 43945:1 44084:1 44355:1 44363:1 44368:1 44373:1 44388:1 44400:1  |EV| 
0.052355732848150253466723569317764 10089:1 22242:1 36471:1 37653:1 37654:1 37686:1 37704:1 37913:1 37918:1 37989:1 38121:1 38630:1 38850:1 39150:1 39918:1 39943:1 43633:1 43639:1 43652:1 43810:1 43931:1 44100:1 44355:1 44363:1 44368:1 44373:1 44388:1 44400:1  |EV| 
0.036466880447027637257573218221296 8612:1 20660:1 34632:1 37653:1 37654:1 37662:1 37724:1 37792:1 37896:1 37969:1 37993:1 38054:1 38247:1 38777:1 38979:1 39233:1 39943:1 43633:1 43639:1 43652:1 43784:1 43965:1 44100:1 44355:1 44363:1 44368:1 44373:1 44388:1 44400:1  |EV| 
0.06986314342971411406324477866292 9436:1 21552:1 35713:1 37686:1 37847:1 37877:1 38615:1 39045:1 39046:1 39397:1 39943:1 41244:1 43633:1 43639:1 43685:1 43793:1 43929:1 44088:1 44355:1 44363:1 44371:1 44373:1 44388:1 44400:1  |EV| 
-0.010000000000000000208166817117217 2892:1 14297:1 27380:1 37751:1 37769:1 37920:1 38248:1 39404:1 39943:1 40200:1 41198:1 41770:1 42431:1 43633:1 43639:1 43659:1 43836:1 43936:1 44088:1 44355:1 44365:1 44368:1 44373:1 44391:1 44400:1  |EV| 
-0.010000000000000000208166817117217 599:1 17540:1 31171:1 37661:1 37724:1 37889:1 39291:1 39943:1 43633:1 43639:1 43659:1 43784:1 43979:1 44088:1 44355:1 44365:1 44369:1 44373:1 44391:1 44400:1  |EV| 
-0.010000000000000000208166817117217 535:1 11532:1 23985:1 37648:1 37661:1 37686:1 37694:1 37733:1 37769:1 37791:1 37826:1 37827:1 37828:1 37829:1 37830:1 37831:1 37834:1 37835:1 37836:1 37841:1 37842:1 37856:1 37861:1 39243:1 39943:1 43632:1 43639:1 43651:1 43853:1 43953:1 44154:1 44355:1 44363:1 44371:1 44373:1 44388:1 44400:1  |EV| 
-0.010000000000000000208166817117217 8771:1 20853:1 34889:1 37653:1 37654:1 37662:1 37724:1 37790:1 37896:1 37969:1 37993:1 38054:1 38777:1 38979:1 39233:1 39943:1 41194:1 43633:1 43639:1 43666:1 43824:1 43965:1 44072:1 44355:1 44363:1 44368:1 44373:1 44388:1 44400:1  |EV| 
-0.010000000000000000208166817117217 5919:1 17632:1 31282:1 37661:1 37686:1 37724:1 37733:1 37791:1 37876:1 37889:1 37893:1 38055:1 38334:1 38617:1 39291:1 39943:1 41194:1 43633:1 43639:1 43685:1 43829:1 43959:1 44082:1 44355:1 44363:1 44369:1 44373:1 44388:1 44400:1  |EV| 
0.091401165249266336232381036097649 1241:1 12369:1 24020:1 37709:1 39236:1 39943:1 41194:1 43633:1 43639:1 43685:1 43810:1 43927:1 44088:1 44355:1 44363:1 44368:1 44373:1 44376:1 44388:1 44394:1 44400:1  |EV| 
0.057471094183990406589757071742497 8043:1 19944:1 33839:1 37705:1 38042:1 38171:1 39776:1 39943:1 41194:1 43633:1 43639:1 43653:1 43810:1 43979:1 44088:1 44355:1 44363:1 44368:1 44373:1 44388:1 44394:1 44400:1  |EV| 
-0.010000000000000000208166817117217 10195:1 22361:1 36599:1 37653:1 37654:1 37686:1 37704:1 37878:1 37913:1 37918:1 37989:1 38121:1 38630:1 39150:1 39918:1 39943:1 41194:1 43633:1 43639:1 43653:1 43839:1 43931:1 44082:1 44355:1 44363:1 44368:1 44373:1 44388:1 44400:1  |EV| 
-0.010000000000000000208166817117217 10156:1 22318:1 36548:1 37653:1 37686:1 37704:1 37989:1 38121:1 39150:1 39918:1 39943:1 43633:1 43639:1 43642:1 43810:1 43967:1 44088:1 44355:1 44363:1 44368:1 44373:1 44400:1  |EV| 
-0.010000000000000000208166817117217 6080:1 17835:1 28126:1 37785:1 39618:1 39943:1 40620:1 41378:1 41945:1 42937:1 43633:1 43639:1 43685:1 43810:1 43927:1 44088:1 44355:1 44363:1 44371:1 44373:1 44388:1 44401:1  |EV| 
-0.010000000000000000208166817117217 7344:1 19209:1 33021:1 37654:1 37662:1 37681:1 37686:1 37704:1 37832:1 38001:1 38174:1 38785:1 38786:1 38787:1 38788:1 38789:1 38790:1 39318:1 39943:1 41498:1 43631:1 43639:1 43655:1 43839:1 43952:1 44117:1 44355:1 44363:1 44368:1 44373:1 44388:1 44399:1 44400:1  |EV| 
-0.010000000000000000208166817117217 7132:1 18952:1 32771:1 37654:1 37662:1 37681:1 37686:1 37704:1 38174:1 38785:1 38786:1 38787:1 38790:1 39318:1 39943:1 41219:1 43631:1 43639:1 43686:1 43793:1 43952:1 44069:1 44355:1 44363:1 44368:1 44373:1 44388:1 44399:1 44400:1  |EV| 
0.054845856905638437628347503505211 691:1 17717:1 31405:1 37661:1 37686:1 37724:1 37733:1 37791:1 37876:1 37889:1 37893:1 38055:1 38617:1 38638:1 39291:1 39943:1 43633:1 43639:1 43690:1 43784:1 43959:1 44072:1 44355:1 44363:1 44369:1 44373:1 44388:1 44400:1  |EV| 
0.042760069635550589095540630069081 9656:1 21793:1 36020:1 37654:1 37662:1 37733:1 37798:1 37831:1 37869:1 37935:1 39074:1 39075:1 39086:1 39890:1 39943:1 43633:1 43639:1 43671:1 43805:1 43972:1 44072:1 44355:1 44363:1 44368:1 44373:1 44388:1 44400:1  |EV| 
0.053688296403640450860095256757631 1913:1 13245:1 25885:1 38133:1 38134:1 39367:1 39943:1 41194:1 43633:1 43639:1 43685:1 43784:1 43948:1 44088:1 44355:1 44363:1 44369:1 44373:1 44388:1 44400:1  |EV| 
-0.010000000000000000208166817117217 10087:1 22239:1 36468:1 37647:1 37682:1 37769:1 37866:1 37877:1 37997:1 39151:1 39155:1 39156:1 39160:1 39161:1 39925:1 39943:1 43633:1 43639:1 43690:1 43784:1 43959:1 44072:1 44355:1 44363:1 44371:1 44373:1 44388:1 44396:1 44401:1  |EV| 
-0.010000000000000000208166817117217 7187:1 19012:1 32830:1 38162:1 38246:1 39708:1 39709:1 39943:1 41194:1 43633:1 43639:1 43685:1 43784:1 43948:1 44088:1 44355:1 44363:1 44371:1 44373:1 44374:1 44376:1 44388:1  |EV| 
-0.010000000000000000208166817117217 566:1 11566:1 32273:1 37654:1 37709:1 39239:1 39943:1 41194:1 43633:1 43639:1 43685:1 43784:1 43948:1 44088:1 44355:1 44363:1 44368:1 44373:1 44388:1  |EV| 
-0.010000000000000000208166817117217 960:1 12055:1 24506:1 37654:1 37804:1 37993:1 37999:1 38000:1 39314:1 39943:1 43631:1 43639:1 43650:1 43784:1 43933:1 44084:1 44355:1 44363:1 44368:1 44373:1 44388:1 44400:1  |EV| 
-0.010000000000000000208166817117217 2184:1 13831:1 26886:1 37843:1 38233:1 39319:1 39943:1 41194:1 43633:1 43639:1 43685:1 43784:1 43948:1 44088:1 44355:1 44363:1 44369:1 44373:1 44388:1 44398:1  |EV| 
0.066267511228344441742699189035193 3097:1 14510:1 27774:1 37993:1 39441:1 39943:1 43631:1 43639:1 43641:1 43810:1 43971:1 44084:1 44355:1 44363:1 44371:1 44373:1 44388:1 44400:1  |EV| 
-0.010000000000000000208166817117217 6974:1 20664:1 34636:1 37661:1 38171:1 39239:1 39943:1 41194:1 43634:1 43638:1 43659:1 43790:1 43945:1 44081:1 44355:1 44363:1 44368:1 44373:1 44388:1 44400:1  |EV| 
-0.010000000000000000208166817117217 8523:1 20560:1 34521:1 37661:1 37666:1 37686:1 37752:1 38022:1 38439:1 39222:1 39943:1 43631:1 43639:1 43643:1 43810:1 43951:1 44084:1 44355:1 44363:1 44369:1 44373:1 44388:1 44400:1  |EV| 
-0.010000000000000000208166817117217 8235:1 20247:1 34224:1 37654:1 37661:1 37794:1 37795:1 37995:1 38857:1 38914:1 38915:1 38916:1 39587:1 39943:1 43634:1 43638:1 43694:1 43807:1 43945:1 44158:1 44355:1 44363:1 44368:1 44373:1 44388:1 44400:1  |EV| 
-0.010000000000000000208166817117217 727:1 11758:1 24210:1 37654:1 37661:1 37664:1 37686:1 37704:1 37881:1 37882:1 37883:1 37884:1 37885:1 37892:1 37893:1 37894:1 37895:1 39296:1 39943:1 43632:1 43639:1 43646:1 43798:1 43926:1 44070:1 44355:1 44363:1 44370:1 44373:1 44388:1 44396:1 44400:1  |EV| 
-0.010000000000000000208166817117217 8330:1 20285:1 23635:1 37661:1 39587:1 39943:1 41194:1 43634:1 43638:1 43685:1 43796:1 43945:1 44081:1 44355:1 44363:1 44368:1 44373:1 44388:1 44400:1  |EV| 
0.053417681161982387416653494938146 8965:1 21051:1 35128:1 37653:1 37654:1 38042:1 38973:1 38974:1 39381:1 39943:1 41194:1 43633:1 43639:1 43647:1 43784:1 43936:1 44088:1 44355:1 44363:1 44368:1 44373:1 44388:1 44396:1 44400:1  |EV| 
0.042429831578599142005714384140447 1056:1 12176:1 24649:1 37654:1 37993:1 39314:1 39943:1 41194:1 43633:1 43639:1 43685:1 43784:1 43948:1 44088:1 44355:1 44363:1 44368:1 44373:1 44388:1 44400:1  |EV| 
0.049237513274947214414467566712119 9055:1 21148:1 35259:1 37654:1 37709:1 37857:1 38057:1 39233:1 39943:1 41194:1 43633:1 43639:1 43659:1 43805:1 43932:1 44088:1 44355:1 44363:1 44368:1 44373:1 44388:1 44400:1  |EV| 
0.05292146836107418372829869213092 5136:1 16710:1 30214:1 37686:1 37825:1 37997:1 39318:1 39943:1 41194:1 43633:1 43639:1 43659:1 43784:1 43979:1 44088:1 44355:1 44363:1 44368:1 44373:1 44388:1 44394:1 44400:1  |EV| 
-0.010000000000000000208166817117217 2519:1 19460:1 33270:1 37654:1 37704:1 37939:1 37993:1 39318:1 39943:1 43633:1 43639:1 43653:1 43784:1 43932:1 44088:1 44355:1 44363:1 44368:1 44373:1 44388:1 44395:1  |EV| 
-0.010000000000000000208166817117217 8750:1 20825:1 34860:1 37653:1 37654:1 37662:1 37896:1 37993:1 39233:1 39943:1 43633:1 43639:1 43647:1 43784:1 43936:1 44088:1 44355:1 44365:1 44368:1 44373:1 44389:1 44400:1  |EV| 
-0.010000000000000000208166817117217 10414:1 22601:1 37434:1 37653:1 39172:1 39173:1 39221:1 39943:1 43633:1 43639:1 43647:1 43806:1 43979:1 44088:1 44355:1 44363:1 44368:1 44373:1 44400:1  |EV| 
-0.010000000000000000208166817117217 267:1 11212:1 23631:1 37654:1 37661:1 37715:1 37783:1 39239:1 39943:1 40004:1 41198:1 41676:1 42206:1 43633:1 43639:1 43653:1 43784:1 43932:1 44088:1 44355:1 44363:1 44368:1 44373:1 44400:1  |EV| 
-0.010000000000000000208166817117217 1945:1 13277:1 25928:1 37709:1 38137:1 38145:1 39371:1 39943:1 43633:1 43639:1 43653:1 43810:1 43979:1 44088:1 44355:1 44363:1 44368:1 44373:1 44388:1 44397:1  |EV| 
-0.010000000000000000208166817117217 2428:1 14323:1 27430:1 37686:1 37751:1 37769:1 37800:1 37825:1 37920:1 37995:1 38247:1 39404:1 39943:1 41327:1 43632:1 43639:1 43650:1 43839:1 43948:1 44071:1 44355:1 44363:1 44368:1 44373:1 44388:1 44400:1  |EV| 
-0.010000000000000000208166817117217 2428:1 13797:1 26669:1 37686:1 37751:1 37769:1 37800:1 37825:1 37920:1 37995:1 38247:1 38248:1 39404:1 39943:1 41194:1 43633:1 43639:1 43685:1 43839:1 43972:1 44082:1 44355:1 44363:1 44368:1 44373:1 44388:1 44400:1  |EV| 
-0.010000000000000000208166817117217 8565:1 20607:1 35247:1 37654:1 37661:1 37662:1 37993:1 38939:1 39804:1 39943:1 43631:1 43639:1 43650:1 43805:1 43939:1 44084:1 44355:1 44363:1 44368:1 44373:1 44388:1 44400:1  |EV| 
-0.010000000000000000208166817117217 10415:1 22602:1 36883:1 37661:1 37662:1 37670:1 37750:1 38078:1 38657:1 39257:1 39869:1 39943:1 43631:1 43639:1 43696:1 43784:1 43928:1 44069:1 44355:1 44363:1 44368:1 44373:1 44388:1 44400:1  |EV| 
-0.010000000000000000208166817117217 1035:1 12158:1 24630:1 37654:1 37804:1 37993:1 37999:1 38000:1 38001:1 38003:1 39314:1 39943:1 43635:1 43639:1 43648:1 43809:1 43948:1 44087:1 44355:1 44363:1 44368:1 44373:1 44388:1 44400:1  |EV| 
0.035818617121315274309800713581353 2017:1 13353:1 26019:1 37654:1 37704:1 37709:1 37895:1 37899:1 39391:1 39943:1 43633:1 43639:1 43647:1 43784:1 43936:1 44088:1 44355:1 44363:1 44371:1 44373:1 44388:1 44400:1  |EV| 
0.033779482213728624639959008391088 9618:1 21755:1 35918:1 37653:1 37654:1 37686:1 37720:1 39084:1 39239:1 39943:1 43633:1 43639:1 43647:1 43784:1 43936:1 44088:1 44355:1 44363:1 44368:1 44373:1 44388:1 44400:1  |EV| 
0.018021776482568006155782214250394 8636:1 20688:1 34669:1 37686:1 37769:1 37927:1 38863:1 38975:1 38976:1 39829:1 39943:1 40004:1 41198:1 41676:1 43401:1 43633:1 43639:1 43647:1 43805:1 43929:1 44088:1 44355:1 44362:1 44368:1 44373:1 44388:1 44400:1  |EV| 
0.041751088404893506311754691751048 9325:1 21430:1 35594:1 37704:1 37709:1 37722:1 39856:1 39943:1 43633:1 43639:1 43653:1 43810:1 43979:1 44088:1 44355:1 44363:1 44368:1 44373:1 44388:1 44400:1  |EV| 
-0.010000000000000000208166817117217 578:1 11578:1 24031:1 37742:1 37913:1 39287:1 39943:1 41194:1 43633:1 43639:1 43659:1 43810:1 43948:1 44088:1 44355:1 44363:1 44369:1 44373:1 44388:1  |EV| 
-0.010000000000000000208166817117217 9369:1 21475:1 35638:1 37704:1 37709:1 37722:1 37780:1 38044:1 38051:1 39856:1 39943:1 43633:1 43639:1 43642:1 43810:1 43967:1 44088:1 44355:1 44363:1 44368:1 44373:1 44400:1  |EV| 
-0.010000000000000000208166817117217 588:1 11701:1 24368:1 37769:1 37934:1 37935:1 37936:1 39215:1 39943:1 43633:1 43639:1 43666:1 43806:1 43932:1 44088:1 44355:1 44363:1 44369:1 44373:1 44400:1  |EV| 
-0.010000000000000000208166817117217 10617:1 22842:1 24450:1 37686:1 39940:1 39943:1 41194:1 43633:1 43639:1 43685:1 43810:1 43927:1 44088:1 44355:1 44363:1 44369:1 44373:1 44388:1  |EV| 
-0.010000000000000000208166817117217 47:1 10939:1 23244:1 37647:1 37704:1 37709:1 37716:1 37747:1 39215:1 39943:1 43633:1 43639:1 43666:1 43810:1 43936:1 44088:1 44355:1 44363:1 44369:1 44373:1 44388:1  |EV| 
-0.010000000000000000208166817117217 1303:1 20493:1 34701:1 37654:1 37661:1 37662:1 37666:1 37993:1 38938:1 38939:1 39804:1 39943:1 43635:1 43639:1 43648:1 43790:1 43979:1 44087:1 44355:1 44363:1 44368:1 44373:1 44388:1 44400:1  |EV| 
-0.010000000000000000208166817117217 1202:1 12330:1 24830:1 37653:1 37654:1 37661:1 37662:1 37682:1 37704:1 37709:1 37771:1 37892:1 38014:1 38038:1 38039:1 38040:1 38041:1 38042:1 38043:1 38044:1 39337:1 39943:1 43635:1 43639:1 43657:1 43796:1 43978:1 44134:1 44355:1 44363:1 44368:1 44373:1 44388:1 44400:1  |EV| 
-0.010000000000000000208166817117217 9232:1 21332:1 35482:1 37661:1 37662:1 37686:1 37794:1 37993:1 38508:1 38999:1 39395:1 39943:1 41199:1 43632:1 43639:1 43662:1 43824:1 43979:1 44096:1 44355:1 44363:1 44368:1 44373:1 44388:1 44394:1 44400:1  |EV| 
-0.010000000000000000208166817117217 6751:1 18556:1 35880:1 37653:1 37654:1 37661:1 37662:1 37686:1 37692:1 37720:1 37727:1 37843:1 38556:1 38699:1 39084:1 39085:1 39239:1 39943:1 43635:1 43639:1 43702:1 43791:1 43936:1 44097:1 44355:1 44363:1 44368:1 44373:1 44388:1 44400:1  |EV| 
-0.010000000000000000208166817117217 1303:1 20493:1 34435:1 37653:1 37654:1 37661:1 37993:1 38254:1 38938:1 38939:1 38946:1 38950:1 38957:1 39804:1 39943:1 41220:1 43632:1 43639:1 43681:1 43788:1 43979:1 44071:1 44355:1 44363:1 44368:1 44373:1 44388:1 44400:1  |EV| 
0.087545146671079876465881852709572 8709:1 20781:1 24450:1 37686:1 39222:1 39943:1 41194:1 43633:1 43639:1 43685:1 43810:1 43927:1 44088:1 44355:1 44363:1 44369:1 44373:1 44388:1 44400:1  |EV| 
0.040251615707736859706145082782314 3840:1 15273:1 28547:1 37771:1 38162:1 39319:1 39943:1 41194:1 43633:1 43639:1 43659:1 43810:1 43948:1 44088:1 44355:1 44363:1 44369:1 44373:1 44388:1 44400:1  |EV| 
-0.010000000000000000208166817117217 9753:1 21897:1 36093:1 37781:1 39882:1 39943:1 41194:1 43633:1 43639:1 43685:1 43810:1 43927:1 44088:1 44355:1 44363:1 44371:1 44373:1 44388:1 44399:1  |EV| 
-0.010000000000000000208166817117217 918:1 12001:1 24450:1 37686:1 39273:1 39943:1 41194:1 43633:1 43639:1 43685:1 43810:1 43927:1 44088:1 44355:1 44363:1 44371:1 44373:1 44388:1 44401:1  |EV| 
-0.010000000000000000208166817117217 3780:1 15270:1 28049:1 37654:1 37733:1 39232:1 39943:1 41194:1 43633:1 43639:1 43685:1 43784:1 43948:1 44088:1 44355:1 44363:1 44371:1 44373:1 44376:1 44388:1 44394:1  |EV| 
-0.010000000000000000208166817117217 4815:1 16361:1 29768:1 37686:1 38542:1 39585:1 39943:1 41194:1 43633:1 43639:1 43685:1 43784:1 43948:1 44088:1 44355:1 44363:1 44371:1 44373:1 44388:1 44401:1  |EV| 
-0.010000000000000000208166817117217 219:1 11154:1 23641:1 39215:1 39943:1 41194:1 43633:1 43639:1 43685:1 43806:1 43953:1 44088:1 44355:1 44363:1 44369:1 44373:1 44388:1  |EV| 
-0.010000000000000000208166817117217 7089:1 18909:1 32715:1 37654:1 37661:1 37662:1 37682:1 37750:1 37843:1 38494:1 38495:1 38528:1 38648:1 38777:1 38778:1 39274:1 39943:1 43633:1 43639:1 43684:1 43810:1 44006:1 44100:1 44355:1 44363:1 44368:1 44373:1 44400:1  |EV| 
-0.0053685111297788702319766507287113 3822:1 15254:1 28527:1 37653:1 37654:1 37661:1 37662:1 37672:1 37682:1 37686:1 37695:1 37709:1 37750:1 37778:1 37792:1 37798:1 37842:1 37876:1 38070:1 38219:1 38325:1 38447:1 38448:1 38449:1 38450:1 38451:1 38452:1 38453:1 38454:1 38455:1 38456:1 38458:1 38461:1 39337:1 39943:1 43633:1 43639:1 43698:1 43836:1 44036:1 44192:1 44355:1 44363:1 44368:1 44373:1 44376:1 44388:1 44394:1 44396:1  |EV| 
-0.010000000000000000208166817117217 3788:1 15220:1 28492:1 37653:1 37654:1 37661:1 37662:1 37672:1 37695:1 37709:1 37750:1 37778:1 37792:1 37842:1 37876:1 38325:1 38449:1 38450:1 38451:1 38452:1 38453:1 38454:1 38455:1 38456:1 38461:1 39514:1 39943:1 43633:1 43639:1 43680:1 43806:1 43983:1 44132:1 44355:1 44365:1 44369:1 44373:1 44376:1 44391:1 44400:1  |EV| 
-0.010000000000000000208166817117217 9289:1 21393:1 35558:1 37647:1 37704:1 37709:1 37722:1 37780:1 38044:1 38051:1 38768:1 38777:1 39026:1 39856:1 39943:1 43633:1 43639:1 43652:1 43810:1 43931:1 44100:1 44355:1 44363:1 44368:1 44373:1 44400:1  |EV| 
-0.010000000000000000208166817117217 7046:1 18866:1 32661:1 37654:1 37661:1 37662:1 37750:1 38494:1 38495:1 39274:1 39943:1 43633:1 43639:1 43671:1 43810:1 43926:1 44072:1 44355:1 44362:1 44368:1 44373:1 44400:1  |EV| 
-0.010000000000000000208166817117217 2519:1 19167:1 32981:1 37654:1 37662:1 37704:1 38785:1 38786:1 38787:1 39318:1 39943:1 41194:1 43633:1 43639:1 43685:1 43793:1 43929:1 44088:1 44355:1 44363:1 44368:1 44373:1 44388:1 44399:1 44400:1  |EV| 
-0.010000000000000000208166817117217 240:1 13664:1 26434:1 37704:1 37945:1 38226:1 39240:1 39943:1 41194:1 43633:1 43639:1 43685:1 43805:1 43979:1 44088:1 44355:1 44363:1 44368:1 44373:1 44388:1 44396:1  |EV| 
-0.010000000000000000208166817117217 6861:1 18674:1 32416:1 37763:1 37773:1 38402:1 39673:1 39943:1 41194:1 43633:1 43639:1 43685:1 43805:1 43979:1 44088:1 44355:1 44363:1 44369:1 44373:1 44388:1 44399:1  |EV| 
-0.010000000000000000208166817117217 4895:1 16444:1 29868:1 37796:1 38579:1 38590:1 39590:1 39943:1 41194:1 43633:1 43639:1 43659:1 43784:1 43979:1 44088:1 44355:1 44363:1 44369:1 44373:1 44388:1 44399:1  |EV| 
-0.010000000000000000208166817117217 9305:1 21410:1 35574:1 37704:1 37829:1 37846:1 39858:1 39943:1 41194:1 43633:1 43639:1 43685:1 43805:1 43979:1 44088:1 44355:1 44363:1 44368:1 44373:1 44388:1 44395:1  |EV| 
-0.010000000000000000208166817117217 9420:1 21534:1 35695:1 37653:1 37661:1 37670:1 37686:1 37847:1 37877:1 37918:1 38615:1 38704:1 38755:1 39045:1 39046:1 39397:1 39943:1 43633:1 43639:1 43642:1 43793:1 43931:1 44072:1 44355:1 44363:1 44371:1 44373:1 44400:1  |EV| 
-0.010000000000000000208166817117217 673:1 11687:1 24140:1 37654:1 37670:1 37791:1 37861:1 39215:1 39943:1 43635:1 43639:1 43665:1 43790:1 43953:1 44087:1 44355:1 44363:1 44369:1 44373:1 44388:1 44400:1  |EV| 
-0.010000000000000000208166817117217 8235:1 20160:1 34304:1 37654:1 37661:1 37662:1 37666:1 37681:1 37686:1 37794:1 37795:1 37805:1 37993:1 37995:1 38085:1 38334:1 38537:1 38756:1 38857:1 38903:1 38904:1 38905:1 38914:1 38915:1 38916:1 38917:1 38918:1 38919:1 39587:1 39943:1 43631:1 43639:1 43677:1 43784:1 44009:1 44149:1 44355:1 44363:1 44368:1 44373:1 44388:1 44400:1  |EV| 
-0.010000000000000000208166817117217 10704:1 22952:1 37347:1 37654:1 37663:1 37670:1 37686:1 37704:1 37769:1 37791:1 37843:1 37995:1 38694:1 39176:1 39177:1 39355:1 39943:1 43634:1 43638:1 43652:1 43818:1 43945:1 44158:1 44355:1 44363:1 44368:1 44373:1 44388:1 44400:1  |EV| 
-0.010000000000000000208166817117217 10411:1 22598:1 36879:1 37661:1 37662:1 37670:1 37750:1 38047:1 38078:1 39057:1 39439:1 39943:1 43631:1 43639:1 43696:1 43789:1 43952:1 44069:1 44355:1 44363:1 44368:1 44373:1 44388:1 44400:1  |EV| 
-0.010000000000000000208166817117217 8043:1 19944:1 33781:1 37666:1 37694:1 37705:1 37843:1 38042:1 38171:1 38247:1 38894:1 39776:1 39943:1 43633:1 43639:1 43671:1 43810:1 43926:1 44072:1 44355:1 44363:1 44368:1 44373:1 44394:1 44400:1  |EV| 
-0.010000000000000000208166817117217 9063:1 21159:1 35276:1 37709:1 37778:1 38943:1 39221:1 39574:1 39943:1 43633:1 43639:1 43653:1 43810:1 43979:1 44088:1 44355:1 44363:1 44368:1 44373:1 44376:1 44388:1 44394:1  |EV| 
-0.010000000000000000208166817117217 3835:1 15267:1 28940:1 37709:1 38235:1 39256:1 39257:1 39943:1 43633:1 43639:1 43659:1 43810:1 43948:1 44088:1 44355:1 44363:1 44368:1 44373:1 44376:1 44388:1 44394:1  |EV| 
-0.010000000000000000208166817117217 210:1 11144:1 23552:1 37654:1 39233:1 39943:1 41194:1 43633:1 43639:1 43685:1 43810:1 43927:1 44088:1 44355:1 44363:1 44368:1 44373:1 44388:1  |EV| 
-0.010000000000000000208166817117217 10292:1 22466:1 36722:1 37869:1 39157:1 39927:1 39943:1 41194:1 43633:1 43639:1 43685:1 43784:1 43948:1 44088:1 44355:1 44363:1 44368:1 44373:1 44376:1 44388:1 44394:1  |EV| 
-0.010000000000000000208166817117217 8709:1 20781:1 34807:1 37661:1 37686:1 39222:1 39943:1 43631:1 43639:1 43662:1 43810:1 43945:1 44084:1 44355:1 44363:1 44369:1 44373:1 44400:1  |EV| 
-0.010000000000000000208166817117217 8845:1 20928:1 34975:1 37654:1 37709:1 38974:1 39381:1 39943:1 41040:1 41191:1 41192:1 42102:1 43426:1 43631:1 43639:1 43693:1 43784:1 43945:1 44084:1 44355:1 44362:1 44368:1 44373:1 44384:1 44396:1 44400:1  |EV| 
-0.010000000000000000208166817117217 866:1 11939:1 24390:1 37654:1 37670:1 39215:1 39943:1 41194:1 43634:1 43638:1 43685:1 43790:1 43939:1 44081:1 44355:1 44365:1 44369:1 44373:1 44388:1 44400:1  |EV| 
-0.010000000000000000208166817117217 8508:1 20694:1 34675:1 37661:1 37666:1 37752:1 38022:1 38439:1 39222:1 39943:1 41194:1 43634:1 43638:1 43685:1 43785:1 43951:1 44081:1 44355:1 44363:1 44369:1 44373:1 44388:1 44400:1  |EV| 
-0.010000000000000000208166817117217 1902:1 13234:1 25876:1 37661:1 37685:1 37769:1 37949:1 38056:1 38089:1 38129:1 38130:1 38131:1 38133:1 38134:1 39367:1 39943:1 43632:1 43639:1 43640:1 43788:1 43948:1 44080:1 44355:1 44363:1 44369:1 44373:1 44388:1 44400:1  |EV| 
-0.010000000000000000208166817117217 3958:1 15395:1 28738:1 37654:1 37704:1 37947:1 39520:1 39529:1 39943:1 41194:1 43633:1 43639:1 43659:1 43784:1 43979:1 44088:1 44355:1 44363:1 44368:1 44373:1 44388:1 44399:1  |EV| 
-0.010000000000000000208166817117217 2036:1 13373:1 26046:1 37654:1 38162:1 39374:1 39943:1 41194:1 43633:1 43639:1 43685:1 43784:1 43948:1 44088:1 44355:1 44363:1 44368:1 44373:1 44388:1  |EV| 
-0.010000000000000000208166817117217 9651:1 21788:1 35956:1 37682:1 37709:1 37719:1 39883:1 39943:1 41194:1 43633:1 43639:1 43653:1 43810:1 43979:1 44088:1 44355:1 44363:1 44368:1 44373:1 44388:1 44399:1  |EV| 
-0.010000000000000000208166817117217 567:1 11567:1 24020:1 37709:1 39279:1 39280:1 39943:1 41194:1 43633:1 43639:1 43685:1 43810:1 43927:1 44088:1 44355:1 44363:1 44368:1 44373:1 44388:1 44399:1  |EV| 
-0.010000000000000000208166817117217 2973:1 14383:1 24020:1 37709:1 39434:1 39943:1 41194:1 43633:1 43639:1 43685:1 43810:1 43927:1 44088:1 44355:1 44363:1 44368:1 44373:1 44388:1 44399:1  |EV| 
-0.010000000000000000208166817117217 2606:1 13983:1 26890:1 37654:1 37661:1 37751:1 37769:1 37824:1 39359:1 39943:1 41332:1 43633:1 43639:1 43653:1 43805:1 43936:1 44088:1 44355:1 44365:1 44369:1 44373:1 44400:1  |EV| 
-0.010000000000000000208166817117217 2245:1 13602:1 26340:1 37654:1 37662:1 37704:1 37801:1 37847:1 37848:1 37945:1 38200:1 38222:1 38223:1 39392:1 39943:1 43633:1 43639:1 43671:1 43836:1 43959:1 44072:1 44355:1 44365:1 44369:1 44373:1 44384:1 44400:1  |EV| 
-0.010000000000000000208166817117217 9271:1 21374:1 35537:1 37661:1 37662:1 37666:1 37686:1 37794:1 37993:1 38508:1 38999:1 39395:1 39943:1 41194:1 43633:1 43639:1 43685:1 43824:1 43926:1 44072:1 44355:1 44363:1 44368:1 44373:1 44386:1 44388:1 44394:1 44400:1  |EV| 
-0.010000000000000000208166817117217 9190:1 21289:1 35427:1 37653:1 37686:1 37779:1 37993:1 38999:1 39000:1 39001:1 39395:1 39943:1 41192:1 43631:1 43639:1 43681:1 43805:1 43952:1 44084:1 44355:1 44363:1 44368:1 44373:1 44386:1 44394:1 44400:1  |EV| 
-0.010000000000000000208166817117217 238:1 11175:1 23587:1 37647:1 37654:1 37661:1 37715:1 37727:1 37765:1 37766:1 37767:1 37783:1 39239:1 39943:1 43633:1 43639:1 43648:1 43784:1 43972:1 44072:1 44355:1 44363:1 44368:1 44373:1 44400:1  |EV| 
-0.010000000000000000208166817117217 9403:1 21515:1 35677:1 38694:1 39032:1 39862:1 39943:1 41194:1 43633:1 43639:1 43685:1 43784:1 43948:1 44088:1 44355:1 44363:1 44370:1 44373:1 44388:1 44396:1  |EV| 
-0.010000000000000000208166817117217 6643:1 18441:1 32158:1 37686:1 37792:1 37918:1 39670:1 39943:1 41341:1 43633:1 43639:1 43659:1 43784:1 43979:1 44088:1 44355:1 44363:1 44371:1 44373:1 44376:1 44388:1 44394:1 44395:1  |EV| 
-0.010000000000000000208166817117217 2752:1 14131:1 27464:1 37870:1 38246:1 39319:1 39943:1 41338:1 43633:1 43639:1 43685:1 43784:1 43948:1 44088:1 44355:1 44363:1 44369:1 44373:1 44388:1 44394:1  |EV| 
-0.010000000000000000208166817117217 3670:1 15065:1 28366:1 37682:1 37769:1 39351:1 39943:1 40380:1 41194:1 41848:1 42662:1 43634:1 43638:1 43659:1 43790:1 43945:1 44081:1 44355:1 44363:1 44371:1 44373:1 44388:1 44394:1  |EV| 
-0.010000000000000000208166817117217 7243:1 19078:1 32895:1 37704:1 37899:1 39268:1 39943:1 43633:1 43639:1 43653:1 43806:1 43948:1 44088:1 44355:1 44363:1 44369:1 44373:1 44388:1  |EV| 
-0.010000000000000000208166817117217 7214:1 19041:1 32859:1 37654:1 37662:1 37681:1 37686:1 37704:1 37899:1 38001:1 38174:1 38785:1 38786:1 38787:1 38790:1 38791:1 39318:1 39943:1 43635:1 43639:1 43702:1 43814:1 43929:1 44097:1 44355:1 44363:1 44368:1 44373:1 44388:1 44399:1 44400:1  |EV| 
-0.010000000000000000208166817117217 238:1 11181:1 23695:1 37654:1 39239:1 39943:1 40011:1 41232:1 41635:1 42213:1 43632:1 43639:1 43663:1 43784:1 43953:1 44096:1 44355:1 44363:1 44368:1 44373:1 44400:1  |EV| 
-0.010000000000000000208166817117217 10399:1 22584:1 36861:1 37661:1 37662:1 37670:1 38078:1 38657:1 39257:1 39869:1 39943:1 41194:1 43634:1 43638:1 43685:1 43814:1 43928:1 44081:1 44355:1 44363:1 44368:1 44373:1 44388:1 44400:1  |EV| 
-0.010000000000000000208166817117217 1303:1 20493:1 32622:1 37661:1 37662:1 39804:1 39943:1 41194:1 43634:1 43638:1 43685:1 43790:1 43939:1 44081:1 44355:1 44363:1 44368:1 44373:1 44388:1 44400:1  |EV| 
-0.010000000000000000208166817117217 10397:1 22582:1 36859:1 37661:1 37662:1 37670:1 38078:1 39439:1 39943:1 41194:1 43634:1 43638:1 43685:1 43808:1 43952:1 44081:1 44355:1 44363:1 44368:1 44373:1 44388:1 44400:1  |EV| 
-0.010000000000000000208166817117217 10168:1 22330:1 36562:1 37653:1 37686:1 37704:1 39150:1 39918:1 39943:1 43633:1 43639:1 43647:1 43810:1 43932:1 44088:1 44355:1 44362:1 44368:1 44373:1 44387:1 44400:1  |EV| 
-0.010000000000000000208166817117217 1137:1 12265:1 23641:1 39328:1 39943:1 40021:1 41234:1 41684:1 42340:1 43633:1 43639:1 43685:1 43806:1 43953:1 44088:1 44355:1 44363:1 44369:1 44373:1 44388:1 44398:1  |EV| 
-0.010000000000000000208166817117217 7019:1 18839:1 23552:1 37654:1 39274:1 39943:1 41253:1 43633:1 43639:1 43685:1 43810:1 43927:1 44088:1 44355:1 44362:1 44368:1 44373:1 44400:1  |EV| 
-0.010000000000000000208166817117217 6016:1 17758:1 31453:1 37686:1 37733:1 37876:1 37893:1 38055:1 38617:1 39232:1 39943:1 41194:1 43633:1 43639:1 43685:1 43793:1 43929:1 44088:1 44355:1 44363:1 44371:1 44373:1 44388:1 44401:1  |EV| 
-0.010000000000000000208166817117217 2624:1 14000:1 26921:1 37654:1 37661:1 37751:1 37769:1 37824:1 38282:1 39359:1 39943:1 41333:1 43633:1 43639:1 43666:1 43805:1 43967:1 44088:1 44355:1 44362:1 44369:1 44373:1 44384:1 44400:1  |EV| 
-0.010000000000000000208166817117217 10880:1 23172:1 37627:1 37653:1 37654:1 37661:1 37662:1 37682:1 37684:1 37685:1 37686:1 37704:1 37709:1 37750:1 37786:1 37804:1 37810:1 37832:1 37918:1 37949:1 38057:1 38129:1 38446:1 38482:1 39006:1 39143:1 39172:1 39173:1 39174:1 39257:1 39869:1 39943:1 43633:1 43639:1 43680:1 43784:1 43985:1 44155:1 44355:1 44363:1 44368:1 44373:1 44388:1 44400:1  |EV| 
-0.010000000000000000208166817117217 1953:1 13285:1 25937:1 37648:1 37654:1 37662:1 37676:1 37685:1 37686:1 37694:1 37704:1 37709:1 37716:1 37724:1 37837:1 37918:1 37929:1 37936:1 37945:1 37948:1 38014:1 38130:1 38146:1 38147:1 38148:1 38149:1 38150:1 38151:1 38152:1 38153:1 38154:1 38155:1 38156:1 39306:1 39372:1 39943:1 43634:1 43638:1 43721:1 43912:1 43950:1 44297:1 44355:1 44363:1 44368:1 44373:1 44388:1 44394:1 44400:1  |EV| 
-0.010000000000000000208166817117217 10412:1 22599:1 36880:1 37661:1 37662:1 37670:1 37750:1 38047:1 38657:1 39057:1 39355:1 39943:1 43631:1 43639:1 43696:1 43824:1 43945:1 44069:1 44355:1 44363:1 44368:1 44373:1 44388:1 44400:1  |EV| 
-0.010000000000000000208166817117217 453:1 11419:1 23869:1 37648:1 37661:1 37662:1 37686:1 37694:1 37733:1 37769:1 37791:1 37826:1 37827:1 37828:1 37829:1 37830:1 37831:1 37833:1 37834:1 37835:1 37836:1 37841:1 37842:1 37856:1 37861:1 39264:1 39943:1 43632:1 43639:1 43651:1 43865:1 43948:1 44154:1 44355:1 44363:1 44368:1 44373:1 44388:1 44400:1  |EV| 
-0.010000000000000000208166817117217 7828:1 19729:1 33552:1 37653:1 37654:1 37669:1 37781:1 37843:1 37945:1 37993:1 38017:1 38875:1 38877:1 38878:1 38879:1 39764:1 39943:1 43631:1 43639:1 43679:1 43789:1 43934:1 44069:1 44355:1 44365:1 44368:1 44373:1 44391:1 44400:1  |EV| 
-0.010000000000000000208166817117217 10098:1 22255:1 36484:1 37654:1 37913:1 37918:1 39608:1 39943:1 41194:1 43633:1 43639:1 43653:1 43810:1 43979:1 44088:1 44355:1 44363:1 44369:1 44373:1 44388:1  |EV| 
-0.0057934725955948555842223157696935 1954:1 13286:1 25968:1 37654:1 37718:1 37733:1 37740:1 37847:1 37869:1 37945:1 38056:1 38157:1 38158:1 38159:1 38160:1 38172:1 38173:1 39319:1 39943:1 43633:1 43639:1 43694:1 43836:1 43941:1 44100:1 44355:1 44363:1 44369:1 44373:1 44388:1  |EV| 
-0.010000000000000000208166817117217 2203:1 13554:1 26278:1 37718:1 37869:1 38172:1 38173:1 39319:1 39943:1 41194:1 43633:1 43639:1 43685:1 43836:1 43932:1 44088:1 44355:1 44363:1 44369:1 44373:1 44388:1  |EV| 
-0.010000000000000000208166817117217 2860:1 14259:1 23552:1 37654:1 39282:1 39943:1 41194:1 43633:1 43639:1 43685:1 43810:1 43927:1 44088:1 44355:1 44363:1 44369:1 44373:1 44388:1 44398:1  |EV| 
-0.010000000000000000208166817117217 3537:1 14963:1 23552:1 37654:1 39496:1 39943:1 41194:1 43633:1 43639:1 43685:1 43810:1 43927:1 44088:1 44355:1 44363:1 44369:1 44373:1 44388:1 44398:1  |EV| 
-0.010000000000000000208166817117217 345:1 11309:1 23756:1 37653:1 37661:1 37662:1 37668:1 37669:1 37704:1 37812:1 37813:1 37814:1 37815:1 37816:1 37817:1 37818:1 37819:1 37820:1 37821:1 37822:1 37823:1 37843:1 37844:1 39218:1 39943:1 43632:1 43639:1 43679:1 43861:1 43929:1 44078:1 44355:1 44363:1 44368:1 44373:1 44388:1 44394:1 44400:1  |EV| 
-0.010000000000000000208166817117217 339:1 11503:1 23955:1 37653:1 37661:1 37662:1 37666:1 37668:1 37669:1 37704:1 37812:1 37813:1 37814:1 37815:1 37816:1 37817:1 37818:1 37819:1 37820:1 37822:1 37823:1 37843:1 37844:1 39218:1 39943:1 43632:1 43639:1 43644:1 43861:1 43979:1 44078:1 44355:1 44363:1 44368:1 44373:1 44388:1 44394:1 44400:1  |EV| 
-0.010000000000000000208166817117217 744:1 11782:1 24233:1 37647:1 37661:1 37662:1 37666:1 37686:1 37891:1 39215:1 39943:1 41218:1 43631:1 43639:1 43643:1 43806:1 43928:1 44084:1 44355:1 44363:1 44369:1 44373:1 44388:1 44400:1  |EV| 
-0.010000000000000000208166817117217 8725:1 20798:1 34828:1 37662:1 37686:1 38254:1 38863:1 38976:1 39829:1 39943:1 41025:1 41569:1 41662:1 43416:1 43631:1 43639:1 43643:1 43805:1 43933:1 44084:1 44355:1 44363:1 44368:1 44373:1 44390:1 44400:1  |EV| 
-0.010000000000000000208166817117217 5136:1 16710:1 30329:1 37661:1 37681:1 37686:1 37825:1 39318:1 39943:1 43631:1 43639:1 43646:1 43784:1 43939:1 44084:1 44355:1 44363:1 44368:1 44373:1 44394:1 44400:1  |EV| 
-0.010000000000000000208166817117217 9362:1 21468:1 28049:1 37654:1 37733:1 39483:1 39943:1 41194:1 43633:1 43639:1 43685:1 43784:1 43948:1 44088:1 44355:1 44363:1 44371:1 44373:1 44388:1 44401:1  |EV| 
-0.010000000000000000208166817117217 3787:1 15219:1 28491:1 37654:1 37661:1 37672:1 37682:1 37686:1 37695:1 37709:1 37750:1 37778:1 37792:1 37798:1 37842:1 37876:1 38325:1 38447:1 38448:1 38449:1 38450:1 38451:1 38452:1 38453:1 38461:1 39513:1 39943:1 41194:1 43633:1 43639:1 43659:1 43860:1 44010:1 44126:1 44355:1 44363:1 44369:1 44373:1 44388:1 44396:1  |EV| 
-0.010000000000000000208166817117217 1984:1 13319:1 26086:1 37704:1 37798:1 37887:1 39381:1 39943:1 43633:1 43639:1 43653:1 43810:1 43979:1 44088:1 44355:1 44363:1 44368:1 44373:1 44388:1 44397:1  |EV| 
-0.010000000000000000208166817117217 957:1 12051:1 24503:1 37993:1 37994:1 39311:1 39943:1 41194:1 43633:1 43639:1 43685:1 43784:1 43948:1 44088:1 44355:1 44363:1 44368:1 44373:1 44388:1 44394:1 44395:1  |EV| 
-0.010000000000000000208166817117217 3451:1 14866:1 28125:1 37733:1 37785:1 38137:1 38139:1 38160:1 39240:1 39943:1 41194:1 43633:1 43639:1 43685:1 43789:1 43936:1 44088:1 44355:1 44363:1 44368:1 44373:1 44376:1 44388:1  |EV| 
-0.010000000000000000208166817117217 1915:1 13247:1 25888:1 37661:1 37740:1 37769:1 37949:1 38056:1 38129:1 38130:1 38131:1 38133:1 38134:1 39367:1 39943:1 43633:1 43639:1 43648:1 43784:1 43972:1 44072:1 44355:1 44363:1 44369:1 44373:1 44389:1 44400:1  |EV| 
-0.010000000000000000208166817117217 10408:1 22595:1 36876:1 37654:1 37686:1 37704:1 37769:1 37802:1 37843:1 37995:1 38694:1 39176:1 39177:1 39179:1 39180:1 39931:1 39932:1 39943:1 40195:1 40898:1 41192:1 41770:1 41904:1 43598:1 43599:1 43632:1 43639:1 43681:1 43822:1 43932:1 44071:1 44355:1 44365:1 44368:1 44373:1 44388:1 44391:1 44400:1  |EV| 
-0.010000000000000000208166817117217 10857:1 23147:1 37602:1 37654:1 37686:1 37704:1 37769:1 37791:1 37802:1 37995:1 39177:1 39180:1 39931:1 39932:1 39943:1 43633:1 43639:1 43642:1 43805:1 43982:1 44072:1 44355:1 44362:1 44368:1 44373:1 44387:1 44400:1  |EV| 
-0.010000000000000000208166817117217 7245:1 19081:1 23560:1 39710:1 39943:1 41208:1 43636:1 43639:1 43663:1 43828:1 43945:1 44086:1 44355:1 44363:1 44369:1 44373:1 44388:1  |EV| 
-0.010000000000000000208166817117217 2744:1 14120:1 27080:1 37654:1 37704:1 37705:1 37791:1 37939:1 38088:1 38162:1 38219:1 38251:1 39418:1 39943:1 43633:1 43639:1 43648:1 43784:1 43972:1 44072:1 44355:1 44363:1 44368:1 44373:1 44388:1  |EV| 
-0.010000000000000000208166817117217 5388:1 16979:1 30513:1 37993:1 39381:1 39943:1 41194:1 43633:1 43639:1 43685:1 43810:1 43927:1 44088:1 44355:1 44363:1 44368:1 44373:1 44388:1 44394:1 44395:1  |EV| 
-0.010000000000000000208166817117217 1303:1 20493:1 34515:1 37653:1 37654:1 37661:1 37666:1 37993:1 38254:1 38938:1 38939:1 38946:1 38950:1 38957:1 39804:1 39943:1 41194:1 43633:1 43639:1 43685:1 43788:1 43965:1 44082:1 44355:1 44363:1 44368:1 44373:1 44388:1 44400:1  |EV| 
-0.010000000000000000208166817117217 8463:1 20491:1 35233:1 37653:1 37654:1 38937:1 39812:1 39943:1 41194:1 43633:1 43639:1 43685:1 43805:1 43979:1 44088:1 44355:1 44363:1 44368:1 44373:1 44388:1 44394:1  |EV| 
-0.010000000000000000208166817117217 7059:1 18879:1 32678:1 37664:1 37724:1 37883:1 39678:1 39943:1 41194:1 43633:1 43639:1 43685:1 43805:1 43979:1 44088:1 44355:1 44363:1 44368:1 44373:1 44388:1 44394:1 44395:1  |EV| 
-0.010000000000000000208166817117217 2327:1 13691:1 26484:1 38158:1 39386:1 39943:1 41194:1 43633:1 43639:1 43685:1 43810:1 43927:1 44088:1 44355:1 44363:1 44368:1 44373:1 44376:1 44388:1 44394:1 44396:1  |EV| 
-0.010000000000000000208166817117217 9747:1 21891:1 36087:1 37654:1 37661:1 37662:1 37666:1 37733:1 37798:1 37831:1 37869:1 37935:1 39074:1 39075:1 39086:1 39890:1 39943:1 43633:1 43639:1 43690:1 43805:1 43931:1 44072:1 44355:1 44363:1 44368:1 44373:1 44400:1  |EV| 
-0.010000000000000000208166817117217 895:1 11975:1 24425:1 37654:1 37664:1 37704:1 37893:1 37894:1 39296:1 39943:1 43633:1 43639:1 43665:1 43806:1 43936:1 44088:1 44355:1 44365:1 44370:1 44373:1 44391:1 44396:1 44400:1  |EV| 
-0.010000000000000000208166817117217 867:1 11940:1 23590:1 37704:1 39296:1 39943:1 40021:1 41234:1 41684:1 42289:1 43633:1 43639:1 43659:1 43806:1 43927:1 44088:1 44355:1 44365:1 44370:1 44373:1 44385:1 44396:1 44400:1  |EV| 
-0.010000000000000000208166817117217 2363:1 13729:1 26561:1 37654:1 37662:1 37704:1 37801:1 37847:1 37848:1 37945:1 38200:1 38223:1 38224:1 39392:1 39943:1 43633:1 43639:1 43665:1 43793:1 43959:1 44072:1 44355:1 44365:1 44369:1 44373:1 44384:1 44400:1  |EV| 
-0.010000000000000000208166817117217 4096:1 15536:1 28836:1 37653:1 37661:1 37662:1 38455:1 38456:1 39514:1 39943:1 43633:1 43639:1 43642:1 43806:1 43929:1 44088:1 44355:1 44363:1 44369:1 44373:1 44376:1 44386:1 44400:1  |EV| 
-0.010000000000000000208166817117217 7135:1 18955:1 32774:1 37686:1 37920:1 38000:1 39706:1 39943:1 41341:1 43633:1 43639:1 43659:1 43784:1 43979:1 44088:1 44355:1 44363:1 44369:1 44373:1 44388:1 44399:1  |EV| 
-0.010000000000000000208166817117217 1601:1 12798:1 25367:1 37686:1 37842:1 38083:1 39247:1 39943:1 41194:1 43633:1 43639:1 43685:1 43805:1 43979:1 44088:1 44355:1 44363:1 44371:1 44373:1 44388:1 44401:1  |EV| 
-0.010000000000000000208166817117217 8408:1 20428:1 34358:1 37654:1 37920:1 39801:1 39943:1 41194:1 43633:1 43639:1 43685:1 43784:1 43948:1 44088:1 44355:1 44363:1 44368:1 44373:1 44388:1 44399:1  |EV| 
-0.010000000000000000208166817117217 4019:1 15457:1 28744:1 37792:1 38483:1 39535:1 39943:1 41194:1 43633:1 43639:1 43685:1 43784:1 43948:1 44088:1 44355:1 44363:1 44368:1 44373:1 44388:1 44394:1 44399:1  |EV| 
-0.010000000000000000208166817117217 9019:1 21110:1 35198:1 38055:1 38171:1 39589:1 39943:1 41194:1 43633:1 43639:1 43659:1 43810:1 43948:1 44088:1 44355:1 44363:1 44369:1 44373:1 44388:1 44399:1  |EV| 
-0.010000000000000000208166817117217 2030:1 13367:1 26037:1 37654:1 37662:1 37670:1 37704:1 37733:1 37801:1 37847:1 37848:1 37945:1 37985:1 38160:1 38199:1 38200:1 38222:1 38223:1 39392:1 39943:1 43633:1 43639:1 43684:1 43836:1 43977:1 44123:1 44355:1 44362:1 44369:1 44373:1 44384:1 44400:1  |EV| 
-0.010000000000000000208166817117217 2178:1 13529:1 26244:1 37654:1 37662:1 37670:1 37704:1 37733:1 37801:1 37847:1 37848:1 37945:1 37985:1 38160:1 38199:1 38200:1 38223:1 38224:1 39392:1 39943:1 43633:1 43639:1 43664:1 43793:1 43977:1 44123:1 44355:1 44362:1 44369:1 44373:1 44384:1 44400:1  |EV| 
-0.010000000000000000208166817117217 1185:1 12313:1 24802:1 37653:1 37654:1 37661:1 37662:1 37664:1 37682:1 37709:1 37892:1 38014:1 38038:1 38039:1 38040:1 38041:1 38042:1 38043:1 38044:1 38046:1 38047:1 39337:1 39943:1 43632:1 43639:1 43643:1 43820:1 43978:1 44153:1 44355:1 44363:1 44368:1 44373:1 44388:1 44400:1  |EV| 
-0.010000000000000000208166817117217 2106:1 13453:1 26139:1 37654:1 37670:1 37704:1 37709:1 37733:1 37765:1 37801:1 37813:1 37848:1 37945:1 37985:1 38160:1 38199:1 39376:1 39943:1 43635:1 43639:1 43719:1 43802:1 43965:1 44104:1 44355:1 44363:1 44368:1 44373:1 44388:1  |EV| 
-0.010000000000000000208166817117217 5024:1 20034:1 34180:1 37654:1 37661:1 37662:1 37794:1 37795:1 37993:1 37995:1 38085:1 38334:1 38756:1 38857:1 38914:1 38915:1 38916:1 38917:1 38918:1 39587:1 39943:1 43634:1 43638:1 43649:1 43850:1 43945:1 44158:1 44355:1 44363:1 44368:1 44373:1 44388:1 44400:1  |EV| 
-0.010000000000000000208166817117217 70:1 10966:1 23277:1 37647:1 39224:1 39943:1 41194:1 43633:1 43639:1 43685:1 43810:1 43948:1 44088:1 44355:1 44363:1 44369:1 44373:1 44388:1  |EV| 
-0.010000000000000000208166817117217 7009:1 20647:1 34618:1 37661:1 37666:1 37686:1 37752:1 37780:1 37856:1 38022:1 38439:1 39222:1 39943:1 43635:1 43639:1 43690:1 43785:1 43927:1 44087:1 44355:1 44363:1 44369:1 44373:1 44388:1 44400:1  |EV| 
-0.010000000000000000208166817117217 9437:1 21553:1 35714:1 39045:1 39731:1 39943:1 41244:1 43633:1 43639:1 43685:1 43810:1 43927:1 44088:1 44355:1 44363:1 44371:1 44373:1 44388:1 44401:1  |EV| 
-0.010000000000000000208166817117217 1109:1 12227:1 24705:1 37816:1 37843:1 39241:1 39943:1 41194:1 43633:1 43639:1 43685:1 43784:1 43948:1 44088:1 44355:1 44363:1 44369:1 44373:1 44388:1 44397:1  |EV| 
-0.010000000000000000208166817117217 7755:1 19655:1 23641:1 39749:1 39943:1 41194:1 43633:1 43639:1 43685:1 43806:1 43953:1 44088:1 44355:1 44363:1 44369:1 44373:1 44388:1 44399:1  |EV| 
-0.010000000000000000208166817117217 10414:1 22601:1 36882:1 37661:1 37662:1 37670:1 38047:1 38078:1 38657:1 39057:1 39221:1 39943:1 43631:1 43639:1 43696:1 43806:1 43976:1 44069:1 44355:1 44363:1 44368:1 44373:1 44388:1 44400:1  |EV| 
-0.010000000000000000208166817117217 7208:1 19035:1 32853:1 37681:1 37686:1 37704:1 37899:1 38174:1 38791:1 39318:1 39943:1 41772:1 43138:1 43634:1 43638:1 43642:1 43814:1 43971:1 44081:1 44355:1 44362:1 44368:1 44373:1 44399:1 44400:1  |EV| 
-0.010000000000000000208166817117217 10426:1 22614:1 36897:1 37654:1 37670:1 37686:1 37704:1 37832:1 37843:1 37995:1 38694:1 39176:1 39177:1 39355:1 39943:1 41192:1 43636:1 43639:1 43681:1 43796:1 43938:1 44085:1 44355:1 44365:1 44368:1 44373:1 44388:1 44391:1 44400:1  |EV| 
-0.010000000000000000208166817117217 7087:1 18907:1 37622:1 37653:1 37654:1 37661:1 37662:1 37682:1 37684:1 37685:1 37686:1 37704:1 37709:1 37786:1 37804:1 37810:1 37832:1 37918:1 37949:1 38057:1 38129:1 38446:1 38482:1 39006:1 39143:1 39172:1 39173:1 39174:1 39221:1 39943:1 43633:1 43639:1 43680:1 43806:1 43983:1 44132:1 44355:1 44363:1 44368:1 44373:1 44388:1 44400:1  |EV| 
-0.010000000000000000208166817117217 238:1 11181:1 23593:1 37648:1 37654:1 37661:1 37686:1 37694:1 37709:1 37783:1 37785:1 37786:1 37787:1 37788:1 37789:1 39239:1 39943:1 41226:1 43631:1 43639:1 43645:1 43784:1 43980:1 44124:1 44355:1 44363:1 44368:1 44373:1 44400:1  |EV| 
-0.010000000000000000208166817117217 10415:1 22602:1 37440:1 37653:1 37661:1 37750:1 39172:1 39173:1 39257:1 39869:1 39943:1 43633:1 43639:1 43647:1 43784:1 43936:1 44088:1 44355:1 44363:1 44368:1 44373:1 44400:1  |EV| 
-0.010000000000000000208166817117217 8979:1 21070:1 35150:1 37653:1 37654:1 38042:1 38973:1 39479:1 39943:1 41194:1 43633:1 43639:1 43647:1 43810:1 43932:1 44088:1 44355:1 44363:1 44371:1 44373:1 44388:1 44401:1  |EV| 
-0.010000000000000000208166817117217 8967:1 21053:1 35130:1 37653:1 37654:1 37709:1 38042:1 38211:1 38973:1 38974:1 39221:1 39574:1 39943:1 41194:1 43633:1 43639:1 43647:1 43836:1 43967:1 44088:1 44355:1 44363:1 44368:1 44373:1 44388:1 44394:1  |EV| 
-0.010000000000000000208166817117217 1116:1 12236:1 24716:1 37724:1 37945:1 37991:1 37992:1 39331:1 39943:1 41194:1 43633:1 43639:1 43685:1 43836:1 43932:1 44088:1 44355:1 44363:1 44371:1 44373:1 44388:1  |EV| 
-0.010000000000000000208166817117217 2544:1 16491:1 29929:1 37654:1 37792:1 38031:1 39237:1 39943:1 41194:1 43633:1 43639:1 43659:1 43784:1 43979:1 44088:1 44355:1 44365:1 44368:1 44373:1 44388:1 44394:1 44395:1  |EV| 
-0.010000000000000000208166817117217 1902:1 13234:1 25869:1 37661:1 37662:1 37685:1 37704:1 37740:1 37769:1 37949:1 38051:1 38056:1 38089:1 38127:1 38129:1 38130:1 38131:1 38133:1 38134:1 39367:1 39943:1 43633:1 43639:1 43666:1 43788:1 43969:1 44082:1 44355:1 44363:1 44369:1 44373:1 44388:1 44400:1  |EV| 
-0.010000000000000000208166817117217 7099:1 18919:1 32737:1 37654:1 37661:1 37662:1 37750:1 38494:1 38495:1 38648:1 39274:1 39943:1 41210:1 43633:1 43639:1 43690:1 43810:1 43972:1 44072:1 44355:1 44362:1 44368:1 44373:1 44400:1  |EV| 
-0.010000000000000000208166817117217 8730:1 20804:1 34837:1 37654:1 37662:1 37709:1 37802:1 37812:1 38988:1 39834:1 39943:1 39980:1 41192:1 41662:1 43417:1 43632:1 43639:1 43650:1 43824:1 43953:1 44096:1 44355:1 44363:1 44369:1 44373:1 44390:1 44400:1  |EV| 
-0.010000000000000000208166817117217 4978:1 16536:1 29987:1 37661:1 38028:1 38563:1 39322:1 39943:1 43633:1 43639:1 43659:1 43784:1 43979:1 44088:1 44355:1 44362:1 44368:1 44373:1 44384:1 44385:1 44400:1  |EV| 
-0.010000000000000000208166817117217 9078:1 21174:1 35299:1 37653:1 37686:1 37779:1 37813:1 37993:1 38999:1 39000:1 39001:1 39840:1 39943:1 41194:1 43633:1 43639:1 43685:1 43824:1 43926:1 44072:1 44355:1 44363:1 44369:1 44373:1 44388:1 44396:1  |EV| 
-0.0096346692919112505992806916310656 2268:1 13627:1 26372:1 37654:1 37662:1 37781:1 37847:1 37869:1 37977:1 38227:1 38228:1 38229:1 38230:1 39391:1 39943:1 43633:1 43639:1 43671:1 43805:1 43972:1 44072:1 44355:1 44363:1 44371:1 44373:1 44376:1 44386:1 44388:1 44401:1  |EV| 
-0.010000000000000000208166817117217 346:1 11472:1 23924:1 37653:1 37817:1 37819:1 37820:1 37821:1 37822:1 37823:1 37824:1 37825:1 39242:1 39943:1 43633:1 43639:1 43647:1 43793:1 43982:1 44072:1 44355:1 44363:1 44368:1 44373:1 44388:1 44394:1  |EV| 
-0.010000000000000000208166817117217 7139:1 18959:1 32778:1 37654:1 37662:1 37704:1 38001:1 38785:1 38786:1 38787:1 38788:1 38789:1 39318:1 39943:1 41209:1 43632:1 43639:1 43641:1 43839:1 43929:1 44071:1 44355:1 44363:1 44368:1 44373:1 44388:1 44399:1 44400:1  |EV| 
-0.010000000000000000208166817117217 429:1 11395:1 23843:1 37661:1 37662:1 37686:1 37769:1 37826:1 37827:1 37828:1 37829:1 37830:1 37831:1 37832:1 37833:1 39264:1 39943:1 41251:1 43633:1 43639:1 43694:1 43784:1 43931:1 44100:1 44355:1 44365:1 44368:1 44373:1 44384:1 44400:1  |EV| 
-0.0075544756042932696693537053533873 4052:1 15490:1 28780:1 37654:1 37661:1 37662:1 37704:1 37709:1 37733:1 37802:1 37832:1 37947:1 37988:1 38076:1 38077:1 38489:1 38490:1 39520:1 39529:1 39943:1 41218:1 41369:1 41391:1 43631:1 43639:1 43720:1 43784:1 43950:1 44124:1 44355:1 44362:1 44368:1 44373:1 44387:1 44400:1  |EV| 
-0.010000000000000000208166817117217 10411:1 22598:1 37438:1 37653:1 37661:1 37750:1 38047:1 39057:1 39172:1 39173:1 39439:1 39943:1 43633:1 43639:1 43647:1 43789:1 43926:1 44072:1 44355:1 44363:1 44368:1 44373:1 44400:1  |EV| 
-0.010000000000000000208166817117217 1290:1 13447:1 27596:1 37661:1 37709:1 38306:1 39206:1 39943:1 41194:1 43633:1 43639:1 43685:1 43805:1 43979:1 44088:1 44355:1 44363:1 44369:1 44373:1 44388:1  |EV| 
-0.010000000000000000208166817117217 7944:1 19845:1 33676:1 37653:1 37654:1 37669:1 37704:1 37781:1 37843:1 37945:1 37993:1 38017:1 38160:1 38875:1 38877:1 38878:1 38879:1 39764:1 39943:1 43631:1 43639:1 43720:1 43789:1 43980:1 44124:1 44355:1 44362:1 44368:1 44373:1 44389:1 44400:1  |EV| 
-0.010000000000000000208166817117217 10358:1 22541:1 36813:1 37692:1 37709:1 37758:1 39186:1 39930:1 39943:1 41194:1 43633:1 43639:1 43685:1 43836:1 43932:1 44088:1 44355:1 44363:1 44368:1 44373:1 44388:1 44394:1  |EV| 
-0.010000000000000000208166817117217 1114:1 12233:1 24712:1 37724:1 37991:1 39327:1 39943:1 41194:1 43633:1 43639:1 43685:1 43784:1 43948:1 44088:1 44355:1 44363:1 44371:1 44373:1 44388:1 44394:1 44395:1  |EV| 
-0.010000000000000000208166817117217 9408:1 21562:1 35723:1 37686:1 37847:1 37877:1 38615:1 39045:1 39397:1 39943:1 41092:1 41374:1 41752:1 43470:1 43632:1 43639:1 43667:1 43793:1 43979:1 44096:1 44355:1 44365:1 44371:1 44373:1 44391:1 44400:1  |EV| 
-0.0072007201336603994523688498929914 10875:1 23167:1 37621:1 37653:1 37654:1 37661:1 37662:1 37668:1 37682:1 37685:1 37686:1 37704:1 37709:1 37786:1 37804:1 37810:1 37832:1 37918:1 37949:1 38057:1 38129:1 38446:1 38482:1 39006:1 39143:1 39172:1 39173:1 39174:1 39221:1 39943:1 43633:1 43639:1 43653:1 43860:1 43983:1 44126:1 44355:1 44363:1 44368:1 44373:1 44388:1 44400:1  |EV| 
-0.010000000000000000208166817117217 8773:1 20855:1 35087:1 37656:1 37657:1 37700:1 38091:1 38986:1 39270:1 39943:1 43633:1 43639:1 43666:1 43810:1 43936:1 44088:1 44355:1 44363:1 44369:1 44373:1 44388:1  |EV| 
-0.010000000000000000208166817117217 136:1 11049:1 23400:1 37646:1 37647:1 37694:1 39213:1 39943:1 41192:1 43636:1 43639:1 43641:1 43802:1 43952:1 44086:1 44355:1 44363:1 44368:1 44373:1 44396:1 44400:1  |EV| 
-0.010000000000000000208166817117217 1973:1 13308:1 25965:1 37654:1 37716:1 37945:1 38014:1 38130:1 38146:1 39306:1 39372:1 39943:1 41631:1 42394:1 43634:1 43638:1 43653:1 43814:1 43952:1 44081:1 44355:1 44362:1 44368:1 44373:1 44384:1 44394:1 44400:1  |EV| 
-0.010000000000000000208166817117217 9298:1 21403:1 35567:1 37662:1 37686:1 37792:1 37796:1 37902:1 37918:1 37920:1 39023:1 39853:1 39943:1 43633:1 43639:1 43665:1 43805:1 43926:1 44072:1 44355:1 44363:1 44369:1 44373:1 44388:1 44398:1  |EV| 
-0.0086796165638363328986848443946656 4908:1 16457:1 29884:1 37704:1 37715:1 38056:1 38546:1 39250:1 39943:1 40519:1 41198:1 41897:1 42854:1 43633:1 43639:1 43659:1 43805:1 43932:1 44088:1 44355:1 44363:1 44369:1 44373:1 44388:1  |EV| 
-0.010000000000000000208166817117217 2998:1 14409:1 27652:1 37654:1 37664:1 39436:1 39943:1 41194:1 43633:1 43639:1 43685:1 43784:1 43948:1 44088:1 44355:1 44363:1 44368:1 44373:1 44388:1 44394:1 44395:1  |EV| 
-0.0014374445821586623837917695567512 5042:1 16608:1 30098:1 37653:1 37654:1 37997:1 38545:1 38559:1 39561:1 39943:1 41194:1 43633:1 43639:1 43659:1 43836:1 43936:1 44088:1 44355:1 44363:1 44368:1 44373:1 44388:1 44394:1  |EV| 
-0.0023236715689710718893423724296099 9174:1 21273:1 35410:1 37653:1 37661:1 37686:1 37709:1 37716:1 37769:1 37973:1 37999:1 38130:1 39004:1 39005:1 39006:1 39007:1 39747:1 39943:1 43633:1 43639:1 43664:1 43810:1 43965:1 44100:1 44355:1 44363:1 44369:1 44373:1 44388:1 44398:1  |EV| 
-0.010000000000000000208166817117217 1303:1 20493:1 34475:1 37653:1 37654:1 37661:1 37662:1 37666:1 37993:1 38103:1 38254:1 38938:1 38939:1 38946:1 38950:1 38957:1 39804:1 39943:1 43635:1 43639:1 43654:1 43790:1 43965:1 44104:1 44355:1 44363:1 44368:1 44373:1 44388:1 44400:1  |EV| 
-0.010000000000000000208166817117217 8043:1 19944:1 33856:1 37661:1 37670:1 38042:1 39776:1 39943:1 40935:1 41530:1 42066:1 43316:1 43631:1 43639:1 43693:1 43810:1 43939:1 44084:1 44355:1 44363:1 44368:1 44373:1 44394:1 44400:1  |EV| 
-0.010000000000000000208166817117217 10390:1 22575:1 36853:1 37661:1 37662:1 37670:1 38047:1 38078:1 38657:1 39057:1 39221:1 39943:1 41194:1 43634:1 43638:1 43685:1 43837:1 43976:1 44073:1 44355:1 44363:1 44368:1 44373:1 44388:1 44400:1  |EV| 
-0.010000000000000000208166817117217 8235:1 20247:1 34135:1 37654:1 37661:1 37662:1 37666:1 37681:1 37794:1 37795:1 37805:1 37993:1 37995:1 38085:1 38537:1 38756:1 38857:1 38903:1 38904:1 38905:1 38914:1 38915:1 38916:1 38917:1 38918:1 39587:1 39943:1 41552:1 43636:1 43639:1 43673:1 43807:1 44009:1 44090:1 44355:1 44363:1 44368:1 44373:1 44388:1 44400:1  |EV| 
-0.010000000000000000208166817117217 9317:1 21422:1 35586:1 37704:1 37887:1 37993:1 39789:1 39860:1 39943:1 43633:1 43639:1 43653:1 43810:1 43979:1 44088:1 44355:1 44363:1 44368:1 44373:1 44388:1 44394:1 44395:1  |EV| 
-0.010000000000000000208166817117217 5819:1 17503:1 31127:1 37661:1 37666:1 37686:1 37724:1 37733:1 37791:1 37876:1 37889:1 37893:1 38055:1 38617:1 38638:1 39291:1 39943:1 43633:1 43639:1 43652:1 43784:1 43965:1 44100:1 44355:1 44362:1 44369:1 44373:1 44387:1 44400:1  |EV| 
-0.010000000000000000208166817117217 900:1 11982:1 24431:1 37654:1 37664:1 37686:1 37704:1 37733:1 37885:1 37892:1 37893:1 37894:1 37896:1 37897:1 39272:1 39943:1 43633:1 43639:1 43648:1 43836:1 43931:1 44072:1 44355:1 44363:1 44371:1 44373:1 44388:1 44394:1 44401:1  |EV| 
-0.010000000000000000208166817117217 7365:1 19231:1 33040:1 37686:1 37742:1 38160:1 38162:1 38246:1 38252:1 38806:1 38807:1 39395:1 39943:1 43633:1 43639:1 43648:1 43784:1 43972:1 44072:1 44355:1 44363:1 44368:1 44373:1 44388:1 44399:1  |EV| 
-0.0028829865910433003818591490841072 213:1 11148:1 23556:1 37653:1 37654:1 37768:1 39234:1 39943:1 41194:1 43633:1 43639:1 43685:1 43805:1 43979:1 44088:1 44355:1 44363:1 44368:1 44373:1 44388:1 44399:1  |EV| 
-0.0095156613929205345614459332637125 826:1 11889:1 24339:1 37654:1 37686:1 37687:1 37704:1 37846:1 37847:1 37887:1 37889:1 39232:1 39943:1 43633:1 43639:1 43653:1 43793:1 43926:1 44072:1 44355:1 44363:1 44371:1 44373:1 44374:1 44388:1  |EV| 
-0.010000000000000000208166817117217 9656:1 21793:1 35962:1 37654:1 37656:1 37661:1 37690:1 37694:1 37733:1 38051:1 38739:1 39086:1 39087:1 39890:1 39943:1 41107:1 41598:1 42114:1 43492:1 43631:1 43639:1 43686:1 43805:1 43957:1 44069:1 44355:1 44363:1 44368:1 44373:1 44400:1  |EV| 
-0.010000000000000000208166817117217 2508:1 13881:1 27479:1 37843:1 39400:1 39943:1 41194:1 43633:1 43639:1 43685:1 43810:1 43927:1 44088:1 44355:1 44363:1 44368:1 44373:1 44388:1 44397:1  |EV| 
-0.010000000000000000208166817117217 1291:1 12420:1 23552:1 37654:1 39233:1 39943:1 41194:1 43633:1 43639:1 43685:1 43810:1 43927:1 44088:1 44355:1 44363:1 44368:1 44373:1 44388:1 44397:1  |EV| 
-0.010000000000000000208166817117217 3358:1 14771:1 23641:1 39381:1 39943:1 41244:1 43633:1 43639:1 43685:1 43806:1 43953:1 44088:1 44355:1 44363:1 44368:1 44373:1 44388:1 44399:1  |EV| 
-0.010000000000000000208166817117217 2288:1 13649:1 26409:1 37654:1 37662:1 37847:1 37848:1 37945:1 38222:1 38223:1 39392:1 39943:1 43633:1 43639:1 43647:1 43836:1 43967:1 44088:1 44355:1 44362:1 44369:1 44373:1 44400:1  |EV| 
-0.010000000000000000208166817117217 4005:1 15443:1 28728:1 37653:1 37654:1 37661:1 37662:1 37672:1 37686:1 37695:1 37709:1 37750:1 37778:1 37792:1 37798:1 37842:1 37876:1 38325:1 38447:1 38448:1 38449:1 38450:1 38451:1 38452:1 38453:1 38455:1 38456:1 38457:1 38461:1 39514:1 39943:1 41224:1 43632:1 43639:1 43717:1 43879:1 43929:1 44161:1 44355:1 44363:1 44369:1 44373:1 44386:1 44400:1  |EV| 
-0.010000000000000000208166817117217 660:1 11673:1 24126:1 37647:1 37661:1 37662:1 37666:1 37686:1 37704:1 37715:1 37723:1 37843:1 37861:1 37890:1 37891:1 37937:1 37938:1 37939:1 37941:1 39215:1 39943:1 43635:1 43639:1 43707:1 43792:1 43953:1 44157:1 44355:1 44363:1 44369:1 44373:1 44388:1 44400:1  |EV| 
-0.0075461257588365976065047924237206 3978:1 15416:1 28700:1 37653:1 37654:1 37661:1 37662:1 37672:1 37686:1 37695:1 37709:1 37750:1 37778:1 37792:1 37798:1 37842:1 37876:1 38325:1 38447:1 38448:1 38449:1 38450:1 38451:1 38452:1 38453:1 38454:1 38456:1 38457:1 38461:1 39514:1 39943:1 41392:1 43632:1 43639:1 43724:1 43879:1 43932:1 44161:1 44355:1 44363:1 44369:1 44373:1 44386:1 44400:1  |EV| 
-0.010000000000000000208166817117217 4807:1 16592:1 30061:1 37997:1 38101:1 39206:1 39943:1 41194:1 43634:1 43638:1 43659:1 43790:1 43945:1 44081:1 44355:1 44363:1 44369:1 44373:1 44388:1  |EV| 
-0.010000000000000000208166817117217 223:1 11158:1 23566:1 37647:1 37654:1 37661:1 37715:1 37727:1 37766:1 37767:1 37783:1 39239:1 39943:1 39994:1 41221:1 41670:1 42198:1 43633:1 43639:1 43671:1 43784:1 43982:1 44072:1 44355:1 44364:1 44368:1 44373:1 44386:1 44400:1  |EV| 
-0.010000000000000000208166817117217 7793:1 19694:1 33517:1 37704:1 38142:1 38851:1 39309:1 39943:1 41244:1 43633:1 43639:1 43685:1 43805:1 43979:1 44088:1 44355:1 44363:1 44368:1 44373:1 44376:1 44388:1 44394:1  |EV| 
-0.010000000000000000208166817117217 10357:1 22540:1 23641:1 39211:1 39630:1 39937:1 39943:1 41194:1 43633:1 43639:1 43685:1 43806:1 43953:1 44088:1 44355:1 44363:1 44368:1 44373:1 44388:1 44396:1 44399:1  |EV| 
-0.010000000000000000208166817117217 10666:1 22906:1 37263:1 37654:1 37686:1 37769:1 37791:1 37802:1 37995:1 39180:1 39931:1 39932:1 39943:1 43633:1 43639:1 43666:1 43805:1 43967:1 44088:1 44355:1 44362:1 44368:1 44373:1 44389:1 44400:1  |EV| 
-0.010000000000000000208166817117217 495:1 11528:1 23961:1 37686:1 37742:1 39269:1 39943:1 43633:1 43639:1 43685:1 43784:1 43948:1 44088:1 44355:1 44363:1 44368:1 44373:1 44388:1 44399:1  |EV| 
-0.010000000000000000208166817117217 4221:1 15664:1 28987:1 37709:1 37902:1 37989:1 38500:1 38503:1 39278:1 39943:1 41194:1 43633:1 43639:1 43685:1 43789:1 43936:1 44088:1 44355:1 44363:1 44368:1 44373:1 44388:1 44394:1  |EV| 
-0.010000000000000000208166817117217 828:1 11891:1 24341:1 37654:1 37733:1 37897:1 39296:1 39943:1 41192:1 43631:1 43639:1 43693:1 43806:1 43933:1 44084:1 44355:1 44365:1 44370:1 44373:1 44384:1 44391:1 44396:1 44400:1  |EV| 
-0.010000000000000000208166817117217 588:1 11589:1 24468:1 37661:1 37662:1 37666:1 37769:1 37933:1 37934:1 37935:1 37936:1 39215:1 39943:1 43633:1 43639:1 43648:1 43806:1 43926:1 44072:1 44355:1 44363:1 44369:1 44373:1 44400:1  |EV| 
-0.010000000000000000208166817117217 2370:1 13736:1 26571:1 37648:1 37654:1 37662:1 37666:1 37676:1 37685:1 37686:1 37694:1 37704:1 37709:1 37716:1 37724:1 37837:1 37918:1 37929:1 37936:1 37945:1 37948:1 38014:1 38130:1 38146:1 38147:1 38149:1 38150:1 38151:1 38152:1 38153:1 38154:1 38155:1 38156:1 39306:1 39372:1 39943:1 43634:1 43638:1 43680:1 43912:1 43980:1 44297:1 44355:1 44363:1 44368:1 44373:1 44388:1 44394:1 44400:1  |EV| 
-0.010000000000000000208166817117217 328:1 11292:1 23740:1 37662:1 39243:1 39943:1 40020:1 41233:1 41662:1 42219:1 43631:1 43639:1 43641:1 43806:1 43945:1 44084:1 44355:1 44362:1 44371:1 44373:1 44390:1 44400:1  |EV| 
-0.010000000000000000208166817117217 504:1 11483:1 23935:1 37662:1 39264:1 39943:1 40060:1 41208:1 41662:1 42262:1 43632:1 43639:1 43663:1 43784:1 43953:1 44096:1 44355:1 44365:1 44368:1 44373:1 44390:1 44400:1  |EV| 
-0.0042301487003104324552404946757633 1093:1 12207:1 24684:1 37685:1 37752:1 37869:1 37947:1 39308:1 39943:1 41194:1 43633:1 43639:1 43659:1 43805:1 43932:1 44088:1 44355:1 44363:1 44368:1 44373:1 44376:1 44388:1 44394:1  |EV| 
-0.0085314528182675389289535416992294 3434:1 14848:1 28107:1 37654:1 37843:1 38394:1 39488:1 39943:1 41194:1 43633:1 43639:1 43685:1 43805:1 43979:1 44088:1 44355:1 44363:1 44368:1 44373:1 44388:1 44396:1 44397:1  |EV| 
-0.0095216481841490525211968432017784 4387:1 19011:1 32829:1 37654:1 38812:1 39375:1 39943:1 41194:1 43633:1 43639:1 43659:1 43810:1 43948:1 44088:1 44355:1 44363:1 44371:1 44373:1 44376:1 44388:1 44397:1  |EV| 
-0.010000000000000000208166817117217 7205:1 19171:1 32985:1 38785:1 39697:1 39943:1 41194:1 43633:1 43639:1 43685:1 43810:1 43927:1 44088:1 44355:1 44363:1 44368:1 44373:1 44388:1 44395:1  |EV| 
-0.010000000000000000208166817117217 2868:1 14268:1 27312:1 37685:1 37686:1 37711:1 39420:1 39943:1 43633:1 43639:1 43653:1 43810:1 43979:1 44088:1 44355:1 44363:1 44368:1 44373:1 44388:1 44399:1  |EV| 
-0.010000000000000000208166817117217 10792:1 23069:1 37504:1 37654:1 37663:1 37670:1 37686:1 37704:1 37769:1 37832:1 37843:1 37995:1 38694:1 39176:1 39177:1 39355:1 39943:1 41198:1 43634:1 43638:1 43659:1 43818:1 43938:1 44105:1 44355:1 44365:1 44368:1 44373:1 44388:1 44391:1 44400:1  |EV| 
-0.010000000000000000208166817117217 2222:1 13576:1 26307:1 37945:1 39393:1 39943:1 41194:1 43634:1 43638:1 43685:1 43796:1 43945:1 44081:1 44355:1 44363:1 44369:1 44373:1 44376:1 44388:1  |EV| 
-0.010000000000000000208166817117217 557:1 11557:1 34688:1 38022:1 39220:1 39943:1 41194:1 43634:1 43638:1 43685:1 43796:1 43945:1 44081:1 44355:1 44363:1 44369:1 44373:1 44388:1  |EV| 
-0.0089605763320561356705118427612433 630:1 12023:1 24475:1 37769:1 37934:1 37935:1 39206:1 39943:1 41198:1 43634:1 43638:1 43659:1 43809:1 43939:1 44081:1 44355:1 44363:1 44369:1 44373:1 44388:1  |EV| 
-0.010000000000000000208166817117217 2274:1 13633:1 26405:1 37705:1 38171:1 38218:1 39380:1 39943:1 41194:1 43634:1 43638:1 43653:1 43809:1 43945:1 44081:1 44355:1 44363:1 44371:1 44373:1 44388:1  |EV| 
-0.010000000000000000208166817117217 506:1 11485:1 23937:1 37648:1 37654:1 37837:1 37838:1 39248:1 39943:1 43633:1 43639:1 43653:1 43784:1 43932:1 44088:1 44355:1 44362:1 44368:1 44373:1 44396:1 44400:1  |EV| 
-0.010000000000000000208166817117217 1192:1 12320:1 24930:1 37654:1 37694:1 37704:1 37709:1 37730:1 37748:1 37779:1 37780:1 37798:1 37976:1 37987:1 38003:1 38048:1 38051:1 38053:1 38054:1 38055:1 38056:1 39236:1 39943:1 43633:1 43639:1 43654:1 43810:1 43978:1 44123:1 44355:1 44363:1 44368:1 44373:1 44376:1 44394:1 44400:1  |EV| 
-0.010000000000000000208166817117217 9218:1 21318:1 35460:1 37661:1 37662:1 37666:1 37686:1 37993:1 38508:1 38998:1 38999:1 39002:1 39395:1 39943:1 43633:1 43639:1 43671:1 43805:1 43972:1 44072:1 44355:1 44363:1 44368:1 44373:1 44384:1 44394:1 44400:1  |EV| 
-0.010000000000000000208166817117217 338:1 11302:1 23750:1 37653:1 37817:1 37822:1 37823:1 37824:1 37825:1 39242:1 39943:1 43633:1 43639:1 43685:1 43793:1 43929:1 44088:1 44355:1 44363:1 44368:1 44373:1 44388:1 44394:1  |EV| 
-0.010000000000000000208166817117217 3772:1 15204:1 28474:1 37654:1 37869:1 39521:1 39943:1 41194:1 43633:1 43639:1 43685:1 43784:1 43948:1 44088:1 44355:1 44363:1 44368:1 44373:1 44388:1 44399:1  |EV| 
-0.010000000000000000208166817117217 1303:1 20493:1 35217:1 37653:1 37654:1 37661:1 37662:1 37666:1 37993:1 38254:1 38938:1 38939:1 38946:1 38950:1 38957:1 39804:1 39943:1 41199:1 43631:1 43639:1 43720:1 43788:1 43939:1 44117:1 44355:1 44363:1 44368:1 44373:1 44388:1 44400:1  |EV| 
-0.0071475448719964911059587819863737 7147:1 18968:1 32787:1 39448:1 39704:1 39943:1 39962:1 41209:1 41629:1 43133:1 43631:1 43639:1 43641:1 43806:1 43971:1 44084:1 44355:1 44363:1 44368:1 44373:1 44388:1 44397:1  |EV| 
-0.0045738083931230570644554944692572 8810:1 20893:1 34933:1 37661:1 37686:1 37724:1 37733:1 37750:1 37769:1 37791:1 37824:1 37842:1 38274:1 38575:1 38951:1 38953:1 38969:1 39665:1 39943:1 43633:1 43639:1 43694:1 43836:1 43941:1 44100:1 44355:1 44363:1 44368:1 44373:1 44388:1  |EV| 
-0.0055089893659817212173690492704736 2449:1 13819:1 26727:1 37704:1 37705:1 37797:1 37887:1 39400:1 39943:1 43633:1 43639:1 43647:1 43784:1 43936:1 44088:1 44355:1 44363:1 44368:1 44373:1 44388:1 44399:1  |EV| 
-0.010000000000000000208166817117217 919:1 12002:1 24451:1 37654:1 37664:1 37686:1 37892:1 37893:1 39274:1 39943:1 41194:1 43633:1 43639:1 43685:1 43789:1 43936:1 44088:1 44355:1 44363:1 44371:1 44373:1 44388:1 44395:1  |EV| 
-0.0083961929847188570413818453630483 377:1 11341:1 23787:1 37704:1 37709:1 37860:1 39215:1 39943:1 41194:1 41245:1 43633:1 43639:1 43685:1 43805:1 43979:1 44088:1 44355:1 44363:1 44369:1 44373:1 44388:1 44399:1  |EV| 
-0.0067683776055273304345094587120002 5053:1 16619:1 30099:1 37662:1 37997:1 38542:1 38543:1 39584:1 39943:1 41194:1 43633:1 43639:1 43659:1 43805:1 43932:1 44088:1 44355:1 44363:1 44370:1 44373:1 44388:1 44396:1  |EV| 
-0.0057107191975262205918539848426008 2576:1 14333:1 27454:1 37686:1 37769:1 37800:1 37825:1 37995:1 38001:1 39268:1 39943:1 43633:1 43639:1 43642:1 43806:1 43929:1 44088:1 44355:1 44363:1 44369:1 44373:1 44388:1 44398:1  |EV| 
-0.0070357556348019743147625959522884 4985:1 16544:1 23641:1 39563:1 39943:1 41194:1 43633:1 43639:1 43685:1 43806:1 43953:1 44088:1 44355:1 44363:1 44369:1 44373:1 44376:1 44388:1 44399:1  |EV| 
-0.0053938299695105692069252434350801 10089:1 22242:1 36552:1 37653:1 37654:1 37661:1 37662:1 37664:1 37666:1 37686:1 37704:1 37828:1 37837:1 37865:1 37913:1 37918:1 37989:1 38121:1 38500:1 38556:1 38630:1 38850:1 39143:1 39144:1 39145:1 39146:1 39147:1 39148:1 39150:1 39918:1 39943:1 43633:1 43639:1 43698:1 43810:1 44062:1 44192:1 44355:1 44363:1 44368:1 44373:1 44400:1  |EV| 
-0.010000000000000000208166817117217 9247:1 21350:1 35505:1 37653:1 37661:1 37686:1 37706:1 37779:1 37969:1 37993:1 37996:1 38130:1 38212:1 38235:1 38758:1 38766:1 38999:1 39000:1 39001:1 39015:1 39395:1 39943:1 41393:1 43631:1 43639:1 43683:1 43805:1 43970:1 44124:1 44355:1 44363:1 44368:1 44373:1 44394:1 44400:1  |EV| 
-0.010000000000000000208166817117217 8501:1 20534:1 34478:1 37654:1 39381:1 39943:1 41208:1 43632:1 43639:1 43667:1 43784:1 43949:1 44096:1 44355:1 44365:1 44368:1 44373:1 44391:1 44396:1 44400:1  |EV| 
-0.0054176019589446157420642435909031 418:1 11384:1 23830:1 37648:1 37661:1 37662:1 37686:1 37733:1 37769:1 37791:1 37826:1 37827:1 37828:1 37829:1 37830:1 37831:1 37832:1 37833:1 39264:1 39943:1 41235:1 41236:1 43633:1 43639:1 43684:1 43784:1 43930:1 44100:1 44355:1 44365:1 44368:1 44373:1 44400:1  |EV| 
-0.0097465241976822103442401612483081 8330:1 20285:1 34396:1 37654:1 37661:1 37662:1 37666:1 37681:1 37795:1 37805:1 37993:1 37995:1 38085:1 38334:1 38537:1 38756:1 38857:1 38903:1 38904:1 38905:1 38914:1 38915:1 38916:1 38917:1 38918:1 39587:1 39943:1 41554:1 43636:1 43639:1 43718:1 43796:1 44009:1 44109:1 44355:1 44363:1 44368:1 44373:1 44388:1 44400:1  |EV| 
-0.010000000000000000208166817117217 6095:1 17850:1 23552:1 37654:1 39628:1 39943:1 41194:1 43633:1 43639:1 43685:1 43810:1 43927:1 44088:1 44355:1 44363:1 44368:1 44373:1 44388:1 44397:1  |EV| 
-0.010000000000000000208166817117217 380:1 11437:1 23888:1 37822:1 39251:1 39943:1 43633:1 43639:1 43685:1 43810:1 43927:1 44088:1 44355:1 44363:1 44371:1 44373:1 44388:1 44396:1 44401:1  |EV| 
-0.010000000000000000208166817117217 6328:1 18096:1 24020:1 37709:1 39439:1 39631:1 39943:1 41194:1 43633:1 43639:1 43685:1 43810:1 43927:1 44088:1 44355:1 44363:1 44368:1 44373:1 44388:1 44396:1 44399:1  |EV| 
-0.0065581312068489676717075731460227 8294:1 20231:1 34115:1 37669:1 37843:1 39800:1 39943:1 40963:1 41234:1 42073:1 43347:1 43633:1 43639:1 43685:1 43784:1 43948:1 44088:1 44355:1 44363:1 44368:1 44373:1 44388:1 44389:1 44397:1  |EV| 
-0.0035113944755896034366493552170141 10394:1 22579:1 36857:1 37654:1 37843:1 38694:1 39930:1 39943:1 41194:1 43633:1 43639:1 43685:1 43805:1 43979:1 44088:1 44355:1 44363:1 44368:1 44373:1 44388:1 44397:1  |EV| 
-0.010000000000000000208166817117217 2042:1 13380:1 26056:1 37654:1 37662:1 37847:1 37848:1 37945:1 38223:1 38224:1 39392:1 39943:1 43633:1 43639:1 43659:1 43793:1 43967:1 44088:1 44355:1 44362:1 44369:1 44373:1 44400:1  |EV| 
-0.010000000000000000208166817117217 3168:1 14581:1 27844:1 37654:1 37664:1 37686:1 38342:1 38343:1 38344:1 38346:1 39455:1 39943:1 41192:1 43631:1 43639:1 43681:1 43789:1 43939:1 44084:1 44355:1 44365:1 44368:1 44373:1 44386:1 44389:1 44400:1  |EV| 
-0.004257427204311628639310516319938 10353:1 22535:1 36807:1 37653:1 37654:1 37656:1 37661:1 37666:1 37682:1 37689:1 37690:1 37693:1 37704:1 37709:1 37710:1 37713:1 37769:1 37781:1 37785:1 37843:1 37902:1 37927:1 38003:1 38040:1 38484:1 38528:1 38768:1 39183:1 39184:1 39185:1 39936:1 39943:1 43635:1 43639:1 43737:1 43790:1 44025:1 44182:1 44355:1 44363:1 44369:1 44373:1 44400:1  |EV| 
-0.0070137867006431608291050494585761 3839:1 15272:1 28546:1 37654:1 37661:1 37682:1 37686:1 37695:1 37709:1 37750:1 37778:1 37792:1 37798:1 37842:1 37876:1 38219:1 38325:1 38447:1 38448:1 38449:1 38450:1 38451:1 38452:1 38453:1 38461:1 39513:1 39943:1 43633:1 43639:1 43648:1 43787:1 44010:1 44103:1 44355:1 44363:1 44369:1 44373:1 44388:1 44396:1  |EV| 
-0.004672885750758033751584008541613 3797:1 15229:1 28501:1 37653:1 37654:1 37661:1 37662:1 37695:1 37709:1 37750:1 37778:1 37792:1 37842:1 38449:1 38450:1 38451:1 38452:1 38453:1 38454:1 38455:1 38456:1 38461:1 39514:1 39943:1 43633:1 43639:1 43716:1 43806:1 43996:1 44132:1 44355:1 44365:1 44369:1 44373:1 44376:1 44386:1 44391:1 44400:1  |EV| 
-0.008614216118571729752240173638711 3571:1 14999:1 35131:1 37653:1 37654:1 37681:1 37686:1 38055:1 38777:1 38932:1 38933:1 39206:1 39943:1 41194:1 43633:1 43639:1 43685:1 43824:1 43926:1 44072:1 44355:1 44363:1 44369:1 44373:1 44388:1  |EV| 
-0.0085355127373657399547646207338403 2473:1 13849:1 26732:1 37804:1 39314:1 39943:1 41194:1 43633:1 43639:1 43685:1 43810:1 43927:1 44088:1 44355:1 44363:1 44368:1 44373:1 44388:1 44394:1 44395:1  |EV| 
-0.0056243777861769150838711084361421 210:1 11144:1 25788:1 37656:1 37657:1 37658:1 37661:1 37913:1 38067:1 38069:1 38070:1 39233:1 39943:1 41194:1 43633:1 43639:1 43659:1 43786:1 43926:1 44072:1 44355:1 44363:1 44368:1 44373:1 44388:1  |EV| 
-0.010000000000000000208166817117217 1238:1 12366:1 24871:1 37685:1 37686:1 37716:1 38035:1 38036:1 39338:1 39943:1 40129:1 41635:1 42359:1 43635:1 43639:1 43642:1 43796:1 43948:1 44087:1 44355:1 44362:1 44368:1 44373:1 44400:1  |EV| 
-0.0066947016267058468905193358011729 8557:1 20599:1 34983:1 37686:1 38932:1 39820:1 39943:1 41194:1 43633:1 43639:1 43685:1 43784:1 43948:1 44088:1 44355:1 44363:1 44368:1 44373:1 44388:1 44394:1 44399:1  |EV| 
-0.0077563754567905682929529476155039 816:1 11876:1 24326:1 37647:1 37661:1 37662:1 37666:1 37686:1 37704:1 37715:1 37843:1 37861:1 37891:1 37937:1 37938:1 37941:1 39215:1 39943:1 43635:1 43639:1 43684:1 43807:1 43953:1 44157:1 44355:1 44363:1 44369:1 44373:1 44388:1 44400:1  |EV| 
-0.010000000000000000208166817117217 3904:1 15341:1 28620:1 37653:1 37661:1 37662:1 38456:1 39514:1 39943:1 43633:1 43639:1 43666:1 43806:1 43932:1 44088:1 44355:1 44363:1 44369:1 44373:1 44376:1 44386:1 44400:1  |EV| 
-0.010000000000000000208166817117217 10706:1 22954:1 37350:1 37654:1 37661:1 37662:1 37663:1 37670:1 37686:1 37704:1 37769:1 37791:1 37843:1 37995:1 38078:1 38694:1 39176:1 39177:1 39439:1 39943:1 43634:1 43638:1 43652:1 43862:1 43952:1 44158:1 44355:1 44363:1 44368:1 44373:1 44388:1 44400:1  |EV| 
-0.010000000000000000208166817117217 519:1 11506:1 23958:1 37704:1 37709:1 37859:1 39215:1 39943:1 43633:1 43639:1 43647:1 43806:1 43979:1 44088:1 44355:1 44363:1 44369:1 44373:1 44388:1 44399:1  |EV| 
-0.0012790075063641853647666835058772 926:1 12013:1 24462:1 37647:1 37661:1 37662:1 37666:1 37686:1 37704:1 37715:1 37843:1 37891:1 37938:1 37941:1 39215:1 39943:1 43634:1 43638:1 43665:1 43807:1 43928:1 44073:1 44355:1 44363:1 44369:1 44373:1 44388:1 44400:1  |EV| 
-0.0047951714307622739230652086916962 9645:1 21782:1 35948:1 37653:1 37654:1 37659:1 38448:1 39884:1 39943:1 41194:1 43633:1 43639:1 43685:1 43789:1 43936:1 44088:1 44355:1 44363:1 44371:1 44373:1 44388:1  |EV| 
-0.0091176176484615897160912467711569 2190:1 13541:1 26263:1 37654:1 37733:1 37847:1 37945:1 38056:1 38158:1 38159:1 38160:1 39319:1 39943:1 41194:1 43633:1 43639:1 43685:1 43824:1 43926:1 44072:1 44355:1 44363:1 44369:1 44373:1 44376:1 44388:1 44398:1  |EV| 
-0.0093485782635530957629388382201796 514:1 11496:1 32617:1 37654:1 37664:1 37704:1 37724:1 37883:1 37916:1 39239:1 39943:1 41194:1 43633:1 43639:1 43685:1 43793:1 43929:1 44088:1 44355:1 44363:1 44368:1 44373:1 44388:1  |EV| 
-0.0044934780892544410463296244984122 753:1 11794:1 24245:1 37654:1 37670:1 37783:1 39232:1 39943:1 41194:1 43633:1 43639:1 43685:1 43805:1 43979:1 44088:1 44355:1 44363:1 44371:1 44373:1 44388:1 44398:1  |EV| 
-0.0070565370694615232177726582563082 2774:1 14159:1 27251:1 37740:1 37769:1 37870:1 38051:1 38246:1 39409:1 39943:1 41338:1 43633:1 43639:1 43685:1 43789:1 43936:1 44088:1 44355:1 44363:1 44368:1 44373:1 44388:1 44396:1  |EV| 
-0.010000000000000000208166817117217 7009:1 20647:1 34764:1 37661:1 37752:1 37780:1 38022:1 38439:1 39222:1 39943:1 43634:1 43638:1 43666:1 43785:1 43945:1 44081:1 44355:1 44363:1 44369:1 44373:1 44400:1  |EV| 
-0.010000000000000000208166817117217 443:1 11409:1 23857:1 37661:1 37686:1 37769:1 37826:1 37827:1 37828:1 37829:1 37830:1 37831:1 37832:1 39243:1 39943:1 41251:1 43633:1 43639:1 43694:1 43806:1 43972:1 44100:1 44355:1 44365:1 44371:1 44373:1 44384:1 44400:1  |EV| 
-0.0081101888572226998874725722998846 1985:1 13610:1 26382:1 37654:1 37682:1 37686:1 37704:1 37852:1 37869:1 37984:1 38004:1 38186:1 38204:1 39382:1 39943:1 43633:1 43639:1 43665:1 43793:1 43959:1 44072:1 44355:1 44363:1 44368:1 44373:1 44388:1  |EV| 
-0.0042884560364729977510744873825388 393:1 11448:1 23898:1 37653:1 37822:1 39218:1 39943:1 41194:1 41631:1 42160:1 43632:1 43639:1 43667:1 43805:1 43953:1 44096:1 44355:1 44365:1 44368:1 44373:1 44386:1 44391:1 44394:1 44400:1  |EV| 
-0.008515187319667138696188679602983 8523:1 20727:1 34718:1 37661:1 37666:1 37686:1 38439:1 39222:1 39943:1 43631:1 43639:1 43646:1 43810:1 43933:1 44084:1 44355:1 44363:1 44369:1 44373:1 44400:1  |EV| 
-0.0069712397751566235193365628219908 9672:1 21810:1 35986:1 37805:1 39064:1 39355:1 39943:1 41194:1 43633:1 43639:1 43685:1 43784:1 43948:1 44088:1 44355:1 44363:1 44368:1 44373:1 44388:1 44399:1  |EV| 
-0.0089385924069251034007610456910697 37:1 10929:1 23350:1 37664:1 39203:1 39943:1 41194:1 43633:1 43639:1 43685:1 43810:1 43927:1 44088:1 44355:1 44363:1 44368:1 44373:1 44388:1 44394:1 44395:1 44396:1  |EV| 
-0.006038197355654976311578607806041 2969:1 14379:1 27518:1 37704:1 37997:1 39236:1 39943:1 41340:1 43633:1 43639:1 43659:1 43810:1 43948:1 44088:1 44355:1 44363:1 44368:1 44373:1 44388:1 44399:1  |EV| 
-0.001384069535459053756909497678862 4940:1 16493:1 29931:1 37704:1 37715:1 39561:1 39943:1 40200:1 41198:1 41770:1 42856:1 43633:1 43639:1 43659:1 43810:1 43948:1 44088:1 44355:1 44363:1 44368:1 44373:1 44388:1 44399:1  |EV| 
-0.0071549177750341794168598141823168 62:1 11026:1 23367:1 37647:1 37704:1 37709:1 37716:1 37748:1 39215:1 39943:1 41194:1 43633:1 43639:1 43659:1 43836:1 43936:1 44088:1 44355:1 44363:1 44369:1 44373:1 44388:1  |EV| 
-0.0073809396934331585396482644512162 2082:1 13428:1 26108:1 37662:1 37685:1 37948:1 39390:1 39943:1 43631:1 43639:1 43693:1 43784:1 43945:1 44084:1 44355:1 44363:1 44369:1 44373:1 44388:1 44398:1  |EV| 
-0.0030155988359979691779133581519545 4997:1 16667:1 30168:1 37661:1 37783:1 38101:1 39206:1 39943:1 43631:1 43639:1 43693:1 43784:1 43945:1 44084:1 44355:1 44363:1 44369:1 44373:1 44388:1  |EV| 
-0.010000000000000000208166817117217 6951:1 18771:1 32545:1 37654:1 37661:1 37662:1 37750:1 39274:1 39943:1 43633:1 43639:1 43647:1 43810:1 43932:1 44088:1 44355:1 44362:1 44368:1 44373:1 44400:1  |EV| 
-0.0043457042516039543975092662719817 1132:1 12260:1 23560:1 39329:1 39943:1 40059:1 41208:1 41687:1 42339:1 43636:1 43639:1 43663:1 43828:1 43945:1 44086:1 44355:1 44363:1 44369:1 44373:1 44388:1 44398:1  |EV| 
-0.0062489181815417417162339397407322 8027:1 19928:1 33766:1 37666:1 37694:1 37705:1 37843:1 38042:1 38171:1 38894:1 39776:1 39943:1 40135:1 41264:1 41748:1 43298:1 43633:1 43639:1 43642:1 43810:1 43967:1 44088:1 44355:1 44364:1 44368:1 44373:1 44386:1 44394:1 44400:1  |EV| 
-0.0056282497163709088727756579828565 4111:1 15551:1 28852:1 37654:1 37661:1 37672:1 37682:1 37686:1 37695:1 37709:1 37792:1 37798:1 37842:1 37876:1 38325:1 38447:1 38448:1 38449:1 38450:1 38451:1 38452:1 38453:1 38461:1 39221:1 39943:1 41194:1 43633:1 43639:1 43659:1 43835:1 44004:1 44126:1 44355:1 44363:1 44368:1 44373:1 44388:1 44394:1  |EV| 
-0.0070385351536379966996825885416911 3449:1 14864:1 28123:1 37733:1 37785:1 37806:1 37843:1 38137:1 38139:1 38160:1 39492:1 39493:1 39943:1 41194:1 43633:1 43639:1 43685:1 43786:1 43967:1 44088:1 44355:1 44363:1 44368:1 44373:1 44376:1 44388:1  |EV| 
-0.0020209502163634294330529783678685 8409:1 20431:1 34362:1 37653:1 37654:1 37662:1 37920:1 38847:1 38922:1 38923:1 38924:1 39528:1 39943:1 41194:1 43633:1 43639:1 43685:1 43824:1 43926:1 44072:1 44355:1 44363:1 44368:1 44373:1 44388:1  |EV| 
-0.0042309682585637510207621225788444 33:1 11030:1 23480:1 37647:1 37686:1 37704:1 37709:1 37711:1 37712:1 37713:1 37714:1 37715:1 37716:1 37747:1 39215:1 39943:1 43633:1 43639:1 43664:1 43810:1 43965:1 44100:1 44355:1 44363:1 44369:1 44373:1 44388:1  |EV| 
-0.0031469992002526566213238545799413 7792:1 19693:1 33516:1 37653:1 39736:1 39943:1 40054:1 41244:1 41631:1 43246:1 43634:1 43638:1 43685:1 43796:1 43945:1 44081:1 44355:1 44363:1 44368:1 44373:1 44376:1 44388:1  |EV| 
-0.0029281169831008595390298143712471 3108:1 14521:1 27784:1 37654:1 37832:1 37993:1 38103:1 39441:1 39943:1 43631:1 43639:1 43646:1 43810:1 43933:1 44084:1 44355:1 44362:1 44371:1 44373:1 44389:1 44400:1  |EV| 
-0.0019477247934375496729586529909284 3213:1 14626:1 27889:1 37847:1 38348:1 39368:1 39456:1 39457:1 39943:1 43631:1 43639:1 43646:1 43784:1 43971:1 44084:1 44355:1 44363:1 44371:1 44373:1 44388:1 44401:1  |EV| 
-0.002426413622140109489083714677804 7308:1 19160:1 32974:1 37681:1 37686:1 37704:1 37899:1 38174:1 39698:1 39943:1 43634:1 43638:1 43653:1 43785:1 43933:1 44081:1 44355:1 44363:1 44368:1 44373:1 44388:1  |EV| 
-0.001242120465092435687565197710569 848:1 11917:1 24367:1 37654:1 37664:1 37686:1 37704:1 37733:1 37892:1 37893:1 37894:1 37895:1 37897:1 39296:1 39943:1 41258:1 43631:1 43639:1 43673:1 43824:1 43933:1 44069:1 44355:1 44365:1 44370:1 44373:1 44384:1 44391:1 44396:1 44400:1  |EV| 
-0.0090482905337581874538610549052464 588:1 20783:1 34974:1 37661:1 37686:1 37757:1 39206:1 39943:1 41194:1 43633:1 43639:1 43685:1 43805:1 43979:1 44088:1 44355:1 44363:1 44369:1 44373:1 44388:1  |EV| 
-0.0089061803813730855416963549942011 630:1 11754:1 24207:1 37661:1 37662:1 37783:1 39206:1 39943:1 41256:1 43633:1 43639:1 43685:1 43805:1 43979:1 44088:1 44355:1 44363:1 44369:1 44373:1 44388:1  |EV| 
-0.0079170635433800616576061059959102 9156:1 21254:1 23961:1 37686:1 37742:1 39843:1 39943:1 41194:1 43633:1 43639:1 43685:1 43784:1 43948:1 44088:1 44355:1 44363:1 44369:1 44373:1 44388:1 44399:1  |EV| 
-0.0027239645824566477427808308675594 4154:1 15596:1 28904:1 37654:1 37682:1 37686:1 37798:1 38447:1 39516:1 39943:1 41194:1 43633:1 43639:1 43659:1 43836:1 43936:1 44088:1 44355:1 44363:1 44371:1 44373:1 44388:1 44401:1  |EV| 
-0.0086226978856914614918194317283451 2168:1 13519:1 26229:1 37654:1 37662:1 37664:1 37686:1 37798:1 37801:1 37866:1 38016:1 38171:1 38174:1 38175:1 38203:1 39383:1 39943:1 43633:1 43639:1 43690:1 43805:1 43931:1 44072:1 44355:1 44363:1 44368:1 44373:1 44388:1 44399:1  |EV| 
-0.0063953275067570687292817233071673 10874:1 23166:1 37620:1 37653:1 37654:1 37661:1 37662:1 37668:1 37682:1 37685:1 37686:1 37704:1 37709:1 37750:1 37786:1 37804:1 37810:1 37832:1 37918:1 37949:1 38057:1 38129:1 38446:1 38482:1 39006:1 39143:1 39172:1 39173:1 39174:1 39257:1 39869:1 39943:1 43633:1 43639:1 43653:1 43867:1 43985:1 44143:1 44355:1 44363:1 44368:1 44373:1 44388:1 44400:1  |EV| 
-0.0056210685802787416220915872600017 2436:1 13806:1 26682:1 37686:1 37751:1 37769:1 37825:1 37920:1 37995:1 38247:1 38248:1 39404:1 39943:1 40195:1 41192:1 41770:1 42431:1 43632:1 43639:1 43662:1 43839:1 43936:1 44071:1 44355:1 44365:1 44368:1 44373:1 44391:1 44400:1  |EV| 
-0.0051184486647699060576921503695758 2519:1 19066:1 32884:1 37654:1 37662:1 37681:1 37686:1 37704:1 37899:1 38174:1 38785:1 38786:1 38787:1 38790:1 38791:1 38803:1 39318:1 39943:1 41495:1 43631:1 43639:1 43655:1 43793:1 43934:1 44069:1 44355:1 44363:1 44368:1 44373:1 44399:1 44400:1  |EV| 
-0.005194400179244659104815795558352 10258:1 22430:1 36680:1 37653:1 37654:1 37686:1 37704:1 37878:1 37989:1 38121:1 39150:1 39918:1 39943:1 41303:1 43632:1 43639:1 43667:1 43839:1 43967:1 44071:1 44355:1 44363:1 44368:1 44373:1 44400:1  |EV| 
-0.0027732011715991249783952454777136 619:1 11626:1 24079:1 37649:1 37654:1 37661:1 37662:1 37664:1 37666:1 37681:1 37686:1 37724:1 37733:1 37916:1 37917:1 37918:1 37919:1 37920:1 37921:1 37922:1 37923:1 37924:1 37925:1 37926:1 37927:1 37928:1 37929:1 37930:1 37931:1 37940:1 39237:1 39943:1 43631:1 43639:1 43699:1 43805:1 44009:1 44160:1 44355:1 44363:1 44368:1 44373:1 44400:1  |EV| 
0.026922745858501809235185930901935 1239:1 12367:1 24020:1 37709:1 39342:1 39943:1 43633:1 43639:1 43685:1 43810:1 43927:1 44088:1 44355:1 44363:1 44368:1 44373:1 44388:1 44400:1  |EV| 
-0.005570774237995948161006332099987 1172:1 12300:1 23552:1 37654:1 39233:1 39943:1 41194:1 43633:1 43639:1 43685:1 43810:1 43927:1 44088:1 44355:1 44363:1 44368:1 44373:1 44388:1 44394:1 44395:1  |EV| 
-0.0018106191499740117989425414180005 9647:1 21784:1 23552:1 37654:1 39889:1 39943:1 41194:1 43633:1 43639:1 43685:1 43810:1 43927:1 44088:1 44355:1 44363:1 44371:1 44373:1 44388:1 44401:1  |EV| 
-0.0051688069475237536504197422004836 463:1 11431:1 23882:1 37654:1 37709:1 37825:1 37857:1 39242:1 39943:1 41244:1 43633:1 43639:1 43685:1 43836:1 43932:1 44088:1 44355:1 44363:1 44368:1 44373:1 44376:1 44388:1 44394:1  |EV| 
0.0066434388823566632026329514815188 9358:1 21464:1 35628:1 37686:1 37704:1 37771:1 37802:1 37866:1 38160:1 39031:1 39233:1 39943:1 43633:1 43639:1 43665:1 43784:1 43967:1 44088:1 44355:1 44363:1 44368:1 44373:1 44388:1 44400:1  |EV| 
-0.0049336286549049234925745643920436 3547:1 14973:1 28230:1 37661:1 37686:1 37704:1 37825:1 37976:1 38408:1 38410:1 39318:1 39943:1 43633:1 43639:1 43647:1 43789:1 43926:1 44072:1 44355:1 44363:1 44368:1 44373:1 44388:1  |EV| 
-0.0032205469600567714072436587002812 3006:1 14417:1 27565:1 37653:1 37656:1 37689:1 37690:1 37704:1 37719:1 37997:1 38049:1 38303:1 38311:1 39270:1 39943:1 43633:1 43639:1 43642:1 43836:1 43972:1 44072:1 44355:1 44363:1 44369:1 44373:1 44388:1 44398:1  |EV| 
-0.0036195818133035687763632282099024 40:1 11007:1 23382:1 37686:1 37704:1 37711:1 37712:1 37714:1 39214:1 39943:1 43633:1 43639:1 43666:1 43784:1 43929:1 44088:1 44355:1 44363:1 44369:1 44373:1 44388:1 44398:1  |EV| 
-0.0026963769079068359776907293223758 1938:1 13270:1 25921:1 37661:1 37709:1 37710:1 37802:1 37843:1 37949:1 38135:1 38136:1 38137:1 38143:1 38145:1 39370:1 39943:1 41301:1 43633:1 43639:1 43671:1 43789:1 43931:1 44072:1 44355:1 44363:1 44368:1 44373:1 44388:1 44397:1  |EV| 
-0.0050783760071279708536717834022056 2966:1 14376:1 27520:1 37654:1 37704:1 37897:1 39304:1 39943:1 43633:1 43639:1 43659:1 43784:1 43979:1 44088:1 44355:1 44363:1 44371:1 44373:1 44388:1 44396:1 44401:1  |EV| 
-0.0038421623569168152079189582082108 2253:1 13611:1 26352:1 37654:1 37814:1 39321:1 39943:1 41194:1 43633:1 43639:1 43659:1 43810:1 43948:1 44088:1 44355:1 44363:1 44368:1 44373:1 44388:1 44399:1  |EV| 
