SVM-light Version V5.01-TK-1.5
0 # kernel type
3 # kernel parameter -d 
1 # kernel parameter -g 
1 # kernel parameter -s 
1 # kernel parameter -r 
empty# kernel parameter -u 
0.4 # kernel parameter -L 
1 # kernel parameter -T 
T # kernel parameter -C 
1 # kernel parameter -F 
0 # kernel parameter -S 
0.400000 # kernel parameter -M 
3 # kernel parameter -N 
S # kernel parameter -V 
S # kernel parameter -W 
0 # kernel parameter -U 
8744 # highest feature index 
2759 # number of training documents 
644 # number of support vectors plus 1 
1.0861293 # threshold b, each following line is a SV (starting with alpha*y)
-0.010000000000000000208166817117217 940:1 2981:1 4528:1 6346:1 7874:1 8331:1 8334:1 8338:1 8339:1 8454:1 8568:1 8681:1 8697:1 8704:1 8714:1 8715:1 8731:1 8744:1  |EV| 
-0.0018773177467073694224541924313598 226:1 2106:1 4331:1 6305:1 6664:1 6665:1 6666:1 7874:1 7963:1 8331:1 8334:1 8338:1 8341:1 8454:1 8568:1 8681:1 8697:1 8707:1 8714:1 8715:1 8728:1 8744:1  |EV| 
-0.010000000000000000208166817117217 472:1 2400:1 4645:1 6605:1 6607:1 7874:1 8331:1 8334:1 8338:1 8364:1 8454:1 8568:1 8681:1 8697:1 8704:1 8714:1 8715:1 8717:1 8744:1  |EV| 
-0.0086678072485050425277641750199109 1061:1 3136:1 5382:1 6311:1 6337:1 7874:1 8145:1 8331:1 8334:1 8338:1 8364:1 8454:1 8568:1 8681:1 8697:1 8707:1 8714:1 8715:1 8733:1 8744:1  |EV| 
-0.010000000000000000208166817117217 1043:1 3116:1 5362:1 6307:1 6442:1 6803:1 7330:1 7331:1 7874:1 8143:1 8331:1 8335:1 8338:1 8342:1 8454:1 8568:1 8682:1 8697:1 8704:1 8714:1 8715:1 8744:1  |EV| 
-0.001667306423927498917197942418511 507:1 2439:1 4678:1 6475:1 7874:1 7899:1 8331:1 8334:1 8338:1 8339:1 8454:1 8568:1 8681:1 8697:1 8707:1 8714:1 8715:1 8733:1 8744:1  |EV| 
0.010000000000000000208166817117217 2:1 1846:1 4079:1 6304:1 6305:1 6306:1 6307:1 7874:1 8331:1 8334:1 8338:1 8341:1 8454:1 8568:1 8681:1 8697:1 8704:1 8714:1 8715:1 8726:1 8744:1  |EV| 
0.0097464327973989708236990381351461 332:1 2923:1 4277:1 6307:1 6545:1 7874:1 8331:1 8334:1 8338:1 8364:1 8454:1 8568:1 8681:1 8697:1 8704:1 8714:1 8715:1 8726:1 8744:1  |EV| 
-0.010000000000000000208166817117217 391:1 2306:1 4552:1 6398:1 6507:1 6849:1 6850:1 7874:1 8331:1 8335:1 8338:1 8378:1 8454:1 8568:1 8682:1 8697:1 8704:1 8714:1 8715:1 8744:1  |EV| 
0.010000000000000000208166817117217 27:1 1875:1 4110:1 6309:1 6323:1 6337:1 6346:1 6353:1 6354:1 6388:1 6389:1 6393:1 6406:1 7874:1 8331:1 8334:1 8338:1 8363:1 8454:1 8568:1 8685:1 8697:1 8704:1 8714:1 8715:1 8726:1 8744:1  |EV| 
-0.010000000000000000208166817117217 733:1 3864:1 4088:1 7874:1 7877:1 8331:1 8334:1 8338:1 8350:1 8454:1 8568:1 8681:1 8697:1 8704:1 8714:1 8715:1 8726:1 8744:1  |EV| 
-0.010000000000000000208166817117217 1790:1 4027:1 4088:1 7874:1 7877:1 8331:1 8334:1 8338:1 8350:1 8454:1 8568:1 8681:1 8697:1 8704:1 8714:1 8715:1 8726:1 8744:1  |EV| 
-0.010000000000000000208166817117217 75:1 3409:1 6135:1 6572:1 6592:1 7874:1 7877:1 8331:1 8334:1 8338:1 8364:1 8454:1 8568:1 8681:1 8697:1 8704:1 8714:1 8715:1 8726:1 8744:1  |EV| 
-0.010000000000000000208166817117217 66:1 1919:1 4088:1 7874:1 7877:1 8331:1 8334:1 8338:1 8350:1 8454:1 8568:1 8681:1 8697:1 8704:1 8714:1 8715:1 8744:1  |EV| 
-0.010000000000000000208166817117217 52:1 1926:1 4088:1 7874:1 7877:1 8331:1 8334:1 8338:1 8350:1 8454:1 8568:1 8681:1 8697:1 8704:1 8714:1 8715:1 8744:1  |EV| 
0.010000000000000000208166817117217 76:1 2241:1 4472:1 6318:1 6319:1 6320:1 6321:1 6331:1 6344:1 6345:1 6346:1 6350:1 6358:1 6368:1 6385:1 6443:1 6448:1 6605:1 6696:1 6697:1 6698:1 6755:1 6764:1 6765:1 6766:1 6767:1 6768:1 6769:1 7874:1 8331:1 8335:1 8338:1 8361:1 8454:1 8568:1 8687:1 8697:1 8704:1 8714:1 8715:1 8726:1 8744:1  |EV| 
0.010000000000000000208166817117217 597:1 2738:1 4980:1 6478:1 7874:1 7880:1 8331:1 8335:1 8338:1 8343:1 8454:1 8568:1 8682:1 8697:1 8707:1 8714:1 8715:1 8726:1 8744:1  |EV| 
0.010000000000000000208166817117217 1032:1 3104:1 4084:1 7874:1 7925:1 8331:1 8335:1 8338:1 8346:1 8454:1 8568:1 8682:1 8697:1 8707:1 8714:1 8715:1 8726:1 8744:1  |EV| 
0.010000000000000000208166817117217 547:1 2492:1 4727:1 6321:1 6902:1 7874:1 8331:1 8335:1 8338:1 8352:1 8454:1 8568:1 8682:1 8697:1 8707:1 8714:1 8715:1 8726:1 8744:1  |EV| 
0.010000000000000000208166817117217 702:1 2685:1 4926:1 6409:1 7009:1 7874:1 7880:1 8331:1 8335:1 8338:1 8352:1 8454:1 8568:1 8682:1 8697:1 8707:1 8714:1 8715:1 8726:1 8744:1  |EV| 
-0.010000000000000000208166817117217 245:1 2463:1 4174:1 6307:1 7874:1 8331:1 8334:1 8338:1 8339:1 8454:1 8568:1 8681:1 8697:1 8707:1 8714:1 8715:1 8733:1 8744:1  |EV| 
-0.010000000000000000208166817117217 4:1 1872:1 5122:1 6475:1 6665:1 6783:1 7874:1 8331:1 8334:1 8338:1 8348:1 8454:1 8568:1 8681:1 8697:1 8704:1 8714:1 8715:1 8744:1  |EV| 
-0.010000000000000000208166817117217 1032:1 3104:1 6171:1 6318:1 6319:1 6320:1 6321:1 6323:1 6409:1 6435:1 6459:1 7190:1 7832:1 7833:1 7834:1 7835:1 7874:1 8301:1 8331:1 8335:1 8338:1 8351:1 8454:1 8568:1 8686:1 8697:1 8707:1 8714:1 8715:1 8726:1 8744:1  |EV| 
-0.010000000000000000208166817117217 1565:1 3733:1 5119:1 6331:1 6346:1 7874:1 7877:1 8331:1 8334:1 8338:1 8364:1 8454:1 8568:1 8681:1 8697:1 8704:1 8714:1 8715:1 8744:1  |EV| 
-0.010000000000000000208166817117217 124:1 1985:1 4303:1 6321:1 6396:1 6443:1 7874:1 7895:1 8331:1 8335:1 8338:1 8357:1 8454:1 8568:1 8682:1 8697:1 8707:1 8714:1 8715:1 8726:1 8744:1  |EV| 
0.00092329068212306073144823859166763 486:1 2527:1 4088:1 7874:1 7877:1 8331:1 8334:1 8338:1 8350:1 8454:1 8568:1 8681:1 8697:1 8704:1 8714:1 8715:1 8726:1 8727:1 8728:1 8744:1  |EV| 
0.010000000000000000208166817117217 1026:1 3097:1 4088:1 7874:1 7941:1 8331:1 8334:1 8338:1 8350:1 8454:1 8568:1 8681:1 8697:1 8705:1 8714:1 8715:1 8726:1 8727:1 8744:1  |EV| 
-0.0022428108489945370283835668345773 4:1 1853:1 6300:1 6305:1 6307:1 6315:1 6321:1 6323:1 6337:1 6338:1 6344:1 6346:1 6394:1 6396:1 6401:1 6406:1 6427:1 6446:1 6449:1 6475:1 6572:1 6605:1 6698:1 6705:1 6747:1 6789:1 7134:1 7135:1 7327:1 7663:1 7722:1 7811:1 7842:1 7843:1 7863:1 7874:1 8331:1 8334:1 8338:1 8443:1 8454:1 8568:1 8691:1 8697:1 8704:1 8714:1 8715:1 8726:1 8744:1  |EV| 
0.0088256832793616787208312857160308 52:1 3258:1 4259:1 6338:1 7874:1 7877:1 8331:1 8334:1 8338:1 8339:1 8454:1 8568:1 8681:1 8697:1 8704:1 8714:1 8715:1 8726:1 8744:1  |EV| 
0.0057217118040260948191866319234578 129:1 1993:1 4088:1 7874:1 7942:1 8331:1 8334:1 8338:1 8350:1 8454:1 8568:1 8681:1 8697:1 8704:1 8714:1 8715:1 8726:1 8744:1  |EV| 
-0.010000000000000000208166817117217 52:1 3550:1 5757:1 6355:1 6362:1 6420:1 7432:1 7874:1 8331:1 8334:1 8338:1 8341:1 8454:1 8568:1 8681:1 8697:1 8704:1 8714:1 8715:1 8726:1 8744:1  |EV| 
-0.010000000000000000208166817117217 1037:1 3425:1 6268:1 6355:1 6404:1 6405:1 6420:1 7874:1 8331:1 8334:1 8338:1 8341:1 8454:1 8568:1 8681:1 8697:1 8704:1 8714:1 8715:1 8726:1 8744:1  |EV| 
-0.010000000000000000208166817117217 88:1 1942:1 4183:1 6500:1 6501:1 6502:1 7874:1 8331:1 8334:1 8338:1 8348:1 8454:1 8568:1 8681:1 8697:1 8704:1 8714:1 8715:1 8726:1 8744:1  |EV| 
-0.010000000000000000208166817117217 520:1 2454:1 4753:1 6375:1 6517:1 6912:1 6960:1 7874:1 8021:1 8331:1 8334:1 8338:1 8341:1 8454:1 8568:1 8681:1 8697:1 8704:1 8714:1 8715:1 8726:1 8744:1  |EV| 
-0.010000000000000000208166817117217 52:1 1926:1 4088:1 7874:1 7877:1 8331:1 8334:1 8338:1 8350:1 8454:1 8568:1 8681:1 8697:1 8704:1 8714:1 8715:1 8744:1  |EV| 
0.010000000000000000208166817117217 202:1 2251:1 4467:1 6305:1 6315:1 6316:1 6321:1 6337:1 6352:1 6359:1 6388:1 6389:1 6574:1 6733:1 6740:1 6770:1 6771:1 6772:1 6773:1 7874:1 8331:1 8334:1 8338:1 8377:1 8454:1 8568:1 8685:1 8697:1 8704:1 8714:1 8715:1 8726:1 8744:1  |EV| 
0.010000000000000000208166817117217 332:1 2244:1 4460:1 6305:1 6307:1 6309:1 6315:1 6321:1 6323:1 6324:1 6336:1 6337:1 6341:1 6344:1 6346:1 6352:1 6355:1 6359:1 6368:1 6409:1 6420:1 6449:1 6507:1 6522:1 6571:1 6582:1 6587:1 6642:1 6656:1 6702:1 6723:1 6734:1 6735:1 6736:1 6737:1 6738:1 6739:1 6740:1 6743:1 6744:1 6745:1 6746:1 6747:1 6748:1 6749:1 6750:1 6751:1 6752:1 6753:1 6754:1 7874:1 8331:1 8334:1 8338:1 8420:1 8454:1 8568:1 8684:1 8697:1 8704:1 8714:1 8715:1 8717:1 8726:1 8744:1  |EV| 
0.010000000000000000208166817117217 530:1 2515:1 4765:1 6305:1 6311:1 6321:1 6323:1 6326:1 6337:1 6346:1 6490:1 6491:1 6517:1 6536:1 6607:1 6800:1 6833:1 6897:1 6920:1 6930:1 6931:1 6932:1 6933:1 6934:1 6935:1 6936:1 6937:1 6938:1 7874:1 8331:1 8335:1 8338:1 8397:1 8454:1 8568:1 8690:1 8697:1 8704:1 8714:1 8715:1 8726:1 8744:1  |EV| 
0.010000000000000000208166817117217 1690:1 3876:1 6083:1 6319:1 6333:1 6337:1 6346:1 6384:1 6747:1 7327:1 7740:1 7741:1 7874:1 8286:1 8331:1 8335:1 8338:1 8365:1 8454:1 8568:1 8686:1 8697:1 8707:1 8714:1 8715:1 8726:1 8744:1  |EV| 
0.010000000000000000208166817117217 1151:1 3235:1 5471:1 6305:1 6337:1 6346:1 6359:1 6392:1 6406:1 6435:1 6482:1 6485:1 6498:1 6517:1 7226:1 7390:1 7391:1 7874:1 8331:1 8335:1 8338:1 8374:1 8454:1 8568:1 8686:1 8697:1 8704:1 8714:1 8715:1 8726:1 8744:1  |EV| 
-0.010000000000000000208166817117217 92:1 2756:1 6229:1 6323:1 7842:1 7843:1 7874:1 8331:1 8334:1 8338:1 8348:1 8454:1 8568:1 8681:1 8697:1 8704:1 8714:1 8715:1 8744:1  |EV| 
-0.010000000000000000208166817117217 1462:1 3604:1 5808:1 6321:1 6337:1 7516:1 7605:1 7874:1 7877:1 7920:1 8331:1 8334:1 8338:1 8345:1 8454:1 8568:1 8681:1 8697:1 8704:1 8714:1 8715:1 8744:1  |EV| 
-0.010000000000000000208166817117217 73:1 1927:1 4171:1 6337:1 6349:1 6422:1 7874:1 8331:1 8334:1 8338:1 8341:1 8454:1 8568:1 8681:1 8697:1 8704:1 8714:1 8715:1 8744:1  |EV| 
-0.010000000000000000208166817117217 67:1 1920:1 4558:1 6321:1 6331:1 6344:1 6346:1 6368:1 6440:1 6483:1 6507:1 6509:1 6595:1 6816:1 6817:1 6818:1 6819:1 6820:1 6821:1 6822:1 6823:1 6824:1 7874:1 8331:1 8335:1 8338:1 8367:1 8454:1 8568:1 8687:1 8697:1 8704:1 8714:1 8715:1 8726:1 8744:1  |EV| 
-0.010000000000000000208166817117217 980:1 3029:1 5276:1 6733:1 7874:1 8331:1 8334:1 8338:1 8339:1 8454:1 8568:1 8681:1 8697:1 8707:1 8714:1 8715:1 8731:1 8744:1  |EV| 
0.010000000000000000208166817117217 1376:1 3492:1 5698:1 6319:1 6333:1 6459:1 7874:1 8331:1 8334:1 8338:1 8348:1 8454:1 8568:1 8681:1 8697:1 8705:1 8714:1 8715:1 8726:1 8727:1 8744:1  |EV| 
0.010000000000000000208166817117217 1151:1 3235:1 6270:1 6318:1 6319:1 6320:1 6517:1 7140:1 7874:1 8331:1 8335:1 8338:1 8359:1 8454:1 8568:1 8682:1 8697:1 8704:1 8714:1 8715:1 8726:1 8744:1  |EV| 
0.010000000000000000208166817117217 1097:1 3175:1 4263:1 6459:1 7874:1 7899:1 8331:1 8334:1 8338:1 8339:1 8454:1 8568:1 8681:1 8697:1 8705:1 8714:1 8715:1 8726:1 8728:1 8744:1  |EV| 
0.010000000000000000208166817117217 1521:1 3675:1 5892:1 6459:1 6581:1 7654:1 7874:1 7899:1 8331:1 8334:1 8338:1 8348:1 8454:1 8568:1 8681:1 8697:1 8705:1 8714:1 8715:1 8726:1 8744:1  |EV| 
0.010000000000000000208166817117217 1513:1 3667:1 5899:1 6319:1 6333:1 6334:1 7631:1 7874:1 8331:1 8334:1 8338:1 8341:1 8454:1 8568:1 8681:1 8697:1 8704:1 8714:1 8715:1 8726:1 8744:1  |EV| 
-0.010000000000000000208166817117217 289:1 2175:1 4395:1 6326:1 6455:1 7874:1 7896:1 8331:1 8335:1 8338:1 8352:1 8454:1 8568:1 8682:1 8697:1 8704:1 8714:1 8715:1 8726:1 8744:1  |EV| 
-0.010000000000000000208166817117217 417:1 2472:1 4710:1 6517:1 6912:1 7874:1 7901:1 8331:1 8335:1 8338:1 8352:1 8454:1 8568:1 8682:1 8697:1 8704:1 8714:1 8715:1 8726:1 8744:1  |EV| 
-0.010000000000000000208166817117217 530:1 2471:1 4708:1 6311:1 6337:1 6490:1 6491:1 6536:1 6800:1 6897:1 7874:1 8331:1 8335:1 8338:1 8368:1 8454:1 8568:1 8682:1 8697:1 8704:1 8714:1 8715:1 8726:1 8744:1  |EV| 
-0.010000000000000000208166817117217 898:1 3532:1 5758:1 6415:1 6467:1 7571:1 7572:1 7573:1 7874:1 8069:1 8331:1 8335:1 8338:1 8359:1 8454:1 8568:1 8682:1 8697:1 8704:1 8714:1 8715:1 8726:1 8744:1  |EV| 
-0.010000000000000000208166817117217 733:1 3708:1 4084:1 7874:1 7880:1 8331:1 8335:1 8338:1 8346:1 8454:1 8568:1 8682:1 8697:1 8704:1 8714:1 8715:1 8726:1 8744:1  |EV| 
0.010000000000000000208166817117217 2:1 2181:1 4403:1 6305:1 6315:1 6324:1 6336:1 6337:1 6352:1 6359:1 6368:1 6522:1 6702:1 6723:1 6734:1 6735:1 6736:1 6737:1 6738:1 6739:1 6740:1 7874:1 8331:1 8334:1 8338:1 8409:1 8454:1 8568:1 8688:1 8697:1 8704:1 8714:1 8715:1 8717:1 8726:1 8744:1  |EV| 
0.010000000000000000208166817117217 209:1 2087:1 4613:1 6305:1 6307:1 6311:1 6321:1 6326:1 6344:1 6346:1 6359:1 6409:1 6483:1 6572:1 6595:1 6599:1 6830:1 6831:1 6832:1 6833:1 6834:1 6835:1 6836:1 6852:1 7874:1 8331:1 8334:1 8338:1 8416:1 8454:1 8568:1 8688:1 8697:1 8704:1 8714:1 8715:1 8726:1 8744:1  |EV| 
0.010000000000000000208166817117217 505:1 3989:1 6198:1 6307:1 6321:1 6323:1 6337:1 6344:1 6346:1 6354:1 6365:1 6440:1 6482:1 6507:1 6531:1 6665:1 6680:1 6694:1 6803:1 7118:1 7239:1 7264:1 7266:1 7268:1 7498:1 7798:1 7799:1 7800:1 7810:1 7818:1 7819:1 7820:1 7874:1 8331:1 8334:1 8338:1 8410:1 8454:1 8568:1 8691:1 8697:1 8704:1 8714:1 8715:1 8726:1 8744:1  |EV| 
0.010000000000000000208166817117217 737:1 2727:1 4968:1 6305:1 6321:1 6323:1 6327:1 6337:1 6338:1 6344:1 6346:1 6406:1 6416:1 6435:1 6442:1 6454:1 6482:1 6529:1 6893:1 6990:1 7102:1 7103:1 7104:1 7105:1 7106:1 7107:1 7108:1 7121:1 7122:1 7123:1 7124:1 7874:1 8331:1 8334:1 8338:1 8425:1 8454:1 8568:1 8691:1 8697:1 8704:1 8714:1 8715:1 8717:1 8726:1 8744:1  |EV| 
0.010000000000000000208166817117217 332:1 2244:1 5440:1 6305:1 6321:1 6323:1 6337:1 6344:1 6346:1 6359:1 6748:1 7363:1 7364:1 7365:1 7366:1 7388:1 7389:1 7874:1 8331:1 8334:1 8338:1 8392:1 8454:1 8568:1 8685:1 8697:1 8704:1 8714:1 8715:1 8726:1 8744:1  |EV| 
-0.010000000000000000208166817117217 1518:1 3672:1 5889:1 6305:1 6337:1 6368:1 6406:1 6434:1 6459:1 6917:1 7226:1 7598:1 7633:1 7874:1 8331:1 8334:1 8338:1 8363:1 8454:1 8568:1 8685:1 8697:1 8704:1 8714:1 8715:1 8726:1 8744:1  |EV| 
-0.010000000000000000208166817117217 905:1 2942:1 5186:1 6319:1 6333:1 6337:1 6346:1 6377:1 6572:1 6803:1 7228:1 7229:1 7874:1 8331:1 8334:1 8338:1 8371:1 8454:1 8568:1 8681:1 8697:1 8704:1 8714:1 8715:1 8726:1 8744:1  |EV| 
-0.010000000000000000208166817117217 378:1 2413:1 4655:1 6305:1 6438:1 6459:1 6499:1 6673:1 6679:1 7874:1 8331:1 8334:1 8338:1 8398:1 8454:1 8568:1 8681:1 8697:1 8704:1 8714:1 8715:1 8726:1 8744:1  |EV| 
-0.010000000000000000208166817117217 1241:1 3340:1 5564:1 6305:1 6377:1 6827:1 6856:1 6916:1 6948:1 7468:1 7469:1 7874:1 8331:1 8334:1 8338:1 8358:1 8454:1 8568:1 8681:1 8697:1 8704:1 8714:1 8715:1 8726:1 8744:1  |EV| 
-0.010000000000000000208166817117217 1605:1 3780:1 5989:1 6346:1 6440:1 6562:1 6572:1 7691:1 7874:1 8331:1 8334:1 8338:1 8345:1 8454:1 8568:1 8681:1 8697:1 8704:1 8714:1 8715:1 8726:1 8744:1  |EV| 
0.010000000000000000208166817117217 88:1 1962:1 4401:1 6321:1 6323:1 6337:1 6389:1 6696:1 6697:1 6698:1 7874:1 8331:1 8335:1 8338:1 8368:1 8454:1 8568:1 8682:1 8697:1 8704:1 8714:1 8715:1 8726:1 8744:1  |EV| 
0.010000000000000000208166817117217 1735:1 3969:1 6178:1 6315:1 6321:1 6337:1 6770:1 7802:1 7805:1 7874:1 8331:1 8335:1 8338:1 8342:1 8454:1 8568:1 8682:1 8697:1 8704:1 8714:1 8715:1 8726:1 8744:1  |EV| 
0.010000000000000000208166817117217 761:1 2759:1 5001:1 6307:1 6321:1 6337:1 6346:1 6368:1 6444:1 6745:1 6746:1 7113:1 7114:1 7115:1 7116:1 7874:1 7897:1 8331:1 8335:1 8338:1 8383:1 8454:1 8568:1 8686:1 8697:1 8704:1 8714:1 8715:1 8726:1 8744:1  |EV| 
0.010000000000000000208166817117217 642:1 2615:1 4867:1 6321:1 6337:1 6571:1 7024:1 7025:1 7030:1 7031:1 7874:1 8331:1 8335:1 8338:1 8368:1 8454:1 8568:1 8682:1 8697:1 8704:1 8714:1 8715:1 8726:1 8744:1  |EV| 
0.010000000000000000208166817117217 67:1 1920:1 5527:1 6321:1 6337:1 6368:1 6636:1 7443:1 7444:1 7445:1 7874:1 7896:1 8331:1 8335:1 8338:1 8368:1 8454:1 8568:1 8682:1 8697:1 8704:1 8714:1 8715:1 8726:1 8744:1  |EV| 
-0.0055001004846375288470650133376694 10:1 1855:1 4090:1 6307:1 6344:1 6349:1 6350:1 6351:1 7874:1 7884:1 8331:1 8334:1 8338:1 8345:1 8454:1 8568:1 8681:1 8697:1 8704:1 8714:1 8715:1 8731:1 8744:1  |EV| 
-0.010000000000000000208166817117217 332:1 2230:1 5823:1 6321:1 6323:1 6337:1 6934:1 7621:1 7622:1 7623:1 7874:1 7896:1 8331:1 8335:1 8338:1 8355:1 8454:1 8568:1 8682:1 8697:1 8704:1 8714:1 8715:1 8726:1 8744:1  |EV| 
-0.010000000000000000208166817117217 87:1 1941:1 4182:1 6311:1 6483:1 7874:1 8331:1 8334:1 8338:1 8364:1 8454:1 8568:1 8681:1 8697:1 8705:1 8714:1 8715:1 8744:1  |EV| 
-0.010000000000000000208166817117217 332:1 2230:1 5909:1 6321:1 6323:1 6331:1 6337:1 6346:1 6638:1 6737:1 6934:1 7621:1 7622:1 7623:1 7624:1 7625:1 7626:1 7874:1 8331:1 8334:1 8338:1 8349:1 8454:1 8568:1 8685:1 8697:1 8704:1 8714:1 8715:1 8726:1 8744:1  |EV| 
-0.010000000000000000208166817117217 163:1 2057:1 5814:1 6321:1 6323:1 6331:1 6337:1 6737:1 6934:1 7621:1 7622:1 7623:1 7874:1 8331:1 8334:1 8338:1 8363:1 8454:1 8568:1 8685:1 8697:1 8704:1 8714:1 8715:1 8726:1 8744:1  |EV| 
0.010000000000000000208166817117217 1292:1 3403:1 5620:1 6305:1 6307:1 6315:1 6316:1 6341:1 6587:1 6609:1 6876:1 7874:1 8331:1 8334:1 8338:1 8358:1 8454:1 8568:1 8681:1 8697:1 8704:1 8714:1 8715:1 8726:1 8744:1  |EV| 
0.010000000000000000208166817117217 636:1 2609:1 4863:1 6309:1 6346:1 7012:1 7013:1 7029:1 7874:1 8331:1 8334:1 8338:1 8345:1 8454:1 8568:1 8681:1 8697:1 8707:1 8714:1 8715:1 8726:1 8744:1  |EV| 
0.010000000000000000208166817117217 1257:1 3360:1 5582:1 6307:1 6409:1 6449:1 6585:1 6917:1 7874:1 8331:1 8334:1 8338:1 8345:1 8454:1 8568:1 8681:1 8697:1 8704:1 8714:1 8715:1 8726:1 8744:1  |EV| 
0.010000000000000000208166817117217 332:1 3887:1 6096:1 6307:1 6355:1 6449:1 7439:1 7874:1 8331:1 8334:1 8338:1 8341:1 8454:1 8568:1 8681:1 8697:1 8704:1 8714:1 8715:1 8726:1 8744:1  |EV| 
0.010000000000000000208166817117217 88:1 1942:1 4983:1 6344:1 6346:1 6388:1 6562:1 6656:1 6805:1 7109:1 7110:1 7140:1 7874:1 8331:1 8334:1 8338:1 8371:1 8454:1 8568:1 8681:1 8697:1 8704:1 8714:1 8715:1 8726:1 8744:1  |EV| 
-0.010000000000000000208166817117217 1058:1 3133:1 5379:1 6321:1 6326:1 6767:1 6914:1 7123:1 7874:1 8331:1 8334:1 8338:1 8345:1 8454:1 8568:1 8681:1 8697:1 8704:1 8714:1 8715:1 8726:1 8744:1  |EV| 
-0.010000000000000000208166817117217 32:1 1880:1 4118:1 6307:1 6344:1 6350:1 6351:1 7874:1 8331:1 8334:1 8338:1 8341:1 8454:1 8568:1 8681:1 8697:1 8704:1 8714:1 8715:1 8726:1 8744:1  |EV| 
-0.010000000000000000208166817117217 168:1 2038:1 4266:1 6337:1 6569:1 7874:1 8331:1 8334:1 8338:1 8364:1 8454:1 8568:1 8681:1 8697:1 8704:1 8714:1 8715:1 8726:1 8744:1  |EV| 
-0.010000000000000000208166817117217 1069:1 3145:1 5390:1 6311:1 6337:1 6448:1 7313:1 7314:1 7874:1 8061:1 8331:1 8334:1 8338:1 8345:1 8454:1 8568:1 8681:1 8697:1 8704:1 8714:1 8715:1 8726:1 8744:1  |EV| 
-0.010000000000000000208166817117217 1359:1 3475:1 5683:1 6307:1 6321:1 6375:1 6396:1 6917:1 7874:1 8216:1 8331:1 8334:1 8338:1 8345:1 8454:1 8568:1 8681:1 8697:1 8707:1 8714:1 8718:1 8726:1 8727:1 8744:1  |EV| 
0.010000000000000000208166817117217 56:1 1908:1 4615:1 6321:1 6323:1 6346:1 6409:1 6439:1 6517:1 6553:1 6572:1 6656:1 6662:1 6866:1 6867:1 6874:1 6875:1 7874:1 8331:1 8335:1 8338:1 8393:1 8454:1 8568:1 8686:1 8697:1 8704:1 8714:1 8715:1 8726:1 8744:1  |EV| 
0.010000000000000000208166817117217 332:1 2230:1 6050:1 6305:1 6321:1 6323:1 6324:1 6337:1 6346:1 6355:1 6362:1 6447:1 6517:1 7221:1 7365:1 7746:1 7747:1 7874:1 8331:1 8334:1 8338:1 8392:1 8454:1 8568:1 8685:1 8697:1 8704:1 8714:1 8715:1 8726:1 8744:1  |EV| 
0.010000000000000000208166817117217 1214:1 3306:1 5539:1 6321:1 6337:1 6346:1 6499:1 6536:1 6544:1 6572:1 6574:1 6638:1 6864:1 7452:1 7453:1 7454:1 7455:1 7456:1 7457:1 7462:1 7463:1 7464:1 7465:1 7466:1 7467:1 7874:1 8331:1 8335:1 8338:1 8385:1 8454:1 8568:1 8687:1 8697:1 8704:1 8714:1 8715:1 8726:1 8744:1  |EV| 
0.010000000000000000208166817117217 75:1 3409:1 5626:1 6309:1 6311:1 6315:1 6321:1 6326:1 6337:1 6344:1 6395:1 6429:1 6674:1 6733:1 7166:1 7437:1 7515:1 7516:1 7517:1 7874:1 8331:1 8334:1 8338:1 8396:1 8454:1 8568:1 8685:1 8697:1 8704:1 8714:1 8715:1 8726:1 8744:1  |EV| 
0.010000000000000000208166817117217 75:1 3677:1 5894:1 6305:1 6337:1 6405:1 6421:1 6574:1 6898:1 7650:1 7874:1 8331:1 8335:1 8338:1 8355:1 8454:1 8568:1 8682:1 8697:1 8704:1 8714:1 8715:1 8726:1 8744:1  |EV| 
-0.010000000000000000208166817117217 432:1 2351:1 4579:1 6305:1 6307:1 6311:1 6321:1 6326:1 6331:1 6344:1 6346:1 6359:1 6409:1 6483:1 6572:1 6595:1 6599:1 6830:1 6831:1 6832:1 6833:1 6834:1 6835:1 6836:1 6852:1 7874:1 8331:1 8334:1 8338:1 8370:1 8454:1 8568:1 8688:1 8697:1 8704:1 8714:1 8715:1 8726:1 8744:1  |EV| 
-0.010000000000000000208166817117217 402:1 2319:1 4543:1 6321:1 6344:1 6346:1 6368:1 6440:1 6483:1 6595:1 6820:1 6821:1 6822:1 6823:1 6824:1 7874:1 7897:1 8331:1 8335:1 8338:1 8383:1 8454:1 8568:1 8686:1 8697:1 8704:1 8714:1 8715:1 8726:1 8744:1  |EV| 
-0.010000000000000000208166817117217 169:1 2039:1 4267:1 6305:1 6321:1 6337:1 6346:1 6368:1 6478:1 6503:1 6561:1 6562:1 6563:1 6564:1 6565:1 6566:1 6567:1 6568:1 7874:1 8331:1 8334:1 8338:1 8377:1 8454:1 8568:1 8685:1 8697:1 8704:1 8714:1 8715:1 8726:1 8744:1  |EV| 
-0.010000000000000000208166817117217 486:1 2538:1 4790:1 6305:1 6312:1 6321:1 6337:1 6416:1 6446:1 6475:1 6499:1 6544:1 6574:1 6611:1 6639:1 6641:1 6795:1 6899:1 6900:1 6924:1 7874:1 8331:1 8334:1 8338:1 8377:1 8454:1 8568:1 8685:1 8697:1 8704:1 8714:1 8715:1 8726:1 8744:1  |EV| 
-0.010000000000000000208166817117217 1604:1 3779:1 5988:1 6305:1 6346:1 6435:1 6440:1 6562:1 6572:1 6574:1 7314:1 7690:1 7691:1 7874:1 8331:1 8335:1 8338:1 8383:1 8454:1 8568:1 8686:1 8697:1 8704:1 8714:1 8715:1 8726:1 8744:1  |EV| 
0.010000000000000000208166817117217 1362:1 3478:1 5686:1 6307:1 6321:1 6375:1 6396:1 6917:1 7531:1 7874:1 7877:1 8331:1 8334:1 8338:1 8398:1 8454:1 8568:1 8681:1 8697:1 8707:1 8714:1 8715:1 8726:1 8727:1 8744:1  |EV| 
0.010000000000000000208166817117217 534:1 2477:1 4714:1 6321:1 6323:1 6337:1 6459:1 6952:1 6958:1 7874:1 8016:1 8331:1 8334:1 8338:1 8356:1 8454:1 8568:1 8681:1 8697:1 8707:1 8714:1 8715:1 8726:1 8727:1 8728:1 8744:1  |EV| 
0.010000000000000000208166817117217 1706:1 3895:1 6104:1 6305:1 6323:1 6350:1 6459:1 7019:1 7020:1 7021:1 7776:1 7874:1 8331:1 8334:1 8338:1 8358:1 8454:1 8568:1 8681:1 8697:1 8707:1 8714:1 8715:1 8726:1 8744:1  |EV| 
0.010000000000000000208166817117217 1704:1 3893:1 6102:1 6337:1 6350:1 6571:1 7552:1 7763:1 7772:1 7773:1 7874:1 8331:1 8334:1 8338:1 8356:1 8454:1 8568:1 8681:1 8697:1 8707:1 8714:1 8715:1 8726:1 8744:1  |EV| 
0.010000000000000000208166817117217 1790:1 4004:1 6265:1 6355:1 6396:1 7351:1 7845:1 7874:1 7877:1 8331:1 8334:1 8338:1 8341:1 8454:1 8568:1 8681:1 8697:1 8704:1 8714:1 8715:1 8726:1 8744:1  |EV| 
-0.010000000000000000208166817117217 1112:1 3190:1 5432:1 6321:1 6337:1 6350:1 6461:1 6520:1 6591:1 7874:1 8162:1 8331:1 8334:1 8338:1 8398:1 8454:1 8568:1 8681:1 8697:1 8707:1 8714:1 8715:1 8717:1 8726:1 8744:1  |EV| 
-0.010000000000000000208166817117217 981:1 3030:1 5277:1 6307:1 6321:1 6323:1 6535:1 6709:1 7062:1 7304:1 7874:1 7973:1 8331:1 8335:1 8338:1 8368:1 8454:1 8568:1 8682:1 8697:1 8707:1 8714:1 8715:1 8726:1 8744:1  |EV| 
-0.010000000000000000208166817117217 1710:1 3899:1 4263:1 6459:1 7874:1 7899:1 8331:1 8334:1 8338:1 8339:1 8454:1 8568:1 8681:1 8697:1 8707:1 8714:1 8715:1 8744:1  |EV| 
-0.010000000000000000208166817117217 515:1 2448:1 4263:1 6459:1 7874:1 7899:1 8331:1 8334:1 8338:1 8339:1 8454:1 8568:1 8681:1 8697:1 8707:1 8714:1 8715:1 8733:1 8744:1  |EV| 
-0.010000000000000000208166817117217 423:1 2584:1 4088:1 7874:1 7931:1 8331:1 8334:1 8338:1 8350:1 8454:1 8568:1 8681:1 8697:1 8707:1 8714:1 8715:1 8728:1 8744:1  |EV| 
0.010000000000000000208166817117217 140:1 2006:1 4238:1 6305:1 6321:1 6337:1 6346:1 6368:1 6478:1 6503:1 6561:1 6562:1 6563:1 6564:1 6565:1 6566:1 6567:1 6568:1 6569:1 7874:1 8331:1 8334:1 8338:1 8394:1 8454:1 8568:1 8685:1 8697:1 8704:1 8714:1 8715:1 8726:1 8744:1  |EV| 
0.010000000000000000208166817117217 5:1 3676:1 6081:1 6305:1 6321:1 6323:1 6337:1 6338:1 6344:1 6359:1 6399:1 6468:1 6476:1 6499:1 6562:1 7123:1 7679:1 7745:1 7749:1 7750:1 7753:1 7874:1 8331:1 8334:1 8338:1 8401:1 8454:1 8568:1 8688:1 8697:1 8704:1 8714:1 8715:1 8726:1 8744:1  |EV| 
0.010000000000000000208166817117217 1072:1 3148:1 5394:1 6311:1 6321:1 6326:1 6337:1 6448:1 6767:1 6914:1 7123:1 7313:1 7314:1 7874:1 8033:1 8150:1 8331:1 8334:1 8338:1 8363:1 8454:1 8568:1 8685:1 8697:1 8704:1 8714:1 8715:1 8726:1 8744:1  |EV| 
0.010000000000000000208166817117217 332:1 2230:1 5829:1 6307:1 6309:1 6337:1 6344:1 6357:1 6358:1 6359:1 6360:1 6361:1 6362:1 6388:1 6429:1 6435:1 6470:1 6612:1 7593:1 7594:1 7874:1 8331:1 8334:1 8338:1 8394:1 8454:1 8568:1 8685:1 8697:1 8704:1 8714:1 8715:1 8717:1 8726:1 8744:1  |EV| 
0.010000000000000000208166817117217 889:1 2924:1 5163:1 6305:1 6307:1 6337:1 6344:1 6349:1 6350:1 6352:1 6388:1 6470:1 6491:1 6494:1 6535:1 6581:1 6713:1 6919:1 7245:1 7874:1 8331:1 8334:1 8338:1 8377:1 8454:1 8568:1 8685:1 8697:1 8704:1 8714:1 8715:1 8726:1 8744:1  |EV| 
-0.010000000000000000208166817117217 1547:1 3710:1 5926:1 6305:1 6337:1 6344:1 6350:1 6459:1 6640:1 6651:1 6790:1 7661:1 7662:1 7663:1 7664:1 7874:1 8331:1 8334:1 8338:1 8362:1 8454:1 8568:1 8685:1 8697:1 8704:1 8714:1 8715:1 8726:1 8744:1  |EV| 
-0.010000000000000000208166817117217 368:1 2282:1 4504:1 6307:1 6315:1 6337:1 6346:1 6375:1 6459:1 6605:1 6708:1 6710:1 6787:1 6788:1 6789:1 6790:1 6791:1 7874:1 8331:1 8334:1 8338:1 8392:1 8454:1 8568:1 8685:1 8697:1 8704:1 8714:1 8715:1 8726:1 8744:1  |EV| 
-0.010000000000000000208166817117217 5:1 3676:1 5893:1 6321:1 6337:1 6344:1 6394:1 6396:1 6406:1 6454:1 6456:1 6461:1 6493:1 7226:1 7617:1 7618:1 7874:1 7896:1 8331:1 8334:1 8338:1 8380:1 8454:1 8568:1 8685:1 8697:1 8704:1 8714:1 8715:1 8726:1 8744:1  |EV| 
-0.010000000000000000208166817117217 147:1 2029:1 5836:1 6315:1 6319:1 6333:1 6334:1 6337:1 6346:1 6350:1 6459:1 6584:1 6605:1 6768:1 7219:1 7220:1 7629:1 7630:1 7631:1 7874:1 8331:1 8334:1 8338:1 8396:1 8454:1 8568:1 8685:1 8697:1 8704:1 8714:1 8715:1 8726:1 8744:1  |EV| 
-0.010000000000000000208166817117217 434:1 3019:1 5265:1 6309:1 6319:1 6321:1 6333:1 6337:1 6377:1 6384:1 6521:1 6559:1 6741:1 7269:1 7271:1 7272:1 7273:1 7274:1 7275:1 7874:1 8331:1 8334:1 8338:1 8377:1 8454:1 8568:1 8685:1 8697:1 8704:1 8714:1 8715:1 8726:1 8744:1  |EV| 
0.010000000000000000208166817117217 1590:1 3760:1 5973:1 6305:1 6435:1 6574:1 7874:1 7878:1 8331:1 8335:1 8338:1 8357:1 8454:1 8568:1 8682:1 8697:1 8704:1 8714:1 8715:1 8726:1 8744:1  |EV| 
0.010000000000000000208166817117217 1112:1 3633:1 4263:1 6459:1 7874:1 8331:1 8334:1 8338:1 8339:1 8454:1 8568:1 8681:1 8697:1 8707:1 8714:1 8715:1 8726:1 8728:1 8733:1 8744:1  |EV| 
0.010000000000000000208166817117217 486:1 2824:1 5059:1 6321:1 6434:1 6453:1 6553:1 6571:1 6645:1 6673:1 6950:1 7874:1 8331:1 8335:1 8338:1 8353:1 8454:1 8568:1 8686:1 8697:1 8704:1 8714:1 8715:1 8726:1 8744:1  |EV| 
0.010000000000000000208166817117217 378:1 2474:1 4084:1 7874:1 7880:1 8331:1 8335:1 8338:1 8346:1 8454:1 8568:1 8682:1 8697:1 8704:1 8714:1 8715:1 8726:1 8744:1  |EV| 
0.010000000000000000208166817117217 1241:1 3339:1 4084:1 7874:1 7880:1 8331:1 8335:1 8338:1 8346:1 8454:1 8568:1 8682:1 8697:1 8704:1 8714:1 8715:1 8726:1 8744:1  |EV| 
-0.010000000000000000208166817117217 865:1 3531:1 5734:1 6362:1 7874:1 7880:1 8331:1 8335:1 8338:1 8343:1 8454:1 8568:1 8682:1 8697:1 8704:1 8714:1 8715:1 8726:1 8731:1 8744:1  |EV| 
-0.010000000000000000208166817117217 11:1 1856:1 4091:1 6305:1 6348:1 7874:1 7885:1 8331:1 8335:1 8338:1 8352:1 8454:1 8568:1 8682:1 8697:1 8704:1 8714:1 8715:1 8726:1 8744:1  |EV| 
-0.010000000000000000208166817117217 27:1 1875:1 5115:1 6305:1 6311:1 6324:1 6337:1 6348:1 6377:1 7221:1 7874:1 8331:1 8335:1 8338:1 8368:1 8454:1 8568:1 8682:1 8697:1 8704:1 8714:1 8715:1 8717:1 8726:1 8744:1  |EV| 
-0.010000000000000000208166817117217 486:1 2424:1 4667:1 6305:1 6438:1 6459:1 6499:1 6673:1 6926:1 7874:1 8008:1 8331:1 8335:1 8338:1 8342:1 8454:1 8568:1 8682:1 8697:1 8704:1 8714:1 8715:1 8726:1 8744:1  |EV| 
-0.010000000000000000208166817117217 474:1 2402:1 4648:1 6305:1 6312:1 6499:1 6574:1 6611:1 6899:1 6900:1 7874:1 8002:1 8331:1 8335:1 8338:1 8368:1 8454:1 8568:1 8682:1 8697:1 8704:1 8714:1 8715:1 8726:1 8744:1  |EV| 
0.010000000000000000208166817117217 163:1 2107:1 4332:1 6307:1 6321:1 6341:1 6344:1 6346:1 6350:1 6439:1 6457:1 6544:1 6572:1 6602:1 6603:1 6604:1 6605:1 6606:1 6662:1 6667:1 7874:1 8331:1 8334:1 8338:1 8401:1 8454:1 8568:1 8688:1 8697:1 8704:1 8714:1 8715:1 8726:1 8744:1  |EV| 
0.010000000000000000208166817117217 1487:1 3637:1 5844:1 6305:1 6307:1 6318:1 6319:1 6333:1 6334:1 6337:1 6346:1 6375:1 6394:1 6693:1 6708:1 6797:1 6876:1 6948:1 7634:1 7635:1 7636:1 7637:1 7638:1 7639:1 7640:1 7874:1 8331:1 8334:1 8338:1 8426:1 8454:1 8568:1 8688:1 8697:1 8704:1 8714:1 8715:1 8726:1 8744:1  |EV| 
0.010000000000000000208166817117217 475:1 2530:1 4783:1 6315:1 6321:1 6337:1 6346:1 6409:1 6595:1 6805:1 6854:1 6917:1 6953:1 6954:1 7874:1 8331:1 8334:1 8338:1 8362:1 8454:1 8568:1 8685:1 8697:1 8704:1 8714:1 8715:1 8726:1 8744:1  |EV| 
0.010000000000000000208166817117217 75:1 3409:1 5881:1 6321:1 6331:1 6337:1 6368:1 6419:1 6434:1 6501:1 6572:1 7610:1 7611:1 7874:1 8331:1 8334:1 8338:1 8375:1 8454:1 8568:1 8685:1 8697:1 8704:1 8714:1 8715:1 8726:1 8744:1  |EV| 
0.010000000000000000208166817117217 332:1 2230:1 5769:1 6315:1 6321:1 6337:1 6346:1 6480:1 6507:1 7574:1 7575:1 7576:1 7577:1 7874:1 8331:1 8334:1 8338:1 8375:1 8454:1 8568:1 8685:1 8697:1 8704:1 8714:1 8715:1 8726:1 8744:1  |EV| 
-0.010000000000000000208166817117217 505:1 2833:1 5071:1 6316:1 6321:1 6322:1 6323:1 6337:1 6346:1 6354:1 6359:1 6475:1 6483:1 6517:1 6645:1 6948:1 7192:1 7193:1 7194:1 7195:1 7196:1 7874:1 8102:1 8331:1 8334:1 8338:1 8382:1 8454:1 8568:1 8688:1 8697:1 8704:1 8714:1 8715:1 8726:1 8744:1  |EV| 
-0.010000000000000000208166817117217 291:1 2179:1 4400:1 6307:1 6321:1 6323:1 6337:1 6338:1 6344:1 6346:1 6461:1 6548:1 6606:1 6696:1 6699:1 6700:1 6701:1 6702:1 6703:1 6704:1 7874:1 8331:1 8334:1 8338:1 8379:1 8454:1 8568:1 8688:1 8697:1 8704:1 8714:1 8715:1 8726:1 8744:1  |EV| 
-0.010000000000000000208166817117217 476:1 2404:1 4660:1 6307:1 6321:1 6323:1 6337:1 6344:1 6346:1 6409:1 6475:1 6483:1 6517:1 6545:1 6645:1 6681:1 6821:1 6902:1 6912:1 6918:1 6919:1 7874:1 8331:1 8334:1 8338:1 8401:1 8454:1 8568:1 8688:1 8697:1 8704:1 8714:1 8715:1 8717:1 8726:1 8744:1  |EV| 
-0.010000000000000000208166817117217 154:1 2461:1 4700:1 6315:1 6337:1 6346:1 6409:1 6805:1 6854:1 6953:1 6954:1 7874:1 8331:1 8334:1 8338:1 8371:1 8454:1 8568:1 8681:1 8697:1 8704:1 8714:1 8715:1 8726:1 8744:1  |EV| 
-0.0039599332753598032175190724046843 837:1 2864:1 5098:1 6311:1 6337:1 6459:1 7874:1 8331:1 8334:1 8338:1 8348:1 8454:1 8568:1 8681:1 8697:1 8707:1 8714:1 8715:1 8744:1  |EV| 
0.010000000000000000208166817117217 1599:1 3773:1 5531:1 6305:1 6574:1 7874:1 7878:1 8331:1 8335:1 8338:1 8352:1 8454:1 8568:1 8682:1 8697:1 8704:1 8714:1 8715:1 8726:1 8744:1  |EV| 
0.010000000000000000208166817117217 148:1 3415:1 5633:1 6305:1 6337:1 6507:1 7520:1 7521:1 7874:1 8331:1 8335:1 8338:1 8359:1 8454:1 8568:1 8682:1 8697:1 8704:1 8714:1 8715:1 8726:1 8744:1  |EV| 
0.010000000000000000208166817117217 411:1 2329:1 4554:1 6315:1 6610:1 7874:1 7878:1 8331:1 8335:1 8338:1 8352:1 8454:1 8568:1 8682:1 8697:1 8704:1 8714:1 8715:1 8726:1 8744:1  |EV| 
0.010000000000000000208166817117217 239:1 2120:1 4340:1 6647:1 6648:1 7874:1 7885:1 8331:1 8335:1 8338:1 8352:1 8454:1 8568:1 8682:1 8697:1 8704:1 8714:1 8715:1 8726:1 8744:1  |EV| 
0.010000000000000000208166817117217 610:1 2577:1 4835:1 6638:1 6992:1 7874:1 8331:1 8335:1 8338:1 8352:1 8454:1 8568:1 8682:1 8697:1 8704:1 8714:1 8715:1 8726:1 8744:1  |EV| 
-0.010000000000000000208166817117217 1514:1 3668:1 5883:1 6305:1 6368:1 7874:1 7878:1 8331:1 8335:1 8338:1 8352:1 8454:1 8568:1 8682:1 8697:1 8707:1 8714:1 8715:1 8726:1 8728:1 8733:1 8744:1  |EV| 
-0.010000000000000000208166817117217 592:1 2557:1 4825:1 6318:1 6319:1 6320:1 6399:1 7874:1 8331:1 8335:1 8338:1 8378:1 8454:1 8568:1 8682:1 8697:1 8704:1 8714:1 8715:1 8726:1 8744:1  |EV| 
-0.010000000000000000208166817117217 1094:1 3172:1 5416:1 6321:1 6337:1 7874:1 8331:1 8335:1 8338:1 8352:1 8454:1 8568:1 8682:1 8697:1 8705:1 8714:1 8715:1 8718:1 8726:1 8744:1  |EV| 
-0.010000000000000000208166817117217 434:1 3019:1 5344:1 6305:1 6337:1 6359:1 6430:1 6435:1 6507:1 6566:1 6870:1 7260:1 7261:1 7262:1 7263:1 7264:1 7265:1 7266:1 7874:1 8069:1 8331:1 8335:1 8338:1 8374:1 8454:1 8568:1 8686:1 8697:1 8704:1 8714:1 8715:1 8726:1 8744:1  |EV| 
-0.010000000000000000208166817117217 45:1 1896:1 4583:1 6321:1 6368:1 6375:1 6471:1 6607:1 6710:1 6827:1 6839:1 6855:1 6858:1 7874:1 8331:1 8334:1 8338:1 8363:1 8454:1 8568:1 8685:1 8697:1 8704:1 8714:1 8715:1 8726:1 8744:1  |EV| 
0.010000000000000000208166817117217 476:1 2836:1 5074:1 6307:1 6321:1 6323:1 6337:1 6346:1 6416:1 6434:1 6645:1 6926:1 7186:1 7187:1 7188:1 7874:1 8331:1 8334:1 8338:1 8362:1 8454:1 8568:1 8685:1 8697:1 8704:1 8714:1 8715:1 8726:1 8744:1  |EV| 
0.010000000000000000208166817117217 818:1 2826:1 5062:1 6311:1 6321:1 6326:1 6337:1 6459:1 7173:1 7174:1 7175:1 7176:1 7874:1 8331:1 8334:1 8338:1 8371:1 8454:1 8568:1 8681:1 8697:1 8707:1 8714:1 8715:1 8726:1 8728:1 8744:1  |EV| 
0.010000000000000000208166817117217 502:1 2434:1 4675:1 6307:1 6311:1 6321:1 6326:1 6337:1 6368:1 6441:1 6448:1 6468:1 6535:1 6547:1 6585:1 6710:1 6798:1 6803:1 6821:1 6827:1 6900:1 6940:1 6941:1 6942:1 6943:1 6944:1 7874:1 8331:1 8334:1 8338:1 8408:1 8454:1 8568:1 8688:1 8697:1 8704:1 8714:1 8715:1 8726:1 8744:1  |EV| 
0.010000000000000000208166817117217 723:1 2709:1 5342:1 6305:1 6307:1 6311:1 6321:1 6326:1 6346:1 6358:1 6409:1 6440:1 6485:1 6609:1 6724:1 6733:1 6948:1 7245:1 7279:1 7280:1 7281:1 7282:1 7283:1 7284:1 7874:1 8331:1 8334:1 8338:1 8409:1 8454:1 8568:1 8688:1 8697:1 8704:1 8714:1 8715:1 8726:1 8744:1  |EV| 
0.010000000000000000208166817117217 345:1 2254:1 4473:1 6305:1 6321:1 6337:1 6344:1 6346:1 6411:1 6436:1 6440:1 6482:1 6485:1 6494:1 6535:1 6554:1 6559:1 6694:1 6757:1 7874:1 8331:1 8334:1 8338:1 8409:1 8454:1 8568:1 8688:1 8697:1 8704:1 8714:1 8715:1 8726:1 8744:1  |EV| 
-0.010000000000000000208166817117217 933:1 2972:1 5219:1 6305:1 6307:1 6311:1 6321:1 6323:1 6326:1 6346:1 6358:1 6409:1 6440:1 6485:1 6535:1 6609:1 6709:1 6724:1 6733:1 6948:1 7062:1 7245:1 7279:1 7280:1 7281:1 7282:1 7283:1 7284:1 7285:1 7874:1 8331:1 8334:1 8338:1 8407:1 8454:1 8568:1 8688:1 8697:1 8704:1 8714:1 8715:1 8726:1 8744:1  |EV| 
-0.010000000000000000208166817117217 1841:1 4073:1 6296:1 6305:1 6307:1 6321:1 6388:1 6434:1 6459:1 6517:1 6673:1 7388:1 7840:1 7841:1 7874:1 8331:1 8334:1 8338:1 8375:1 8454:1 8568:1 8685:1 8697:1 8704:1 8714:1 8715:1 8726:1 8744:1  |EV| 
-0.010000000000000000208166817117217 1790:1 4024:1 6232:1 6305:1 6307:1 6326:1 6337:1 6344:1 6350:1 6355:1 6375:1 6396:1 6426:1 6584:1 6664:1 6708:1 7122:1 7238:1 7259:1 7351:1 7845:1 7846:1 7847:1 7852:1 7874:1 8331:1 8334:1 8338:1 8409:1 8454:1 8568:1 8688:1 8697:1 8704:1 8714:1 8715:1 8726:1 8744:1  |EV| 
-0.010000000000000000208166817117217 163:1 2127:1 5230:1 6305:1 6312:1 6321:1 6331:1 6337:1 6346:1 6501:1 6547:1 6562:1 6719:1 6805:1 6864:1 7289:1 7290:1 7291:1 7292:1 7293:1 7294:1 7874:1 8331:1 8334:1 8338:1 8409:1 8454:1 8568:1 8688:1 8697:1 8704:1 8714:1 8715:1 8726:1 8744:1  |EV| 
-0.010000000000000000208166817117217 1037:1 3110:1 6030:1 6305:1 6307:1 6321:1 6331:1 6337:1 6388:1 6415:1 6438:1 6501:1 7123:1 7739:1 7874:1 8331:1 8334:1 8338:1 8375:1 8454:1 8568:1 8685:1 8697:1 8704:1 8714:1 8715:1 8726:1 8744:1  |EV| 
0.010000000000000000208166817117217 88:1 3754:1 5966:1 6305:1 6323:1 6337:1 6421:1 6517:1 6656:1 6706:1 6926:1 7316:1 7674:1 7683:1 7874:1 8331:1 8335:1 8338:1 8383:1 8454:1 8568:1 8686:1 8697:1 8704:1 8714:1 8715:1 8726:1 8744:1  |EV| 
0.010000000000000000208166817117217 202:1 2251:1 6015:1 6337:1 6344:1 6698:1 7722:1 7874:1 8331:1 8335:1 8338:1 8378:1 8454:1 8568:1 8682:1 8697:1 8704:1 8714:1 8715:1 8726:1 8744:1  |EV| 
0.010000000000000000208166817117217 516:1 2450:1 4698:1 6337:1 6396:1 6544:1 6920:1 7874:1 7895:1 8331:1 8335:1 8338:1 8378:1 8454:1 8568:1 8682:1 8697:1 8704:1 8714:1 8715:1 8726:1 8744:1  |EV| 
0.010000000000000000208166817117217 898:1 2934:1 5175:1 6321:1 6337:1 6346:1 6441:1 6467:1 7083:1 7205:1 7874:1 8331:1 8335:1 8338:1 8368:1 8454:1 8568:1 8682:1 8697:1 8704:1 8714:1 8715:1 8726:1 8744:1  |EV| 
0.010000000000000000208166817117217 1124:1 3203:1 5443:1 6323:1 6410:1 7380:1 7874:1 7892:1 7929:1 8331:1 8335:1 8338:1 8357:1 8454:1 8568:1 8682:1 8697:1 8704:1 8714:1 8715:1 8726:1 8744:1  |EV| 
-0.010000000000000000208166817117217 5:1 2304:1 4527:1 6315:1 6346:1 6610:1 6829:1 7874:1 8331:1 8335:1 8338:1 8378:1 8454:1 8568:1 8682:1 8697:1 8704:1 8714:1 8715:1 8726:1 8744:1  |EV| 
-0.010000000000000000208166817117217 1572:1 3740:1 5954:1 6337:1 6346:1 7193:1 7874:1 7897:1 8331:1 8335:1 8338:1 8357:1 8454:1 8568:1 8682:1 8697:1 8704:1 8714:1 8715:1 8726:1 8744:1  |EV| 
-0.010000000000000000208166817117217 956:1 3001:1 5247:1 6309:1 6321:1 6337:1 6434:1 7874:1 8331:1 8335:1 8338:1 8378:1 8454:1 8568:1 8682:1 8697:1 8704:1 8714:1 8715:1 8726:1 8744:1  |EV| 
-0.010000000000000000208166817117217 445:1 2366:1 4606:1 6321:1 6346:1 6789:1 6850:1 6879:1 7874:1 8331:1 8335:1 8338:1 8359:1 8454:1 8568:1 8682:1 8697:1 8704:1 8714:1 8715:1 8726:1 8744:1  |EV| 
-0.010000000000000000208166817117217 202:1 2078:1 4957:1 6321:1 6322:1 6323:1 6337:1 6395:1 6396:1 6434:1 6507:1 7111:1 7874:1 8070:1 8331:1 8335:1 8338:1 8365:1 8454:1 8568:1 8686:1 8697:1 8704:1 8714:1 8715:1 8726:1 8744:1  |EV| 
0.010000000000000000208166817117217 29:1 2706:1 4948:1 6305:1 6307:1 6323:1 6338:1 6350:1 6375:1 6426:1 6455:1 6605:1 7069:1 7119:1 7120:1 7874:1 8331:1 8334:1 8338:1 8389:1 8454:1 8568:1 8685:1 8697:1 8704:1 8714:1 8715:1 8726:1 8744:1  |EV| 
0.010000000000000000208166817117217 163:1 2127:1 5330:1 6305:1 6337:1 6346:1 6501:1 6562:1 6719:1 6805:1 7291:1 7292:1 7293:1 7294:1 7874:1 8331:1 8334:1 8338:1 8389:1 8454:1 8568:1 8685:1 8697:1 8704:1 8714:1 8715:1 8726:1 8744:1  |EV| 
0.010000000000000000208166817117217 178:1 3166:1 6192:1 6305:1 6307:1 6321:1 6323:1 6572:1 6592:1 6656:1 6756:1 7291:1 7514:1 7831:1 7874:1 8331:1 8334:1 8338:1 8375:1 8454:1 8568:1 8685:1 8697:1 8704:1 8714:1 8715:1 8726:1 8744:1  |EV| 
0.010000000000000000208166817117217 1618:1 3795:1 6004:1 6305:1 6307:1 6337:1 6350:1 6668:1 6703:1 6715:1 6717:1 6733:1 7663:1 7712:1 7713:1 7714:1 7874:1 8331:1 8334:1 8338:1 8380:1 8454:1 8568:1 8685:1 8697:1 8704:1 8714:1 8715:1 8726:1 8744:1  |EV| 
0.010000000000000000208166817117217 465:1 2392:1 4636:1 6307:1 6321:1 6344:1 6346:1 6368:1 6396:1 6429:1 6439:1 6472:1 6520:1 6607:1 6663:1 6826:1 6827:1 6828:1 6857:1 7874:1 8331:1 8334:1 8338:1 8349:1 8454:1 8568:1 8685:1 8697:1 8704:1 8714:1 8715:1 8726:1 8744:1  |EV| 
-0.010000000000000000208166817117217 580:1 2543:1 4827:1 6307:1 6318:1 6319:1 6320:1 6323:1 6399:1 6456:1 6665:1 6706:1 6837:1 6968:1 6969:1 7874:1 8331:1 8334:1 8338:1 8362:1 8454:1 8568:1 8685:1 8697:1 8704:1 8714:1 8715:1 8726:1 8744:1  |EV| 
-0.010000000000000000208166817117217 4:1 1872:1 4107:1 6304:1 6305:1 6306:1 6307:1 6344:1 6347:1 6348:1 6349:1 6350:1 6351:1 7874:1 8331:1 8334:1 8338:1 8362:1 8454:1 8568:1 8685:1 8697:1 8704:1 8714:1 8715:1 8726:1 8744:1  |EV| 
-0.010000000000000000208166817117217 44:1 1895:1 4143:1 6305:1 6337:1 6344:1 6346:1 6349:1 6417:1 6418:1 6419:1 6420:1 6421:1 6422:1 7874:1 8331:1 8334:1 8338:1 8380:1 8454:1 8568:1 8685:1 8697:1 8704:1 8714:1 8715:1 8726:1 8744:1  |EV| 
-0.010000000000000000208166817117217 37:1 1887:1 4128:1 6304:1 6305:1 6306:1 6307:1 6347:1 6348:1 6349:1 6350:1 7874:1 8331:1 8334:1 8338:1 8371:1 8454:1 8568:1 8681:1 8697:1 8704:1 8714:1 8715:1 8726:1 8744:1  |EV| 
-0.010000000000000000208166817117217 1291:1 3402:1 5630:1 6305:1 6307:1 6315:1 6316:1 6321:1 6323:1 6341:1 6368:1 6584:1 6587:1 6609:1 6694:1 6876:1 7349:1 7511:1 7874:1 8331:1 8334:1 8338:1 8396:1 8454:1 8568:1 8685:1 8697:1 8704:1 8714:1 8715:1 8726:1 8744:1  |EV| 
0.010000000000000000208166817117217 1256:1 3359:1 4153:1 6321:1 7874:1 7880:1 8331:1 8335:1 8338:1 8343:1 8454:1 8568:1 8682:1 8697:1 8704:1 8714:1 8715:1 8717:1 8726:1 8744:1  |EV| 
0.010000000000000000208166817117217 52:1 2036:1 5994:1 6321:1 6337:1 6436:1 6442:1 7874:1 8331:1 8335:1 8338:1 8378:1 8454:1 8568:1 8682:1 8697:1 8704:1 8714:1 8715:1 8726:1 8744:1  |EV| 
0.010000000000000000208166817117217 92:1 2938:1 5181:1 6321:1 6337:1 6434:1 6470:1 6471:1 7060:1 7874:1 8331:1 8335:1 8338:1 8342:1 8454:1 8568:1 8682:1 8697:1 8704:1 8714:1 8715:1 8726:1 8744:1  |EV| 
0.010000000000000000208166817117217 683:1 2662:1 4153:1 6321:1 7874:1 7880:1 8331:1 8335:1 8338:1 8343:1 8454:1 8568:1 8682:1 8697:1 8704:1 8714:1 8715:1 8726:1 8744:1  |EV| 
0.010000000000000000208166817117217 137:1 2070:1 5207:1 6321:1 6344:1 6436:1 7874:1 8331:1 8335:1 8338:1 8357:1 8454:1 8568:1 8682:1 8697:1 8704:1 8714:1 8715:1 8726:1 8744:1  |EV| 
-0.010000000000000000208166817117217 235:1 2116:1 4337:1 6321:1 6446:1 6638:1 6639:1 6640:1 6641:1 7874:1 8331:1 8335:1 8338:1 8342:1 8454:1 8568:1 8682:1 8697:1 8704:1 8714:1 8715:1 8726:1 8744:1  |EV| 
-0.010000000000000000208166817117217 417:1 2335:1 4584:1 6321:1 6368:1 6471:1 6607:1 6710:1 6827:1 6855:1 6858:1 7874:1 8331:1 8335:1 8338:1 8355:1 8454:1 8568:1 8682:1 8697:1 8704:1 8714:1 8715:1 8717:1 8726:1 8744:1  |EV| 
-0.010000000000000000208166817117217 536:1 2479:1 4760:1 6307:1 6337:1 6368:1 6415:1 6913:1 7874:1 7895:1 8331:1 8335:1 8338:1 8359:1 8454:1 8568:1 8682:1 8697:1 8704:1 8714:1 8715:1 8726:1 8744:1  |EV| 
-0.010000000000000000208166817117217 89:1 1943:1 5176:1 6331:1 6337:1 7237:1 7238:1 7874:1 8331:1 8335:1 8338:1 8378:1 8454:1 8568:1 8682:1 8697:1 8704:1 8714:1 8715:1 8726:1 8744:1  |EV| 
-0.010000000000000000208166817117217 75:1 1929:1 5777:1 6321:1 6337:1 6346:1 6415:1 6436:1 6467:1 6638:1 6673:1 6733:1 7010:1 7201:1 7416:1 7527:1 7566:1 7567:1 7568:1 7569:1 7570:1 7571:1 7572:1 7573:1 7874:1 8241:1 8331:1 8335:1 8338:1 8381:1 8454:1 8568:1 8687:1 8697:1 8704:1 8714:1 8715:1 8726:1 8744:1  |EV| 
0.010000000000000000208166817117217 149:1 2016:1 4245:1 6305:1 6307:1 6346:1 6349:1 6358:1 6517:1 6556:1 6557:1 6584:1 6585:1 7874:1 8331:1 8334:1 8338:1 8363:1 8454:1 8568:1 8685:1 8697:1 8704:1 8714:1 8715:1 8726:1 8744:1  |EV| 
0.010000000000000000208166817117217 1257:1 3370:1 5591:1 6315:1 6337:1 6346:1 6348:1 6443:1 6562:1 6600:1 6875:1 7001:1 7479:1 7480:1 7481:1 7493:1 7494:1 7874:1 8331:1 8334:1 8338:1 8377:1 8454:1 8568:1 8685:1 8697:1 8704:1 8714:1 8715:1 8726:1 8744:1  |EV| 
0.010000000000000000208166817117217 454:1 2378:1 4621:1 6304:1 6305:1 6340:1 6720:1 6892:1 7874:1 8331:1 8334:1 8338:1 8345:1 8454:1 8568:1 8681:1 8697:1 8704:1 8714:1 8715:1 8726:1 8744:1  |EV| 
0.010000000000000000208166817117217 854:1 2885:1 5119:1 6331:1 6346:1 7874:1 7877:1 8331:1 8334:1 8338:1 8364:1 8454:1 8568:1 8681:1 8697:1 8704:1 8714:1 8715:1 8726:1 8744:1  |EV| 
-0.010000000000000000208166817117217 154:1 2021:1 4250:1 6321:1 6396:1 6434:1 6443:1 6526:1 7874:1 8331:1 8334:1 8338:1 8345:1 8454:1 8568:1 8681:1 8697:1 8704:1 8714:1 8715:1 8726:1 8744:1  |EV| 
-0.010000000000000000208166817117217 288:1 2174:1 4394:1 6307:1 6321:1 6326:1 6352:1 6455:1 6456:1 6691:1 6692:1 6711:1 7874:1 8331:1 8334:1 8338:1 8371:1 8454:1 8568:1 8681:1 8697:1 8704:1 8714:1 8715:1 8717:1 8726:1 8744:1  |EV| 
-0.010000000000000000208166817117217 52:1 2036:1 5846:1 6305:1 6331:1 6337:1 6353:1 6405:1 6456:1 6485:1 6678:1 7141:1 7874:1 8331:1 8334:1 8338:1 8371:1 8454:1 8568:1 8681:1 8697:1 8704:1 8714:1 8715:1 8726:1 8744:1  |EV| 
-0.010000000000000000208166817117217 2:1 1846:1 6094:1 6305:1 6321:1 6323:1 6337:1 6344:1 6346:1 6494:1 6548:1 7874:1 8331:1 8335:1 8338:1 8353:1 8454:1 8568:1 8686:1 8697:1 8704:1 8714:1 8715:1 8726:1 8744:1  |EV| 
-0.010000000000000000208166817117217 56:1 2307:1 4629:1 6315:1 6321:1 6331:1 6340:1 6346:1 6443:1 6523:1 6544:1 6585:1 6605:1 6607:1 6807:1 6808:1 6809:1 6810:1 6811:1 6812:1 7874:1 8331:1 8335:1 8338:1 8386:1 8454:1 8568:1 8687:1 8697:1 8704:1 8714:1 8715:1 8726:1 8744:1  |EV| 
0.010000000000000000208166817117217 1346:1 3462:1 5670:1 6307:1 6321:1 6323:1 6350:1 6395:1 6457:1 6517:1 6607:1 6638:1 6648:1 6827:1 7541:1 7542:1 7543:1 7544:1 7545:1 7546:1 7547:1 7548:1 7874:1 8064:1 8331:1 8335:1 8338:1 8372:1 8454:1 8568:1 8687:1 8697:1 8707:1 8714:1 8715:1 8726:1 8744:1  |EV| 
0.010000000000000000208166817117217 945:1 3978:1 6188:1 6307:1 6321:1 6368:1 6691:1 6948:1 7737:1 7874:1 8331:1 8334:1 8338:1 8398:1 8454:1 8568:1 8681:1 8697:1 8707:1 8714:1 8715:1 8726:1 8744:1  |EV| 
0.010000000000000000208166817117217 130:1 3044:1 5289:1 6337:1 6346:1 6368:1 6513:1 6529:1 6535:1 6638:1 6694:1 6990:1 7198:1 7270:1 7286:1 7874:1 8331:1 8335:1 8338:1 8387:1 8454:1 8568:1 8686:1 8697:1 8704:1 8714:1 8715:1 8726:1 8744:1  |EV| 
0.010000000000000000208166817117217 580:1 2543:1 4795:1 6307:1 6323:1 6665:1 6706:1 6968:1 6969:1 7874:1 8331:1 8334:1 8338:1 8398:1 8454:1 8568:1 8681:1 8697:1 8704:1 8714:1 8715:1 8726:1 8744:1  |EV| 
0.010000000000000000208166817117217 178:1 3040:1 5318:1 6337:1 6346:1 6368:1 6529:1 6694:1 6990:1 7270:1 7286:1 7874:1 8331:1 8335:1 8338:1 8355:1 8454:1 8568:1 8682:1 8697:1 8704:1 8714:1 8715:1 8726:1 8744:1  |EV| 
-0.010000000000000000208166817117217 528:1 2518:1 4770:1 6375:1 7874:1 8026:1 8331:1 8334:1 8338:1 8339:1 8454:1 8568:1 8681:1 8697:1 8705:1 8714:1 8715:1 8730:1 8744:1  |EV| 
-0.010000000000000000208166817117217 1326:1 3442:1 5652:1 6305:1 6321:1 6323:1 6368:1 6584:1 6694:1 7874:1 8331:1 8335:1 8338:1 8342:1 8454:1 8568:1 8682:1 8697:1 8704:1 8714:1 8715:1 8726:1 8744:1  |EV| 
-0.010000000000000000208166817117217 569:1 2799:1 5038:1 6315:1 6321:1 6346:1 6368:1 6827:1 6943:1 7874:1 7897:1 8331:1 8335:1 8338:1 8342:1 8454:1 8568:1 8682:1 8697:1 8704:1 8714:1 8715:1 8726:1 8744:1  |EV| 
-0.010000000000000000208166817117217 130:1 3089:1 5774:1 6346:1 6415:1 6467:1 6638:1 6733:1 7201:1 7416:1 7569:1 7570:1 7571:1 7572:1 7573:1 7874:1 8238:1 8331:1 8335:1 8338:1 8383:1 8454:1 8568:1 8686:1 8697:1 8704:1 8714:1 8715:1 8726:1 8744:1  |EV| 
-0.010000000000000000208166817117217 1385:1 3501:1 5705:1 6346:1 6523:1 6673:1 6732:1 7554:1 7874:1 8219:1 8331:1 8335:1 8338:1 8359:1 8454:1 8568:1 8682:1 8697:1 8706:1 8714:1 8715:1 8726:1 8744:1  |EV| 
0.010000000000000000208166817117217 260:1 2146:1 4367:1 6307:1 6321:1 6352:1 6691:1 6692:1 7874:1 8331:1 8334:1 8338:1 8345:1 8454:1 8568:1 8681:1 8697:1 8704:1 8714:1 8715:1 8726:1 8744:1  |EV| 
0.010000000000000000208166817117217 1667:1 3849:1 6052:1 6305:1 6316:1 6635:1 6864:1 7874:1 8331:1 8334:1 8338:1 8341:1 8454:1 8568:1 8681:1 8697:1 8704:1 8714:1 8715:1 8726:1 8744:1  |EV| 
0.010000000000000000208166817117217 428:1 2346:1 4638:1 6305:1 6321:1 6346:1 6439:1 6442:1 6647:1 6838:1 6847:1 6864:1 7874:1 8331:1 8334:1 8338:1 8371:1 8454:1 8568:1 8681:1 8697:1 8704:1 8714:1 8715:1 8726:1 8744:1  |EV| 
0.010000000000000000208166817117217 194:1 2069:1 4294:1 6305:1 6307:1 6321:1 6389:1 6548:1 6549:1 6550:1 6590:1 7874:1 8331:1 8334:1 8338:1 8358:1 8454:1 8568:1 8681:1 8697:1 8704:1 8714:1 8715:1 8726:1 8744:1  |EV| 
0.010000000000000000208166817117217 536:1 2479:1 4745:1 6307:1 6340:1 6441:1 6544:1 6545:1 6847:1 6912:1 7874:1 8331:1 8334:1 8338:1 8371:1 8454:1 8568:1 8681:1 8697:1 8704:1 8714:1 8715:1 8726:1 8744:1  |EV| 
-0.010000000000000000208166817117217 392:1 2308:1 4530:1 6307:1 6331:1 6346:1 6572:1 6830:1 7874:1 8331:1 8334:1 8338:1 8345:1 8454:1 8568:1 8681:1 8697:1 8704:1 8714:1 8715:1 8726:1 8744:1  |EV| 
-0.010000000000000000208166817117217 1244:1 3347:1 4088:1 7874:1 7877:1 8331:1 8334:1 8338:1 8350:1 8454:1 8568:1 8681:1 8697:1 8704:1 8714:1 8715:1 8744:1  |EV| 
-0.010000000000000000208166817117217 1393:1 3509:1 4088:1 7874:1 7877:1 8331:1 8334:1 8338:1 8350:1 8454:1 8568:1 8681:1 8697:1 8704:1 8714:1 8715:1 8744:1  |EV| 
-0.010000000000000000208166817117217 1633:1 3817:1 4088:1 7874:1 7877:1 8331:1 8334:1 8338:1 8350:1 8454:1 8568:1 8681:1 8697:1 8704:1 8714:1 8715:1 8744:1  |EV| 
-0.010000000000000000208166817117217 163:1 2127:1 4347:1 6321:1 6446:1 6638:1 6639:1 6640:1 6641:1 6642:1 6679:1 7874:1 8331:1 8334:1 8338:1 8358:1 8454:1 8568:1 8681:1 8697:1 8704:1 8714:1 8715:1 8726:1 8744:1  |EV| 
0.010000000000000000208166817117217 67:1 1920:1 4541:1 6368:1 6507:1 6509:1 6816:1 6817:1 6818:1 7874:1 8331:1 8335:1 8338:1 8342:1 8454:1 8568:1 8682:1 8697:1 8704:1 8714:1 8715:1 8726:1 8744:1  |EV| 
0.010000000000000000208166817117217 76:1 2241:1 5803:1 6321:1 6337:1 6468:1 6766:1 6897:1 7609:1 7874:1 8331:1 8335:1 8338:1 8342:1 8454:1 8568:1 8682:1 8697:1 8704:1 8714:1 8715:1 8726:1 8744:1  |EV| 
0.010000000000000000208166817117217 67:1 1920:1 4270:1 6337:1 6586:1 6587:1 6588:1 6589:1 7874:1 8331:1 8335:1 8338:1 8359:1 8454:1 8568:1 8682:1 8697:1 8704:1 8714:1 8715:1 8726:1 8744:1  |EV| 
0.010000000000000000208166817117217 84:1 1938:1 4179:1 6305:1 6311:1 6326:1 6337:1 6368:1 6434:1 6459:1 6481:1 6482:1 6485:1 6486:1 6487:1 6488:1 6489:1 6490:1 6491:1 6492:1 6493:1 6494:1 7874:1 8331:1 8335:1 8338:1 8372:1 8454:1 8568:1 8687:1 8697:1 8704:1 8714:1 8715:1 8726:1 8744:1  |EV| 
0.010000000000000000208166817117217 130:1 3044:1 5737:1 6305:1 6337:1 7239:1 7565:1 7874:1 8331:1 8335:1 8338:1 8378:1 8454:1 8568:1 8682:1 8697:1 8704:1 8714:1 8715:1 8726:1 8744:1  |EV| 
-0.010000000000000000208166817117217 536:1 2479:1 4736:1 6307:1 6337:1 6368:1 6415:1 6441:1 6544:1 6847:1 6912:1 6913:1 7874:1 8331:1 8335:1 8338:1 8365:1 8454:1 8568:1 8686:1 8697:1 8704:1 8714:1 8715:1 8726:1 8744:1  |EV| 
-0.010000000000000000208166817117217 502:1 2459:1 4752:1 6307:1 6321:1 6337:1 6340:1 6368:1 6415:1 6434:1 6441:1 6475:1 6544:1 6545:1 6847:1 6911:1 6912:1 6913:1 7874:1 8331:1 8335:1 8338:1 8372:1 8454:1 8568:1 8687:1 8697:1 8704:1 8714:1 8715:1 8726:1 8744:1  |EV| 
-0.010000000000000000208166817117217 492:1 2422:1 4690:1 6307:1 6337:1 6340:1 6368:1 6415:1 6441:1 6475:1 6544:1 6545:1 6847:1 6912:1 6913:1 7874:1 8331:1 8334:1 8338:1 8396:1 8454:1 8568:1 8685:1 8697:1 8704:1 8714:1 8715:1 8717:1 8726:1 8744:1  |EV| 
-0.010000000000000000208166817117217 74:1 3681:1 5898:1 6305:1 6337:1 6368:1 6406:1 7226:1 7598:1 7874:1 8137:1 8331:1 8335:1 8338:1 8342:1 8454:1 8568:1 8682:1 8697:1 8707:1 8714:1 8715:1 8726:1 8728:1 8733:1 8744:1  |EV| 
0.010000000000000000208166817117217 898:1 3532:1 5736:1 6321:1 6337:1 6346:1 6433:1 6436:1 6638:1 6673:1 6733:1 7010:1 7416:1 7527:1 7566:1 7567:1 7568:1 7569:1 7570:1 7874:1 8331:1 8334:1 8338:1 8377:1 8454:1 8568:1 8685:1 8697:1 8704:1 8714:1 8715:1 8726:1 8744:1  |EV| 
0.010000000000000000208166817117217 854:1 2885:1 5119:1 6331:1 6346:1 7874:1 7877:1 8331:1 8334:1 8338:1 8364:1 8454:1 8568:1 8681:1 8697:1 8704:1 8714:1 8715:1 8726:1 8744:1  |EV| 
0.010000000000000000208166817117217 658:1 2632:1 4088:1 7874:1 7877:1 8331:1 8334:1 8338:1 8350:1 8454:1 8568:1 8681:1 8697:1 8707:1 8714:1 8715:1 8717:1 8726:1 8731:1 8744:1  |EV| 
0.010000000000000000208166817117217 1391:1 3507:1 4088:1 7874:1 8221:1 8331:1 8334:1 8338:1 8350:1 8454:1 8568:1 8681:1 8697:1 8706:1 8714:1 8715:1 8726:1 8744:1  |EV| 
0.010000000000000000208166817117217 1638:1 3816:1 4088:1 7874:1 7877:1 8331:1 8334:1 8338:1 8350:1 8454:1 8568:1 8681:1 8697:1 8706:1 8714:1 8715:1 8726:1 8727:1 8744:1  |EV| 
-0.010000000000000000208166817117217 56:1 2350:1 4593:1 6331:1 6572:1 6710:1 7874:1 8331:1 8334:1 8338:1 8348:1 8454:1 8568:1 8681:1 8697:1 8704:1 8714:1 8715:1 8744:1  |EV| 
-0.010000000000000000208166817117217 29:1 1877:1 5133:1 6305:1 6311:1 6324:1 6331:1 6337:1 6348:1 6377:1 6412:1 7221:1 7874:1 8331:1 8334:1 8338:1 8371:1 8454:1 8568:1 8681:1 8697:1 8704:1 8714:1 8715:1 8726:1 8744:1  |EV| 
-0.010000000000000000208166817117217 1588:1 3758:1 5970:1 6331:1 6337:1 6346:1 7193:1 7685:1 7874:1 8331:1 8334:1 8338:1 8345:1 8454:1 8568:1 8681:1 8697:1 8704:1 8714:1 8715:1 8726:1 8727:1 8744:1  |EV| 
-0.010000000000000000208166817117217 894:1 2929:1 5170:1 6331:1 6337:1 6475:1 6476:1 6641:1 7237:1 7238:1 7874:1 8331:1 8334:1 8338:1 8356:1 8454:1 8568:1 8681:1 8697:1 8704:1 8714:1 8715:1 8726:1 8744:1  |EV| 
-0.010000000000000000208166817117217 332:1 2230:1 5885:1 6321:1 6331:1 6337:1 6346:1 6638:1 7624:1 7625:1 7626:1 7874:1 8331:1 8334:1 8338:1 8358:1 8454:1 8568:1 8681:1 8697:1 8704:1 8714:1 8715:1 8726:1 8744:1  |EV| 
0.010000000000000000208166817117217 502:1 2459:1 4697:1 6307:1 6321:1 6434:1 6441:1 6911:1 7874:1 8331:1 8335:1 8338:1 8359:1 8454:1 8568:1 8682:1 8697:1 8704:1 8714:1 8715:1 8726:1 8744:1  |EV| 
0.010000000000000000208166817117217 476:1 2836:1 5605:1 6307:1 6321:1 6346:1 6368:1 6434:1 6553:1 6679:1 7488:1 7489:1 7874:1 8331:1 8334:1 8338:1 8363:1 8454:1 8568:1 8685:1 8697:1 8704:1 8714:1 8715:1 8717:1 8726:1 8744:1  |EV| 
0.010000000000000000208166817117217 88:1 1962:1 4202:1 6307:1 6337:1 6346:1 6395:1 6497:1 6517:1 6518:1 6519:1 6520:1 6521:1 6522:1 6523:1 6524:1 7874:1 8331:1 8335:1 8338:1 8387:1 8454:1 8568:1 8686:1 8697:1 8704:1 8714:1 8715:1 8726:1 8744:1  |EV| 
0.010000000000000000208166817117217 872:1 2905:1 5146:1 6321:1 6337:1 6441:1 6467:1 7083:1 7874:1 8331:1 8335:1 8338:1 8359:1 8454:1 8568:1 8682:1 8697:1 8704:1 8714:1 8715:1 8726:1 8744:1  |EV| 
0.010000000000000000208166817117217 96:1 1950:1 4192:1 6321:1 6337:1 6434:1 6469:1 6470:1 6471:1 6472:1 6473:1 6474:1 7874:1 8331:1 8335:1 8338:1 8388:1 8454:1 8568:1 8686:1 8697:1 8704:1 8714:1 8715:1 8726:1 8744:1  |EV| 
-0.010000000000000000208166817117217 600:1 4069:1 6290:1 6305:1 6307:1 6321:1 6517:1 6673:1 7388:1 7840:1 7841:1 7874:1 7878:1 8331:1 8335:1 8338:1 8355:1 8454:1 8568:1 8682:1 8697:1 8707:1 8714:1 8715:1 8726:1 8733:1 8744:1  |EV| 
-0.010000000000000000208166817117217 77:1 1984:1 4220:1 6307:1 6331:1 6337:1 6346:1 6395:1 6497:1 6500:1 6501:1 6517:1 6518:1 6519:1 6520:1 6521:1 6522:1 6523:1 6524:1 7874:1 8331:1 8335:1 8338:1 8360:1 8454:1 8568:1 8686:1 8697:1 8704:1 8714:1 8715:1 8726:1 8744:1  |EV| 
-0.010000000000000000208166817117217 92:1 2756:1 6259:1 6337:1 6346:1 6396:1 6406:1 6698:1 6747:1 7327:1 7722:1 7874:1 8331:1 8335:1 8338:1 8388:1 8454:1 8568:1 8686:1 8697:1 8704:1 8714:1 8715:1 8726:1 8744:1  |EV| 
-0.010000000000000000208166817117217 147:1 2029:1 4260:1 6307:1 6309:1 6337:1 6414:1 6443:1 6544:1 7874:1 8331:1 8335:1 8338:1 8342:1 8454:1 8568:1 8682:1 8697:1 8704:1 8714:1 8715:1 8726:1 8744:1  |EV| 
0.010000000000000000208166817117217 474:1 2418:1 4661:1 6321:1 6337:1 6416:1 6446:1 6544:1 6639:1 6795:1 7874:1 8331:1 8334:1 8338:1 8356:1 8454:1 8568:1 8681:1 8697:1 8704:1 8714:1 8715:1 8726:1 8744:1  |EV| 
0.010000000000000000208166817117217 1504:1 3656:1 5865:1 6337:1 6406:1 6917:1 7226:1 7633:1 7874:1 8331:1 8334:1 8338:1 8345:1 8454:1 8568:1 8681:1 8697:1 8704:1 8714:1 8715:1 8726:1 8744:1  |EV| 
0.010000000000000000208166817117217 1113:1 3191:1 4137:1 6350:1 7874:1 8030:1 8331:1 8334:1 8338:1 8339:1 8454:1 8568:1 8681:1 8697:1 8705:1 8714:1 8715:1 8717:1 8726:1 8744:1  |EV| 
0.010000000000000000208166817117217 378:1 2292:1 4514:1 6337:1 6344:1 6345:1 6605:1 6799:1 6803:1 6805:1 7874:1 7987:1 8331:1 8334:1 8338:1 8356:1 8454:1 8568:1 8681:1 8697:1 8704:1 8714:1 8715:1 8726:1 8744:1  |EV| 
0.010000000000000000208166817117217 1628:1 3806:1 6011:1 6321:1 6368:1 7179:1 7299:1 7874:1 7931:1 8331:1 8334:1 8338:1 8341:1 8454:1 8568:1 8681:1 8697:1 8705:1 8714:1 8715:1 8726:1 8727:1 8744:1  |EV| 
-0.010000000000000000208166817117217 1255:1 3358:1 5581:1 6875:1 7874:1 8195:1 8331:1 8334:1 8338:1 8339:1 8454:1 8568:1 8681:1 8697:1 8704:1 8714:1 8715:1 8744:1  |EV| 
-0.010000000000000000208166817117217 1345:1 3461:1 5669:1 7531:1 7874:1 8214:1 8331:1 8334:1 8338:1 8339:1 8454:1 8568:1 8681:1 8697:1 8704:1 8714:1 8715:1 8744:1  |EV| 
-0.010000000000000000208166817117217 1012:1 3077:1 5322:1 6309:1 6321:1 6331:1 6337:1 6420:1 6434:1 6442:1 7874:1 7987:1 8331:1 8334:1 8338:1 8356:1 8454:1 8568:1 8681:1 8697:1 8704:1 8714:1 8715:1 8726:1 8744:1  |EV| 
-0.010000000000000000208166817117217 530:1 2571:1 5061:1 6315:1 6321:1 6346:1 6368:1 6475:1 6827:1 6917:1 6943:1 7874:1 8331:1 8334:1 8338:1 8358:1 8454:1 8568:1 8681:1 8697:1 8704:1 8714:1 8715:1 8717:1 8726:1 8744:1  |EV| 
-0.010000000000000000208166817117217 96:1 3346:1 5570:1 6305:1 6307:1 6321:1 6346:1 6415:1 6582:1 6645:1 6679:1 6838:1 7448:1 7449:1 7450:1 7451:1 7460:1 7874:1 8331:1 8334:1 8338:1 8392:1 8454:1 8568:1 8685:1 8697:1 8704:1 8714:1 8715:1 8726:1 8744:1  |EV| 
0.010000000000000000208166817117217 29:1 1892:1 5454:1 6305:1 6337:1 6359:1 6435:1 6482:1 6485:1 6498:1 7390:1 7391:1 7874:1 8331:1 8335:1 8338:1 8353:1 8454:1 8568:1 8686:1 8697:1 8704:1 8714:1 8715:1 8717:1 8726:1 8744:1  |EV| 
0.010000000000000000208166817117217 209:1 2093:1 4318:1 6337:1 6517:1 6523:1 6653:1 7874:1 8331:1 8335:1 8338:1 8378:1 8454:1 8568:1 8682:1 8697:1 8704:1 8714:1 8715:1 8726:1 8744:1  |EV| 
0.010000000000000000208166817117217 1037:1 3246:1 4416:1 6337:1 6395:1 7874:1 8331:1 8335:1 8338:1 8352:1 8454:1 8568:1 8682:1 8697:1 8704:1 8714:1 8715:1 8726:1 8744:1  |EV| 
0.010000000000000000208166817117217 1549:1 3717:1 5937:1 6323:1 7874:1 7878:1 8331:1 8335:1 8338:1 8343:1 8454:1 8568:1 8682:1 8697:1 8704:1 8714:1 8715:1 8726:1 8744:1  |EV| 
0.010000000000000000208166817117217 569:1 3730:1 4972:1 6337:1 7874:1 8331:1 8335:1 8338:1 8343:1 8454:1 8568:1 8682:1 8697:1 8704:1 8714:1 8715:1 8726:1 8744:1  |EV| 
-0.010000000000000000208166817117217 908:1 2946:1 5190:1 6331:1 6337:1 6443:1 6783:1 7874:1 8331:1 8335:1 8338:1 8378:1 8454:1 8568:1 8682:1 8697:1 8704:1 8714:1 8715:1 8726:1 8744:1  |EV| 
-0.0047797282983162861849657510049383 453:1 2377:1 4617:1 6331:1 7874:1 7947:1 8331:1 8334:1 8338:1 8339:1 8454:1 8568:1 8681:1 8697:1 8704:1 8714:1 8715:1 8728:1 8744:1  |EV| 
-0.010000000000000000208166817117217 1078:1 3154:1 5401:1 7338:1 7874:1 7880:1 8331:1 8335:1 8338:1 8343:1 8454:1 8568:1 8682:1 8697:1 8704:1 8714:1 8715:1 8744:1  |EV| 
-0.010000000000000000208166817117217 370:1 2284:1 4511:1 6315:1 6337:1 6459:1 6605:1 6710:1 6789:1 6790:1 6791:1 7874:1 8331:1 8335:1 8338:1 8353:1 8454:1 8568:1 8686:1 8697:1 8704:1 8714:1 8715:1 8726:1 8744:1  |EV| 
-0.007187147023203438803151676950165 1612:1 3787:1 5997:1 6323:1 6337:1 6396:1 6572:1 7383:1 7430:1 7874:1 8331:1 8334:1 8338:1 8398:1 8454:1 8568:1 8681:1 8697:1 8704:1 8714:1 8715:1 8744:1  |EV| 
0.010000000000000000208166817117217 400:1 3698:1 5975:1 6307:1 6461:1 6536:1 6827:1 7693:1 7874:1 8331:1 8334:1 8338:1 8345:1 8454:1 8568:1 8681:1 8697:1 8704:1 8714:1 8715:1 8726:1 8744:1  |EV| 
0.010000000000000000208166817117217 2:1 1846:1 5137:1 6307:1 6346:1 6352:1 6809:1 7874:1 8331:1 8334:1 8338:1 8341:1 8454:1 8568:1 8681:1 8697:1 8704:1 8714:1 8715:1 8726:1 8744:1  |EV| 
0.010000000000000000208166817117217 1602:1 3777:1 5986:1 6307:1 6337:1 6346:1 6572:1 6585:1 6597:1 6598:1 7697:1 7698:1 7874:1 8331:1 8334:1 8338:1 8371:1 8454:1 8568:1 8681:1 8697:1 8704:1 8714:1 8715:1 8726:1 8744:1  |EV| 
0.010000000000000000208166817117217 370:1 2284:1 4505:1 6307:1 6346:1 6708:1 6787:1 7874:1 8331:1 8334:1 8338:1 8341:1 8454:1 8568:1 8681:1 8697:1 8704:1 8714:1 8715:1 8726:1 8744:1  |EV| 
0.010000000000000000208166817117217 466:1 2393:1 4637:1 6346:1 6457:1 6507:1 6668:1 6868:1 6869:1 6870:1 7874:1 8331:1 8334:1 8338:1 8356:1 8454:1 8568:1 8681:1 8697:1 8704:1 8714:1 8715:1 8717:1 8726:1 8727:1 8744:1  |EV| 
-0.010000000000000000208166817117217 169:1 2671:1 4913:1 6305:1 6337:1 6338:1 6345:1 6346:1 6353:1 6368:1 6426:1 6448:1 6478:1 6479:1 6507:1 6599:1 6607:1 6737:1 7060:1 7062:1 7074:1 7075:1 7076:1 7077:1 7078:1 7874:1 8331:1 8334:1 8338:1 8370:1 8454:1 8568:1 8688:1 8697:1 8704:1 8714:1 8715:1 8726:1 8744:1  |EV| 
-0.010000000000000000208166817117217 209:1 2104:1 4088:1 7874:1 7958:1 8331:1 8334:1 8338:1 8350:1 8454:1 8568:1 8681:1 8697:1 8704:1 8714:1 8715:1 8744:1  |EV| 
-0.010000000000000000208166817117217 1160:1 3247:1 5482:1 6305:1 6311:1 6321:1 6323:1 6326:1 6337:1 6344:1 6421:1 6463:1 6475:1 6572:1 6664:1 7000:1 7060:1 7296:1 7402:1 7403:1 7404:1 7405:1 7406:1 7412:1 7414:1 7874:1 8331:1 8334:1 8338:1 8382:1 8454:1 8568:1 8688:1 8697:1 8704:1 8714:1 8715:1 8717:1 8726:1 8744:1  |EV| 
0.010000000000000000208166817117217 1037:1 3425:1 5641:1 6309:1 6311:1 6315:1 6321:1 6326:1 6344:1 6429:1 6733:1 7166:1 7437:1 7515:1 7516:1 7517:1 7874:1 8331:1 8334:1 8338:1 8380:1 8454:1 8568:1 8685:1 8697:1 8704:1 8714:1 8715:1 8726:1 8744:1  |EV| 
0.010000000000000000208166817117217 1077:1 3153:1 5400:1 6321:1 6337:1 6389:1 7094:1 7874:1 8331:1 8335:1 8338:1 8378:1 8454:1 8568:1 8682:1 8697:1 8704:1 8714:1 8715:1 8726:1 8744:1  |EV| 
0.010000000000000000208166817117217 139:1 2005:1 4237:1 6321:1 6337:1 6553:1 6560:1 7874:1 8331:1 8335:1 8338:1 8378:1 8454:1 8568:1 8682:1 8697:1 8704:1 8714:1 8715:1 8726:1 8744:1  |EV| 
0.010000000000000000208166817117217 1038:1 3111:1 5378:1 6574:1 6690:1 7315:1 7316:1 7874:1 7878:1 8331:1 8335:1 8338:1 8378:1 8454:1 8568:1 8682:1 8697:1 8704:1 8714:1 8715:1 8726:1 8744:1  |EV| 
0.010000000000000000208166817117217 332:1 2230:1 4444:1 6305:1 6324:1 6336:1 6337:1 6359:1 6368:1 6522:1 6702:1 6734:1 6735:1 6736:1 7874:1 8331:1 8334:1 8338:1 8362:1 8454:1 8568:1 8685:1 8697:1 8704:1 8714:1 8715:1 8717:1 8726:1 8744:1  |EV| 
-0.010000000000000000208166817117217 593:1 2558:1 4817:1 6307:1 6318:1 6319:1 6320:1 6323:1 6399:1 6706:1 6837:1 6969:1 7874:1 8331:1 8335:1 8338:1 8353:1 8454:1 8568:1 8686:1 8697:1 8704:1 8714:1 8715:1 8726:1 8744:1  |EV| 
-0.010000000000000000208166817117217 163:1 2057:1 5876:1 6321:1 6337:1 6346:1 6638:1 7625:1 7626:1 7874:1 8331:1 8335:1 8338:1 8342:1 8454:1 8568:1 8682:1 8697:1 8704:1 8714:1 8715:1 8726:1 8744:1  |EV| 
-0.010000000000000000208166817117217 1811:1 4029:1 6248:1 6307:1 6309:1 6337:1 6346:1 6409:1 6417:1 6440:1 6545:1 6690:1 6733:1 7259:1 7432:1 7844:1 7874:1 8331:1 8335:1 8338:1 8387:1 8454:1 8568:1 8686:1 8697:1 8704:1 8714:1 8715:1 8726:1 8744:1  |EV| 
-0.010000000000000000208166817117217 1366:1 3482:1 5689:1 6307:1 6320:1 6321:1 6337:1 6375:1 6396:1 6415:1 6438:1 6617:1 6917:1 7014:1 7117:1 7531:1 7532:1 7533:1 7874:1 8331:1 8334:1 8338:1 8349:1 8454:1 8568:1 8685:1 8697:1 8707:1 8714:1 8715:1 8726:1 8727:1 8744:1  |EV| 
-0.0086046004832476818968700627010548 1290:1 3401:1 5618:1 6337:1 6395:1 6674:1 6733:1 7874:1 8331:1 8334:1 8338:1 8341:1 8454:1 8568:1 8681:1 8697:1 8705:1 8714:1 8715:1 8744:1  |EV| 
0.010000000000000000208166817117217 728:1 2714:1 6054:1 6305:1 6307:1 6311:1 6326:1 6337:1 6362:1 6404:1 6448:1 6449:1 6457:1 6494:1 6694:1 6733:1 6737:1 6917:1 7062:1 7123:1 7221:1 7734:1 7735:1 7736:1 7737:1 7738:1 7874:1 8331:1 8334:1 8338:1 8416:1 8454:1 8568:1 8688:1 8697:1 8704:1 8714:1 8715:1 8726:1 8744:1  |EV| 
0.010000000000000000208166817117217 1791:1 4005:1 4263:1 6459:1 7874:1 7899:1 8331:1 8334:1 8338:1 8339:1 8454:1 8568:1 8681:1 8697:1 8707:1 8714:1 8715:1 8726:1 8733:1 8744:1  |EV| 
0.010000000000000000208166817117217 1760:1 3966:1 4263:1 6459:1 7874:1 7899:1 8331:1 8334:1 8338:1 8339:1 8454:1 8568:1 8681:1 8697:1 8707:1 8714:1 8715:1 8726:1 8728:1 8744:1  |EV| 
0.010000000000000000208166817117217 1545:1 3707:1 4088:1 7874:1 7958:1 8331:1 8334:1 8338:1 8350:1 8454:1 8568:1 8681:1 8697:1 8705:1 8714:1 8715:1 8726:1 8744:1  |EV| 
0.010000000000000000208166817117217 209:1 2123:1 4341:1 6346:1 6418:1 6517:1 6523:1 6572:1 6592:1 6605:1 6675:1 7874:1 8331:1 8334:1 8338:1 8358:1 8454:1 8568:1 8681:1 8697:1 8704:1 8714:1 8715:1 8726:1 8744:1  |EV| 
-0.010000000000000000208166817117217 130:1 2045:1 4273:1 6459:1 6593:1 6594:1 6595:1 7874:1 8331:1 8334:1 8338:1 8341:1 8454:1 8568:1 8681:1 8697:1 8704:1 8714:1 8715:1 8744:1  |EV| 
-0.010000000000000000208166817117217 56:1 2653:1 4794:1 6311:1 7874:1 8061:1 8331:1 8334:1 8338:1 8339:1 8454:1 8568:1 8681:1 8697:1 8704:1 8714:1 8715:1 8744:1  |EV| 
-0.010000000000000000208166817117217 5:1 3208:1 4088:1 7874:1 7877:1 8331:1 8334:1 8338:1 8350:1 8454:1 8568:1 8681:1 8697:1 8704:1 8714:1 8715:1 8744:1  |EV| 
-0.010000000000000000208166817117217 1597:1 3769:1 4618:1 6572:1 7874:1 8030:1 8331:1 8334:1 8338:1 8339:1 8454:1 8568:1 8681:1 8697:1 8704:1 8714:1 8715:1 8731:1 8744:1  |EV| 
-0.010000000000000000208166817117217 1603:1 3778:1 4618:1 6572:1 7874:1 8030:1 8331:1 8334:1 8338:1 8339:1 8454:1 8568:1 8681:1 8697:1 8704:1 8714:1 8715:1 8731:1 8744:1  |EV| 
0.010000000000000000208166817117217 931:1 2970:1 5242:1 6337:1 6368:1 6529:1 6694:1 6990:1 7270:1 7874:1 8331:1 8335:1 8338:1 8342:1 8454:1 8568:1 8682:1 8697:1 8704:1 8714:1 8715:1 8726:1 8744:1  |EV| 
0.010000000000000000208166817117217 4:1 1853:1 4133:1 6319:1 6321:1 6333:1 6337:1 6346:1 6383:1 6384:1 6385:1 6386:1 6387:1 6416:1 7874:1 8331:1 8334:1 8338:1 8375:1 8454:1 8568:1 8685:1 8697:1 8704:1 8714:1 8715:1 8726:1 8744:1  |EV| 
0.010000000000000000208166817117217 1811:1 4029:1 6275:1 6337:1 6733:1 7874:1 8331:1 8335:1 8338:1 8352:1 8454:1 8568:1 8682:1 8697:1 8704:1 8714:1 8715:1 8726:1 8744:1  |EV| 
-0.010000000000000000208166817117217 1222:1 3314:1 5546:1 6305:1 6377:1 6856:1 6948:1 7468:1 7469:1 7874:1 7878:1 8331:1 8335:1 8338:1 8342:1 8454:1 8568:1 8682:1 8697:1 8707:1 8714:1 8715:1 8717:1 8718:1 8726:1 8731:1 8744:1  |EV| 
-0.0089947855845997279344850028337532 1681:1 3867:1 6071:1 6305:1 6307:1 6311:1 6321:1 6323:1 6326:1 6331:1 6337:1 6344:1 6346:1 6347:1 6362:1 6404:1 6448:1 6449:1 6457:1 6494:1 6548:1 6694:1 6733:1 6737:1 6917:1 7062:1 7123:1 7221:1 7734:1 7735:1 7736:1 7737:1 7738:1 7874:1 8331:1 8334:1 8338:1 8432:1 8454:1 8568:1 8691:1 8697:1 8707:1 8714:1 8715:1 8726:1 8744:1  |EV| 
-0.010000000000000000208166817117217 84:1 2427:1 5284:1 6309:1 6321:1 6331:1 6337:1 6352:1 6420:1 6434:1 6442:1 7267:1 7874:1 8331:1 8334:1 8338:1 8375:1 8454:1 8568:1 8685:1 8697:1 8704:1 8714:1 8715:1 8726:1 8744:1  |EV| 
-0.010000000000000000208166817117217 1829:1 4056:1 6272:1 6331:1 6337:1 6404:1 6420:1 7840:1 7874:1 8331:1 8335:1 8338:1 8359:1 8454:1 8568:1 8682:1 8697:1 8704:1 8714:1 8715:1 8726:1 8744:1  |EV| 
-0.010000000000000000208166817117217 1449:1 3639:1 5847:1 6305:1 6331:1 6337:1 6353:1 6405:1 6678:1 7141:1 7874:1 8331:1 8335:1 8338:1 8368:1 8454:1 8568:1 8682:1 8697:1 8704:1 8714:1 8715:1 8726:1 8744:1  |EV| 
0.010000000000000000208166817117217 163:1 2127:1 4594:1 6307:1 6551:1 6582:1 7874:1 8331:1 8334:1 8338:1 8348:1 8454:1 8568:1 8681:1 8697:1 8704:1 8714:1 8715:1 8726:1 8744:1  |EV| 
0.010000000000000000208166817117217 56:1 1908:1 4607:1 6305:1 6307:1 6338:1 6477:1 6813:1 7874:1 8331:1 8334:1 8338:1 8345:1 8454:1 8568:1 8681:1 8697:1 8704:1 8714:1 8715:1 8726:1 8744:1  |EV| 
0.010000000000000000208166817117217 389:1 2303:1 4526:1 6307:1 6321:1 6344:1 6368:1 6396:1 6429:1 6439:1 6472:1 6520:1 6607:1 6663:1 6826:1 6827:1 6828:1 7874:1 8331:1 8334:1 8338:1 8396:1 8454:1 8568:1 8685:1 8697:1 8704:1 8714:1 8715:1 8726:1 8744:1  |EV| 
0.010000000000000000208166817117217 536:1 2479:1 4717:1 6307:1 6340:1 6545:1 7874:1 8331:1 8334:1 8338:1 8348:1 8454:1 8568:1 8681:1 8697:1 8704:1 8714:1 8715:1 8726:1 8744:1  |EV| 
0.010000000000000000208166817117217 1676:1 3860:1 6064:1 6305:1 6355:1 7746:1 7874:1 8331:1 8334:1 8338:1 8348:1 8454:1 8568:1 8681:1 8697:1 8704:1 8714:1 8715:1 8726:1 8744:1  |EV| 
-0.010000000000000000208166817117217 1276:1 3384:1 5603:1 6305:1 6344:1 6397:1 6415:1 6475:1 6499:1 6966:1 7874:1 8331:1 8334:1 8338:1 8356:1 8454:1 8568:1 8681:1 8697:1 8704:1 8714:1 8715:1 8717:1 8726:1 8744:1  |EV| 
-0.010000000000000000208166817117217 439:1 2359:1 4592:1 6307:1 6876:1 7874:1 7997:1 8331:1 8334:1 8338:1 8364:1 8454:1 8568:1 8681:1 8697:1 8704:1 8714:1 8715:1 8744:1  |EV| 
-0.010000000000000000208166817117217 1274:1 3381:1 5601:1 6315:1 6875:1 7001:1 7874:1 8331:1 8334:1 8338:1 8348:1 8454:1 8568:1 8681:1 8697:1 8704:1 8714:1 8715:1 8744:1  |EV| 
-0.010000000000000000208166817117217 147:1 2014:1 4174:1 6307:1 7874:1 8331:1 8334:1 8338:1 8339:1 8454:1 8568:1 8681:1 8697:1 8704:1 8714:1 8715:1 8744:1  |EV| 
-0.010000000000000000208166817117217 1554:1 3719:1 5934:1 6305:1 6421:1 6517:1 7674:1 7874:1 7951:1 8331:1 8334:1 8338:1 8341:1 8454:1 8568:1 8681:1 8697:1 8704:1 8714:1 8715:1 8744:1  |EV| 
0.010000000000000000208166817117217 1641:1 3820:1 6018:1 6323:1 7380:1 7725:1 7874:1 7892:1 8331:1 8335:1 8338:1 8357:1 8454:1 8568:1 8682:1 8697:1 8704:1 8714:1 8715:1 8726:1 8744:1  |EV| 
0.010000000000000000208166817117217 476:1 2852:1 5086:1 6311:1 6434:1 6517:1 6917:1 7186:1 7874:1 8331:1 8335:1 8338:1 8359:1 8454:1 8568:1 8682:1 8697:1 8704:1 8714:1 8715:1 8718:1 8726:1 8744:1  |EV| 
0.010000000000000000208166817117217 304:1 2197:1 4416:1 6337:1 6395:1 7874:1 8331:1 8335:1 8338:1 8352:1 8454:1 8568:1 8682:1 8697:1 8704:1 8714:1 8715:1 8726:1 8744:1  |EV| 
0.010000000000000000208166817117217 332:1 2244:1 5747:1 6337:1 7146:1 7874:1 8331:1 8335:1 8338:1 8352:1 8454:1 8568:1 8682:1 8697:1 8704:1 8714:1 8715:1 8717:1 8726:1 8744:1  |EV| 
0.010000000000000000208166817117217 67:1 1920:1 6281:1 6337:1 7840:1 7874:1 8331:1 8335:1 8338:1 8352:1 8454:1 8568:1 8682:1 8697:1 8704:1 8714:1 8715:1 8726:1 8744:1  |EV| 
-0.010000000000000000208166817117217 1513:1 3667:1 5882:1 6315:1 6337:1 6346:1 6350:1 6459:1 6605:1 6768:1 7219:1 7220:1 7629:1 7874:1 8247:1 8331:1 8335:1 8338:1 8388:1 8454:1 8568:1 8686:1 8697:1 8704:1 8714:1 8715:1 8726:1 8744:1  |EV| 
-0.010000000000000000208166817117217 728:1 2714:1 4956:1 6305:1 6309:1 6316:1 6337:1 6338:1 6400:1 6673:1 6900:1 7126:1 7127:1 7128:1 7129:1 7130:1 7131:1 7874:1 8331:1 8335:1 8338:1 8393:1 8454:1 8568:1 8686:1 8697:1 8704:1 8714:1 8715:1 8726:1 8744:1  |EV| 
-0.0047580036475798892503519255114952 222:1 2101:1 4327:1 6517:1 6523:1 7874:1 7878:1 8331:1 8335:1 8338:1 8352:1 8454:1 8568:1 8682:1 8697:1 8704:1 8714:1 8715:1 8730:1 8744:1  |EV| 
-0.010000000000000000208166817117217 1542:1 3703:1 5921:1 6321:1 6337:1 6344:1 6396:1 6406:1 6461:1 6493:1 7226:1 7618:1 7874:1 8331:1 8335:1 8338:1 8353:1 8454:1 8568:1 8686:1 8697:1 8704:1 8714:1 8715:1 8717:1 8726:1 8744:1  |EV| 
-0.010000000000000000208166817117217 37:1 1887:1 5127:1 6321:1 6337:1 6346:1 6377:1 6459:1 6818:1 7215:1 7226:1 7227:1 7874:1 7897:1 8331:1 8335:1 8338:1 8353:1 8454:1 8568:1 8686:1 8697:1 8704:1 8714:1 8715:1 8726:1 8744:1  |EV| 
0.010000000000000000208166817117217 1086:1 3163:1 4998:1 6461:1 7874:1 8030:1 8331:1 8334:1 8338:1 8339:1 8454:1 8568:1 8681:1 8697:1 8707:1 8714:1 8715:1 8718:1 8726:1 8744:1  |EV| 
0.010000000000000000208166817117217 1221:1 3343:1 4088:1 7874:1 7941:1 8331:1 8334:1 8338:1 8350:1 8454:1 8568:1 8681:1 8697:1 8707:1 8714:1 8715:1 8726:1 8731:1 8744:1  |EV| 
0.010000000000000000208166817117217 1639:1 3818:1 6016:1 6337:1 7723:1 7724:1 7874:1 8061:1 8331:1 8334:1 8338:1 8341:1 8454:1 8568:1 8681:1 8697:1 8706:1 8714:1 8715:1 8726:1 8744:1  |EV| 
0.010000000000000000208166817117217 178:1 2315:1 5223:1 6305:1 6377:1 6438:1 6472:1 6668:1 6733:1 7287:1 7288:1 7874:1 8331:1 8334:1 8338:1 8358:1 8454:1 8568:1 8681:1 8697:1 8704:1 8714:1 8715:1 8726:1 8744:1  |EV| 
-0.010000000000000000208166817117217 1364:1 3480:1 4088:1 7874:1 7877:1 8331:1 8334:1 8338:1 8350:1 8454:1 8568:1 8681:1 8697:1 8704:1 8714:1 8718:1 8744:1  |EV| 
-0.010000000000000000208166817117217 519:1 2453:1 4692:1 6307:1 6311:1 6441:1 6943:1 7874:1 8331:1 8334:1 8338:1 8341:1 8454:1 8568:1 8681:1 8697:1 8707:1 8714:1 8715:1 8744:1  |EV| 
-0.010000000000000000208166817117217 874:1 2945:1 5189:1 6307:1 6331:1 6337:1 6443:1 6475:1 6525:1 6572:1 6665:1 6783:1 7222:1 7874:1 8331:1 8334:1 8338:1 8363:1 8454:1 8568:1 8685:1 8697:1 8704:1 8714:1 8715:1 8726:1 8744:1  |EV| 
-0.0020846003491268526829072182948721 463:1 2390:1 4633:1 6307:1 6321:1 6439:1 6607:1 6828:1 7874:1 8331:1 8334:1 8338:1 8345:1 8454:1 8568:1 8681:1 8697:1 8707:1 8714:1 8715:1 8728:1 8744:1  |EV| 
-0.010000000000000000208166817117217 1316:1 3432:1 5276:1 6733:1 7874:1 8331:1 8334:1 8338:1 8339:1 8454:1 8568:1 8681:1 8697:1 8705:1 8714:1 8715:1 8744:1  |EV| 
0.010000000000000000208166817117217 345:1 3073:1 5317:1 6305:1 6321:1 6337:1 6346:1 6352:1 6416:1 6482:1 6485:1 7267:1 7277:1 7874:1 8331:1 8334:1 8338:1 8375:1 8454:1 8568:1 8685:1 8697:1 8704:1 8714:1 8715:1 8726:1 8744:1  |EV| 
0.010000000000000000208166817117217 1826:1 4050:1 6261:1 6305:1 6337:1 6346:1 6517:1 6562:1 6934:1 7541:1 7853:1 7854:1 7855:1 7874:1 7877:1 8331:1 8334:1 8338:1 8375:1 8454:1 8568:1 8685:1 8697:1 8704:1 8714:1 8715:1 8726:1 8744:1  |EV| 
0.010000000000000000208166817117217 536:1 2652:1 5602:1 6337:1 6346:1 6348:1 6443:1 6562:1 6600:1 6875:1 7479:1 7480:1 7481:1 7493:1 7494:1 7874:1 7931:1 8331:1 8334:1 8338:1 8392:1 8454:1 8568:1 8685:1 8697:1 8704:1 8714:1 8715:1 8726:1 8744:1  |EV| 
0.010000000000000000208166817117217 88:1 1942:1 6254:1 6305:1 6316:1 6323:1 6338:1 6346:1 6470:1 6917:1 7663:1 7865:1 7866:1 7874:1 8331:1 8334:1 8338:1 8363:1 8454:1 8568:1 8685:1 8697:1 8704:1 8714:1 8715:1 8726:1 8744:1  |EV| 
0.010000000000000000208166817117217 1735:1 3925:1 6133:1 6321:1 6337:1 6344:1 6354:1 6365:1 6482:1 6507:1 6531:1 6665:1 6680:1 6694:1 6803:1 7118:1 7239:1 7264:1 7498:1 7798:1 7799:1 7800:1 7874:1 8331:1 8334:1 8338:1 8409:1 8454:1 8568:1 8688:1 8697:1 8704:1 8714:1 8715:1 8726:1 8744:1  |EV| 
-0.0053474716108665842212444019310169 581:1 2544:1 4796:1 6321:1 6341:1 6479:1 6503:1 6609:1 6970:1 7874:1 8331:1 8334:1 8338:1 8398:1 8454:1 8568:1 8681:1 8697:1 8705:1 8714:1 8715:1 8744:1  |EV| 
-0.010000000000000000208166817117217 700:1 2683:1 4924:1 6307:1 6318:1 6319:1 6320:1 6321:1 6337:1 6338:1 6340:1 6346:1 6355:1 6466:1 6617:1 6635:1 6673:1 6737:1 6826:1 7094:1 7095:1 7096:1 7097:1 7098:1 7874:1 8331:1 8334:1 8338:1 8382:1 8454:1 8568:1 8688:1 8697:1 8704:1 8714:1 8715:1 8726:1 8744:1  |EV| 
-0.010000000000000000208166817117217 1790:1 4004:1 6247:1 6307:1 6309:1 6337:1 6346:1 6355:1 6396:1 6409:1 6417:1 6440:1 6545:1 6690:1 7259:1 7351:1 7432:1 7844:1 7845:1 7874:1 8331:1 8334:1 8338:1 8396:1 8454:1 8568:1 8685:1 8697:1 8704:1 8714:1 8715:1 8726:1 8744:1  |EV| 
-0.010000000000000000208166817117217 4:1 1872:1 4947:1 6321:1 6322:1 6323:1 6331:1 6337:1 6395:1 6396:1 6434:1 6476:1 6507:1 6927:1 7111:1 7874:1 8331:1 8334:1 8338:1 8389:1 8454:1 8568:1 8685:1 8697:1 8704:1 8714:1 8715:1 8717:1 8726:1 8744:1  |EV| 
-0.010000000000000000208166817117217 985:1 3035:1 5281:1 6305:1 6309:1 6321:1 6331:1 6337:1 6346:1 6352:1 6416:1 6420:1 6434:1 6442:1 6482:1 6485:1 7267:1 7277:1 7874:1 8331:1 8334:1 8338:1 8349:1 8454:1 8568:1 8685:1 8697:1 8704:1 8714:1 8715:1 8726:1 8744:1  |EV| 
0.010000000000000000208166817117217 499:1 2431:1 4673:1 6307:1 6321:1 6795:1 7874:1 7877:1 8331:1 8334:1 8338:1 8348:1 8454:1 8568:1 8681:1 8697:1 8707:1 8714:1 8715:1 8717:1 8726:1 8744:1  |EV| 
0.010000000000000000208166817117217 945:1 3937:1 4701:1 6307:1 6691:1 7874:1 7997:1 8331:1 8334:1 8338:1 8364:1 8454:1 8568:1 8681:1 8697:1 8707:1 8714:1 8715:1 8726:1 8728:1 8744:1  |EV| 
0.010000000000000000208166817117217 744:1 2734:1 4976:1 6315:1 6321:1 6398:1 7148:1 7874:1 8331:1 8334:1 8338:1 8341:1 8454:1 8568:1 8681:1 8697:1 8704:1 8714:1 8715:1 8726:1 8744:1  |EV| 
-0.010000000000000000208166817117217 476:1 3393:1 5610:1 6305:1 6321:1 6344:1 6397:1 6415:1 6475:1 6499:1 6595:1 6966:1 7505:1 7874:1 8331:1 8334:1 8338:1 8363:1 8454:1 8568:1 8685:1 8697:1 8704:1 8714:1 8715:1 8717:1 8726:1 8744:1  |EV| 
-0.010000000000000000208166817117217 1267:1 3373:1 5594:1 6305:1 6321:1 6344:1 6415:1 6499:1 6595:1 6966:1 7874:1 7895:1 8331:1 8335:1 8338:1 8368:1 8454:1 8568:1 8682:1 8697:1 8704:1 8714:1 8715:1 8717:1 8726:1 8744:1  |EV| 
-0.010000000000000000208166817117217 332:1 2923:1 5172:1 6318:1 6319:1 6320:1 6321:1 6323:1 6344:1 6346:1 6427:1 6459:1 6461:1 6517:1 6717:1 7204:1 7214:1 7215:1 7216:1 7217:1 7218:1 7874:1 8118:1 8331:1 8335:1 8338:1 8372:1 8454:1 8568:1 8687:1 8697:1 8704:1 8714:1 8715:1 8726:1 8744:1  |EV| 
-0.010000000000000000208166817117217 1752:1 3951:1 6179:1 6318:1 6319:1 6320:1 6321:1 6323:1 6337:1 6409:1 6435:1 6459:1 6461:1 6506:1 6609:1 7190:1 7304:1 7716:1 7832:1 7833:1 7834:1 7835:1 7874:1 8331:1 8334:1 8338:1 8401:1 8454:1 8568:1 8688:1 8697:1 8707:1 8714:1 8715:1 8726:1 8744:1  |EV| 
-0.010000000000000000208166817117217 930:1 2969:1 5215:1 6305:1 6331:1 6337:1 6359:1 6430:1 6435:1 6507:1 6566:1 6870:1 7260:1 7261:1 7262:1 7263:1 7264:1 7265:1 7266:1 7276:1 7874:1 8122:1 8331:1 8334:1 8338:1 8377:1 8454:1 8568:1 8685:1 8697:1 8705:1 8714:1 8715:1 8726:1 8727:1 8744:1  |EV| 
0.010000000000000000208166817117217 84:1 1983:1 4219:1 6321:1 6337:1 6377:1 6394:1 6442:1 6504:1 6505:1 6528:1 7874:1 8331:1 8334:1 8338:1 8358:1 8454:1 8568:1 8681:1 8697:1 8704:1 8714:1 8715:1 8726:1 8744:1  |EV| 
0.010000000000000000208166817117217 202:1 2251:1 5636:1 6307:1 6337:1 6447:1 7874:1 8331:1 8335:1 8338:1 8357:1 8454:1 8568:1 8682:1 8697:1 8704:1 8714:1 8715:1 8726:1 8744:1  |EV| 
-0.010000000000000000208166817117217 1560:1 3726:1 5941:1 6337:1 7682:1 7874:1 7947:1 8331:1 8334:1 8338:1 8364:1 8454:1 8568:1 8681:1 8697:1 8704:1 8714:1 8715:1 8728:1 8744:1  |EV| 
-0.010000000000000000208166817117217 49:1 1900:1 4148:1 6337:1 6349:1 7874:1 7899:1 8331:1 8334:1 8338:1 8364:1 8454:1 8568:1 8681:1 8697:1 8704:1 8714:1 8715:1 8744:1  |EV| 
0.010000000000000000208166817117217 1510:1 3662:1 5873:1 6323:1 6346:1 6359:1 6435:1 6552:1 6631:1 6692:1 6926:1 7432:1 7651:1 7874:1 8331:1 8334:1 8338:1 8375:1 8454:1 8568:1 8685:1 8697:1 8704:1 8714:1 8715:1 8726:1 8744:1  |EV| 
0.010000000000000000208166817117217 1171:1 3261:1 5492:1 6321:1 6337:1 6346:1 6406:1 6517:1 7113:1 7114:1 7319:1 7422:1 7874:1 8331:1 8334:1 8338:1 8375:1 8454:1 8568:1 8685:1 8697:1 8704:1 8714:1 8715:1 8726:1 8744:1  |EV| 
-0.010000000000000000208166817117217 717:1 2702:1 4943:1 6305:1 6307:1 6321:1 6337:1 6341:1 6346:1 6368:1 6444:1 6609:1 6745:1 6746:1 7112:1 7113:1 7114:1 7115:1 7116:1 7874:1 8331:1 8335:1 8338:1 8393:1 8454:1 8568:1 8686:1 8697:1 8704:1 8714:1 8726:1 8744:1  |EV| 
-0.010000000000000000208166817117217 486:1 2415:1 5052:1 6316:1 6321:1 6322:1 6323:1 6337:1 6346:1 6354:1 6359:1 6434:1 6453:1 6483:1 6517:1 6534:1 6553:1 6571:1 6645:1 6673:1 6948:1 6950:1 7192:1 7193:1 7194:1 7195:1 7196:1 7874:1 8331:1 8335:1 8338:1 8415:1 8454:1 8568:1 8690:1 8697:1 8704:1 8714:1 8715:1 8726:1 8744:1  |EV| 
-0.010000000000000000208166817117217 202:1 3855:1 6060:1 6305:1 6319:1 6321:1 6323:1 6333:1 6337:1 6344:1 6346:1 6347:1 6384:1 6457:1 6494:1 6548:1 6747:1 7327:1 7740:1 7741:1 7742:1 7874:1 8331:1 8335:1 8338:1 8390:1 8454:1 8568:1 8687:1 8697:1 8704:1 8714:1 8715:1 8726:1 8744:1  |EV| 
-0.010000000000000000208166817117217 1384:1 3500:1 5710:1 6326:1 6331:1 6340:1 6517:1 6864:1 6926:1 7562:1 7874:1 8331:1 8334:1 8338:1 8356:1 8454:1 8568:1 8681:1 8697:1 8704:1 8714:1 8715:1 8744:1  |EV| 
0.010000000000000000208166817117217 69:1 1922:1 4148:1 6337:1 6349:1 7874:1 7899:1 8331:1 8334:1 8338:1 8364:1 8454:1 8568:1 8681:1 8697:1 8704:1 8714:1 8715:1 8726:1 8744:1  |EV| 
0.010000000000000000208166817117217 4:1 1872:1 4873:1 6927:1 7874:1 8331:1 8334:1 8338:1 8339:1 8454:1 8568:1 8681:1 8697:1 8704:1 8714:1 8715:1 8717:1 8726:1 8744:1  |EV| 
0.010000000000000000208166817117217 4:1 1872:1 4277:1 6307:1 6545:1 7874:1 8331:1 8334:1 8338:1 8364:1 8454:1 8568:1 8681:1 8697:1 8704:1 8714:1 8715:1 8726:1 8744:1  |EV| 
0.001937804096684668953703978289127 92:1 2756:1 4657:1 6641:1 7874:1 7877:1 8331:1 8334:1 8338:1 8339:1 8454:1 8568:1 8681:1 8697:1 8704:1 8714:1 8715:1 8726:1 8744:1  |EV| 
0.010000000000000000208166817117217 171:1 2049:1 4277:1 6307:1 6545:1 7874:1 8331:1 8334:1 8338:1 8364:1 8454:1 8568:1 8681:1 8697:1 8704:1 8714:1 8715:1 8718:1 8726:1 8744:1  |EV| 
-0.010000000000000000208166817117217 1296:1 3407:1 5623:1 6574:1 7874:1 7962:1 8331:1 8334:1 8338:1 8339:1 8454:1 8568:1 8681:1 8697:1 8706:1 8714:1 8715:1 8727:1 8744:1  |EV| 
-0.010000000000000000208166817117217 1321:1 3437:1 4174:1 6307:1 7874:1 7878:1 8331:1 8334:1 8338:1 8339:1 8454:1 8568:1 8681:1 8697:1 8706:1 8714:1 8715:1 8727:1 8744:1  |EV| 
-0.010000000000000000208166817117217 338:1 2240:1 4456:1 6337:1 6368:1 6702:1 6736:1 7874:1 8331:1 8334:1 8338:1 8341:1 8454:1 8568:1 8681:1 8697:1 8706:1 8714:1 8715:1 8717:1 8727:1 8744:1  |EV| 
-0.010000000000000000208166817117217 489:1 2419:1 4662:1 6307:1 6544:1 7874:1 8331:1 8334:1 8338:1 8364:1 8454:1 8568:1 8681:1 8697:1 8705:1 8714:1 8715:1 8731:1 8744:1  |EV| 
-0.010000000000000000208166817117217 265:1 2151:1 4379:1 6307:1 6321:1 6352:1 6365:1 6442:1 6636:1 6642:1 6675:1 6691:1 6692:1 6694:1 6708:1 6710:1 7874:1 8331:1 8334:1 8338:1 8389:1 8454:1 8568:1 8685:1 8697:1 8704:1 8714:1 8715:1 8744:1  |EV| 
0.010000000000000000208166817117217 387:1 2446:1 4153:1 6321:1 7874:1 7880:1 8331:1 8335:1 8338:1 8343:1 8454:1 8568:1 8682:1 8697:1 8704:1 8714:1 8715:1 8726:1 8744:1  |EV| 
0.010000000000000000208166817117217 1273:1 3380:1 4084:1 7874:1 8331:1 8335:1 8338:1 8346:1 8454:1 8568:1 8682:1 8697:1 8704:1 8714:1 8715:1 8726:1 8744:1  |EV| 
0.010000000000000000208166817117217 475:1 3926:1 6134:1 6337:1 6647:1 7874:1 8331:1 8335:1 8338:1 8352:1 8454:1 8568:1 8682:1 8697:1 8704:1 8714:1 8715:1 8726:1 8744:1  |EV| 
0.010000000000000000208166817117217 547:1 2492:1 5067:1 6321:1 6337:1 6471:1 7179:1 7199:1 7874:1 8331:1 8334:1 8338:1 8345:1 8454:1 8568:1 8681:1 8697:1 8707:1 8714:1 8715:1 8726:1 8744:1  |EV| 
0.010000000000000000208166817117217 29:1 1877:1 5023:1 6305:1 6321:1 6337:1 6338:1 6442:1 6893:1 7123:1 7124:1 7874:1 8331:1 8334:1 8338:1 8358:1 8454:1 8568:1 8681:1 8697:1 8704:1 8714:1 8715:1 8726:1 8744:1  |EV| 
-0.010000000000000000208166817117217 129:1 3060:1 5305:1 6359:1 6547:1 7874:1 7880:1 8331:1 8335:1 8338:1 8352:1 8454:1 8568:1 8682:1 8697:1 8704:1 8714:1 8715:1 8732:1 8744:1  |EV| 
-0.010000000000000000208166817117217 367:1 2281:1 4502:1 6792:1 6793:1 7874:1 7880:1 8331:1 8335:1 8338:1 8352:1 8454:1 8568:1 8682:1 8697:1 8704:1 8714:1 8715:1 8732:1 8744:1  |EV| 
-0.010000000000000000208166817117217 169:1 2671:1 4913:1 6305:1 6337:1 6338:1 6345:1 6346:1 6353:1 6368:1 6426:1 6448:1 6478:1 6479:1 6507:1 6599:1 6607:1 6737:1 7060:1 7062:1 7074:1 7075:1 7076:1 7077:1 7078:1 7874:1 8331:1 8334:1 8338:1 8370:1 8454:1 8568:1 8688:1 8697:1 8704:1 8714:1 8715:1 8726:1 8744:1  |EV| 
0.010000000000000000208166817117217 1032:1 3104:1 6180:1 6337:1 6461:1 7716:1 7874:1 7931:1 8331:1 8334:1 8338:1 8341:1 8454:1 8568:1 8681:1 8697:1 8707:1 8714:1 8715:1 8726:1 8744:1  |EV| 
0.010000000000000000208166817117217 595:1 2560:1 4819:1 6337:1 6344:1 6346:1 6360:1 6435:1 6457:1 6461:1 6492:1 6574:1 6581:1 6632:1 6986:1 6988:1 6989:1 6990:1 7874:1 8331:1 8334:1 8338:1 8392:1 8454:1 8568:1 8685:1 8697:1 8704:1 8714:1 8715:1 8726:1 8744:1  |EV| 
0.010000000000000000208166817117217 252:1 2137:1 4357:1 6337:1 6346:1 6654:1 6688:1 7874:1 7966:1 8331:1 8334:1 8338:1 8341:1 8454:1 8568:1 8681:1 8697:1 8704:1 8714:1 8715:1 8726:1 8744:1  |EV| 
0.010000000000000000208166817117217 130:1 3089:1 5735:1 6321:1 6337:1 6433:1 6436:1 6673:1 7527:1 7566:1 7567:1 7568:1 7874:1 8331:1 8334:1 8338:1 8363:1 8454:1 8568:1 8685:1 8697:1 8704:1 8714:1 8715:1 8726:1 8744:1  |EV| 
-0.010000000000000000208166817117217 197:1 2073:1 4298:1 6305:1 6307:1 6309:1 6331:1 6337:1 6346:1 6349:1 6358:1 6443:1 6517:1 6526:1 6554:1 6555:1 6556:1 6557:1 6584:1 6585:1 7874:1 8331:1 8334:1 8338:1 8394:1 8454:1 8568:1 8685:1 8697:1 8704:1 8714:1 8715:1 8726:1 8744:1  |EV| 
-0.010000000000000000208166817117217 474:1 2418:1 4665:1 6305:1 6312:1 6321:1 6337:1 6416:1 6446:1 6475:1 6499:1 6544:1 6574:1 6611:1 6639:1 6641:1 6681:1 6694:1 6795:1 6899:1 6900:1 6924:1 6925:1 7874:1 8331:1 8334:1 8338:1 8382:1 8454:1 8568:1 8688:1 8697:1 8704:1 8714:1 8715:1 8726:1 8744:1  |EV| 
-0.010000000000000000208166817117217 900:1 2936:1 5177:1 6307:1 6321:1 6331:1 6337:1 6346:1 6351:1 6377:1 6459:1 6572:1 6809:1 6818:1 7215:1 7226:1 7227:1 7874:1 8331:1 8334:1 8338:1 8389:1 8454:1 8568:1 8685:1 8697:1 8704:1 8714:1 8715:1 8726:1 8744:1  |EV| 
-0.010000000000000000208166817117217 202:1 2078:1 4570:1 6321:1 6331:1 6344:1 6346:1 6368:1 6440:1 6483:1 6595:1 6819:1 6820:1 6821:1 6822:1 6823:1 6824:1 7874:1 8331:1 8334:1 8338:1 8389:1 8454:1 8568:1 8685:1 8697:1 8704:1 8714:1 8715:1 8726:1 8744:1  |EV| 
-0.010000000000000000208166817117217 342:1 2247:1 4463:1 6337:1 6733:1 7874:1 8331:1 8334:1 8338:1 8364:1 8454:1 8568:1 8681:1 8697:1 8707:1 8714:1 8715:1 8744:1  |EV| 
-0.010000000000000000208166817117217 585:1 2549:1 4803:1 6461:1 6986:1 7874:1 8030:1 8331:1 8334:1 8338:1 8364:1 8454:1 8568:1 8681:1 8697:1 8707:1 8714:1 8715:1 8732:1 8744:1  |EV| 
-0.010000000000000000208166817117217 908:1 3157:1 5405:1 6592:1 6641:1 7874:1 8030:1 8331:1 8334:1 8338:1 8364:1 8454:1 8568:1 8681:1 8697:1 8704:1 8714:1 8715:1 8731:1 8744:1  |EV| 
-0.010000000000000000208166817117217 478:1 2449:1 4088:1 7874:1 7877:1 8331:1 8334:1 8338:1 8350:1 8454:1 8568:1 8681:1 8697:1 8705:1 8714:1 8715:1 8731:1 8744:1  |EV| 
-0.010000000000000000208166817117217 1180:1 3270:1 4088:1 7874:1 7925:1 8331:1 8334:1 8338:1 8350:1 8454:1 8568:1 8681:1 8697:1 8705:1 8714:1 8715:1 8744:1  |EV| 
0.010000000000000000208166817117217 29:1 1892:1 4139:1 6319:1 6321:1 6333:1 6337:1 6346:1 6383:1 6384:1 6385:1 6386:1 6387:1 6388:1 6389:1 6390:1 6391:1 6416:1 7874:1 8331:1 8334:1 8338:1 8377:1 8454:1 8568:1 8685:1 8697:1 8704:1 8714:1 8715:1 8726:1 8744:1  |EV| 
0.010000000000000000208166817117217 233:1 2114:1 4084:1 7874:1 7880:1 8331:1 8335:1 8338:1 8346:1 8454:1 8568:1 8682:1 8697:1 8704:1 8714:1 8715:1 8726:1 8744:1  |EV| 
0.010000000000000000208166817117217 413:1 2331:1 4084:1 7874:1 7880:1 8331:1 8335:1 8338:1 8346:1 8454:1 8568:1 8682:1 8697:1 8704:1 8714:1 8715:1 8726:1 8744:1  |EV| 
0.010000000000000000208166817117217 569:1 3320:1 5552:1 7458:1 7459:1 7874:1 7885:1 8331:1 8335:1 8338:1 8352:1 8454:1 8568:1 8682:1 8697:1 8704:1 8714:1 8715:1 8726:1 8744:1  |EV| 
-0.010000000000000000208166817117217 64:1 1917:1 4163:1 6305:1 6337:1 6344:1 6346:1 6418:1 6419:1 6420:1 6421:1 7874:1 7915:1 8331:1 8335:1 8338:1 8353:1 8454:1 8568:1 8686:1 8697:1 8704:1 8714:1 8715:1 8726:1 8744:1  |EV| 
-0.010000000000000000208166817117217 96:1 3321:1 4084:1 7874:1 7880:1 8331:1 8335:1 8338:1 8346:1 8454:1 8568:1 8682:1 8697:1 8704:1 8714:1 8715:1 8744:1  |EV| 
-0.010000000000000000208166817117217 137:1 2070:1 5236:1 6312:1 6321:1 6331:1 6344:1 6436:1 6547:1 6864:1 7289:1 7290:1 7874:1 8331:1 8335:1 8338:1 8388:1 8454:1 8568:1 8686:1 8697:1 8704:1 8714:1 8715:1 8726:1 8744:1  |EV| 
-0.010000000000000000208166817117217 44:1 1903:1 4084:1 7874:1 7880:1 8331:1 8335:1 8338:1 8346:1 8454:1 8568:1 8682:1 8697:1 8704:1 8714:1 8715:1 8744:1  |EV| 
0.010000000000000000208166817117217 375:1 2289:1 4510:1 6571:1 6794:1 7874:1 7986:1 8331:1 8334:1 8338:1 8364:1 8454:1 8568:1 8681:1 8697:1 8705:1 8714:1 8715:1 8726:1 8744:1  |EV| 
0.010000000000000000208166817117217 796:1 2798:1 4088:1 7874:1 7925:1 8331:1 8334:1 8338:1 8350:1 8454:1 8568:1 8681:1 8697:1 8707:1 8714:1 8715:1 8726:1 8744:1  |EV| 
0.010000000000000000208166817117217 690:1 2672:1 4914:1 6397:1 7874:1 7877:1 8331:1 8334:1 8338:1 8339:1 8454:1 8568:1 8681:1 8697:1 8705:1 8714:1 8715:1 8726:1 8744:1  |EV| 
0.010000000000000000208166817117217 690:1 2674:1 4914:1 6397:1 7874:1 7877:1 8331:1 8334:1 8338:1 8339:1 8454:1 8568:1 8681:1 8697:1 8705:1 8714:1 8715:1 8726:1 8744:1  |EV| 
0.010000000000000000208166817117217 1585:1 3755:1 5967:1 6307:1 6338:1 6609:1 7874:1 8331:1 8334:1 8338:1 8348:1 8454:1 8568:1 8681:1 8697:1 8705:1 8714:1 8715:1 8726:1 8744:1  |EV| 
-0.010000000000000000208166817117217 1348:1 3464:1 5673:1 6307:1 6315:1 6320:1 6321:1 6337:1 6375:1 6396:1 6415:1 6438:1 6464:1 6617:1 6917:1 7014:1 7117:1 7530:1 7531:1 7532:1 7533:1 7874:1 8331:1 8334:1 8338:1 8409:1 8454:1 8568:1 8688:1 8697:1 8707:1 8714:1 8715:1 8726:1 8727:1 8744:1  |EV| 
-0.0086557217597905897199517255558021 88:1 1942:1 6226:1 6305:1 6307:1 6315:1 6321:1 6323:1 6337:1 6338:1 6344:1 6346:1 6401:1 6427:1 6446:1 6449:1 6475:1 6572:1 6605:1 6705:1 6789:1 7134:1 7135:1 7663:1 7811:1 7842:1 7843:1 7863:1 7874:1 8331:1 8334:1 8338:1 8370:1 8454:1 8568:1 8688:1 8697:1 8704:1 8714:1 8715:1 8726:1 8744:1  |EV| 
-0.010000000000000000208166817117217 183:1 2056:1 4282:1 6307:1 6349:1 6557:1 7874:1 7953:1 8331:1 8334:1 8338:1 8348:1 8454:1 8568:1 8681:1 8697:1 8705:1 8714:1 8715:1 8744:1  |EV| 
-0.010000000000000000208166817117217 186:1 2060:1 4174:1 6307:1 7874:1 7941:1 8331:1 8334:1 8338:1 8339:1 8454:1 8568:1 8681:1 8697:1 8707:1 8714:1 8715:1 8729:1 8744:1  |EV| 
0.010000000000000000208166817117217 1328:1 3444:1 4084:1 7874:1 7880:1 8331:1 8335:1 8338:1 8346:1 8454:1 8568:1 8682:1 8697:1 8704:1 8714:1 8715:1 8726:1 8744:1  |EV| 
0.010000000000000000208166817117217 1556:1 3721:1 4084:1 7874:1 7880:1 8331:1 8335:1 8338:1 8346:1 8454:1 8568:1 8682:1 8697:1 8704:1 8714:1 8715:1 8726:1 8744:1  |EV| 
0.010000000000000000208166817117217 370:1 2626:1 4877:1 6471:1 7019:1 7020:1 7021:1 7027:1 7874:1 8331:1 8335:1 8338:1 8359:1 8454:1 8568:1 8682:1 8697:1 8704:1 8714:1 8715:1 8726:1 8744:1  |EV| 
-0.010000000000000000208166817117217 130:1 1994:1 4084:1 7874:1 7880:1 8331:1 8335:1 8338:1 8346:1 8454:1 8568:1 8682:1 8697:1 8704:1 8714:1 8715:1 8732:1 8744:1  |EV| 
-0.010000000000000000208166817117217 130:1 2009:1 4084:1 7874:1 7880:1 8331:1 8335:1 8338:1 8346:1 8454:1 8568:1 8682:1 8697:1 8704:1 8714:1 8715:1 8732:1 8744:1  |EV| 
-0.010000000000000000208166817117217 428:1 2346:1 4575:1 6389:1 6536:1 6607:1 6840:1 6841:1 7874:1 8331:1 8335:1 8338:1 8359:1 8454:1 8568:1 8682:1 8697:1 8704:1 8714:1 8715:1 8744:1  |EV| 
-0.0028949223656387348610485865663122 564:1 2517:1 4768:1 6337:1 6459:1 7874:1 8025:1 8331:1 8334:1 8338:1 8364:1 8454:1 8568:1 8681:1 8697:1 8707:1 8714:1 8715:1 8744:1  |EV| 
0.010000000000000000208166817117217 164:1 2495:1 5096:1 6346:1 7197:1 7202:1 7874:1 8331:1 8334:1 8338:1 8348:1 8454:1 8568:1 8681:1 8697:1 8707:1 8714:1 8715:1 8726:1 8744:1  |EV| 
0.010000000000000000208166817117217 130:1 3089:1 5336:1 6305:1 6337:1 6368:1 6434:1 6529:1 6549:1 6694:1 7270:1 7305:1 7874:1 8331:1 8334:1 8338:1 8371:1 8454:1 8568:1 8681:1 8697:1 8704:1 8714:1 8715:1 8726:1 8744:1  |EV| 
0.010000000000000000208166817117217 201:1 2077:1 4304:1 6307:1 6349:1 6517:1 6556:1 6557:1 7874:1 8331:1 8334:1 8338:1 8345:1 8454:1 8568:1 8681:1 8697:1 8704:1 8714:1 8715:1 8726:1 8744:1  |EV| 
0.010000000000000000208166817117217 1076:1 3152:1 5399:1 6321:1 6337:1 6349:1 6980:1 7350:1 7874:1 7877:1 7920:1 8331:1 8334:1 8338:1 8398:1 8454:1 8568:1 8681:1 8697:1 8704:1 8714:1 8715:1 8726:1 8744:1  |EV| 
0.010000000000000000208166817117217 56:1 1909:1 4174:1 6307:1 7874:1 8331:1 8334:1 8338:1 8339:1 8454:1 8568:1 8681:1 8697:1 8704:1 8714:1 8715:1 8726:1 8744:1  |EV| 
-0.010000000000000000208166817117217 135:1 2000:1 4232:1 6305:1 6307:1 6309:1 6331:1 6337:1 6346:1 6349:1 6443:1 6517:1 6526:1 6554:1 6555:1 6556:1 6557:1 7874:1 8331:1 8334:1 8338:1 8389:1 8454:1 8568:1 8685:1 8697:1 8704:1 8714:1 8715:1 8726:1 8744:1  |EV| 
-0.010000000000000000208166817117217 922:1 2960:1 5206:1 6307:1 6321:1 6331:1 6337:1 6346:1 6351:1 6352:1 6377:1 6459:1 6572:1 6809:1 6818:1 7215:1 7226:1 7227:1 7874:1 8331:1 8334:1 8338:1 8396:1 8454:1 8568:1 8685:1 8697:1 8704:1 8714:1 8715:1 8726:1 8744:1  |EV| 
0.010000000000000000208166817117217 88:1 1942:1 5851:1 6337:1 6444:1 6447:1 7874:1 8331:1 8335:1 8338:1 8357:1 8454:1 8568:1 8682:1 8697:1 8704:1 8714:1 8715:1 8726:1 8744:1  |EV| 
0.010000000000000000208166817117217 178:1 2315:1 4084:1 7874:1 8331:1 8335:1 8338:1 8346:1 8454:1 8568:1 8682:1 8697:1 8704:1 8714:1 8715:1 8726:1 8744:1  |EV| 
0.010000000000000000208166817117217 209:1 2087:1 4322:1 6423:1 6651:1 7874:1 8331:1 8335:1 8338:1 8352:1 8454:1 8568:1 8682:1 8697:1 8704:1 8714:1 8715:1 8726:1 8744:1  |EV| 
0.010000000000000000208166817117217 67:1 1920:1 4165:1 6337:1 6432:1 7874:1 8331:1 8335:1 8338:1 8352:1 8454:1 8568:1 8682:1 8697:1 8704:1 8714:1 8715:1 8726:1 8744:1  |EV| 
-0.010000000000000000208166817117217 1790:1 4060:1 6279:1 6305:1 6307:1 6326:1 6337:1 6344:1 6350:1 6375:1 6426:1 6664:1 6708:1 7122:1 7259:1 7846:1 7847:1 7852:1 7874:1 8314:1 8331:1 8335:1 8338:1 8374:1 8454:1 8568:1 8686:1 8697:1 8704:1 8714:1 8715:1 8726:1 8744:1  |EV| 
-0.010000000000000000208166817117217 1456:1 3596:1 4528:1 6346:1 7874:1 8331:1 8334:1 8338:1 8339:1 8454:1 8568:1 8681:1 8697:1 8704:1 8714:1 8715:1 8744:1  |EV| 
0.010000000000000000208166817117217 569:1 3950:1 6156:1 6321:1 6337:1 6344:1 6354:1 6365:1 6482:1 6531:1 6665:1 6694:1 7118:1 7498:1 7798:1 7874:1 8331:1 8334:1 8338:1 8362:1 8454:1 8568:1 8685:1 8697:1 8704:1 8714:1 8715:1 8726:1 8744:1  |EV| 
0.010000000000000000208166817117217 474:1 2402:1 4786:1 6321:1 6641:1 6681:1 6694:1 6795:1 6925:1 7874:1 8331:1 8334:1 8338:1 8398:1 8454:1 8568:1 8681:1 8697:1 8704:1 8714:1 8715:1 8726:1 8744:1  |EV| 
0.010000000000000000208166817117217 378:1 2520:1 4772:1 6307:1 6311:1 6321:1 6326:1 6368:1 6441:1 6468:1 6535:1 6547:1 6585:1 6798:1 6803:1 6821:1 6827:1 6940:1 6941:1 6942:1 6943:1 7874:1 8331:1 8334:1 8338:1 8394:1 8454:1 8568:1 8685:1 8697:1 8704:1 8714:1 8715:1 8726:1 8744:1  |EV| 
0.010000000000000000208166817117217 516:1 2450:1 4689:1 6304:1 6305:1 7874:1 8331:1 8334:1 8338:1 8364:1 8454:1 8568:1 8681:1 8697:1 8704:1 8714:1 8715:1 8726:1 8744:1  |EV| 
-0.010000000000000000208166817117217 579:1 2542:1 4794:1 6311:1 7874:1 8331:1 8334:1 8338:1 8339:1 8454:1 8568:1 8681:1 8697:1 8705:1 8714:1 8715:1 8744:1  |EV| 
-0.010000000000000000208166817117217 1037:1 3110:1 6024:1 6305:1 6501:1 7123:1 7874:1 8331:1 8334:1 8338:1 8348:1 8454:1 8568:1 8681:1 8697:1 8704:1 8714:1 8715:1 8744:1  |EV| 
-0.010000000000000000208166817117217 1589:1 3759:1 5971:1 6307:1 6357:1 6456:1 6704:1 6708:1 7874:1 8331:1 8334:1 8338:1 8398:1 8454:1 8568:1 8681:1 8697:1 8704:1 8714:1 8715:1 8744:1  |EV| 
-0.0064228635581222159878223010309739 963:1 3018:1 5264:1 6309:1 6319:1 6321:1 6333:1 6337:1 6377:1 6384:1 6741:1 7269:1 7271:1 7272:1 7273:1 7274:1 7874:1 7878:1 8331:1 8335:1 8338:1 8387:1 8454:1 8568:1 8686:1 8697:1 8705:1 8714:1 8715:1 8726:1 8727:1 8744:1  |EV| 
-0.010000000000000000208166817117217 1065:1 3140:1 5386:1 6321:1 6326:1 6337:1 6767:1 6914:1 7123:1 7311:1 7312:1 7874:1 8146:1 8331:1 8334:1 8338:1 8371:1 8454:1 8568:1 8681:1 8697:1 8704:1 8714:1 8715:1 8744:1  |EV| 
-0.010000000000000000208166817117217 1344:1 3460:1 5668:1 6307:1 6320:1 6321:1 6337:1 6415:1 6438:1 7532:1 7533:1 7874:1 8213:1 8331:1 8335:1 8338:1 8353:1 8454:1 8568:1 8686:1 8697:1 8704:1 8714:1 8715:1 8726:1 8744:1  |EV| 
-0.010000000000000000208166817117217 541:1 2485:1 4721:1 6307:1 6311:1 6368:1 6441:1 6803:1 6827:1 6943:1 7874:1 8331:1 8334:1 8338:1 8356:1 8454:1 8568:1 8681:1 8697:1 8705:1 8714:1 8715:1 8744:1  |EV| 
-0.00316823363367062542025887061925 137:1 2070:1 4295:1 6305:1 6307:1 6309:1 6349:1 6517:1 6554:1 6555:1 6556:1 6557:1 7874:1 8331:1 8334:1 8338:1 8371:1 8454:1 8568:1 8681:1 8697:1 8704:1 8714:1 8715:1 8744:1  |EV| 
-0.010000000000000000208166817117217 962:1 3007:1 5254:1 6315:1 6321:1 6349:1 6585:1 7297:1 7874:1 8331:1 8334:1 8338:1 8345:1 8454:1 8568:1 8681:1 8697:1 8704:1 8714:1 8715:1 8744:1  |EV| 
-0.010000000000000000208166817117217 188:1 2062:1 4287:1 6305:1 6309:1 6331:1 6337:1 6346:1 6443:1 6554:1 7874:1 7898:1 8331:1 8335:1 8338:1 8368:1 8454:1 8568:1 8682:1 8697:1 8704:1 8714:1 8715:1 8726:1 8744:1  |EV| 
-0.010000000000000000208166817117217 486:1 2415:1 4688:1 6321:1 6323:1 6337:1 6344:1 6346:1 6409:1 6483:1 6517:1 6645:1 6821:1 6902:1 6912:1 6919:1 7874:1 8331:1 8335:1 8338:1 8374:1 8454:1 8568:1 8686:1 8697:1 8704:1 8714:1 8715:1 8726:1 8744:1  |EV| 
0.010000000000000000208166817117217 1131:1 3212:1 4618:1 6572:1 7874:1 8030:1 8331:1 8334:1 8338:1 8339:1 8454:1 8568:1 8681:1 8697:1 8704:1 8714:1 8715:1 8717:1 8726:1 8744:1  |EV| 
0.010000000000000000208166817117217 27:1 1875:1 6066:1 6346:1 6442:1 6494:1 6507:1 6594:1 7751:1 7752:1 7874:1 8331:1 8334:1 8338:1 8356:1 8454:1 8568:1 8681:1 8697:1 8704:1 8714:1 8715:1 8726:1 8744:1  |EV| 
0.010000000000000000208166817117217 476:1 2404:1 4773:1 6346:1 6915:1 6939:1 7874:1 8331:1 8334:1 8338:1 8348:1 8454:1 8568:1 8681:1 8697:1 8704:1 8714:1 8715:1 8717:1 8726:1 8744:1  |EV| 
0.010000000000000000208166817117217 251:1 2136:1 4356:1 6346:1 6652:1 7874:1 8331:1 8334:1 8338:1 8364:1 8454:1 8568:1 8681:1 8697:1 8704:1 8714:1 8715:1 8726:1 8744:1  |EV| 
0.010000000000000000208166817117217 1752:1 3951:1 4343:1 6609:1 7874:1 7931:1 8331:1 8334:1 8338:1 8339:1 8454:1 8568:1 8681:1 8697:1 8707:1 8714:1 8715:1 8726:1 8744:1  |EV| 
-0.010000000000000000208166817117217 30:1 1878:1 4114:1 6349:1 6350:1 7874:1 7899:1 8331:1 8334:1 8338:1 8364:1 8454:1 8568:1 8681:1 8697:1 8704:1 8714:1 8715:1 8731:1 8744:1  |EV| 
-0.010000000000000000208166817117217 147:1 2014:1 5815:1 6456:1 6678:1 7874:1 8331:1 8334:1 8338:1 8364:1 8454:1 8568:1 8681:1 8697:1 8704:1 8714:1 8715:1 8744:1  |EV| 
0.010000000000000000208166817117217 67:1 1920:1 4471:1 6337:1 6756:1 7874:1 8331:1 8335:1 8338:1 8352:1 8454:1 8568:1 8682:1 8697:1 8704:1 8714:1 8715:1 8726:1 8744:1  |EV| 
0.010000000000000000208166817117217 848:1 2879:1 5112:1 6321:1 6337:1 6416:1 6435:1 6436:1 6713:1 7874:1 8331:1 8334:1 8338:1 8398:1 8454:1 8568:1 8681:1 8697:1 8707:1 8714:1 8715:1 8726:1 8744:1  |EV| 
0.010000000000000000208166817117217 29:1 1877:1 5213:1 6321:1 6337:1 6352:1 7267:1 7874:1 8331:1 8334:1 8338:1 8341:1 8454:1 8568:1 8681:1 8697:1 8704:1 8714:1 8715:1 8726:1 8744:1  |EV| 
0.010000000000000000208166817117217 99:1 1953:1 4195:1 6307:1 6344:1 6515:1 7874:1 8331:1 8334:1 8338:1 8348:1 8454:1 8568:1 8681:1 8697:1 8704:1 8714:1 8715:1 8726:1 8744:1  |EV| 
-0.010000000000000000208166817117217 17:1 1863:1 4121:1 6337:1 6346:1 6354:1 7874:1 8331:1 8334:1 8338:1 8348:1 8454:1 8568:1 8681:1 8697:1 8704:1 8714:1 8715:1 8744:1  |EV| 
-0.010000000000000000208166817117217 226:1 3865:1 6069:1 6305:1 6321:1 6323:1 6331:1 6337:1 6344:1 6346:1 6347:1 6457:1 6494:1 6548:1 7874:1 8282:1 8331:1 8334:1 8338:1 8362:1 8454:1 8568:1 8685:1 8697:1 8707:1 8714:1 8715:1 8726:1 8744:1  |EV| 
-0.010000000000000000208166817117217 1634:1 3812:1 4092:1 6337:1 7874:1 8033:1 8150:1 8331:1 8334:1 8338:1 8339:1 8454:1 8568:1 8681:1 8697:1 8706:1 8714:1 8715:1 8744:1  |EV| 
0.010000000000000000208166817117217 1202:1 3555:1 4088:1 7874:1 7941:1 8331:1 8334:1 8338:1 8350:1 8454:1 8568:1 8681:1 8697:1 8704:1 8714:1 8715:1 8726:1 8731:1 8744:1  |EV| 
0.010000000000000000208166817117217 530:1 2471:1 4277:1 6307:1 6545:1 7874:1 8331:1 8334:1 8338:1 8364:1 8454:1 8568:1 8681:1 8697:1 8704:1 8714:1 8715:1 8726:1 8744:1  |EV| 
0.010000000000000000208166817117217 1239:1 3337:1 5562:1 6307:1 6582:1 7874:1 8331:1 8334:1 8338:1 8364:1 8454:1 8568:1 8681:1 8697:1 8704:1 8714:1 8715:1 8726:1 8744:1  |EV| 
0.010000000000000000208166817117217 4:1 1872:1 5179:1 6307:1 6809:1 7874:1 8331:1 8334:1 8338:1 8364:1 8454:1 8568:1 8681:1 8697:1 8704:1 8714:1 8715:1 8726:1 8744:1  |EV| 
-0.010000000000000000208166817117217 52:1 2036:1 4265:1 6307:1 6353:1 6582:1 6583:1 7874:1 8331:1 8334:1 8338:1 8345:1 8454:1 8568:1 8681:1 8697:1 8704:1 8714:1 8715:1 8744:1  |EV| 
-0.010000000000000000208166817117217 56:1 1908:1 4154:1 6307:1 6443:1 6454:1 6455:1 6456:1 6457:1 6458:1 7874:1 8331:1 8334:1 8338:1 8356:1 8454:1 8568:1 8681:1 8697:1 8704:1 8714:1 8715:1 8744:1  |EV| 
-0.010000000000000000208166817117217 537:1 2481:1 4088:1 7874:1 7931:1 8331:1 8334:1 8338:1 8350:1 8454:1 8568:1 8681:1 8697:1 8705:1 8714:1 8715:1 8717:1 8744:1  |EV| 
0.010000000000000000208166817117217 1500:1 3652:1 5862:1 6346:1 7648:1 7649:1 7874:1 7877:1 8331:1 8334:1 8338:1 8348:1 8454:1 8568:1 8681:1 8697:1 8705:1 8714:1 8715:1 8726:1 8744:1  |EV| 
0.010000000000000000208166817117217 794:1 2795:1 5036:1 6346:1 6500:1 6916:1 6917:1 7874:1 8331:1 8334:1 8338:1 8341:1 8454:1 8568:1 8681:1 8697:1 8704:1 8714:1 8715:1 8726:1 8744:1  |EV| 
0.010000000000000000208166817117217 667:1 2642:1 4888:1 6305:1 6675:1 7055:1 7874:1 8331:1 8334:1 8338:1 8348:1 8454:1 8568:1 8681:1 8697:1 8704:1 8714:1 8715:1 8726:1 8744:1  |EV| 
0.010000000000000000208166817117217 1622:1 3800:1 6006:1 6346:1 6464:1 6772:1 7717:1 7874:1 8331:1 8334:1 8338:1 8341:1 8454:1 8568:1 8681:1 8697:1 8704:1 8714:1 8715:1 8726:1 8744:1  |EV| 
